%YAML:1.0
---
opencv_ml_svm:
   format: 3
   svmType: C_SVC
   kernel:
      type: RBF
      gamma: 5.0625000000000009e-01
   C: 3.1250000000000000e+02
   term_criteria: { iterations:100 }
   var_count: 170
   class_count: 2
   class_labels: !!opencv-matrix
      rows: 2
      cols: 1
      dt: i
      data: [ 0, 1 ]
   sv_total: 79
   support_vectors:
      - [ 1.58856239e-03, 5.55996830e-03, 7.94281159e-03, 1.58856239e-03,
          7.94281159e-03, 2.38284352e-03, 2.38284352e-03, 2.54169982e-02,
          2.38284352e-03, 1.11199366e-02, 7.14853080e-03, 7.94281194e-04,
          1.35027803e-02, 6.35424955e-03, 0., 1.50913429e-02,
          9.53137409e-03, 1.03256553e-02, 1.35027803e-02, 1.19142178e-02,
          3.97140579e-03, 4.76568704e-03, 3.17712477e-03, 5.55996830e-03,
          1.11199366e-02, 2.06513107e-02, 4.76568704e-03, 2.38284352e-03,
          6.35424955e-03, 2.38284352e-03, 3.97140579e-03, 3.17712477e-03,
          2.38284352e-03, 2.38284352e-03, 0., 1.42970616e-02,
          7.94281194e-04, 2.38284352e-03, 1.19142178e-02, 3.17712477e-03,
          1.35027803e-02, 7.94281194e-04, 7.94281159e-03, 1.74741857e-02,
          2.38284352e-03, 1.11199366e-02, 3.97140579e-03, 1.58856239e-03,
          4.76568704e-03, 7.94281194e-04, 3.97140579e-03, 6.35424955e-03,
          1.58856239e-03, 1.58856239e-03, 7.14853080e-03, 7.94281194e-04,
          8.73709284e-03, 1.58856239e-03, 5.55996830e-03, 6.35424955e-03,
          5.55996830e-03, 7.94281194e-04, 7.94281159e-03, 5.55996830e-03,
          7.94281194e-04, 3.97140579e-03, 9.53137409e-03, 1.11199366e-02,
          7.94281194e-04, 3.97140579e-03, 4.76568704e-03, 1.27084991e-02,
          2.30341554e-02, 6.35424955e-03, 7.94281159e-03, 5.55996830e-03,
          4.76568704e-03, 9.53137409e-03, 1.19142178e-02, 3.17712477e-03,
          2.38284352e-03, 0., 5.55996830e-03, 5.55996830e-03,
          7.94281159e-03, 2.38284352e-03, 1.03256553e-02, 5.55996830e-03,
          1.58856239e-03, 4.76568704e-03, 4.76568704e-03, 2.38284352e-03,
          4.76568704e-03, 3.17712477e-03, 1.11199366e-02, 3.17712477e-03,
          6.35424955e-03, 7.94281194e-04, 5.55996830e-03, 1.50913429e-02,
          1.58856239e-03, 1.58856239e-03, 6.35424955e-03, 2.38284352e-03,
          7.14853080e-03, 7.94281194e-04, 7.14853080e-03, 7.14853080e-03,
          2.38284352e-03, 1.11199366e-02, 7.14853080e-03, 1.42970616e-02,
          5.55996830e-03, 4.76568704e-03, 1.03256553e-02, 3.17712477e-03,
          2.38284352e-03, 1.19142178e-02, 3.97140579e-03, 0.,
          1.03256553e-02, 1.11199366e-02, 7.14853080e-03, 0.,
          2.38284352e-03, 0., 1.11199366e-02, 7.14853080e-03,
          1.27084991e-02, 1.11199366e-02, 3.97140579e-03, 3.97140579e-03,
          7.14853080e-03, 1.03256553e-02, 6.35424955e-03, 3.97140579e-03,
          4.76568704e-03, 7.94281159e-03, 2.38284352e-03, 4.76568704e-03,
          1.58856232e-02, 2.38284352e-03, 3.17712477e-03, 3.97140579e-03,
          9.53137409e-03, 0., 2.38284352e-03, 2.38284352e-03,
          2.38284352e-03, 1.58856239e-03, 0., 4.76568704e-03,
          3.17712477e-03, 3.97140579e-03, 7.14853080e-03, 2.38284352e-03,
          7.94281159e-03, 3.17712477e-03, 7.94281194e-04, 7.14853080e-03,
          7.94281194e-04, 3.17712477e-03, 9.53137409e-03, 1.19142178e-02,
          7.94281194e-04, 7.94281194e-04, 1.27084991e-02, 7.94281159e-03,
          5.55996830e-03, 5.55996830e-03 ]
      - [ 2.71862256e-03, 1.26869055e-02, 6.34345273e-03, 3.62483016e-03,
          4.07793373e-03, 7.24966032e-03, 1.35931130e-02, 1.35931128e-03,
          2.80924346e-02, 5.43724513e-03, 4.07793373e-03, 3.62483016e-03,
          4.53103770e-04, 4.07793373e-03, 9.06207541e-04, 4.53103770e-04,
          4.07793373e-03, 2.26551876e-03, 2.26551876e-03, 1.04213869e-02,
          7.24966032e-03, 4.07793373e-03, 6.34345273e-03, 2.71862256e-03,
          3.62483016e-03, 1.54055282e-02, 1.35931128e-03, 5.89034893e-03,
          6.34345273e-03, 1.81241508e-03, 9.96828265e-03, 8.15586746e-03,
          4.53103753e-03, 3.62483016e-03, 8.60897172e-03, 9.06207506e-03,
          0., 2.08427738e-02, 1.35931128e-03, 2.26551876e-03,
          6.34345273e-03, 1.81241508e-03, 6.34345273e-03, 0.,
          4.98414133e-03, 3.17172636e-03, 1.08744903e-02, 6.34345273e-03,
          2.40144990e-02, 3.62483016e-03, 3.62483016e-03, 2.08427738e-02,
          3.17172636e-03, 2.71862256e-03, 2.49207076e-02, 3.62483016e-03,
          4.07793373e-03, 9.06207506e-03, 4.53103753e-03, 2.71862256e-03,
          1.22338021e-02, 3.17172636e-03, 9.06207541e-04, 3.17172636e-03,
          9.06207541e-04, 8.15586746e-03, 3.17172636e-03, 2.26551876e-03,
          5.89034893e-03, 8.15586746e-03, 7.24966032e-03, 3.17172636e-03,
          5.43724513e-03, 6.34345273e-03, 2.71862256e-03, 2.71862256e-03,
          1.81241508e-03, 1.90303586e-02, 1.81241508e-03, 2.71862256e-03,
          2.71862256e-03, 6.34345273e-03, 6.34345273e-03, 2.71862256e-03,
          1.81241508e-03, 5.43724513e-03, 4.98414133e-03, 2.71862256e-03,
          6.79655652e-03, 1.35931128e-03, 4.53103753e-03, 8.15586746e-03,
          3.17172636e-03, 2.26551876e-03, 6.79655652e-03, 4.53103770e-04,
          3.17172636e-03, 3.17172636e-03, 1.40462173e-02, 2.26551876e-03,
          1.81241508e-03, 2.71862256e-03, 9.96828265e-03, 2.71862256e-03,
          1.04213869e-02, 6.79655652e-03, 2.71862256e-03, 2.71862256e-03,
          6.34345273e-03, 1.81241508e-03, 3.62483016e-03, 4.53103753e-03,
          1.94834620e-02, 5.89034893e-03, 1.35931128e-03, 7.24966032e-03,
          4.53103753e-03, 3.17172636e-03, 4.07793373e-03, 3.17172636e-03,
          1.04213869e-02, 1.04213869e-02, 1.81241508e-03, 1.35931128e-03,
          2.89986413e-02, 2.26551876e-03, 1.35931128e-03, 1.35931128e-03,
          4.98414133e-03, 4.98414133e-03, 9.96828265e-03, 4.98414133e-03,
          6.79655652e-03, 1.54055282e-02, 1.35931128e-03, 8.15586746e-03,
          3.62483016e-03, 9.06207506e-03, 4.53103753e-03, 1.26869055e-02,
          9.06207541e-04, 5.89034893e-03, 3.17172636e-03, 6.79655652e-03,
          3.62483016e-03, 1.72179434e-02, 4.53103753e-03, 7.24966032e-03,
          3.17172636e-03, 1.63117349e-02, 4.07793373e-03, 2.71862256e-03,
          6.34345273e-03, 4.53103753e-03, 3.17172636e-03, 8.15586746e-03,
          3.62483016e-03, 9.06207506e-03, 1.35931128e-03, 4.98414133e-03,
          7.24966032e-03, 2.71862256e-03, 4.07793373e-03, 2.71862256e-03,
          1.22338021e-02, 4.53103753e-03, 9.06207541e-04, 4.98414133e-03,
          5.89034893e-03, 9.96828265e-03 ]
      - [ 4.84496122e-04, 8.23643431e-03, 6.78294571e-03, 4.84496122e-04,
          4.36046533e-03, 3.87596898e-03, 2.90697673e-03, 4.36046533e-03,
          6.78294571e-03, 9.20542609e-03, 8.72093067e-03, 6.78294571e-03,
          1.40503878e-02, 2.42248061e-03, 3.19767445e-02, 1.06589142e-02,
          2.90697673e-03, 1.93798449e-03, 1.30813951e-02, 1.06589142e-02,
          8.23643431e-03, 3.87596898e-03, 3.39147286e-03, 4.36046533e-03,
          7.26744160e-03, 1.06589142e-02, 1.93798449e-03, 2.42248061e-03,
          9.68992244e-03, 3.39147286e-03, 5.32945711e-03, 8.72093067e-03,
          1.59883723e-02, 2.90697673e-03, 5.32945711e-03, 8.72093067e-03,
          4.36046533e-03, 3.87596898e-03, 8.23643431e-03, 1.93798449e-03,
          4.84496122e-03, 9.68992244e-04, 4.36046533e-03, 1.64728686e-02,
          3.39147286e-03, 6.78294571e-03, 1.45348837e-03, 1.93798449e-03,
          4.84496122e-03, 4.84496122e-04, 8.23643431e-03, 5.32945711e-03,
          4.36046533e-03, 9.68992244e-04, 7.75193796e-03, 2.90697673e-03,
          8.23643431e-03, 2.90697673e-03, 2.42248061e-03, 8.72093067e-03,
          8.23643431e-03, 2.42248061e-03, 4.36046533e-03, 1.45348837e-03,
          1.93798449e-03, 3.87596898e-03, 6.29844982e-03, 1.45348837e-03,
          9.68992244e-04, 6.78294571e-03, 2.90697673e-03, 4.36046533e-03,
          7.75193796e-03, 4.36046533e-03, 7.26744160e-03, 5.81395347e-03,
          6.29844982e-03, 4.84496122e-03, 7.26744160e-03, 4.84496122e-03,
          2.42248061e-03, 0., 1.84108522e-02, 7.75193796e-03,
          2.42248061e-03, 1.93798449e-03, 5.32945711e-03, 2.42248061e-03,
          4.84496122e-03, 3.87596898e-03, 5.81395347e-03, 8.23643431e-03,
          4.84496122e-03, 3.39147286e-03, 5.81395347e-03, 1.45348837e-03,
          9.68992244e-03, 1.21124033e-02, 5.32945711e-03, 3.39147286e-03,
          1.93798449e-03, 5.81395347e-03, 5.32945711e-03, 1.45348837e-03,
          6.78294571e-03, 3.39147286e-03, 7.75193796e-03, 1.45348832e-02,
          4.84496122e-03, 1.64728686e-02, 5.81395347e-03, 2.90697673e-03,
          4.84496122e-03, 9.68992244e-04, 1.06589142e-02, 6.29844982e-03,
          4.84496122e-03, 7.75193796e-03, 1.21124033e-02, 4.84496122e-04,
          3.39147286e-03, 1.30813951e-02, 9.68992244e-03, 9.68992244e-04,
          3.87596898e-03, 1.45348837e-03, 4.36046533e-03, 7.26744160e-03,
          4.84496122e-03, 1.35658914e-02, 4.36046533e-03, 4.36046533e-03,
          3.39147286e-03, 4.84496122e-03, 2.22868212e-02, 1.01744188e-02,
          6.78294571e-03, 9.68992244e-03, 3.87596898e-03, 7.75193796e-03,
          5.32945711e-03, 4.84496122e-03, 1.45348832e-02, 2.90697673e-03,
          6.29844982e-03, 2.42248061e-03, 1.45348837e-03, 2.42248061e-03,
          2.90697673e-03, 8.23643431e-03, 1.45348837e-03, 8.23643431e-03,
          2.42248061e-03, 8.23643431e-03, 4.36046533e-03, 2.42248061e-03,
          7.26744160e-03, 9.68992244e-04, 1.45348832e-02, 8.72093067e-03,
          2.90697673e-03, 3.39147286e-03, 5.81395347e-03, 3.39147286e-03,
          4.84496122e-03, 3.39147286e-03, 1.35658914e-02, 8.23643431e-03,
          5.32945711e-03, 2.42248061e-03 ]
      - [ 1.19465915e-02, 0., 1.47575540e-02, 1.05411103e-02,
          2.81096273e-03, 3.51370336e-03, 0., 1.26493322e-02,
          7.02740683e-04, 6.32466609e-03, 8.43288843e-03, 2.81096273e-03,
          2.81096273e-03, 4.91918484e-03, 0., 4.91918484e-03,
          6.32466609e-03, 4.28671800e-02, 2.81096273e-03, 7.02740683e-04,
          1.40548137e-03, 6.32466609e-03, 8.43288843e-03, 1.68657769e-02,
          5.62192546e-03, 7.02740683e-04, 1.33520728e-02, 5.62192546e-03,
          6.32466609e-03, 9.13562905e-03, 4.21644421e-03, 4.21644421e-03,
          2.10822211e-03, 4.21644421e-03, 2.10822211e-03, 2.81096273e-03,
          1.40548137e-03, 2.10822211e-03, 7.02740671e-03, 5.62192546e-03,
          4.91918484e-03, 1.26493322e-02, 1.19465915e-02, 2.10822211e-03,
          1.40548137e-03, 8.43288843e-03, 2.10822211e-03, 6.32466609e-03,
          7.02740683e-04, 2.10822211e-03, 9.13562905e-03, 7.02740683e-04,
          4.91918484e-03, 7.02740671e-03, 7.02740683e-04, 2.10822211e-03,
          0., 7.02740671e-03, 9.13562905e-03, 6.32466609e-03, 0.,
          4.91918484e-03, 1.05411103e-02, 1.47575540e-02, 6.32466609e-03,
          0., 9.13562905e-03, 3.51370336e-03, 5.62192546e-03,
          4.91918484e-03, 9.13562905e-03, 7.73014734e-03, 2.81096273e-03,
          2.10822211e-03, 1.40548134e-02, 1.26493322e-02, 7.02740671e-03,
          2.10822211e-03, 6.32466609e-03, 9.13562905e-03, 3.51370336e-03,
          2.81096273e-03, 4.21644421e-03, 9.13562905e-03, 6.32466609e-03,
          1.40548137e-03, 7.02740671e-03, 1.54602947e-02, 2.81096273e-03,
          1.26493322e-02, 1.12438509e-02, 2.81096273e-03, 4.21644421e-03,
          3.51370350e-02, 4.21644421e-03, 1.05411103e-02, 1.05411103e-02,
          1.40548137e-03, 0., 1.75685175e-02, 2.81096273e-03,
          7.02740671e-03, 7.73014734e-03, 6.32466609e-03, 2.81096273e-03,
          3.51370336e-03, 1.05411103e-02, 4.21644421e-03, 2.81096273e-03,
          3.51370336e-03, 2.81096273e-03, 2.10822211e-03, 1.40548137e-03,
          7.02740671e-03, 7.73014734e-03, 7.02740671e-03, 4.21644421e-03,
          2.81096273e-03, 3.51370336e-03, 7.02740683e-04, 2.81096273e-03,
          0., 2.81096273e-03, 4.21644421e-03, 2.10822211e-03, 0.,
          8.43288843e-03, 3.51370336e-03, 1.47575540e-02, 7.02740683e-04,
          4.91918484e-03, 7.73014734e-03, 1.12438509e-02, 7.02740683e-04,
          0., 7.02740671e-03, 5.62192546e-03, 7.73014734e-03,
          7.02740671e-03, 4.91918484e-03, 2.81096273e-03, 3.51370336e-03,
          1.40548137e-03, 5.62192546e-03, 6.32466609e-03, 0.,
          5.62192546e-03, 2.10822211e-03, 4.21644421e-03, 7.02740683e-04,
          7.02740683e-04, 1.05411103e-02, 8.43288843e-03, 4.91918484e-03,
          8.43288843e-03, 7.02740671e-03, 4.21644421e-03, 7.73014734e-03,
          0., 4.21644421e-03, 9.83836967e-03, 6.32466609e-03,
          2.31904425e-02, 1.89739987e-02, 7.02740683e-04, 0.,
          2.10822211e-03, 7.02740683e-04, 9.13562905e-03, 8.43288843e-03 ]
      - [ 1.24282986e-02, 3.82409175e-03, 1.05162524e-02, 7.64818350e-03,
          7.64818350e-03, 5.73613774e-03, 0., 3.82409175e-03,
          9.56022937e-04, 1.91204587e-03, 6.69216039e-03, 1.91204587e-03,
          2.86806887e-03, 1.05162524e-02, 9.56022937e-04, 1.91204587e-03,
          1.91204587e-03, 2.39005741e-02, 4.78011463e-03, 1.91204587e-03,
          2.86806887e-03, 2.86806887e-03, 4.78011463e-03, 2.19885278e-02,
          1.91204587e-03, 9.56022937e-04, 2.10325047e-02, 5.73613774e-03,
          0., 9.56022937e-04, 7.64818350e-03, 2.86806887e-03,
          4.78011463e-03, 5.73613774e-03, 4.78011463e-03, 2.86806887e-03,
          4.78011463e-03, 9.56022937e-04, 1.91204587e-03, 2.19885278e-02,
          8.60420614e-03, 6.69216039e-03, 2.86806887e-03, 0.,
          3.82409175e-03, 2.86806887e-03, 5.73613774e-03, 2.86806887e-03,
          1.91204587e-03, 8.60420614e-03, 1.91204587e-03, 1.91204587e-03,
          1.33843208e-02, 6.69216039e-03, 2.86806887e-03, 7.64818350e-03,
          2.86806887e-03, 7.64818350e-03, 7.64818350e-03, 4.78011463e-03,
          9.56022937e-04, 2.48565972e-02, 1.72084123e-02, 4.78011463e-03,
          1.14722755e-02, 1.91204587e-03, 5.73613774e-03, 1.33843208e-02,
          7.64818350e-03, 2.86806887e-03, 9.56022926e-03, 4.78011463e-03,
          6.69216039e-03, 3.82409175e-03, 6.69216039e-03, 3.82409175e-03,
          4.78011463e-03, 1.91204587e-03, 3.82409175e-03, 1.14722755e-02,
          7.64818350e-03, 3.05927340e-02, 4.78011463e-03, 2.86806887e-03,
          1.72084123e-02, 1.05162524e-02, 6.69216039e-03, 3.82409175e-03,
          2.86806887e-03, 8.60420614e-03, 9.56022926e-03, 9.56022937e-04,
          2.86806887e-03, 1.91204585e-02, 4.78011463e-03, 1.24282986e-02,
          2.86806887e-03, 3.82409175e-03, 3.82409175e-03, 9.56022926e-03,
          1.05162524e-02, 2.86806887e-03, 5.73613774e-03, 1.24282986e-02,
          2.86806887e-03, 4.78011463e-03, 2.86806887e-03, 9.56022937e-04,
          9.56022937e-04, 3.82409175e-03, 1.91204587e-03, 6.69216039e-03,
          2.86806887e-03, 6.69216039e-03, 4.78011463e-03, 1.91204587e-03,
          2.86806887e-03, 0., 5.73613774e-03, 1.62523892e-02,
          4.78011463e-03, 9.56022937e-04, 9.56022937e-04, 2.00764816e-02,
          3.82409175e-03, 2.86806887e-03, 7.64818350e-03, 1.91204587e-03,
          1.24282986e-02, 0., 7.64818350e-03, 5.73613774e-03,
          5.73613774e-03, 1.91204587e-03, 0., 1.91204587e-03,
          4.78011463e-03, 5.73613774e-03, 6.69216039e-03, 1.91204587e-03,
          9.56022937e-04, 7.64818350e-03, 0., 2.86806887e-03,
          5.73613774e-03, 9.56022937e-04, 9.56022926e-03, 3.82409175e-03,
          2.86806887e-03, 2.86806887e-03, 4.78011463e-03, 9.56022926e-03,
          6.69216039e-03, 1.14722755e-02, 8.60420614e-03, 2.86806887e-03,
          3.82409175e-03, 1.91204587e-03, 0., 3.82409175e-03,
          1.24282986e-02, 1.33843208e-02, 9.56022926e-03, 1.24282986e-02,
          2.86806887e-03, 3.82409175e-03, 9.56022937e-04, 9.56022937e-04,
          4.78011463e-03, 4.78011463e-03 ]
      - [ 1.06221549e-02, 3.62611585e-03, 4.19762312e-03, 9.97181889e-03,
          2.97577982e-03, 7.44930329e-03, 3.64582310e-03, 1.75393652e-03,
          4.78883786e-03, 4.21733037e-03, 5.26180957e-03, 1.00112325e-02,
          2.54222262e-03, 5.14356652e-03, 5.08444523e-03, 1.87217933e-03,
          7.88286049e-03, 1.71452214e-03, 1.63569360e-03, 2.04954366e-03,
          3.25167994e-03, 2.10866518e-03, 4.47352324e-03, 4.67059482e-03,
          5.77419531e-03, 2.22690799e-03, 1.00112325e-02, 8.19817465e-03,
          3.44875152e-03, 7.98139628e-03, 3.66553012e-03, 1.00112325e-02,
          9.93240438e-03, 6.03038818e-03, 8.73026811e-03, 2.04954366e-03,
          6.85808854e-03, 4.27645165e-03, 1.37950061e-03, 1.16666332e-02,
          3.25167994e-03, 1.13710267e-02, 7.98139628e-03, 2.18749372e-03,
          7.92227499e-03, 4.29615891e-03, 4.82825190e-03, 3.66553012e-03,
          2.18749372e-03, 1.00112325e-02, 5.36034536e-03, 2.26632250e-03,
          1.03265475e-02, 4.41440195e-03, 5.12385927e-03, 4.69030207e-03,
          2.38456530e-03, 1.63963493e-02, 8.65143910e-03, 2.56192964e-03,
          2.12837243e-03, 1.29673053e-02, 3.21226567e-03, 4.23703762e-03,
          7.40988879e-03, 3.11372988e-03, 3.96113750e-03, 4.61147353e-03,
          1.19819483e-02, 3.21226567e-03, 7.58725312e-03, 2.91665830e-03,
          3.80348018e-03, 6.56248117e-03, 6.66101696e-03, 3.72465164e-03,
          4.88737365e-03, 2.58163689e-03, 1.85247220e-03, 1.30264265e-02,
          1.12724910e-02, 2.55798828e-02, 4.21733037e-03, 6.12892397e-03,
          4.23703762e-03, 1.11739552e-02, 4.55235178e-03, 7.40988879e-03,
          2.91665830e-03, 6.64131017e-03, 6.89750304e-03, 1.01491828e-02,
          3.74435866e-03, 5.81360981e-03, 2.48310110e-03, 6.73984597e-03,
          4.11879458e-03, 1.27899414e-02, 2.48310110e-03, 1.93130085e-03,
          1.15680974e-02, 4.09908732e-03, 3.42904427e-03, 8.47407524e-03,
          4.05967329e-03, 1.04447901e-02, 3.07431561e-03, 3.74435866e-03,
          6.03038818e-03, 4.80854511e-03, 9.00616776e-03, 2.48310110e-03,
          3.21226567e-03, 6.38511684e-03, 4.86766640e-03, 4.63118078e-03,
          1.22184334e-02, 1.75393652e-03, 8.39524623e-03, 1.77167282e-02,
          3.36992298e-03, 1.35979347e-03, 5.28151635e-03, 1.88006219e-02,
          3.78377317e-03, 9.18353256e-03, 2.34515104e-03, 2.91665830e-03,
          6.77926000e-03, 2.69987970e-03, 3.82318744e-03, 8.92733969e-03,
          3.82318744e-03, 2.81812274e-03, 1.61598646e-03, 3.52758006e-03,
          4.76913061e-03, 1.00112325e-02, 3.50787304e-03, 3.86260170e-03,
          7.88286037e-04, 1.07798120e-02, 6.48365263e-03, 4.86766640e-03,
          4.63118078e-03, 5.18298056e-03, 8.00110307e-03, 7.50842458e-03,
          3.88230872e-03, 6.28658105e-03, 9.26236156e-03, 5.59683098e-03,
          1.00506470e-02, 1.21001909e-02, 3.56699433e-03, 8.98646098e-03,
          5.14356652e-03, 3.01519409e-03, 4.59176628e-03, 2.89695128e-03,
          1.73422936e-02, 6.56248117e-03, 3.66553012e-03, 2.36485805e-03,
          7.42959604e-03, 7.78432470e-03, 2.40427256e-03, 2.10866518e-03,
          4.63118078e-03, 3.68523737e-03 ]
      - [ 1.00607835e-02, 2.72479560e-03, 5.30985789e-03, 7.68532092e-03,
          6.70718914e-03, 5.65919094e-03, 2.51519587e-03, 3.35359457e-03,
          3.98239354e-03, 5.30985789e-03, 6.21812325e-03, 7.19625503e-03,
          5.03039174e-03, 7.96478707e-03, 5.03039174e-03, 4.61119274e-03,
          6.35785656e-03, 5.51945763e-03, 4.61119274e-03, 2.51519587e-03,
          3.77279380e-03, 4.75092558e-03, 6.77705556e-03, 1.03402501e-02,
          4.68105916e-03, 2.37546279e-03, 1.06895827e-02, 9.50185116e-03,
          5.79892378e-03, 5.72905736e-03, 3.84266046e-03, 5.79892378e-03,
          3.42346122e-03, 6.70718914e-03, 7.82505423e-03, 4.33172612e-03,
          5.17012505e-03, 6.21812325e-03, 4.05225996e-03, 1.04799829e-02,
          4.54132585e-03, 7.33598834e-03, 8.45385343e-03, 4.33172612e-03,
          8.45385343e-03, 5.72905736e-03, 6.21812325e-03, 7.68532092e-03,
          2.30559637e-03, 8.52371939e-03, 5.23999147e-03, 1.74666382e-03,
          9.92105063e-03, 5.03039174e-03, 4.61119274e-03, 6.28798967e-03,
          3.28372791e-03, 8.10451992e-03, 8.03465396e-03, 4.54132585e-03,
          1.74666382e-03, 1.10389153e-02, 6.07838994e-03, 8.10451992e-03,
          6.35785656e-03, 4.26185969e-03, 5.03039174e-03, 7.12638861e-03,
          7.89492019e-03, 5.51945763e-03, 9.99091752e-03, 4.89065889e-03,
          4.54132585e-03, 8.94291885e-03, 4.89065889e-03, 3.00426176e-03,
          6.07838994e-03, 4.05225996e-03, 3.35359457e-03, 1.18074473e-02,
          9.08265170e-03, 6.70718914e-03, 3.56319430e-03, 5.17012505e-03,
          7.26612145e-03, 7.05652172e-03, 5.10025863e-03, 9.01278574e-03,
          2.51519587e-03, 6.56745583e-03, 9.36211832e-03, 5.58932405e-03,
          2.93439534e-03, 1.10389153e-02, 4.96052532e-03, 8.17438681e-03,
          5.72905736e-03, 5.03039174e-03, 1.88639690e-03, 4.05225996e-03,
          7.75518734e-03, 5.37972478e-03, 4.96052532e-03, 1.17375813e-02,
          3.91252711e-03, 6.91678887e-03, 5.23999147e-03, 4.40159300e-03,
          6.84692245e-03, 2.86452868e-03, 5.30985789e-03, 5.23999147e-03,
          4.19199327e-03, 9.22238547e-03, 4.68105916e-03, 8.03465396e-03,
          4.89065889e-03, 2.09599664e-03, 6.56745583e-03, 6.00852352e-03,
          4.61119274e-03, 1.88639690e-03, 3.28372791e-03, 1.20869139e-02,
          3.63306073e-03, 5.23999147e-03, 4.33172612e-03, 4.33172612e-03,
          8.24425370e-03, 4.40159300e-03, 5.23999147e-03, 8.10451992e-03,
          8.38398654e-03, 3.21386149e-03, 3.56319430e-03, 4.61119274e-03,
          4.40159300e-03, 8.03465396e-03, 4.54132585e-03, 4.19199327e-03,
          3.21386149e-03, 9.08265170e-03, 4.19199327e-03, 4.96052532e-03,
          4.33172612e-03, 3.42346122e-03, 9.99091752e-03, 5.86879067e-03,
          4.12212685e-03, 4.33172612e-03, 4.40159300e-03, 7.33598834e-03,
          1.07594496e-02, 9.57171805e-03, 6.21812325e-03, 8.17438681e-03,
          4.40159300e-03, 6.84692245e-03, 3.91252711e-03, 3.91252711e-03,
          8.38398654e-03, 8.87305196e-03, 8.24425370e-03, 5.51945763e-03,
          6.14825683e-03, 5.23999147e-03, 6.28798967e-03, 1.81653036e-03,
          6.35785656e-03, 4.96052532e-03 ]
      - [ 7.87627138e-03, 6.58742711e-03, 4.65416024e-03, 6.44422183e-03,
          8.59229639e-03, 8.30588583e-03, 8.52069352e-03, 4.29614820e-03,
          6.01460692e-03, 4.15294291e-03, 7.80466897e-03, 9.37992334e-03,
          1.43204932e-03, 6.37261942e-03, 1.93326664e-03, 1.21724186e-03,
          7.23184925e-03, 2.64929119e-03, 2.14807410e-03, 2.64929119e-03,
          3.79493064e-03, 3.86653328e-03, 7.66146369e-03, 7.08864396e-03,
          6.94543915e-03, 5.44178765e-03, 7.23184925e-03, 9.66633298e-03,
          4.43935301e-03, 7.01704156e-03, 6.08620979e-03, 8.73550121e-03,
          1.86166412e-03, 7.37505406e-03, 9.45152529e-03, 3.36531596e-03,
          6.58742711e-03, 7.80466897e-03, 7.87627127e-04, 7.01704156e-03,
          5.22697996e-03, 6.73063193e-03, 1.15995994e-02, 1.50365173e-03,
          6.80223433e-03, 3.65172583e-03, 7.23184925e-03, 4.15294291e-03,
          4.29614820e-03, 7.16024637e-03, 4.43935301e-03, 4.51095542e-03,
          8.95030797e-03, 4.58255783e-03, 5.94300451e-03, 8.23428389e-03,
          3.86653328e-03, 8.73550121e-03, 6.94543915e-03, 2.64929119e-03,
          2.36288132e-03, 9.16511565e-03, 5.29858237e-03, 6.22941460e-03,
          7.16024637e-03, 7.23184925e-03, 3.50852078e-03, 8.37748870e-03,
          7.08864396e-03, 4.58255783e-03, 7.87627138e-03, 6.80223433e-03,
          5.94300451e-03, 6.65902952e-03, 6.51582424e-03, 2.43448373e-03,
          5.79979969e-03, 4.86896746e-03, 3.93813569e-03, 7.73306657e-03,
          7.94787332e-03, 8.52069352e-03, 1.21724186e-03, 5.58499247e-03,
          6.51582424e-03, 6.80223433e-03, 5.29858237e-03, 6.65902952e-03,
          2.86409864e-03, 5.79979969e-03, 7.58986128e-03, 9.02191084e-03,
          3.07890610e-03, 5.51339006e-03, 4.36775060e-03, 6.08620979e-03,
          3.36531596e-03, 8.37748870e-03, 6.22941460e-03, 5.51339006e-03,
          6.51582424e-03, 4.15294291e-03, 5.15537756e-03, 7.87627138e-03,
          6.08620979e-03, 1.05255628e-02, 6.37261942e-03, 5.58499247e-03,
          5.58499247e-03, 4.43935301e-03, 5.37018478e-03, 6.30101701e-03,
          6.58742711e-03, 8.59229639e-03, 5.08377515e-03, 7.66146369e-03,
          9.45152529e-03, 2.29127891e-03, 7.73306657e-03, 7.23184925e-03,
          6.01460692e-03, 2.00486905e-03, 5.58499247e-03, 8.66389833e-03,
          5.51339006e-03, 7.87627138e-03, 5.08377515e-03, 2.43448373e-03,
          7.66146369e-03, 7.30345165e-03, 4.86896746e-03, 7.73306657e-03,
          5.15537756e-03, 5.79979969e-03, 5.72819728e-04, 5.79979969e-03,
          3.50852078e-03, 9.45152529e-03, 3.72332823e-03, 4.36775060e-03,
          2.07647146e-03, 1.00243455e-02, 7.23184925e-03, 3.93813569e-03,
          4.22454532e-03, 7.51825888e-03, 6.30101701e-03, 7.51825888e-03,
          4.86896746e-03, 5.94300451e-03, 6.37261942e-03, 5.15537756e-03,
          1.01675503e-02, 9.37992334e-03, 6.80223433e-03, 9.45152529e-03,
          2.86409864e-03, 5.87140210e-03, 2.36288132e-03, 3.15050851e-03,
          9.16511565e-03, 7.66146369e-03, 5.01217274e-03, 5.01217274e-03,
          8.66389833e-03, 7.51825888e-03, 1.36044691e-03, 2.29127891e-03,
          4.72576264e-03, 6.01460692e-03 ]
      - [ 3.96573590e-03, 8.09010118e-03, 7.13832490e-03, 3.17258877e-03,
          5.47271548e-03, 6.82106568e-03, 5.86928939e-03, 3.80710652e-03,
          6.58312161e-03, 5.55203017e-03, 7.69352773e-03, 6.82106568e-03,
          2.30012694e-03, 4.75888327e-03, 3.72779183e-03, 4.60025389e-03,
          6.90038037e-03, 6.82106568e-03, 3.72779183e-03, 8.09010118e-03,
          3.41053284e-03, 3.72779183e-03, 5.78997470e-03, 3.80710652e-03,
          7.29695428e-03, 5.47271548e-03, 3.64847714e-03, 6.66243630e-03,
          6.18654815e-03, 4.04505059e-03, 8.24873056e-03, 9.35913716e-03,
          1.82423857e-03, 4.36230935e-03, 9.27982200e-03, 6.42449223e-03,
          5.94860408e-03, 4.91751265e-03, 3.09327408e-03, 5.63134486e-03,
          6.66243630e-03, 5.47271548e-03, 7.69352773e-03, 2.37944163e-03,
          7.05901021e-03, 4.52093920e-03, 7.53489835e-03, 4.52093920e-03,
          6.74175099e-03, 5.23477141e-03, 5.31408610e-03, 7.53489835e-03,
          4.83819796e-03, 5.07614203e-03, 8.80393386e-03, 6.02791877e-03,
          4.36230935e-03, 8.32804572e-03, 4.83819796e-03, 3.48984776e-03,
          9.12119262e-03, 5.86928939e-03, 3.88642121e-03, 4.99682734e-03,
          4.28299466e-03, 7.05901021e-03, 5.71065955e-03, 5.94860408e-03,
          5.78997470e-03, 5.47271548e-03, 5.31408610e-03, 6.18654815e-03,
          8.32804572e-03, 6.26586284e-03, 8.80393386e-03, 4.28299466e-03,
          4.36230935e-03, 1.07074874e-02, 2.77601508e-03, 6.66243630e-03,
          4.83819796e-03, 1.35628171e-02, 2.06218264e-03, 5.07614203e-03,
          4.91751265e-03, 4.04505059e-03, 5.31408610e-03, 4.83819796e-03,
          4.60025389e-03, 4.91751265e-03, 4.44162451e-03, 8.40735994e-03,
          4.83819796e-03, 4.52093920e-03, 7.05901021e-03, 4.28299466e-03,
          5.55203017e-03, 7.85215758e-03, 6.42449223e-03, 5.47271548e-03,
          3.41053284e-03, 6.10723346e-03, 6.50380692e-03, 6.02791877e-03,
          7.21763959e-03, 6.74175099e-03, 5.63134486e-03, 7.21763959e-03,
          5.63134486e-03, 7.05901021e-03, 6.42449223e-03, 6.42449223e-03,
          9.12119262e-03, 4.83819796e-03, 8.01078696e-03, 5.31408610e-03,
          7.45558366e-03, 4.12436528e-03, 8.09010118e-03, 9.27982200e-03,
          7.85215758e-03, 3.96573590e-03, 6.58312161e-03, 6.10723346e-03,
          1.03109134e-02, 8.32804572e-03, 4.28299466e-03, 4.12436528e-03,
          7.53489835e-03, 3.80710652e-03, 3.88642121e-03, 5.94860408e-03,
          5.31408610e-03, 7.37626897e-03, 1.90355326e-03, 7.13832490e-03,
          4.52093920e-03, 8.40735994e-03, 4.44162451e-03, 8.40735994e-03,
          1.11040613e-03, 5.31408610e-03, 6.74175099e-03, 4.20367997e-03,
          4.91751265e-03, 8.72461870e-03, 4.52093920e-03, 3.33121815e-03,
          5.86928939e-03, 1.07868016e-02, 5.31408610e-03, 5.63134486e-03,
          4.83819796e-03, 7.37626897e-03, 4.28299466e-03, 7.29695428e-03,
          5.47271548e-03, 6.18654815e-03, 6.34517753e-03, 3.41053284e-03,
          7.53489835e-03, 6.97969552e-03, 6.42449223e-03, 5.78997470e-03,
          8.88324901e-03, 6.82106568e-03, 5.47271548e-03, 5.86928939e-03,
          4.75888327e-03, 6.58312161e-03 ]
      - [ 5.35616651e-03, 5.82984136e-03, 5.57478564e-03, 4.66387300e-03,
          7.21442839e-03, 4.37238114e-03, 4.22663474e-03, 8.27108696e-03,
          4.08088882e-03, 5.35616651e-03, 5.93915069e-03, 6.26707915e-03,
          3.75296036e-03, 7.10511906e-03, 7.43304752e-03, 4.62743640e-03,
          7.83384964e-03, 1.11495713e-02, 4.15376201e-03, 5.21042058e-03,
          5.75696817e-03, 6.15776982e-03, 6.01202389e-03, 1.00200400e-02,
          8.23465083e-03, 6.33995235e-03, 7.43304752e-03, 5.02823805e-03,
          6.04846049e-03, 3.97157948e-03, 4.91892872e-03, 4.40881727e-03,
          1.00200400e-02, 5.39260311e-03, 5.24685718e-03, 6.48569828e-03,
          4.55456367e-03, 4.26307134e-03, 2.98779365e-03, 5.53834904e-03,
          7.10511906e-03, 6.74075400e-03, 7.76097598e-03, 4.40881727e-03,
          4.11732541e-03, 4.91892872e-03, 5.97558729e-03, 4.51812707e-03,
          6.48569828e-03, 5.17398398e-03, 5.06467465e-03, 5.39260311e-03,
          5.86627796e-03, 5.06467465e-03, 4.29950794e-03, 5.82984136e-03,
          5.35616651e-03, 6.41282555e-03, 5.79340477e-03, 6.48569828e-03,
          6.04846049e-03, 6.08489662e-03, 8.38039722e-03, 7.36017479e-03,
          5.13754738e-03, 4.11732541e-03, 5.46547631e-03, 6.92293653e-03,
          3.93514289e-03, 5.72053157e-03, 7.28730159e-03, 6.48569828e-03,
          6.81362674e-03, 5.50191291e-03, 7.57879345e-03, 5.72053157e-03,
          5.97558729e-03, 5.90271410e-03, 6.74075400e-03, 5.24685718e-03,
          4.91892872e-03, 4.55456367e-03, 1.03479680e-02, 5.64765884e-03,
          8.59901588e-03, 4.19019861e-03, 6.41282555e-03, 6.63144421e-03,
          5.57478564e-03, 5.86627796e-03, 6.81362674e-03, 4.33594454e-03,
          4.99180146e-03, 8.81763455e-03, 6.33995235e-03, 6.52213488e-03,
          5.28329378e-03, 6.33995235e-03, 5.64765884e-03, 8.70832521e-03,
          3.78939672e-03, 4.99180146e-03, 6.08489662e-03, 4.91892872e-03,
          6.12133322e-03, 6.85006334e-03, 5.35616651e-03, 4.95536486e-03,
          5.28329378e-03, 4.88249213e-03, 5.31972991e-03, 7.36017479e-03,
          7.57879345e-03, 6.30351575e-03, 3.71652376e-03, 5.61122224e-03,
          5.90271410e-03, 6.77719060e-03, 5.39260311e-03, 4.26307134e-03,
          6.01202389e-03, 4.73674620e-03, 6.66788081e-03, 4.11732541e-03,
          5.31972991e-03, 4.99180146e-03, 5.50191291e-03, 4.73674620e-03,
          6.77719060e-03, 6.59500808e-03, 6.08489662e-03, 8.56257975e-03,
          7.06868246e-03, 6.26707915e-03, 8.27108696e-03, 5.68409543e-03,
          7.28730159e-03, 6.85006334e-03, 6.12133322e-03, 6.01202389e-03,
          5.82984136e-03, 6.15776982e-03, 7.32373819e-03, 4.95536486e-03,
          4.55456367e-03, 3.97157948e-03, 4.19019861e-03, 4.80961893e-03,
          5.86627796e-03, 4.08088882e-03, 3.27928574e-03, 5.86627796e-03,
          6.88649993e-03, 5.21042058e-03, 8.12534150e-03, 5.13754738e-03,
          5.46547631e-03, 4.15376201e-03, 6.33995235e-03, 6.23064302e-03,
          7.57879345e-03, 6.04846049e-03, 7.36017479e-03, 1.09309526e-02,
          4.26307134e-03, 2.84204772e-03, 2.62342859e-03, 4.91892872e-03,
          6.12133322e-03, 4.77318233e-03 ]
      - [ 3.15126078e-03, 1.57563034e-02, 4.20168089e-03, 2.10084044e-03,
          5.25210099e-03, 9.45378188e-03, 4.20168089e-03, 8.40336177e-03,
          1.36554632e-02, 2.10084044e-03, 2.10084044e-03, 1.05042020e-02,
          3.15126078e-03, 6.30252156e-03, 2.10084044e-03, 3.15126078e-03,
          7.35294167e-03, 1.05042022e-03, 3.15126078e-03, 1.47058833e-02,
          3.15126078e-03, 0., 4.20168089e-03, 1.05042022e-03,
          4.20168089e-03, 8.40336177e-03, 3.15126078e-03, 5.25210099e-03,
          1.05042022e-03, 5.25210099e-03, 7.35294167e-03, 8.40336177e-03,
          1.68067235e-02, 3.15126078e-03, 9.45378188e-03, 8.40336177e-03,
          2.10084044e-03, 8.40336177e-03, 4.20168089e-03, 3.15126078e-03,
          4.20168089e-03, 4.20168089e-03, 1.36554632e-02, 0.,
          6.30252156e-03, 1.05042022e-03, 1.05042020e-02, 2.10084044e-03,
          1.26050431e-02, 2.10084044e-03, 2.10084044e-03, 1.57563034e-02,
          7.35294167e-03, 5.25210099e-03, 7.35294167e-03, 8.40336177e-03,
          1.47058833e-02, 6.30252156e-03, 7.35294167e-03, 0.,
          1.68067235e-02, 6.30252156e-03, 2.10084044e-03, 5.25210099e-03,
          2.10084044e-03, 1.05042020e-02, 1.05042022e-03, 5.25210099e-03,
          1.05042022e-03, 8.40336177e-03, 1.05042022e-03, 9.45378188e-03,
          1.15546221e-02, 9.45378188e-03, 3.15126078e-03, 2.10084044e-03,
          5.25210099e-03, 1.05042020e-02, 4.20168089e-03, 7.35294167e-03,
          3.15126078e-03, 4.20168089e-03, 2.41596643e-02, 2.10084044e-03,
          3.15126078e-03, 7.35294167e-03, 6.30252156e-03, 1.05042022e-03,
          4.20168089e-03, 3.15126078e-03, 3.15126078e-03, 7.35294167e-03,
          8.40336177e-03, 6.30252156e-03, 1.05042022e-03, 6.30252156e-03,
          2.10084044e-03, 3.15126078e-03, 1.47058833e-02, 2.10084044e-03,
          7.35294167e-03, 5.25210099e-03, 5.25210099e-03, 1.05042022e-03,
          9.45378188e-03, 5.25210099e-03, 4.20168089e-03, 4.20168089e-03,
          3.15126078e-03, 2.10084044e-03, 4.20168089e-03, 9.45378188e-03,
          2.31092442e-02, 6.30252156e-03, 1.05042022e-03, 4.20168089e-03,
          2.10084044e-03, 6.30252156e-03, 1.26050431e-02, 0.,
          2.10084044e-03, 5.25210099e-03, 7.35294167e-03, 1.05042022e-03,
          9.45378188e-03, 7.35294167e-03, 5.25210099e-03, 7.35294167e-03,
          5.25210099e-03, 1.05042022e-03, 2.10084044e-03, 1.15546221e-02,
          6.30252156e-03, 1.99579839e-02, 1.05042020e-02, 3.15126078e-03,
          6.30252156e-03, 5.25210099e-03, 7.35294167e-03, 1.26050431e-02,
          1.36554632e-02, 4.20168089e-03, 7.35294167e-03, 1.05042022e-03,
          2.10084044e-03, 1.15546221e-02, 1.05042022e-03, 7.35294167e-03,
          2.10084044e-03, 8.40336177e-03, 7.35294167e-03, 4.20168089e-03,
          7.35294167e-03, 5.25210099e-03, 5.25210099e-03, 4.20168089e-03,
          1.05042022e-03, 4.20168089e-03, 2.10084044e-03, 1.05042022e-03,
          6.30252156e-03, 4.20168089e-03, 6.30252156e-03, 2.10084044e-03,
          6.30252156e-03, 9.45378188e-03, 1.05042022e-03, 2.10084044e-03,
          4.20168089e-03, 7.35294167e-03 ]
      - [ 4.39560460e-03, 5.02354791e-03, 7.84929376e-03, 4.08163248e-03,
          7.22134998e-03, 3.13971750e-03, 4.08163248e-03, 1.38147566e-02,
          5.65149123e-03, 6.59340667e-03, 6.59340667e-03, 1.56985875e-03,
          2.82574561e-03, 4.08163248e-03, 4.08163248e-03, 3.13971750e-03,
          1.06750391e-02, 8.16326495e-03, 8.47723708e-03, 4.70957626e-03,
          8.79120920e-03, 8.47723708e-03, 7.84929376e-03, 8.79120920e-03,
          5.33751957e-03, 8.79120920e-03, 3.76766082e-03, 7.22134998e-03,
          1.00470958e-02, 5.96546335e-03, 4.08163248e-03, 4.39560460e-03,
          1.50706433e-02, 7.53532164e-03, 3.45368916e-03, 5.96546335e-03,
          5.02354791e-03, 7.22134998e-03, 7.84929376e-03, 5.33751957e-03,
          6.27943501e-03, 7.22134998e-03, 1.13029825e-02, 4.08163248e-03,
          3.76766082e-03, 1.00470958e-02, 4.39560460e-03, 6.59340667e-03,
          5.65149123e-03, 2.82574561e-03, 5.33751957e-03, 5.02354791e-03,
          3.76766082e-03, 1.56985875e-03, 4.39560460e-03, 2.82574561e-03,
          9.73312370e-03, 6.27943489e-04, 7.53532164e-03, 8.47723708e-03,
          2.82574561e-03, 4.08163248e-03, 6.90737832e-03, 8.47723708e-03,
          2.82574561e-03, 4.39560460e-03, 5.33751957e-03, 5.02354791e-03,
          3.13971750e-03, 3.76766082e-03, 5.65149123e-03, 6.90737832e-03,
          5.96546335e-03, 5.33751957e-03, 6.27943501e-03, 9.41915251e-03,
          5.02354791e-03, 5.96546335e-03, 1.53846154e-02, 3.45368916e-03,
          3.76766082e-03, 1.88383041e-03, 1.19309267e-02, 7.53532164e-03,
          6.27943501e-03, 4.08163248e-03, 5.96546335e-03, 5.33751957e-03,
          3.45368916e-03, 7.22134998e-03, 7.22134998e-03, 1.88383041e-03,
          5.02354791e-03, 9.73312370e-03, 8.47723708e-03, 3.76766082e-03,
          1.16169546e-02, 1.56985875e-03, 7.84929376e-03, 1.03610680e-02,
          4.39560460e-03, 4.39560460e-03, 8.47723708e-03, 3.76766082e-03,
          3.45368916e-03, 3.76766082e-03, 4.70957626e-03, 4.08163248e-03,
          5.02354791e-03, 4.70957626e-03, 2.82574561e-03, 6.90737832e-03,
          4.39560460e-03, 8.47723708e-03, 5.02354791e-03, 1.19309267e-02,
          2.82574561e-03, 9.10518039e-03, 4.08163248e-03, 3.13971745e-04,
          1.28728412e-02, 5.65149123e-03, 3.13971750e-03, 2.19780230e-03,
          8.16326495e-03, 1.88383041e-03, 8.47723708e-03, 1.00470958e-02,
          6.59340667e-03, 5.96546335e-03, 7.84929376e-03, 9.10518039e-03,
          6.59340667e-03, 7.84929376e-03, 1.28728412e-02, 5.02354791e-03,
          5.33751957e-03, 3.76766082e-03, 5.65149123e-03, 6.59340667e-03,
          1.72684453e-02, 3.45368916e-03, 3.13971750e-03, 4.39560460e-03,
          6.59340667e-03, 5.65149123e-03, 4.08163248e-03, 5.02354791e-03,
          4.08163248e-03, 3.76766082e-03, 1.88383041e-03, 6.59340667e-03,
          5.65149123e-03, 3.76766082e-03, 1.06750391e-02, 4.39560460e-03,
          9.10518039e-03, 9.10518039e-03, 1.88383041e-03, 2.82574561e-03,
          2.51177396e-03, 5.65149123e-03, 4.70957626e-03, 8.47723708e-03,
          2.82574561e-03, 6.27943489e-04, 6.27943489e-04, 1.25588698e-03,
          6.27943501e-03, 5.65149123e-03 ]
      - [ 5.75614860e-03, 8.37257970e-03, 9.41915251e-03, 6.80272095e-03,
          7.32600736e-03, 5.23286220e-03, 5.75614860e-03, 5.75614860e-03,
          4.70957626e-03, 3.66300368e-03, 7.32600736e-03, 6.80272095e-03,
          9.41915251e-03, 5.75614860e-03, 4.70957626e-03, 6.27943501e-03,
          8.89586564e-03, 6.80272095e-03, 1.04657244e-02, 2.61643110e-03,
          6.80272095e-03, 1.04657246e-03, 5.23286220e-03, 8.89586564e-03,
          9.94243845e-03, 1.25588700e-02, 9.41915251e-03, 6.27943501e-03,
          2.61643110e-03, 4.18628985e-03, 7.32600736e-03, 4.18628985e-03,
          6.80272095e-03, 6.27943501e-03, 9.94243845e-03, 9.94243845e-03,
          5.23286220e-03, 6.80272095e-03, 3.66300368e-03, 6.80272095e-03,
          4.70957626e-03, 4.18628985e-03, 7.84929376e-03, 8.37257970e-03,
          3.13971750e-03, 2.09314493e-03, 8.37257970e-03, 6.27943501e-03,
          7.84929376e-03, 2.09314493e-03, 8.37257970e-03, 6.80272095e-03,
          7.84929376e-03, 3.66300368e-03, 6.27943501e-03, 6.27943501e-03,
          1.56985875e-02, 1.09890113e-02, 4.70957626e-03, 4.18628985e-03,
          8.37257970e-03, 6.80272095e-03, 5.23286220e-03, 4.18628985e-03,
          4.18628985e-03, 6.27943501e-03, 3.66300368e-03, 5.75614860e-03,
          4.18628985e-03, 7.32600736e-03, 3.66300368e-03, 1.30821560e-02,
          5.75614860e-03, 5.23286220e-03, 6.27943501e-03, 4.70957626e-03,
          5.75614860e-03, 6.80272095e-03, 3.13971750e-03, 7.32600736e-03,
          4.70957626e-03, 6.80272095e-03, 7.32600736e-03, 4.70957626e-03,
          6.27943501e-03, 5.23286220e-03, 5.23286220e-03, 3.66300368e-03,
          1.04657246e-03, 5.75614860e-03, 7.32600736e-03, 3.66300368e-03,
          3.13971750e-03, 5.75614860e-03, 5.75614860e-03, 4.70957626e-03,
          4.18628985e-03, 6.27943501e-03, 1.20355831e-02, 3.13971750e-03,
          4.18628985e-03, 4.70957626e-03, 5.23286220e-03, 3.13971750e-03,
          3.13971750e-03, 4.70957626e-03, 6.27943501e-03, 4.18628985e-03,
          6.80272095e-03, 2.61643110e-03, 4.70957626e-03, 5.23286220e-03,
          4.70957626e-03, 1.41287278e-02, 6.80272095e-03, 2.61643110e-03,
          5.23286220e-03, 2.09314493e-03, 8.37257970e-03, 1.56985875e-03,
          8.89586564e-03, 9.41915251e-03, 4.18628985e-03, 6.27943501e-03,
          8.37257970e-03, 3.13971750e-03, 6.80272095e-03, 4.70957626e-03,
          8.89586564e-03, 1.30821560e-02, 3.66300368e-03, 1.04657244e-02,
          5.23286220e-03, 1.04657244e-02, 3.13971750e-03, 5.75614860e-03,
          1.56985875e-03, 5.75614860e-03, 4.18628985e-03, 5.75614860e-03,
          4.70957626e-03, 3.13971750e-03, 7.84929376e-03, 3.66300368e-03,
          6.27943501e-03, 5.23286220e-03, 3.13971750e-03, 7.32600736e-03,
          2.61643110e-03, 6.27943501e-03, 4.18628985e-03, 6.27943501e-03,
          8.89586564e-03, 3.66300368e-03, 3.66300368e-03, 3.66300368e-03,
          4.70957626e-03, 4.70957626e-03, 6.27943501e-03, 4.70957626e-03,
          9.41915251e-03, 6.80272095e-03, 2.09314493e-03, 7.32600736e-03,
          5.75614860e-03, 3.13971750e-03, 5.23286220e-03, 2.09314493e-03,
          4.18628985e-03, 2.61643110e-03 ]
      - [ 7.70509010e-03, 4.48353169e-03, 4.75003524e-03, 6.91341748e-03,
          4.71868180e-03, 7.75995851e-03, 4.71084332e-03, 4.89112549e-03,
          5.66712115e-03, 5.72198955e-03, 5.65928267e-03, 6.84287259e-03,
          2.97073158e-03, 3.04127671e-03, 4.76571172e-03, 2.65719788e-03,
          5.70631307e-03, 6.02768501e-03, 3.22155841e-03, 5.00086229e-03,
          6.36473345e-03, 5.78469643e-03, 5.26736584e-03, 5.29088080e-03,
          5.14195208e-03, 3.51941539e-03, 5.47116250e-03, 7.48561649e-03,
          6.60772203e-03, 6.92125596e-03, 4.09161439e-03, 8.06565396e-03,
          4.94599389e-03, 6.81935763e-03, 6.94477092e-03, 5.08708367e-03,
          6.63123699e-03, 5.95713966e-03, 2.32014921e-03, 5.46332449e-03,
          5.42413257e-03, 6.88206404e-03, 6.57636859e-03, 2.67287460e-03,
          6.43527880e-03, 6.50582369e-03, 4.85193357e-03, 4.24838113e-03,
          4.26405808e-03, 6.07471494e-03, 3.44103202e-03, 3.94268613e-03,
          6.45879377e-03, 3.86430253e-03, 7.25046638e-03, 5.85524132e-03,
          4.29541152e-03, 8.70839786e-03, 5.76118147e-03, 7.31317280e-03,
          4.32676449e-03, 7.62670673e-03, 4.26405808e-03, 6.10606838e-03,
          4.76571172e-03, 5.69063611e-03, 6.27851160e-03, 5.51035441e-03,
          7.21911294e-03, 7.06234621e-03, 6.59204554e-03, 4.56975307e-03,
          6.30202703e-03, 5.21249743e-03, 6.26283512e-03, 5.77685796e-03,
          5.58873778e-03, 5.69847459e-03, 4.74219676e-03, 7.49345496e-03,
          7.15640606e-03, 1.21494299e-02, 5.10276062e-03, 4.47569322e-03,
          6.01984654e-03, 5.91010973e-03, 4.92247846e-03, 4.71868180e-03,
          5.71415108e-03, 5.79253444e-03, 5.91010973e-03, 8.90435651e-03,
          7.37587968e-03, 5.92578622e-03, 6.86638756e-03, 5.38494065e-03,
          7.47777801e-03, 9.10031516e-03, 3.69969732e-03, 5.14979055e-03,
          5.86307980e-03, 7.11721461e-03, 6.16093678e-03, 6.25499664e-03,
          6.09822990e-03, 7.11721461e-03, 6.52150065e-03, 6.23932015e-03,
          6.36473345e-03, 4.63245995e-03, 6.31770352e-03, 5.38494065e-03,
          4.55407659e-03, 5.63576771e-03, 5.03221527e-03, 6.13742182e-03,
          8.26161262e-03, 6.42744033e-03, 7.21127447e-03, 9.27275885e-03,
          4.92247846e-03, 4.16215975e-03, 5.36926417e-03, 6.58420706e-03,
          5.29871928e-03, 8.16755183e-03, 4.82058013e-03, 3.19020520e-03,
          6.02768501e-03, 3.80159589e-03, 5.76901948e-03, 5.69063611e-03,
          5.60441427e-03, 4.42082481e-03, 7.64238322e-03, 6.97612436e-03,
          7.72860507e-03, 6.20012823e-03, 7.72860507e-03, 4.71868180e-03,
          4.44433978e-03, 7.07802270e-03, 5.30655729e-03, 7.04666926e-03,
          7.22695095e-03, 5.31439576e-03, 5.74550452e-03, 7.28965783e-03,
          7.23478943e-03, 6.99180085e-03, 7.49345496e-03, 5.74550452e-03,
          7.50913145e-03, 8.00294708e-03, 4.86761006e-03, 7.79131195e-03,
          6.91341748e-03, 4.52272315e-03, 2.46907771e-03, 6.49798522e-03,
          9.66467522e-03, 5.14979055e-03, 4.88328701e-03, 5.70631307e-03,
          5.74550452e-03, 6.63907547e-03, 2.12419056e-03, 6.03552302e-03,
          7.14072958e-03, 6.92125596e-03 ]
      - [ 2.64410372e-03, 1.32205179e-02, 1.05764149e-02, 5.81702823e-03,
          1.63934436e-02, 7.40349013e-03, 6.87466934e-03, 6.34584855e-03,
          5.28820744e-03, 4.75938665e-03, 5.81702823e-03, 6.87466934e-03,
          1.58646214e-03, 7.40349013e-03, 1.05764146e-03, 1.58646214e-03,
          6.87466934e-03, 8.46113171e-03, 3.17292428e-03, 2.11528293e-03,
          1.58646214e-03, 3.17292428e-03, 7.93231092e-03, 8.98995250e-03,
          3.17292428e-03, 7.40349013e-03, 1.21628772e-02, 6.34584855e-03,
          2.64410372e-03, 4.23056586e-03, 7.93231092e-03, 3.17292428e-03,
          8.46113171e-03, 3.70174507e-03, 8.98995250e-03, 1.00475941e-02,
          4.23056586e-03, 4.75938665e-03, 1.05764146e-03, 8.46113171e-03,
          8.98995250e-03, 3.17292428e-03, 9.51877329e-03, 3.70174507e-03,
          6.87466934e-03, 3.17292428e-03, 1.11052357e-02, 4.23056586e-03,
          6.34584855e-03, 5.81702823e-03, 1.11052357e-02, 6.34584855e-03,
          5.28820744e-03, 5.81702823e-03, 6.87466934e-03, 5.81702823e-03,
          8.46113171e-03, 3.70174507e-03, 2.64410372e-03, 2.64410372e-03,
          1.16340565e-02, 6.87466934e-03, 4.23056586e-03, 4.23056586e-03,
          4.75938665e-03, 5.81702823e-03, 5.28820744e-03, 7.40349013e-03,
          4.75938665e-03, 2.11528293e-03, 1.05764149e-02, 1.37493387e-02,
          1.11052357e-02, 8.46113171e-03, 6.87466934e-03, 2.11528293e-03,
          4.23056586e-03, 6.34584855e-03, 7.40349013e-03, 7.93231092e-03,
          4.75938665e-03, 6.34584855e-03, 5.81702823e-03, 6.34584855e-03,
          7.93231092e-03, 2.11528293e-03, 8.46113171e-03, 1.05764149e-02,
          3.70174507e-03, 4.75938665e-03, 6.34584855e-03, 4.23056586e-03,
          3.70174507e-03, 1.11052357e-02, 2.64410372e-03, 5.28820744e-03,
          3.70174507e-03, 1.58646214e-03, 9.51877329e-03, 6.87466934e-03,
          2.64410372e-03, 3.17292428e-03, 6.87466934e-03, 7.93231092e-03,
          1.05764149e-02, 9.51877329e-03, 3.70174507e-03, 5.28820744e-03,
          5.28820744e-03, 4.23056586e-03, 1.05764146e-03, 1.16340565e-02,
          1.21628772e-02, 7.93231092e-03, 5.81702823e-03, 3.70174507e-03,
          5.81702823e-03, 1.05764146e-03, 1.11052357e-02, 1.05764146e-03,
          1.11052357e-02, 5.28820744e-03, 4.23056586e-03, 3.17292428e-03,
          8.98995250e-03, 2.11528293e-03, 9.51877329e-03, 2.64410372e-03,
          1.32205179e-02, 8.98995250e-03, 7.40349013e-03, 8.46113171e-03,
          4.23056586e-03, 1.48069803e-02, 5.28820732e-04, 6.87466934e-03,
          3.70174507e-03, 8.98995250e-03, 4.75938665e-03, 6.34584855e-03,
          5.28820732e-04, 3.17292428e-03, 1.05764146e-03, 2.11528293e-03,
          2.11528293e-03, 6.34584855e-03, 5.28820744e-03, 3.17292428e-03,
          4.23056586e-03, 5.81702823e-03, 1.58646214e-03, 5.81702823e-03,
          5.81702823e-03, 5.28820744e-03, 5.28820744e-03, 1.58646214e-03,
          4.23056586e-03, 4.75938665e-03, 3.17292428e-03, 4.75938665e-03,
          3.17292428e-03, 6.87466934e-03, 1.00475941e-02, 6.87466934e-03,
          8.98995250e-03, 1.05764146e-03, 4.75938665e-03, 1.05764146e-03,
          3.70174507e-03, 5.28820744e-03 ]
      - [ 8.36028345e-03, 7.32814986e-03, 6.12399401e-03, 7.50017213e-03,
          5.40150004e-03, 6.46803854e-03, 5.16066886e-03, 6.74327416e-03,
          9.35801305e-03, 6.50244299e-03, 5.98637620e-03, 4.64460207e-03,
          2.88997474e-03, 5.40150004e-03, 2.44271662e-03, 2.99318810e-03,
          6.64006080e-03, 9.70205758e-03, 2.85557029e-03, 4.74781543e-03,
          6.29601628e-03, 6.05518511e-03, 4.81662434e-03, 8.32587946e-03,
          4.95424215e-03, 3.99091747e-03, 6.81208307e-03, 7.46576767e-03,
          6.64006080e-03, 5.57352277e-03, 5.84875839e-03, 7.12172315e-03,
          5.50471339e-03, 4.74781543e-03, 6.22720737e-03, 3.71568161e-03,
          4.19734418e-03, 6.53684745e-03, 3.30282818e-03, 5.50471339e-03,
          7.67219439e-03, 7.15612760e-03, 6.88089198e-03, 3.33723263e-03,
          5.71114058e-03, 5.19507332e-03, 6.70886971e-03, 5.47030894e-03,
          7.50017213e-03, 4.23174864e-03, 4.23174864e-03, 6.84648752e-03,
          6.12399401e-03, 3.81889497e-03, 1.00461021e-02, 5.88316284e-03,
          4.43817535e-03, 7.25934096e-03, 6.53684745e-03, 5.12626441e-03,
          3.19961482e-03, 5.77994948e-03, 6.43363409e-03, 7.01850979e-03,
          4.54138871e-03, 5.40150004e-03, 6.22720737e-03, 5.98637620e-03,
          5.29828668e-03, 6.70886971e-03, 6.05518511e-03, 6.08958956e-03,
          1.15598990e-02, 6.26161182e-03, 6.46803854e-03, 5.60792722e-03,
          5.74554503e-03, 7.50017213e-03, 6.77767862e-03, 6.60565635e-03,
          5.43590449e-03, 1.06309783e-02, 7.01850979e-03, 3.88770411e-03,
          7.74100376e-03, 5.95197175e-03, 6.19280292e-03, 5.16066886e-03,
          4.16293973e-03, 6.12399401e-03, 6.50244299e-03, 8.25707056e-03,
          5.09185996e-03, 7.74100376e-03, 8.32587946e-03, 6.12399401e-03,
          5.57352277e-03, 3.61246825e-03, 6.19280292e-03, 8.66992399e-03,
          5.22947777e-03, 5.29828668e-03, 6.84648752e-03, 5.02305105e-03,
          6.05518511e-03, 5.43590449e-03, 5.77994948e-03, 5.84875839e-03,
          6.22720737e-03, 5.91756729e-03, 3.71568161e-03, 7.22493650e-03,
          8.39468837e-03, 6.77767862e-03, 5.67673612e-03, 5.43590449e-03,
          3.85329966e-03, 5.16066886e-03, 5.09185996e-03, 3.64687270e-03,
          6.12399401e-03, 3.06199701e-03, 3.78449052e-03, 5.16066886e-03,
          7.80981267e-03, 3.47485044e-03, 4.54138871e-03, 3.75008606e-03,
          7.22493650e-03, 5.53911831e-03, 5.81435394e-03, 5.12626441e-03,
          6.39922963e-03, 5.67673612e-03, 1.92664983e-03, 8.49790126e-03,
          6.05518511e-03, 6.15839846e-03, 6.98410533e-03, 9.73646250e-03,
          3.23401927e-03, 5.16066886e-03, 2.88997474e-03, 6.77767862e-03,
          5.02305105e-03, 6.26161182e-03, 4.67900652e-03, 4.33496200e-03,
          7.19053205e-03, 9.80527140e-03, 3.75008606e-03, 6.22720737e-03,
          8.15385673e-03, 5.77994948e-03, 6.91529643e-03, 7.32814986e-03,
          6.33042073e-03, 4.47257981e-03, 3.64687270e-03, 4.91983769e-03,
          5.95197175e-03, 4.19734418e-03, 6.57125190e-03, 9.73646250e-03,
          3.95651301e-03, 2.71795224e-03, 4.91983769e-03, 3.71568161e-03,
          6.50244299e-03, 8.63551907e-03 ]
      - [ 6.56257058e-03, 4.45047906e-03, 9.05182119e-03, 6.93972968e-03,
          8.59923009e-03, 4.60134260e-03, 2.33838730e-03, 8.07120744e-03,
          2.64011463e-03, 7.24145724e-03, 7.61861634e-03, 4.60134260e-03,
          5.20479726e-03, 8.22207145e-03, 6.33627502e-03, 5.88368392e-03,
          5.95911592e-03, 1.65950060e-02, 5.73282037e-03, 2.41381908e-03,
          4.97850170e-03, 5.50652482e-03, 6.63800258e-03, 1.33514367e-02,
          9.05182119e-03, 4.45047906e-03, 8.37293454e-03, 6.33627502e-03,
          4.60134260e-03, 3.99788795e-03, 3.92245594e-03, 4.07331949e-03,
          1.58406876e-03, 3.69616039e-03, 4.37504705e-03, 5.80825238e-03,
          4.90307016e-03, 3.01727373e-03, 3.84702417e-03, 6.78886613e-03,
          7.24145724e-03, 7.61861634e-03, 6.18541148e-03, 5.65738836e-03,
          3.24356928e-03, 5.12936572e-03, 5.80825238e-03, 6.41170703e-03,
          4.07331949e-03, 4.22418350e-03, 6.63800258e-03, 2.64011463e-03,
          4.07331949e-03, 8.22207145e-03, 3.09270574e-03, 5.88368392e-03,
          5.35566127e-03, 6.71343412e-03, 6.78886613e-03, 5.58195682e-03,
          2.79097841e-03, 4.37504705e-03, 9.80614033e-03, 7.09059369e-03,
          5.50652482e-03, 3.99788795e-03, 1.01832990e-02, 6.63800258e-03,
          5.28022926e-03, 6.10997947e-03, 6.71343412e-03, 7.92034343e-03,
          6.41170703e-03, 5.43109281e-03, 1.16165048e-02, 6.86429814e-03,
          7.31688924e-03, 4.45047906e-03, 5.80825238e-03, 4.90307016e-03,
          4.90307016e-03, 2.26295530e-03, 2.26295530e-03, 7.09059369e-03,
          1.03341630e-02, 4.07331949e-03, 7.61861634e-03, 8.75009410e-03,
          3.09270574e-03, 7.69404834e-03, 7.01516168e-03, 4.29961504e-03,
          5.88368392e-03, 1.21445274e-02, 6.48713857e-03, 9.12725367e-03,
          7.09059369e-03, 2.33838730e-03, 4.22418350e-03, 7.76948035e-03,
          4.52591060e-03, 5.28022926e-03, 5.20479726e-03, 5.50652482e-03,
          4.90307016e-03, 4.90307016e-03, 6.78886613e-03, 7.54318479e-03,
          6.71343412e-03, 8.90095811e-03, 5.80825238e-03, 8.37293454e-03,
          4.67677461e-03, 5.43109281e-03, 1.14656407e-02, 6.33627502e-03,
          3.31900129e-03, 3.62072862e-03, 4.29961504e-03, 2.79097841e-03,
          4.97850170e-03, 2.86641018e-03, 5.35566127e-03, 5.65738836e-03,
          3.77159240e-03, 2.64011463e-03, 8.14663898e-03, 4.22418350e-03,
          7.61861634e-03, 4.82763816e-03, 5.88368392e-03, 6.18541148e-03,
          7.46775279e-03, 4.07331949e-03, 2.64011463e-03, 4.14875150e-03,
          4.90307016e-03, 8.37293454e-03, 6.10997947e-03, 4.29961504e-03,
          3.84702417e-03, 5.65738836e-03, 4.60134260e-03, 3.84702417e-03,
          5.20479726e-03, 2.64011463e-03, 5.28022926e-03, 3.54529684e-03,
          5.58195682e-03, 2.48925085e-03, 2.41381908e-03, 7.92034343e-03,
          7.24145724e-03, 5.43109281e-03, 6.03454746e-03, 7.16602523e-03,
          5.95911592e-03, 6.48713857e-03, 1.45583460e-02, 4.45047906e-03,
          6.93972968e-03, 6.93972968e-03, 1.58406869e-02, 1.03341630e-02,
          3.62072862e-03, 1.65950065e-03, 6.78886613e-03, 3.62072862e-03,
          5.88368392e-03, 4.82763816e-03 ]
      - [ 5.28052822e-03, 1.18811885e-02, 9.90099087e-03, 5.94059424e-03,
          1.32013205e-02, 1.98019808e-03, 3.96039616e-03, 7.92079233e-03,
          4.62046219e-03, 5.28052822e-03, 4.62046219e-03, 3.30033014e-03,
          4.62046219e-03, 7.92079233e-03, 1.32013205e-02, 6.60066027e-04,
          5.94059424e-03, 1.71617158e-02, 3.30033014e-03, 1.98019808e-03,
          7.26072630e-03, 5.94059424e-03, 1.12211220e-02, 6.60066027e-03,
          1.98019808e-03, 1.25412550e-02, 1.18811885e-02, 9.90099087e-03,
          3.96039616e-03, 4.62046219e-03, 9.90099087e-03, 4.62046219e-03,
          4.62046219e-03, 5.28052822e-03, 9.90099087e-03, 1.12211220e-02,
          6.60066027e-04, 9.24092438e-03, 1.98019808e-03, 6.60066027e-03,
          5.94059424e-03, 3.30033014e-03, 8.58085789e-03, 3.30033014e-03,
          7.92079233e-03, 4.62046219e-03, 7.26072630e-03, 1.12211220e-02,
          5.94059424e-03, 4.62046219e-03, 2.64026411e-03, 7.92079233e-03,
          3.96039616e-03, 5.94059424e-03, 2.64026411e-03, 5.28052822e-03,
          1.32013205e-03, 2.64026411e-03, 3.30033014e-03, 3.30033014e-03,
          6.60066027e-03, 3.30033014e-03, 8.58085789e-03, 8.58085789e-03,
          5.94059424e-03, 3.30033014e-03, 3.30033014e-03, 9.24092438e-03,
          6.60066027e-03, 6.60066027e-03, 2.64026411e-03, 9.90099087e-03,
          5.94059424e-03, 7.92079233e-03, 2.64026411e-03, 1.32013205e-03,
          5.28052822e-03, 1.12211220e-02, 2.64026411e-03, 3.30033014e-03,
          2.64026411e-03, 1.98019808e-03, 1.38613861e-02, 3.30033014e-03,
          7.92079233e-03, 3.30033014e-03, 6.60066027e-03, 6.60066027e-03,
          6.60066027e-03, 6.60066027e-03, 7.92079233e-03, 3.30033014e-03,
          9.24092438e-03, 1.12211220e-02, 5.94059424e-03, 1.12211220e-02,
          1.98019808e-03, 3.96039616e-03, 5.28052822e-03, 5.94059424e-03,
          3.30033014e-03, 5.28052822e-03, 7.26072630e-03, 5.28052822e-03,
          7.26072630e-03, 7.26072630e-03, 3.30033014e-03, 6.60066027e-03,
          3.96039616e-03, 3.30033014e-03, 6.60066027e-04, 2.04620473e-02,
          1.12211220e-02, 8.58085789e-03, 3.96039616e-03, 3.30033014e-03,
          3.30033014e-03, 2.64026411e-03, 2.64026411e-03, 1.32013205e-03,
          6.60066027e-03, 4.62046219e-03, 6.60066027e-04, 3.30033014e-03,
          9.90099087e-03, 1.32013205e-03, 6.60066027e-03, 3.96039616e-03,
          7.26072630e-03, 1.32013205e-03, 1.98019808e-03, 5.94059424e-03,
          1.25412550e-02, 6.60066027e-03, 7.26072630e-03, 8.58085789e-03,
          6.60066027e-03, 5.28052822e-03, 1.05610564e-02, 7.26072630e-03,
          8.58085789e-03, 3.96039616e-03, 3.96039616e-03, 7.26072630e-03,
          3.96039616e-03, 3.96039616e-03, 2.64026411e-03, 5.28052822e-03,
          5.94059424e-03, 2.64026411e-03, 6.60066027e-04, 7.26072630e-03,
          7.26072630e-03, 2.64026411e-03, 7.26072630e-03, 3.96039616e-03,
          3.96039616e-03, 5.28052822e-03, 5.28052822e-03, 9.90099087e-03,
          4.62046219e-03, 1.98019808e-03, 9.24092438e-03, 1.25412550e-02,
          4.62046219e-03, 2.64026411e-03, 1.98019808e-03, 4.62046219e-03,
          5.28052822e-03, 7.26072630e-03 ]
      - [ 5.64172538e-03, 5.84381726e-03, 4.54706233e-03, 5.33858780e-03,
          4.24392475e-03, 7.73000577e-03, 1.07782222e-02, 3.90710542e-03,
          8.52153171e-03, 5.17017813e-03, 4.93440451e-03, 9.09412466e-03,
          2.29037204e-03, 4.93440451e-03, 4.07551508e-03, 1.63357425e-03,
          7.69632403e-03, 6.71954779e-03, 2.32405402e-03, 4.74915374e-03,
          5.50699746e-03, 6.13011373e-03, 5.35542890e-03, 6.04590867e-03,
          6.39956910e-03, 7.20793568e-03, 6.04590867e-03, 6.88795745e-03,
          5.86065790e-03, 5.33858780e-03, 4.58074408e-03, 7.94893876e-03,
          4.19340190e-03, 6.28168229e-03, 6.18063658e-03, 3.68817267e-03,
          7.10688997e-03, 7.54475500e-03, 1.29675481e-03, 5.87749900e-03,
          5.59120253e-03, 6.21431833e-03, 8.89203325e-03, 2.22300831e-03,
          5.64172538e-03, 4.95124562e-03, 5.47331572e-03, 6.19747769e-03,
          6.77007064e-03, 4.64810804e-03, 4.09235619e-03, 6.80375239e-03,
          6.43325131e-03, 2.71139643e-03, 8.43732711e-03, 7.19109504e-03,
          4.36181156e-03, 8.25207587e-03, 5.74277109e-03, 5.28806495e-03,
          5.64172538e-03, 5.43963397e-03, 3.70501378e-03, 6.26484118e-03,
          3.72185465e-03, 7.62896007e-03, 6.11327263e-03, 4.71547199e-03,
          6.14695437e-03, 6.28168229e-03, 6.13011373e-03, 4.46285727e-03,
          5.79329440e-03, 6.60166098e-03, 5.01860958e-03, 4.32812981e-03,
          6.07959088e-03, 5.57436142e-03, 3.55344499e-03, 7.74684688e-03,
          6.90479809e-03, 1.04077207e-02, 4.21024300e-03, 4.71547199e-03,
          5.57436142e-03, 5.55752078e-03, 3.90710542e-03, 6.13011373e-03,
          6.01222692e-03, 5.62488427e-03, 5.62488427e-03, 9.29621607e-03,
          5.75961219e-03, 6.09643152e-03, 7.27529963e-03, 4.51338058e-03,
          5.57436142e-03, 9.22885258e-03, 6.58481987e-03, 4.32812981e-03,
          5.47331572e-03, 5.72593044e-03, 5.69224823e-03, 5.91118122e-03,
          6.77007064e-03, 7.34266359e-03, 4.86704055e-03, 5.37227001e-03,
          4.49653948e-03, 4.24392475e-03, 6.85427524e-03, 5.33858780e-03,
          5.30490605e-03, 6.80375239e-03, 3.87342344e-03, 6.23115944e-03,
          1.03066750e-02, 5.15333749e-03, 6.45009195e-03, 8.95939674e-03,
          6.65218383e-03, 4.78283595e-03, 6.43325131e-03, 6.23115944e-03,
          6.28168229e-03, 8.47100839e-03, 3.43555817e-03, 4.05867398e-03,
          5.37227001e-03, 6.63534272e-03, 6.13011373e-03, 7.35950470e-03,
          4.59758518e-03, 7.05636712e-03, 2.61035049e-03, 5.40595176e-03,
          6.33220514e-03, 8.11734796e-03, 7.02268491e-03, 4.64810804e-03,
          1.59989228e-03, 6.29852340e-03, 6.90479809e-03, 6.41641021e-03,
          4.19340190e-03, 9.58251301e-03, 6.36588736e-03, 6.70270668e-03,
          5.91118122e-03, 8.52153171e-03, 8.48784950e-03, 4.56390344e-03,
          7.67948292e-03, 7.66264182e-03, 4.66494914e-03, 7.41002755e-03,
          5.42279286e-03, 6.45009195e-03, 2.81244214e-03, 5.70908934e-03,
          1.00372192e-02, 5.54067967e-03, 5.20386035e-03, 5.23754209e-03,
          8.23523477e-03, 7.94893876e-03, 1.88618875e-03, 5.25438320e-03,
          5.74277109e-03, 6.90479809e-03 ]
      - [ 5.85601106e-03, 7.57836737e-03, 4.82259737e-03, 3.10024130e-03,
          1.13675511e-02, 4.13365476e-03, 5.16706891e-03, 7.23389629e-03,
          7.23389629e-03, 3.78918368e-03, 5.51153999e-03, 6.54495368e-03,
          2.75576999e-03, 1.03341378e-02, 1.10230800e-02, 4.13365476e-03,
          8.26730952e-03, 5.85601106e-03, 4.47812630e-03, 1.37788500e-03,
          5.85601106e-03, 6.20048260e-03, 6.20048260e-03, 9.64519475e-03,
          1.27454363e-02, 7.23389629e-03, 6.54495368e-03, 4.82259737e-03,
          5.16706891e-03, 4.13365476e-03, 6.20048260e-03, 4.82259737e-03,
          5.51153999e-03, 4.47812630e-03, 9.30072367e-03, 7.57836737e-03,
          5.51153999e-03, 9.64519475e-03, 6.54495368e-03, 5.16706891e-03,
          4.82259737e-03, 3.44471261e-03, 6.88942522e-03, 4.47812630e-03,
          6.54495368e-03, 7.57836737e-03, 8.95625260e-03, 5.51153999e-03,
          7.92283844e-03, 6.20048260e-03, 4.13365476e-03, 6.88942522e-03,
          5.51153999e-03, 6.88942522e-03, 8.26730952e-03, 6.88942522e-03,
          7.57836737e-03, 3.44471261e-03, 7.57836737e-03, 2.75576999e-03,
          4.82259737e-03, 4.47812630e-03, 6.20048260e-03, 6.20048260e-03,
          4.47812630e-03, 8.61178152e-03, 5.51153999e-03, 8.61178152e-03,
          3.44471261e-03, 5.16706891e-03, 9.98966582e-03, 9.64519475e-03,
          6.20048260e-03, 6.54495368e-03, 7.92283844e-03, 4.47812630e-03,
          7.92283844e-03, 5.85601106e-03, 7.92283844e-03, 5.85601106e-03,
          5.16706891e-03, 1.37788500e-03, 4.82259737e-03, 4.13365476e-03,
          8.26730952e-03, 3.44471261e-03, 5.16706891e-03, 5.85601106e-03,
          4.82259737e-03, 1.06786089e-02, 6.20048260e-03, 6.20048260e-03,
          2.06682738e-03, 7.92283844e-03, 2.41129869e-03, 7.23389629e-03,
          6.54495368e-03, 3.78918368e-03, 6.54495368e-03, 6.20048260e-03,
          3.78918368e-03, 3.44471261e-03, 6.88942522e-03, 4.47812630e-03,
          5.85601106e-03, 6.54495368e-03, 2.41129869e-03, 3.44471261e-03,
          5.51153999e-03, 3.44471261e-03, 7.57836737e-03, 9.64519475e-03,
          8.26730952e-03, 6.88942522e-03, 4.47812630e-03, 6.54495368e-03,
          3.10024130e-03, 3.44471261e-03, 6.20048260e-03, 2.06682738e-03,
          7.57836737e-03, 4.13365476e-03, 7.92283844e-03, 4.47812630e-03,
          6.20048260e-03, 2.75576999e-03, 4.13365476e-03, 4.13365476e-03,
          7.57836737e-03, 9.98966582e-03, 5.16706891e-03, 6.88942522e-03,
          8.61178152e-03, 1.03341378e-02, 5.85601106e-03, 5.51153999e-03,
          4.13365476e-03, 6.54495368e-03, 4.47812630e-03, 5.51153999e-03,
          2.06682738e-03, 4.47812630e-03, 2.75576999e-03, 4.47812630e-03,
          6.20048260e-03, 4.13365476e-03, 4.82259737e-03, 5.16706891e-03,
          3.10024130e-03, 9.30072367e-03, 3.78918368e-03, 6.20048260e-03,
          4.82259737e-03, 7.23389629e-03, 7.57836737e-03, 6.88942522e-03,
          4.47812630e-03, 6.54495368e-03, 1.41233215e-02, 5.16706891e-03,
          5.85601106e-03, 4.13365476e-03, 7.57836737e-03, 6.88942522e-03,
          5.85601106e-03, 2.41129869e-03, 4.47812630e-03, 1.72235630e-03,
          2.41129869e-03, 4.47812630e-03 ]
      - [ 8.85401387e-03, 2.43380480e-03, 5.41311735e-03, 7.46926293e-03,
          3.60874482e-03, 4.57387418e-03, 2.22399388e-03, 5.74881444e-03,
          3.39893415e-03, 5.70685230e-03, 6.54609548e-03, 4.23817709e-03,
          8.68616533e-03, 3.98640428e-03, 4.15425282e-03, 1.08681973e-02,
          7.38533866e-03, 4.57387418e-03, 1.11199701e-02, 2.18203175e-03,
          6.46217121e-03, 6.88179256e-03, 3.56678269e-03, 5.11938240e-03,
          1.07003478e-02, 4.19621496e-03, 7.38533866e-03, 8.97989981e-03,
          5.70685230e-03, 9.86110512e-03, 2.55969120e-03, 6.00058725e-03,
          4.28013923e-03, 4.82564745e-03, 3.44089628e-03, 3.06323706e-03,
          4.74172318e-03, 4.82564745e-03, 1.69107467e-02, 5.66489017e-03,
          2.72753974e-03, 1.53161846e-02, 6.37824694e-03, 1.22529482e-02,
          3.02127469e-03, 1.25047211e-02, 3.27304774e-03, 4.48994990e-03,
          3.39893415e-03, 5.45507949e-03, 6.08451199e-03, 3.56678269e-03,
          4.99349600e-03, 3.90248001e-03, 4.48994990e-03, 4.57387418e-03,
          4.28013923e-03, 1.18752886e-02, 1.12458561e-02, 5.74881444e-03,
          2.85342615e-03, 9.31559689e-03, 4.61583631e-03, 5.79077657e-03,
          5.16134454e-03, 3.06323706e-03, 8.22458137e-03, 4.07032855e-03,
          4.95153386e-03, 3.77659360e-03, 8.43439251e-03, 5.11938240e-03,
          2.68557761e-03, 3.14716133e-03, 1.10780075e-02, 8.47635418e-03,
          3.69266933e-03, 4.65779845e-03, 6.63001975e-03, 7.59514933e-03,
          7.13356538e-03, 1.54420715e-02, 5.24526881e-03, 6.04254939e-03,
          4.11229068e-03, 8.14065710e-03, 4.11229068e-03, 5.20330667e-03,
          3.10519920e-03, 1.31341526e-02, 7.38533866e-03, 6.96571684e-03,
          2.97931256e-03, 8.56027845e-03, 4.36406350e-03, 5.49704162e-03,
          9.60933231e-03, 5.83273871e-03, 2.89538829e-03, 4.57387418e-03,
          8.09869543e-03, 4.82564745e-03, 4.02836641e-03, 5.16134454e-03,
          4.23817709e-03, 6.16843626e-03, 5.79077657e-03, 5.32919308e-03,
          3.56678269e-03, 5.53900376e-03, 1.23788342e-02, 2.43380480e-03,
          3.18912347e-03, 4.53191204e-03, 6.29432267e-03, 6.33628480e-03,
          4.36406350e-03, 4.82564745e-03, 3.48285842e-03, 6.67198189e-03,
          4.11229068e-03, 3.39893415e-03, 5.74881444e-03, 1.40153579e-02,
          4.19621496e-03, 4.44798777e-03, 5.03545813e-03, 5.53900376e-03,
          5.91666298e-03, 4.95153386e-03, 4.65779845e-03, 7.67907361e-03,
          3.27304774e-03, 3.69266933e-03, 1.00289537e-02, 4.23817709e-03,
          3.98640428e-03, 4.40602563e-03, 4.48994990e-03, 2.43380480e-03,
          9.02186241e-03, 5.66489017e-03, 4.57387418e-03, 5.70685230e-03,
          1.07842730e-02, 2.55969120e-03, 5.49704162e-03, 4.40602563e-03,
          4.02836641e-03, 4.44798777e-03, 3.65070696e-03, 5.49704162e-03,
          7.97280855e-03, 4.28013923e-03, 4.36406350e-03, 6.75590616e-03,
          7.93084595e-03, 4.11229068e-03, 7.30141392e-03, 4.40602563e-03,
          1.43930176e-02, 6.29432267e-03, 5.87470084e-03, 4.19621496e-03,
          2.72753974e-03, 3.56678269e-03, 1.19592128e-02, 3.56678269e-03,
          6.25236053e-03, 3.10519920e-03 ]
      - [ 1.11415442e-02, 1.99619331e-03, 6.87061902e-03, 7.65981199e-03,
          6.91704219e-03, 4.92084865e-03, 1.76407781e-03, 6.77777268e-03,
          3.38888634e-03, 5.89573383e-03, 8.12404323e-03, 3.11034778e-03,
          3.99238663e-03, 5.75646479e-03, 7.89192738e-04, 6.63850363e-03,
          5.71004162e-03, 9.05250479e-03, 6.40638825e-03, 2.32115504e-03,
          7.28842709e-03, 5.52434893e-03, 5.57077210e-03, 1.18378913e-02,
          3.99238663e-03, 2.50684749e-03, 1.47625459e-02, 9.42388922e-03,
          6.35996507e-03, 7.19558075e-03, 2.87823239e-03, 3.80669441e-03,
          4.64231009e-04, 5.52434893e-03, 5.52434893e-03, 2.36757821e-03,
          6.77777268e-03, 5.43150306e-03, 5.52434893e-03, 1.19771603e-02,
          3.34246340e-03, 1.32770073e-02, 9.00608208e-03, 5.71004162e-03,
          2.73896288e-03, 1.12343905e-02, 3.29604023e-03, 8.68112035e-03,
          2.64611677e-03, 7.38127297e-03, 5.38507989e-03, 2.18188576e-03,
          5.19938720e-03, 6.91704219e-03, 3.20319412e-03, 6.77777268e-03,
          1.62480853e-03, 6.96346536e-03, 1.00273900e-02, 5.57077210e-03,
          2.08903966e-03, 8.77396576e-03, 1.06773134e-02, 9.14535113e-03,
          8.17046594e-03, 3.20319412e-03, 7.47411931e-03, 8.35615862e-03,
          5.80288749e-03, 4.27092519e-03, 1.08165825e-02, 6.26711873e-03,
          3.06392461e-03, 5.61719527e-03, 1.56445857e-02, 8.30973499e-03,
          5.71004162e-03, 3.20319412e-03, 8.86681210e-03, 8.68112035e-03,
          8.54185037e-03, 3.80669441e-03, 6.49923400e-04, 6.35996507e-03,
          8.07761960e-03, 8.30973499e-03, 7.61338882e-03, 7.65981199e-03,
          2.64611677e-03, 1.81050096e-02, 1.07237361e-02, 4.31734836e-03,
          3.99238663e-03, 1.81050096e-02, 4.68873326e-03, 1.13736596e-02,
          9.74885095e-03, 2.83180922e-03, 2.32115504e-03, 8.21688864e-03,
          5.57077210e-03, 4.82800277e-03, 4.82800277e-03, 8.35615862e-03,
          3.38888634e-03, 3.20319412e-03, 5.71004162e-03, 4.87442547e-03,
          6.35996507e-03, 5.57077210e-03, 4.59588692e-03, 4.22450202e-03,
          2.27473187e-03, 6.35996507e-03, 5.38507989e-03, 6.91704219e-03,
          3.15677095e-03, 3.06392461e-03, 3.94596346e-03, 2.92465533e-03,
          3.52815562e-03, 1.25342375e-03, 2.83180922e-03, 1.12343905e-02,
          3.29604023e-03, 2.87823239e-03, 6.63850363e-03, 4.31734836e-03,
          8.54185037e-03, 3.11034778e-03, 6.91704219e-03, 7.38127297e-03,
          4.68873326e-03, 1.94977026e-03, 3.85311735e-03, 4.08523297e-03,
          3.89954052e-03, 3.34246340e-03, 4.27092519e-03, 2.46042432e-03,
          6.68492680e-03, 4.50304104e-03, 2.50684749e-03, 6.26711873e-03,
          8.30973499e-03, 2.08903966e-03, 6.49923412e-03, 4.54946375e-03,
          4.92084865e-03, 2.83180922e-03, 1.90334721e-03, 8.95965844e-03,
          9.19177383e-03, 4.68873326e-03, 7.52054248e-03, 8.82038940e-03,
          6.68492680e-03, 6.54565729e-03, 1.85692403e-03, 2.59969360e-03,
          7.14915758e-03, 9.88812093e-03, 1.31377373e-02, 7.14915758e-03,
          2.78538605e-03, 2.36757821e-03, 3.71384807e-03, 1.71765476e-03,
          6.96346536e-03, 3.80669441e-03 ]
      - [ 6.81478856e-03, 3.21596744e-03, 6.57231454e-03, 7.04450021e-03,
          4.39005112e-03, 5.97251114e-03, 1.93978997e-03, 3.80300917e-03,
          2.83311424e-03, 7.17211794e-03, 5.51308738e-03, 5.78108430e-03,
          3.67539143e-03, 5.78108430e-03, 4.40281257e-03, 4.31348011e-03,
          7.12107075e-03, 8.61419830e-03, 3.70091503e-03, 3.34358518e-03,
          5.64070512e-03, 5.73003758e-03, 4.60700132e-03, 8.23134556e-03,
          7.89953955e-03, 2.64168764e-03, 9.40542854e-03, 7.97611009e-03,
          5.85765531e-03, 6.64888509e-03, 3.63710616e-03, 8.33343994e-03,
          1.17408333e-03, 5.14299562e-03, 5.51308738e-03, 2.88416143e-03,
          6.38088817e-03, 4.08376846e-03, 3.03730275e-03, 7.31249759e-03,
          5.61518129e-03, 7.89953955e-03, 8.65248404e-03, 4.51766886e-03,
          5.84489340e-03, 6.75097946e-03, 3.31806182e-03, 6.75097946e-03,
          2.15674005e-03, 7.04450021e-03, 5.00261597e-03, 2.25883443e-03,
          5.76832285e-03, 4.88776015e-03, 4.17310093e-03, 4.47938312e-03,
          1.76112505e-03, 9.12467018e-03, 7.58049497e-03, 3.63710616e-03,
          2.06740759e-03, 7.87401572e-03, 6.40641153e-03, 7.69535080e-03,
          5.65346656e-03, 2.89692311e-03, 9.06086061e-03, 6.06184360e-03,
          8.55038967e-03, 8.38448666e-03, 6.98069157e-03, 3.59882088e-03,
          6.10012887e-03, 8.37172475e-03, 9.94142331e-03, 7.41459196e-03,
          5.41099301e-03, 3.34358518e-03, 3.73920030e-03, 9.83932894e-03,
          8.86943471e-03, 1.17663573e-02, 1.40379532e-03, 5.88317867e-03,
          7.79744517e-03, 5.87041676e-03, 8.06544255e-03, 6.35536434e-03,
          2.96073197e-03, 7.27421232e-03, 6.94240630e-03, 8.74181651e-03,
          4.32624202e-03, 9.16295499e-03, 7.49116251e-03, 7.14659458e-03,
          8.48658103e-03, 6.55955262e-03, 1.99083705e-03, 6.90412056e-03,
          5.35994582e-03, 6.35536434e-03, 5.65346656e-03, 6.07460551e-03,
          6.58507645e-03, 6.12565223e-03, 9.00981389e-03, 8.12925119e-03,
          6.95516774e-03, 8.42277240e-03, 9.18847881e-03, 5.07918699e-03,
          3.02454084e-03, 5.70451375e-03, 9.11190826e-03, 6.54679118e-03,
          6.13841414e-03, 4.19862429e-03, 6.84031192e-03, 7.22316513e-03,
          4.21138620e-03, 1.19960692e-03, 6.20222325e-03, 1.02987532e-02,
          2.94797029e-03, 4.91328351e-03, 3.11387330e-03, 3.34358518e-03,
          7.83572998e-03, 4.56871558e-03, 4.51766886e-03, 7.19764177e-03,
          4.72185714e-03, 2.36092857e-03, 2.45026103e-03, 4.88776015e-03,
          4.88776015e-03, 1.07326536e-02, 5.13023371e-03, 3.91786499e-03,
          2.27159611e-03, 7.88677763e-03, 6.18946133e-03, 5.50032547e-03,
          7.00621493e-03, 2.69273482e-03, 7.58049497e-03, 5.13023371e-03,
          6.92964438e-03, 3.86681804e-03, 4.04548319e-03, 7.24868849e-03,
          8.65248404e-03, 1.13835037e-02, 4.96433070e-03, 8.09096638e-03,
          6.31707907e-03, 6.91688247e-03, 6.68717036e-03, 3.21596744e-03,
          1.13579808e-02, 6.47022016e-03, 9.59685538e-03, 6.50850590e-03,
          3.45844124e-03, 3.34358518e-03, 5.09194843e-03, 3.68815335e-03,
          6.73821755e-03, 5.24509000e-03 ]
      - [ 3.67647060e-03, 7.81250000e-03, 6.43382361e-03, 3.21691181e-03,
          1.01102944e-02, 5.51470602e-03, 5.05514722e-03, 1.05698528e-02,
          5.05514722e-03, 3.21691181e-03, 6.43382361e-03, 1.83823530e-03,
          4.59558843e-03, 5.51470602e-03, 3.21691181e-03, 2.29779421e-03,
          5.05514722e-03, 1.83823537e-02, 5.51470602e-03, 1.14889704e-02,
          1.28676472e-02, 9.19117685e-03, 5.51470602e-03, 1.24080880e-02,
          2.29779421e-03, 7.35294120e-03, 5.51470602e-03, 4.59558843e-03,
          9.19117685e-03, 5.05514722e-03, 5.97426482e-03, 3.21691181e-03,
          7.35294120e-03, 2.75735301e-03, 1.83823530e-03, 6.43382361e-03,
          2.75735301e-03, 9.65073518e-03, 7.35294120e-03, 5.51470602e-03,
          9.19117685e-03, 4.59558843e-03, 6.89338241e-03, 5.97426482e-03,
          1.83823530e-03, 7.81250000e-03, 7.81250000e-03, 1.05698528e-02,
          1.05698528e-02, 2.75735301e-03, 3.21691181e-03, 1.05698528e-02,
          3.67647060e-03, 5.51470602e-03, 8.27205926e-03, 3.67647060e-03,
          5.05514722e-03, 1.83823530e-03, 7.81250000e-03, 5.97426482e-03,
          1.10294120e-02, 9.19117650e-04, 1.05698528e-02, 7.35294120e-03,
          1.83823530e-03, 6.43382361e-03, 7.35294120e-03, 9.65073518e-03,
          9.19117650e-04, 5.51470602e-03, 8.27205926e-03, 1.01102944e-02,
          8.27205926e-03, 5.05514722e-03, 4.13602963e-03, 9.19117685e-03,
          5.97426482e-03, 1.05698528e-02, 1.33272056e-02, 5.05514722e-03,
          2.75735301e-03, 0., 5.51470602e-03, 2.75735301e-03,
          9.19117685e-03, 2.75735301e-03, 7.35294120e-03, 7.35294120e-03,
          5.51470602e-03, 5.05514722e-03, 5.97426482e-03, 2.75735301e-03,
          5.51470602e-03, 5.51470602e-03, 9.19117685e-03, 7.35294120e-03,
          9.19117685e-03, 1.37867650e-03, 1.05698528e-02, 9.19117685e-03,
          1.83823530e-03, 5.51470602e-03, 7.81250000e-03, 3.67647060e-03,
          3.21691181e-03, 1.37867650e-03, 5.05514722e-03, 4.13602963e-03,
          5.05514722e-03, 1.83823530e-03, 5.51470602e-03, 1.14889704e-02,
          8.27205926e-03, 4.13602963e-03, 1.37867650e-03, 5.05514722e-03,
          1.37867650e-03, 7.35294120e-03, 4.59558843e-03, 0.,
          1.10294120e-02, 5.97426482e-03, 1.83823530e-03, 0.,
          1.01102944e-02, 1.83823530e-03, 8.73161759e-03, 3.67647060e-03,
          4.59558843e-03, 3.67647060e-03, 8.27205926e-03, 8.27205926e-03,
          6.89338241e-03, 8.27205926e-03, 4.13602963e-03, 5.97426482e-03,
          7.81250000e-03, 2.75735301e-03, 4.13602963e-03, 9.19117685e-03,
          8.27205926e-03, 3.67647060e-03, 3.21691181e-03, 5.51470602e-03,
          6.43382361e-03, 5.05514722e-03, 3.67647060e-03, 5.51470602e-03,
          4.13602963e-03, 3.67647060e-03, 9.19117650e-04, 5.97426482e-03,
          6.89338241e-03, 3.21691181e-03, 9.65073518e-03, 7.81250000e-03,
          4.59558843e-03, 1.01102944e-02, 3.67647060e-03, 5.51470602e-03,
          2.75735301e-03, 4.59558843e-03, 8.73161759e-03, 1.19485296e-02,
          2.75735301e-03, 1.83823530e-03, 1.37867650e-03, 6.43382361e-03,
          6.43382361e-03, 7.81250000e-03 ]
      - [ 5.20000001e-03, 1.07999993e-02, 6.39999984e-03, 4.79999976e-03,
          9.20000020e-03, 2.39999988e-03, 8.39999970e-03, 9.20000020e-03,
          5.20000001e-03, 4.79999976e-03, 2.39999988e-03, 3.99999972e-03,
          4.79999976e-03, 7.59999966e-03, 3.19999992e-03, 8.79999995e-03,
          5.20000001e-03, 1.23999994e-02, 5.59999980e-03, 6.39999984e-03,
          2.39999988e-03, 6.00000005e-03, 8.39999970e-03, 8.39999970e-03,
          7.99999945e-03, 7.59999966e-03, 3.19999992e-03, 8.39999970e-03,
          4.79999976e-03, 6.00000005e-03, 9.99999978e-03, 2.39999988e-03,
          2.79999990e-03, 6.00000005e-03, 7.59999966e-03, 1.11999996e-02,
          2.79999990e-03, 7.19999988e-03, 3.99999972e-03, 6.39999984e-03,
          9.99999978e-03, 4.39999998e-03, 6.00000005e-03, 5.20000001e-03,
          4.39999998e-03, 6.79999962e-03, 1.20000001e-02, 3.99999972e-03,
          7.59999966e-03, 2.79999990e-03, 4.39999998e-03, 9.99999978e-03,
          3.19999992e-03, 4.79999976e-03, 3.59999994e-03, 5.20000001e-03,
          9.99999978e-03, 3.99999972e-03, 3.59999994e-03, 5.20000001e-03,
          1.07999993e-02, 3.59999994e-03, 7.99999945e-03, 4.79999976e-03,
          1.99999986e-03, 8.39999970e-03, 6.39999984e-03, 6.00000005e-03,
          2.39999988e-03, 1.99999986e-03, 5.20000001e-03, 8.79999995e-03,
          1.07999993e-02, 3.19999992e-03, 6.39999984e-03, 3.99999972e-03,
          5.59999980e-03, 1.67999994e-02, 6.79999962e-03, 4.79999976e-03,
          3.19999992e-03, 2.39999988e-03, 5.59999980e-03, 2.79999990e-03,
          6.39999984e-03, 3.99999972e-03, 5.59999980e-03, 3.59999994e-03,
          8.79999995e-03, 3.99999972e-03, 6.79999962e-03, 4.79999976e-03,
          7.19999988e-03, 5.59999980e-03, 3.59999994e-03, 5.59999980e-03,
          4.39999998e-03, 3.19999992e-03, 1.23999994e-02, 5.59999980e-03,
          2.39999988e-03, 4.39999998e-03, 8.39999970e-03, 6.00000005e-03,
          4.39999998e-03, 5.20000001e-03, 5.20000001e-03, 3.59999994e-03,
          3.59999994e-03, 5.20000001e-03, 1.99999986e-03, 1.31999999e-02,
          1.48000000e-02, 6.79999962e-03, 4.79999976e-03, 6.79999962e-03,
          3.99999972e-03, 3.99999972e-03, 4.39999998e-03, 2.79999990e-03,
          9.20000020e-03, 8.39999970e-03, 5.20000001e-03, 1.19999994e-03,
          9.99999978e-03, 3.99999972e-03, 5.20000001e-03, 4.79999976e-03,
          5.59999980e-03, 8.39999970e-03, 4.79999976e-03, 8.79999995e-03,
          6.00000005e-03, 7.99999945e-03, 9.59999952e-03, 6.79999962e-03,
          6.39999984e-03, 4.79999976e-03, 3.99999972e-03, 1.20000001e-02,
          1.39999995e-02, 2.39999988e-03, 6.79999962e-03, 2.79999990e-03,
          3.59999994e-03, 7.99999945e-03, 3.19999992e-03, 2.79999990e-03,
          3.59999994e-03, 3.19999992e-03, 1.99999986e-03, 7.19999988e-03,
          4.39999998e-03, 4.79999976e-03, 6.00000005e-03, 3.59999994e-03,
          4.39999998e-03, 4.39999998e-03, 4.79999976e-03, 8.39999970e-03,
          3.99999972e-03, 3.99999972e-03, 7.19999988e-03, 1.15999999e-02,
          5.20000001e-03, 3.99999972e-03, 7.99999980e-04, 5.59999980e-03,
          5.59999980e-03, 6.39999984e-03 ]
      - [ 3.96634638e-03, 7.09134620e-03, 5.52884629e-03, 4.20673098e-03,
          1.12980772e-02, 5.88942319e-03, 1.43028842e-02, 5.52884629e-03,
          6.00961549e-03, 3.96634638e-03, 4.56730789e-03, 1.33413458e-02,
          3.36538465e-03, 7.45192310e-03, 1.10576926e-02, 3.24519235e-03,
          8.89423117e-03, 4.68750019e-03, 3.48557695e-03, 4.44711559e-03,
          4.20673098e-03, 3.48557695e-03, 3.00480775e-03, 4.44711559e-03,
          9.85576957e-03, 3.96634638e-03, 3.96634638e-03, 5.04807709e-03,
          3.84615385e-03, 4.32692328e-03, 5.64903859e-03, 6.00961549e-03,
          1.14182690e-02, 5.88942319e-03, 6.49038469e-03, 4.68750019e-03,
          7.33173080e-03, 4.56730789e-03, 2.28365394e-03, 3.84615385e-03,
          5.52884629e-03, 4.20673098e-03, 5.52884629e-03, 4.20673098e-03,
          7.21153850e-03, 4.20673098e-03, 8.53365380e-03, 2.16346164e-03,
          8.29326920e-03, 5.16826939e-03, 3.72596155e-03, 8.41346197e-03,
          4.92788479e-03, 6.49038469e-03, 5.64903859e-03, 7.81250000e-03,
          1.06971152e-02, 6.37019239e-03, 4.56730789e-03, 3.24519235e-03,
          6.97115390e-03, 7.81250000e-03, 3.84615385e-03, 3.24519235e-03,
          5.40865399e-03, 9.85576957e-03, 4.20673098e-03, 8.17307737e-03,
          5.16826939e-03, 3.60576925e-03, 4.92788479e-03, 8.89423117e-03,
          5.64903859e-03, 5.76923089e-03, 4.92788479e-03, 4.08653868e-03,
          4.92788479e-03, 1.03365388e-02, 4.32692328e-03, 5.04807709e-03,
          4.32692328e-03, 5.64903859e-03, 6.97115390e-03, 3.60576925e-03,
          5.28846169e-03, 3.84615385e-03, 6.37019239e-03, 3.36538465e-03,
          6.73076930e-03, 4.68750019e-03, 6.25000009e-03, 7.69230770e-03,
          4.68750019e-03, 2.88461545e-03, 3.60576925e-03, 7.21153850e-03,
          4.80769249e-03, 8.89423117e-03, 1.31009612e-02, 4.08653868e-03,
          4.56730789e-03, 2.16346164e-03, 5.52884629e-03, 4.56730789e-03,
          6.61057699e-03, 1.16586536e-02, 2.52403854e-03, 3.72596155e-03,
          4.08653868e-03, 4.68750019e-03, 8.05288460e-03, 4.92788479e-03,
          9.37500037e-03, 3.96634638e-03, 3.72596155e-03, 3.12500005e-03,
          1.08173080e-02, 4.32692328e-03, 8.77403840e-03, 5.88942319e-03,
          5.28846169e-03, 6.73076930e-03, 1.17788464e-02, 5.64903859e-03,
          9.73557681e-03, 8.77403840e-03, 7.09134620e-03, 7.93269277e-03,
          4.92788479e-03, 5.76923089e-03, 5.40865399e-03, 7.45192310e-03,
          4.44711559e-03, 1.22596156e-02, 2.76442314e-03, 6.49038469e-03,
          5.16826939e-03, 9.61538497e-03, 4.44711559e-03, 6.37019239e-03,
          2.64423084e-03, 8.53365380e-03, 1.70673076e-02, 3.60576925e-03,
          3.96634638e-03, 9.49519221e-03, 4.20673098e-03, 4.44711559e-03,
          2.88461545e-03, 7.45192310e-03, 7.69230770e-03, 3.60576925e-03,
          4.08653868e-03, 5.64903859e-03, 4.08653868e-03, 5.16826939e-03,
          4.68750019e-03, 2.04326934e-03, 8.53365380e-03, 5.28846169e-03,
          7.69230770e-03, 6.12980779e-03, 5.04807709e-03, 4.20673098e-03,
          7.57211540e-03, 5.88942319e-03, 2.64423084e-03, 3.96634638e-03,
          2.88461545e-03, 2.76442314e-03 ]
      - [ 4.95321956e-03, 7.70500861e-03, 1.21078705e-02, 8.25536624e-03,
          3.85250431e-03, 3.85250431e-03, 2.75178859e-03, 4.95321956e-03,
          6.05393527e-03, 2.75178859e-03, 8.80572386e-03, 3.30214645e-03,
          5.50357741e-04, 3.30214645e-03, 1.10071548e-03, 1.10071548e-03,
          7.15465052e-03, 7.15465052e-03, 4.95321956e-03, 1.21078705e-02,
          6.05393527e-03, 6.05393527e-03, 5.50357718e-03, 1.10071544e-02,
          3.85250431e-03, 1.04567967e-02, 5.50357718e-03, 4.95321956e-03,
          4.95321956e-03, 6.60429290e-03, 8.25536624e-03, 1.10071548e-03,
          2.20143087e-02, 6.05393527e-03, 9.90643911e-03, 6.05393527e-03,
          2.20143097e-03, 6.60429290e-03, 1.10071548e-03, 3.85250431e-03,
          5.50357718e-03, 5.50357718e-03, 6.60429290e-03, 3.30214645e-03,
          6.60429290e-03, 4.95321956e-03, 6.05393527e-03, 6.60429290e-03,
          4.95321956e-03, 7.15465052e-03, 3.30214645e-03, 6.05393527e-03,
          5.50357718e-03, 6.60429290e-03, 7.70500861e-03, 5.50357718e-03,
          7.70500861e-03, 3.30214645e-03, 6.60429290e-03, 5.50357718e-03,
          2.75178859e-03, 9.90643911e-03, 6.60429290e-03, 1.15575129e-02,
          6.05393527e-03, 9.35608149e-03, 8.25536624e-03, 1.04567967e-02,
          5.50357718e-03, 3.30214645e-03, 8.80572386e-03, 9.35608149e-03,
          9.35608149e-03, 6.05393527e-03, 6.05393527e-03, 3.30214645e-03,
          9.35608149e-03, 7.15465052e-03, 2.20143097e-03, 6.60429290e-03,
          6.05393527e-03, 1.10071548e-03, 2.14639511e-02, 5.50357718e-03,
          8.80572386e-03, 4.95321956e-03, 3.85250431e-03, 8.25536624e-03,
          4.95321956e-03, 2.75178859e-03, 5.50357718e-03, 2.20143097e-03,
          6.60429290e-03, 1.21078705e-02, 7.70500861e-03, 9.35608149e-03,
          4.40286193e-03, 1.65107322e-03, 6.05393527e-03, 6.60429290e-03,
          6.60429290e-03, 1.10071544e-02, 9.35608149e-03, 3.85250431e-03,
          3.85250431e-03, 4.95321956e-03, 7.70500861e-03, 5.50357718e-03,
          5.50357718e-03, 5.50357718e-03, 2.20143097e-03, 7.15465052e-03,
          1.04567967e-02, 5.50357718e-03, 3.30214645e-03, 4.95321956e-03,
          1.10071548e-03, 1.65107322e-03, 5.50357718e-03, 1.65107322e-03,
          8.25536624e-03, 3.85250431e-03, 1.65107322e-03, 7.15465052e-03,
          6.60429290e-03, 5.50357741e-04, 4.95321956e-03, 1.65107322e-03,
          9.90643911e-03, 2.20143097e-03, 3.85250431e-03, 5.50357718e-03,
          4.40286193e-03, 7.15465052e-03, 1.10071548e-03, 9.90643911e-03,
          9.35608149e-03, 4.40286193e-03, 6.05393527e-03, 8.80572386e-03,
          1.10071548e-03, 4.95321956e-03, 1.65107322e-03, 7.15465052e-03,
          8.80572386e-03, 3.85250431e-03, 6.05393527e-03, 4.95321956e-03,
          4.95321956e-03, 2.75178859e-03, 1.65107322e-03, 4.40286193e-03,
          9.90643911e-03, 5.50357718e-03, 7.70500861e-03, 8.25536624e-03,
          8.25536624e-03, 7.15465052e-03, 2.20143097e-03, 7.15465052e-03,
          4.95321956e-03, 4.95321956e-03, 8.25536624e-03, 5.50357718e-03,
          4.40286193e-03, 2.75178859e-03, 0., 1.10071548e-03,
          8.80572386e-03, 1.04567967e-02 ]
      - [ 5.38776675e-03, 6.01138454e-03, 5.07595809e-03, 5.47478301e-03,
          4.18403978e-03, 6.69301301e-03, 6.14190893e-03, 5.20648248e-03,
          7.64294248e-03, 5.89536270e-03, 6.50447747e-03, 6.20717136e-03,
          3.20510496e-03, 5.55454846e-03, 3.85047658e-03, 3.50966235e-03,
          5.20648248e-03, 3.48065700e-03, 4.65537841e-03, 6.90330286e-03,
          1.05434898e-02, 8.18679482e-03, 5.63431345e-03, 6.13465765e-03,
          4.40883217e-03, 3.83597403e-03, 6.03313837e-03, 6.06214395e-03,
          1.00286426e-02, 6.03313837e-03, 5.09771192e-03, 5.98237896e-03,
          4.37257532e-03, 5.22098551e-03, 6.19266881e-03, 4.42333473e-03,
          5.76483784e-03, 6.47547189e-03, 3.67644383e-03, 4.80765710e-03,
          5.72858099e-03, 6.08389825e-03, 6.88154856e-03, 3.50966235e-03,
          5.59805660e-03, 8.53486080e-03, 5.11221495e-03, 4.64087585e-03,
          6.64950488e-03, 5.46753174e-03, 4.92367940e-03, 6.05489267e-03,
          6.51898049e-03, 3.93024180e-03, 7.04107899e-03, 5.61255915e-03,
          3.57492478e-03, 4.04626364e-03, 6.58424245e-03, 6.99031912e-03,
          7.41815008e-03, 6.50447747e-03, 4.85841697e-03, 7.76621560e-03,
          4.37982660e-03, 4.88017080e-03, 6.25067949e-03, 5.95337339e-03,
          5.52554289e-03, 7.54142320e-03, 6.76552672e-03, 4.43058601e-03,
          6.43921504e-03, 6.85979472e-03, 6.38845563e-03, 7.09183840e-03,
          5.32975607e-03, 6.17091451e-03, 6.27243379e-03, 6.85979472e-03,
          6.27243379e-03, 2.49447068e-03, 5.09771192e-03, 4.88017080e-03,
          5.99688198e-03, 4.20579361e-03, 5.22823678e-03, 4.92367940e-03,
          5.46753174e-03, 7.10634096e-03, 7.91124348e-03, 5.42402361e-03,
          6.25793124e-03, 6.53348304e-03, 7.17160339e-03, 4.56111087e-03,
          8.86117201e-03, 5.88085968e-03, 5.37326420e-03, 4.87291953e-03,
          4.18403978e-03, 6.96856529e-03, 6.42471248e-03, 5.13396878e-03,
          6.81628659e-03, 6.57699117e-03, 6.61324803e-03, 5.98237896e-03,
          5.52554289e-03, 5.13396878e-03, 4.02450934e-03, 5.31525305e-03,
          5.96787641e-03, 5.14122006e-03, 4.69888700e-03, 5.87360840e-03,
          6.15641195e-03, 9.70233139e-03, 6.33769622e-03, 4.52485401e-03,
          5.75033529e-03, 3.43714864e-03, 5.25724236e-03, 4.35082102e-03,
          6.98306784e-03, 5.61255915e-03, 4.93818196e-03, 4.48859716e-03,
          6.04764139e-03, 4.62637329e-03, 8.09977856e-03, 4.95993625e-03,
          5.99688198e-03, 5.67057030e-03, 1.25666214e-02, 7.09183840e-03,
          7.33838510e-03, 7.71545619e-03, 7.70095317e-03, 5.54729672e-03,
          7.96200242e-03, 6.18541753e-03, 5.51103987e-03, 7.28037395e-03,
          6.95406226e-03, 6.99757040e-03, 6.11290382e-03, 5.93887083e-03,
          8.73064809e-03, 7.54142320e-03, 4.48859716e-03, 4.90192510e-03,
          6.04764139e-03, 7.15710083e-03, 4.85116569e-03, 5.80834597e-03,
          7.28762522e-03, 4.48859716e-03, 1.98687497e-03, 6.33044494e-03,
          5.03244996e-03, 5.59080532e-03, 4.46684286e-03, 5.34425862e-03,
          7.20786024e-03, 5.01069566e-03, 2.55973311e-03, 7.35288765e-03,
          7.68645061e-03, 8.50585569e-03 ]
      - [ 0., 1.59651674e-02, 5.80551522e-03, 2.90275761e-03,
          1.16110304e-02, 2.90275761e-03, 4.35413653e-03, 1.59651674e-02,
          5.80551522e-03, 1.45137880e-03, 7.25689391e-03, 0.,
          1.45137878e-02, 8.70827306e-03, 1.01596517e-02, 7.25689391e-03,
          2.90275761e-03, 1.16110304e-02, 1.01596517e-02, 8.70827306e-03,
          4.35413653e-03, 4.35413653e-03, 2.90275761e-03, 4.35413653e-03,
          2.90275761e-03, 8.70827306e-03, 0., 5.80551522e-03,
          5.80551522e-03, 2.90275761e-03, 8.70827306e-03, 4.35413653e-03,
          1.30624091e-02, 4.35413653e-03, 4.35413653e-03, 8.70827306e-03,
          2.90275761e-03, 5.80551522e-03, 1.01596517e-02, 0.,
          1.16110304e-02, 2.90275761e-03, 0., 1.30624091e-02,
          2.90275761e-03, 8.70827306e-03, 7.25689391e-03, 5.80551522e-03,
          7.25689391e-03, 1.45137880e-03, 1.45137880e-03, 7.25689391e-03,
          2.90275761e-03, 5.80551522e-03, 1.16110304e-02, 8.70827306e-03,
          1.16110304e-02, 0., 4.35413653e-03, 2.90275761e-03,
          2.03193035e-02, 4.35413653e-03, 7.25689391e-03, 4.35413653e-03,
          0., 8.70827306e-03, 5.80551522e-03, 1.01596517e-02, 0.,
          8.70827306e-03, 2.90275761e-03, 8.70827306e-03, 1.45137878e-02,
          1.45137880e-03, 1.45137880e-03, 5.80551522e-03, 4.35413653e-03,
          1.88679248e-02, 5.80551522e-03, 1.45137880e-03, 0., 0.,
          2.32220609e-02, 5.80551522e-03, 8.70827306e-03, 2.90275761e-03,
          2.90275761e-03, 5.80551522e-03, 1.16110304e-02, 1.45137880e-03,
          4.35413653e-03, 1.45137880e-03, 8.70827306e-03, 4.35413653e-03,
          8.70827306e-03, 7.25689391e-03, 1.45137880e-03, 1.45137880e-03,
          1.45137878e-02, 4.35413653e-03, 0., 0., 8.70827306e-03,
          1.45137880e-03, 7.25689391e-03, 0., 5.80551522e-03,
          1.45137880e-03, 1.45137880e-03, 1.45137880e-03, 0.,
          1.16110304e-02, 2.03193035e-02, 4.35413653e-03, 1.45137880e-03,
          7.25689391e-03, 2.90275761e-03, 8.70827306e-03, 5.80551522e-03,
          0., 1.16110304e-02, 1.59651674e-02, 0., 1.45137880e-03,
          7.25689391e-03, 2.90275761e-03, 7.25689391e-03, 1.16110304e-02,
          5.80551522e-03, 8.70827306e-03, 4.35413653e-03, 2.90275761e-03,
          4.35413653e-03, 8.70827306e-03, 1.01596517e-02, 7.25689391e-03,
          7.25689391e-03, 1.45137880e-03, 8.70827306e-03, 8.70827306e-03,
          4.35413653e-03, 5.80551522e-03, 0., 1.16110304e-02,
          7.25689391e-03, 4.35413653e-03, 2.90275761e-03, 2.90275761e-03,
          5.80551522e-03, 5.80551522e-03, 0., 5.80551522e-03,
          5.80551522e-03, 2.90275761e-03, 1.16110304e-02, 0.,
          4.35413653e-03, 4.35413653e-03, 7.25689391e-03, 5.80551522e-03,
          2.90275761e-03, 2.90275761e-03, 2.90275761e-03, 7.25689391e-03,
          4.35413653e-03, 2.90275761e-03, 1.45137878e-02, 2.90275761e-03,
          1.45137880e-03, 8.70827306e-03 ]
      - [ 6.41250424e-03, 3.20625212e-03, 6.06182031e-03, 5.56084374e-03,
          7.81523995e-03, 3.65713122e-03, 1.95380999e-03, 9.46846325e-03,
          3.60703375e-03, 4.10801033e-03, 6.96357898e-03, 3.70722893e-03,
          5.00976900e-03, 8.51660687e-03, 4.15810803e-03, 6.21211343e-03,
          6.91348128e-03, 1.67827252e-02, 7.91543536e-03, 2.60507991e-03,
          5.86142950e-03, 8.86729080e-03, 6.26221113e-03, 1.18230544e-02,
          5.16006211e-03, 8.41641147e-03, 1.08211013e-02, 6.86338358e-03,
          7.26416474e-03, 5.16006211e-03, 4.95967129e-03, 2.00390769e-03,
          4.85947588e-03, 3.65713122e-03, 5.00976900e-03, 6.86338358e-03,
          3.55693605e-03, 4.90957359e-03, 6.06182031e-03, 8.26611836e-03,
          5.51074604e-03, 7.31426245e-03, 8.51660687e-03, 6.06182031e-03,
          3.75732663e-03, 6.61289506e-03, 5.00976900e-03, 1.10715898e-02,
          4.10801033e-03, 5.31035522e-03, 6.01172261e-03, 5.00976900e-03,
          5.96162491e-03, 6.16201572e-03, 2.40468909e-03, 5.46064833e-03,
          6.21211343e-03, 4.45869425e-03, 7.01367669e-03, 6.71309046e-03,
          2.60507991e-03, 5.31035522e-03, 8.26611836e-03, 9.31817014e-03,
          5.05986670e-03, 2.95576360e-03, 7.16396980e-03, 8.56670458e-03,
          5.36045292e-03, 6.16201572e-03, 6.81328587e-03, 8.81719310e-03,
          5.51074604e-03, 5.36045292e-03, 8.26611836e-03, 6.41250424e-03,
          6.31230883e-03, 5.10996440e-03, 8.51660687e-03, 6.46260194e-03,
          5.00976900e-03, 2.00390769e-03, 5.41055063e-03, 4.65908507e-03,
          1.03702219e-02, 3.05595901e-03, 6.31230883e-03, 6.66299276e-03,
          3.05595901e-03, 6.56279735e-03, 6.26221113e-03, 2.90566590e-03,
          2.90566590e-03, 1.30754970e-02, 7.66494637e-03, 7.21406750e-03,
          7.31426245e-03, 1.75341917e-03, 3.35654523e-03, 7.46455556e-03,
          3.95771768e-03, 5.16006211e-03, 5.56084374e-03, 5.21015981e-03,
          4.50879196e-03, 3.50683834e-03, 8.06572754e-03, 5.66103868e-03,
          6.21211343e-03, 4.80937818e-03, 3.10605671e-03, 7.71504408e-03,
          4.50879196e-03, 8.36631376e-03, 4.80937818e-03, 8.21602065e-03,
          2.25439598e-03, 4.95967129e-03, 5.10996440e-03, 1.30253995e-03,
          8.61680228e-03, 4.15810803e-03, 4.35849885e-03, 4.90957359e-03,
          4.35849885e-03, 2.55498220e-03, 7.96553306e-03, 6.16201572e-03,
          7.06377439e-03, 6.31230883e-03, 5.86142950e-03, 7.51465326e-03,
          8.36631376e-03, 3.95771768e-03, 9.01758391e-03, 5.96162491e-03,
          4.95967129e-03, 6.01172261e-03, 6.46260194e-03, 5.00976900e-03,
          1.04704173e-02, 5.41055063e-03, 4.05791262e-03, 5.21015981e-03,
          5.86142950e-03, 3.10605671e-03, 4.85947588e-03, 3.75732663e-03,
          7.26416474e-03, 2.95576360e-03, 1.50293065e-03, 6.66299276e-03,
          7.81523995e-03, 5.26025752e-03, 7.61484867e-03, 5.51074604e-03,
          4.75928048e-03, 1.22238360e-02, 5.41055063e-03, 3.80742433e-03,
          5.05986670e-03, 7.56475097e-03, 9.46846325e-03, 9.71895177e-03,
          2.90566590e-03, 1.50293065e-03, 4.35849885e-03, 3.35654523e-03,
          6.41250424e-03, 6.21211343e-03 ]
      - [ 4.54019010e-03, 3.47463530e-03, 7.41255516e-03, 5.46675967e-03,
          6.34700060e-03, 5.00347465e-03, 2.31642346e-03, 9.72897839e-03,
          4.81816102e-03, 7.31989834e-03, 5.83738741e-03, 3.56729212e-03,
          2.54806597e-03, 6.11535832e-03, 1.01922639e-03, 2.87236506e-03,
          6.67129969e-03, 1.82997454e-02, 3.52096371e-03, 4.07690555e-03,
          8.47810972e-03, 9.08038020e-03, 5.60574513e-03, 1.19064171e-02,
          4.77183238e-03, 5.18878875e-03, 1.04239061e-02, 7.13458424e-03,
          9.58999339e-03, 4.40120464e-03, 3.98424827e-03, 4.91081784e-03,
          1.38985412e-03, 5.09613194e-03, 4.54019010e-03, 5.97637286e-03,
          2.96502211e-03, 5.42043103e-03, 3.05767916e-03, 7.69052608e-03,
          8.15381110e-03, 7.59786926e-03, 8.43178201e-03, 3.65994917e-03,
          4.07690555e-03, 5.88371558e-03, 3.28932144e-03, 8.57076701e-03,
          3.19666439e-03, 4.26221918e-03, 6.25434332e-03, 3.24299303e-03,
          4.72550420e-03, 5.46675967e-03, 2.91869370e-03, 4.44753328e-03,
          2.68705119e-03, 5.74473012e-03, 7.50521244e-03, 6.85661379e-03,
          1.76048186e-03, 5.55941649e-03, 1.04239061e-02, 9.96062160e-03,
          4.40120464e-03, 3.24299303e-03, 1.01459352e-02, 6.67129969e-03,
          4.63284692e-03, 7.92216882e-03, 6.67129969e-03, 6.43965742e-03,
          6.81028515e-03, 6.39332877e-03, 8.43178201e-03, 6.53231423e-03,
          7.92216882e-03, 5.79105876e-03, 8.61709565e-03, 5.88371558e-03,
          4.67917556e-03, 3.52096371e-03, 1.94579572e-03, 4.95714648e-03,
          1.19990734e-02, 3.93792009e-03, 6.90294197e-03, 7.18091289e-03,
          3.56729212e-03, 5.65207331e-03, 7.96849653e-03, 4.26221918e-03,
          4.30854782e-03, 1.24160303e-02, 1.24623589e-02, 6.76395651e-03,
          7.96849653e-03, 2.50173733e-03, 3.19666439e-03, 1.22307166e-02,
          3.89159145e-03, 6.48598606e-03, 6.85661379e-03, 4.03057691e-03,
          6.85661379e-03, 4.26221918e-03, 9.40467976e-03, 7.36622699e-03,
          7.55154062e-03, 5.65207331e-03, 4.21589101e-03, 8.01482517e-03,
          3.52096371e-03, 7.69052608e-03, 5.88371558e-03, 6.57864287e-03,
          2.96502211e-03, 7.41255516e-03, 4.95714648e-03, 2.59439438e-03,
          6.16168650e-03, 1.48251106e-03, 3.47463530e-03, 4.54019010e-03,
          4.26221918e-03, 2.77970824e-03, 6.43965742e-03, 2.45540892e-03,
          6.53231423e-03, 3.28932144e-03, 6.39332877e-03, 8.01482517e-03,
          9.12670884e-03, 3.01135052e-03, 3.84526304e-03, 6.62497105e-03,
          6.39332877e-03, 6.43965742e-03, 8.24646745e-03, 5.23511739e-03,
          5.28144557e-03, 3.98424827e-03, 2.91869370e-03, 7.78318290e-03,
          6.67129969e-03, 2.54806597e-03, 3.38197825e-03, 5.55941649e-03,
          7.59786926e-03, 3.56729212e-03, 1.94579572e-03, 6.57864287e-03,
          8.47810972e-03, 6.57864287e-03, 9.40467976e-03, 6.57864287e-03,
          7.27356970e-03, 8.15381110e-03, 1.66782492e-03, 3.79893463e-03,
          5.97637286e-03, 5.55941649e-03, 1.25086866e-02, 1.50567526e-02,
          2.77970824e-03, 1.43618253e-03, 2.91869370e-03, 6.02270104e-03,
          8.20013974e-03, 6.67129969e-03 ]
      - [ 5.18134702e-03, 2.59067351e-03, 6.47668354e-03, 1.29533675e-03,
          5.18134702e-03, 2.59067351e-03, 1.29533675e-03, 6.47668354e-03,
          1.29533675e-03, 1.03626940e-02, 3.88601026e-03, 1.29533675e-03,
          0., 6.47668354e-03, 2.59067351e-03, 2.59067351e-03,
          2.59067351e-03, 2.07253881e-02, 2.59067351e-03, 5.18134702e-03,
          5.18134702e-03, 2.59067351e-03, 1.03626940e-02, 2.84974091e-02,
          1.29533675e-03, 9.06735752e-03, 2.20207255e-02, 5.18134702e-03,
          5.18134702e-03, 6.47668354e-03, 2.59067351e-03, 1.29533675e-03,
          1.55440411e-02, 1.29533675e-03, 3.88601026e-03, 7.77202053e-03,
          2.59067351e-03, 3.88601026e-03, 3.88601026e-03, 1.16580306e-02,
          1.29533671e-02, 2.59067351e-03, 3.88601026e-03, 3.88601026e-03,
          5.18134702e-03, 5.18134702e-03, 1.03626940e-02, 1.55440411e-02,
          1.03626940e-02, 3.88601026e-03, 6.47668354e-03, 6.47668354e-03,
          5.18134702e-03, 7.77202053e-03, 1.29533675e-03, 9.06735752e-03,
          9.06735752e-03, 3.88601026e-03, 1.29533675e-03, 6.47668354e-03,
          7.77202053e-03, 9.06735752e-03, 2.07253881e-02, 6.47668354e-03,
          5.18134702e-03, 5.18134702e-03, 3.88601026e-03, 9.06735752e-03,
          2.59067351e-03, 3.88601026e-03, 5.18134702e-03, 1.16580306e-02,
          9.06735752e-03, 5.18134702e-03, 1.81347150e-02, 3.88601026e-03,
          7.77202053e-03, 3.88601026e-03, 7.77202053e-03, 3.88601026e-03,
          3.88601026e-03, 0., 7.77202053e-03, 5.18134702e-03,
          1.94300506e-02, 2.59067351e-03, 1.16580306e-02, 5.18134702e-03,
          6.47668354e-03, 9.06735752e-03, 9.06735752e-03, 0.,
          2.59067351e-03, 2.20207255e-02, 1.29533671e-02, 7.77202053e-03,
          7.77202053e-03, 0., 1.03626940e-02, 1.29533671e-02,
          1.29533675e-03, 1.29533675e-03, 6.47668354e-03, 0., 0.,
          1.29533675e-03, 6.47668354e-03, 7.77202053e-03, 6.47668354e-03,
          5.18134702e-03, 2.59067351e-03, 9.06735752e-03, 9.06735752e-03,
          9.06735752e-03, 1.29533675e-03, 2.59067351e-03, 0.,
          1.29533675e-03, 2.59067351e-03, 1.29533675e-03, 1.16580306e-02,
          2.59067351e-03, 3.88601026e-03, 1.29533675e-03, 5.18134702e-03,
          1.29533675e-03, 6.47668354e-03, 0., 1.29533675e-03,
          2.59067351e-03, 1.29533675e-03, 3.88601026e-03, 1.16580306e-02,
          7.77202053e-03, 2.59067351e-03, 6.47668354e-03, 5.18134702e-03,
          2.59067351e-03, 5.18134702e-03, 9.06735752e-03, 2.59067351e-03,
          1.29533675e-03, 1.29533675e-03, 3.88601026e-03, 7.77202053e-03,
          5.18134702e-03, 1.29533675e-03, 2.59067351e-03, 9.06735752e-03,
