%YAML:1.0
---
opencv_ml_svm:
   format: 3
   svmType: C_SVC
   kernel:
      type: RBF
      gamma: 5.0625000000000009e-01
   C: 3.1250000000000000e+02
   term_criteria: { iterations:100 }
   var_count: 200
   class_count: 2
   class_labels: !!opencv-matrix
      rows: 2
      cols: 1
      dt: i
      data: [ 0, 1 ]
   sv_total: 100
   support_vectors:
      - [ 2.11339165e-02, 5.18187368e-03, 8.63645598e-03, 3.04816104e-03,
          2.33692350e-03, 4.26742528e-03, 4.47063614e-03, 2.54013413e-03,
          8.12842918e-04, 3.65779316e-03, 4.57224157e-03, 5.48668951e-03,
          3.96260945e-03, 3.25137167e-03, 3.55618773e-03, 4.06421442e-03,
          4.47063614e-03, 6.60434877e-03, 6.19792705e-03, 4.16581985e-03,
          9.14448290e-04, 8.33163969e-03, 4.16581985e-03, 2.13371264e-03,
          7.01077003e-03, 7.31558632e-03, 5.79150580e-03, 5.89311123e-03,
          3.96260945e-03, 3.45458230e-03, 4.57224157e-03, 3.45458230e-03,
          3.35297710e-03, 2.43852870e-03, 1.11765899e-02, 4.26742528e-03,
          6.90916460e-03, 1.52408052e-03, 9.95732564e-03, 4.26742528e-03,
          4.18614112e-02, 9.34769399e-03, 3.45458230e-03, 2.84495018e-03,
          5.18187368e-03, 4.87705739e-03, 2.94655561e-03, 8.73806141e-03,
          2.64173956e-03, 9.85572021e-03, 2.74334475e-03, 5.38508454e-03,
          4.06421442e-03, 5.28347911e-03, 6.70595421e-03, 3.55618773e-03,
          4.36903071e-03, 5.68990037e-03, 2.43852870e-03, 4.77545196e-03,
          9.14448290e-04, 6.50274334e-03, 5.58829494e-03, 3.65779316e-03,
          4.77545196e-03, 5.48668951e-03, 3.35297710e-03, 4.57224157e-03,
          6.19792705e-03, 9.14448290e-04, 3.25137167e-03, 8.33163969e-03,
          3.04816104e-03, 8.53485055e-03, 3.45458230e-03, 2.84495018e-03,
          5.99471666e-03, 2.33692350e-03, 3.04816104e-03, 3.25137167e-03,
          2.54013413e-03, 1.81873608e-02, 1.62568584e-03, 2.74334475e-03,
          3.96260945e-03, 8.63645598e-03, 1.97114404e-02, 4.36903071e-03,
          2.64173956e-03, 2.64173956e-03, 3.75939859e-03, 2.84495018e-03,
          6.80755964e-03, 3.25137167e-03, 7.82361347e-03, 5.48668951e-03,
          5.68990037e-03, 3.35297710e-03, 6.29953248e-03, 4.26742528e-03,
          1.52408052e-03, 5.38508454e-03, 6.50274334e-03, 1.52408052e-03,
          2.94655561e-03, 7.11237546e-04, 6.60434877e-03, 4.97866282e-03,
          2.23531807e-03, 5.68990037e-03, 3.65779316e-03, 7.62040215e-03,
          2.43852870e-03, 1.82889658e-03, 5.89311123e-03, 8.12842918e-04,
          2.84495018e-03, 5.18187368e-03, 3.86100379e-03, 5.38508454e-03,
          1.52408052e-03, 8.02682340e-03, 4.26742528e-03, 7.62040215e-03,
          1.01605360e-03, 8.73806141e-03, 6.09632209e-03, 4.36903071e-03,
          6.29953248e-03, 2.74334475e-03, 5.08026825e-03, 2.64173956e-03,
          5.79150580e-03, 1.93050189e-03, 1.27006704e-02, 1.42247509e-03,
          3.55618773e-03, 3.45458230e-03, 4.36903071e-03, 5.48668951e-03,
          3.96260945e-03, 5.38508454e-03, 3.65779316e-03, 4.47063614e-03,
          7.01077003e-03, 2.43852870e-03, 3.65779316e-03, 3.04816104e-03,
          5.58829494e-03, 6.80755964e-03, 6.09632174e-04, 7.21398089e-03,
          5.38508454e-03, 5.79150580e-03, 2.43852870e-03, 6.60434877e-03,
          8.12842918e-04, 3.86100379e-03, 9.14448290e-04, 1.93050189e-03,
          1.93050189e-03, 9.95732564e-03, 7.31558632e-03, 7.62040215e-03,
          2.13371264e-03, 2.94655561e-03, 7.01077003e-03, 3.35297710e-03,
          4.67384700e-03, 5.79150580e-03, 1.30054867e-02, 5.99471666e-03,
          7.01077003e-03, 2.54013413e-03, 5.68990037e-03, 1.11765903e-03,
          2.43852870e-03, 2.43852870e-03, 6.80755964e-03, 4.16581985e-03,
          1.93050189e-03, 3.45458230e-03, 1.91018078e-02, 4.77545196e-03,
          5.08026802e-04, 5.89311123e-03, 5.28347911e-03, 1.82889658e-03,
          7.21398089e-03, 2.84495018e-03, 4.47063614e-03, 2.94655561e-03,
          3.75939859e-03, 1.21926435e-03, 2.13371264e-03, 2.23531807e-03,
          4.67384700e-03, 7.82361347e-03, 7.31558632e-03, 7.51879718e-03 ]
      - [ 1.51602284e-03, 3.65936547e-03, 2.61383248e-03, 5.90726128e-03,
          1.08735431e-02, 6.37775101e-03, 6.06409134e-03, 8.31198692e-03,
          6.90051774e-03, 3.97302536e-03, 1.35919289e-03, 5.80270821e-03,
          1.04030529e-02, 4.96628182e-03, 4.44351509e-03, 7.42328446e-03,
          5.69815468e-03, 6.16864488e-03, 9.77573358e-03, 5.59360161e-03,
          2.45700264e-03, 1.25463959e-03, 4.33896203e-03, 3.92074883e-03,
          5.33221848e-03, 5.22766495e-03, 9.72345658e-03, 5.59360161e-03,
          6.37775101e-03, 7.31873093e-04, 3.55481217e-03, 1.28077790e-02,
          5.12311142e-03, 6.95279427e-03, 4.86172829e-03, 5.90726128e-03,
          5.75043145e-04, 7.47556100e-03, 5.75043145e-04, 4.39123856e-03,
          5.75043145e-04, 3.18887550e-03, 7.10962433e-03, 5.54132462e-03,
          6.27319794e-03, 5.90726128e-03, 6.53458107e-03, 2.92749237e-03,
          1.06644370e-02, 9.67118051e-03, 2.66610924e-03, 5.69815468e-03,
          1.46374619e-03, 3.50253563e-03, 2.97976891e-03, 3.92074883e-03,
          4.80945176e-03, 2.77066231e-03, 8.83475412e-03, 5.38449502e-03,
          1.25463959e-02, 1.51602284e-03, 3.55481217e-03, 5.33221848e-03,
          7.05734780e-03, 2.19561928e-03, 6.84824120e-03, 1.16054164e-02,
          5.38449502e-03, 1.88195938e-03, 3.71164223e-03, 3.86847206e-03,
          5.85498475e-03, 8.57337005e-03, 5.22766495e-03, 4.02530190e-03,
          6.32547447e-03, 5.17538842e-03, 5.64587815e-03, 4.86172829e-03,
          1.21281827e-02, 3.18887550e-03, 1.30691624e-03, 5.80270821e-03,
          1.62057613e-03, 5.90726128e-03, 1.04553299e-03, 1.42715257e-02,
          3.71164223e-03, 2.87521584e-03, 1.56829949e-03, 6.58685807e-03,
          1.42715257e-02, 5.59360161e-03, 1.98651268e-03, 2.14334251e-03,
          8.57337005e-03, 3.03204567e-03, 1.62057613e-03, 5.12311142e-03,
          4.07757889e-03, 6.79596444e-04, 1.12917563e-02, 6.74368767e-03,
          2.77066231e-03, 5.54132462e-03, 4.65262169e-03, 2.61383248e-03,
          1.15531394e-02, 6.27319794e-04, 6.84824120e-03, 1.35919289e-03,
          1.46374619e-03, 4.39123856e-03, 7.63239060e-03, 5.90726128e-03,
          3.39798210e-03, 9.56662651e-03, 1.17099695e-02, 1.46374619e-03,
          5.59360161e-03, 8.41654092e-03, 1.77740608e-03, 1.56829949e-04,
          5.22766495e-03, 3.71164223e-03, 1.01939468e-02, 6.43002801e-03,
          9.51435044e-03, 5.80270821e-03, 4.70489846e-04, 3.24115227e-03,
          7.73694413e-03, 9.30524338e-03, 2.09106598e-03, 2.03878945e-03,
          5.27994148e-03, 5.38449502e-03, 1.20236294e-03, 7.31873093e-04,
          2.03878945e-03, 1.09780964e-03, 2.82293907e-03, 5.59360161e-03,
          3.39798210e-03, 7.10962433e-03, 3.71164223e-03, 1.77740608e-03,
          4.91400529e-03, 1.09780964e-03, 6.53458107e-03, 3.65936547e-03,
          4.60034516e-03, 8.88703042e-04, 5.90726128e-03, 9.61890351e-03,
          7.94605073e-03, 4.44351509e-03, 7.16190087e-03, 1.06644370e-02,
          1.98651268e-03, 3.29342904e-03, 1.56829949e-03, 5.22766495e-03,
          9.82801057e-03, 8.05060379e-03, 2.30017258e-03, 8.05060379e-03,
          4.70489846e-04, 6.79596420e-03, 4.39123856e-03, 1.67285278e-03,
          5.33221848e-03, 2.87521584e-03, 8.83475412e-03, 2.82293907e-03,
          8.36426392e-03, 4.49579209e-03, 1.09780964e-03, 7.52783753e-03,
          6.01181481e-03, 1.35919289e-03, 1.09780964e-03, 8.88703042e-04,
          3.45025887e-03, 4.80945176e-03, 2.77066231e-03, 5.80270821e-03,
          5.85498475e-03, 5.33221848e-03, 6.16864488e-03, 7.42328446e-03,
          4.07757889e-03, 5.54132462e-03, 5.12311142e-03, 6.90051774e-03,
          7.31873093e-04, 7.84149743e-04, 3.45025887e-03, 4.86172829e-03 ]
      - [ 1.81615795e-03, 4.45251632e-03, 1.75757229e-03, 3.98383057e-03,
          6.21008873e-03, 2.57777260e-03, 4.10100212e-03, 8.55351798e-03,
          5.15554519e-03, 6.62018871e-03, 6.44443149e-04, 7.20604602e-03,
          9.08078998e-03, 1.08383624e-02, 6.67877449e-03, 7.49897491e-03,
          3.69090168e-03, 7.14746024e-03, 7.73331802e-03, 4.80403099e-03,
          6.62018871e-03, 2.92928715e-04, 4.97978786e-03, 1.08383624e-02,
          3.39797302e-03, 2.05050106e-03, 1.31232059e-02, 1.52322929e-03,
          7.20604602e-03, 2.51918682e-03, 1.64040073e-03, 1.25959348e-02,
          4.45251632e-03, 6.44443138e-03, 2.63635837e-03, 3.33938724e-03,
          8.78786144e-04, 1.20686628e-02, 8.20200366e-04, 8.08483269e-03,
          9.37371864e-04, 4.51110210e-03, 5.38988831e-03, 6.44443138e-03,
          5.68281673e-03, 4.74544521e-03, 3.86665901e-03, 2.34342972e-03,
          8.37776065e-03, 8.26058909e-03, 2.57777260e-03, 5.85857406e-03,
          1.99191528e-03, 1.46464352e-03, 1.87474373e-03, 8.96361843e-03,
          3.86665901e-03, 3.57373012e-03, 5.85857406e-03, 3.51514458e-03,
          1.00767473e-02, 1.28888630e-03, 3.16363014e-03, 7.96766113e-03,
          8.55351798e-03, 2.10908661e-03, 7.85048958e-03, 7.67473225e-03,
          4.97978786e-03, 4.86261677e-03, 4.62827366e-03, 1.93332951e-03,
          9.13937576e-03, 7.96766113e-03, 8.72927532e-03, 4.27675899e-03,
          2.87070125e-03, 6.91311760e-03, 5.68281673e-03, 4.74544521e-03,
          3.57373012e-03, 2.28484394e-03, 2.05050106e-03, 3.92524479e-03,
          2.28484394e-03, 5.09695942e-03, 1.05454330e-03, 1.08969482e-02,
          7.79190380e-03, 3.45655880e-03, 1.46464352e-03, 6.09291717e-03,
          7.08887493e-03, 4.21817321e-03, 2.16767238e-03, 1.40605774e-03,
          5.33130253e-03, 2.05050106e-03, 1.58181507e-03, 4.21817321e-03,
          5.27271675e-03, 2.16767238e-03, 1.31232059e-02, 6.62018871e-03,
          2.69494415e-03, 4.21817321e-03, 3.16363014e-03, 2.16767238e-03,
          7.96766113e-03, 5.27271652e-04, 4.04241635e-03, 4.10100183e-04,
          2.34342972e-03, 9.31513309e-03, 7.61614647e-03, 8.96361843e-03,
          5.62423095e-03, 1.01939188e-02, 4.51110210e-03, 2.16767238e-03,
          8.84644687e-03, 8.14341847e-03, 1.46464352e-03, 5.85857430e-04,
          1.34747205e-02, 6.56160293e-03, 1.60524938e-02, 5.85857406e-03,
          3.45655880e-03, 8.49493220e-03, 6.44443149e-04, 3.51514458e-03,
          6.44443138e-03, 5.21413097e-03, 2.16767238e-03, 7.61614647e-03,
          4.80403099e-03, 6.50301715e-03, 3.04645859e-03, 1.99191528e-03,
          3.45655880e-03, 1.99191528e-03, 3.22221569e-03, 8.55351798e-03,
          2.28484394e-03, 5.03837364e-03, 5.74140251e-03, 5.50705986e-03,
          5.15554519e-03, 1.69898651e-03, 1.12484619e-02, 5.97574562e-03,
          3.63231590e-03, 1.64040073e-03, 5.15554519e-03, 8.43634643e-03,
          5.27271675e-03, 3.04645859e-03, 5.56564564e-03, 6.21008873e-03,
          8.20200425e-03, 4.92120208e-03, 1.28888630e-03, 2.98787281e-03,
          7.61614647e-03, 4.45251632e-03, 4.68685944e-03, 6.38584560e-03,
          1.05454330e-03, 6.26867451e-03, 5.03837364e-03, 1.34747208e-03,
          7.03028915e-03, 6.03433140e-03, 4.39393055e-03, 4.68685944e-03,
          5.15554519e-03, 7.14746024e-03, 2.75352993e-03, 7.67473225e-03,
          1.31817916e-02, 1.58181507e-03, 1.17171486e-03, 7.61614647e-04,
          6.91311760e-03, 1.87474373e-03, 3.22221569e-03, 3.45655880e-03,
          3.51514458e-03, 3.69090168e-03, 6.67877449e-03, 6.91311760e-03,
          4.15958744e-03, 9.49089043e-03, 5.33130253e-03, 3.28080147e-03,
          1.05454330e-03, 1.81615795e-03, 4.27675899e-03, 2.05050106e-03 ]
      - [ 7.93650746e-03, 5.20426733e-03, 1.69138680e-03, 1.23601349e-03,
          1.23601349e-03, 1.43117353e-03, 2.08170689e-03, 5.91985416e-03,
          2.53708032e-03, 2.92740040e-03, 1.17096014e-03, 5.85480081e-03,
          3.51288030e-03, 1.02133742e-02, 4.94405394e-03, 6.18006755e-03,
          1.49622688e-03, 3.38277360e-03, 4.22846712e-03, 3.12256021e-03,
          4.42362716e-03, 1.04085344e-03, 4.87900060e-03, 1.17096016e-02,
          2.34192028e-03, 5.85480069e-04, 1.92557890e-02, 6.50533417e-04,
          8.58704094e-03, 3.44782695e-03, 1.56128011e-03, 5.91985416e-03,
          2.79729371e-03, 2.73224036e-03, 6.50533417e-04, 5.00910729e-03,
          2.60213367e-03, 4.34556305e-02, 1.04085344e-03, 6.70049386e-03,
          2.21181358e-03, 1.55477487e-02, 3.38277360e-03, 2.79729371e-03,
          4.03330708e-03, 4.29352047e-03, 1.30106683e-03, 2.01665354e-03,
          2.53708032e-03, 3.30470987e-02, 1.30106683e-03, 1.95160019e-03,
          2.08170689e-03, 7.15586764e-04, 9.75800096e-04, 4.35857382e-03,
          2.34192028e-03, 2.86234706e-03, 2.08170689e-03, 3.64298699e-03,
          2.99245375e-03, 3.57793365e-03, 1.62633345e-03, 1.11891748e-02,
          1.15144411e-02, 1.36612018e-03, 1.36612018e-03, 3.38277360e-03,
          2.40697362e-03, 1.56128011e-03, 1.69138680e-03, 1.30106683e-03,
          2.88186297e-02, 2.86234706e-03, 4.68384055e-03, 3.83814704e-03,
          2.60213361e-04, 9.88810789e-03, 3.18761356e-03, 1.95160024e-02,
          2.34192028e-03, 1.69138680e-03, 7.15586764e-04, 1.69138680e-03,
          1.23601349e-03, 1.93858948e-02, 7.15586764e-04, 3.57793365e-03,
          5.33437403e-03, 1.30106683e-03, 5.85480069e-04, 2.40697362e-03,
          2.40697362e-03, 2.34192028e-03, 1.69138680e-03, 1.10590679e-03,
          1.10590679e-03, 6.50533417e-04, 9.75800096e-04, 4.68384055e-03,
          4.42362716e-03, 1.75644015e-03, 1.95810553e-02, 2.73224036e-03,
          1.04085344e-03, 2.14676023e-03, 5.00910729e-03, 1.23601349e-03,
          3.51288030e-03, 1.49622688e-03, 3.31772026e-03, 2.14676023e-03,
          9.75800096e-04, 9.95316077e-03, 5.39942738e-03, 9.95316077e-03,
          1.01483213e-02, 8.78220052e-03, 1.88654684e-03, 1.43117353e-03,
          4.48868051e-03, 4.81394725e-03, 2.08170689e-03, 8.45693401e-04,
          4.69685122e-02, 5.39942738e-03, 1.58730149e-02, 1.17096014e-03,
          8.45693401e-04, 1.26203476e-02, 3.25266691e-03, 5.33437403e-03,
          2.14676023e-03, 1.36612018e-03, 1.10590679e-03, 1.16445478e-02,
          5.59458742e-03, 4.68384055e-03, 7.35102734e-03, 1.75644015e-03,
          1.36612018e-03, 7.54618738e-03, 4.42362716e-03, 6.96070725e-03,
          5.85480069e-04, 1.43117353e-03, 7.74134742e-03, 1.35961482e-02,
          2.79729371e-03, 3.25266691e-03, 9.10746749e-04, 8.06661416e-03,
          1.36612018e-03, 1.43117353e-03, 2.14676023e-03, 6.11501420e-03,
          1.88654684e-03, 1.17096014e-03, 2.21181358e-03, 2.21181358e-03,
          1.18397083e-02, 5.65964077e-03, 9.75800096e-04, 1.27504542e-02,
          3.64298699e-03, 1.43117353e-03, 7.09081395e-03, 2.01665354e-03,
          7.15586764e-04, 8.32682755e-03, 6.18006755e-03, 1.23601349e-03,
          8.58704094e-03, 4.55373386e-03, 2.27686693e-03, 4.42362716e-03,
          1.49622688e-03, 1.21649746e-02, 1.62633345e-03, 3.45433243e-02,
          2.62815487e-02, 8.00156128e-03, 1.04085344e-03, 9.75800096e-04,
          2.21181358e-03, 3.90320027e-04, 9.75800096e-04, 1.30106683e-03,
          9.10746749e-04, 1.30106683e-03, 1.29456148e-02, 4.16341377e-03,
          2.60213367e-03, 9.36768111e-03, 1.23601349e-03, 7.15586764e-04,
          1.88654684e-03, 1.82149350e-03, 2.40697362e-03, 2.27686693e-03 ]
      - [ 2.98400316e-03, 4.06093663e-03, 5.85582573e-03, 5.40710334e-03,
          5.92313427e-03, 5.49684791e-03, 5.74364513e-03, 6.70839800e-03,
          3.97119205e-03, 5.58659248e-03, 2.10899464e-03, 6.75327005e-03,
          7.49366218e-03, 6.82057859e-03, 5.76608116e-03, 8.77252035e-03,
          4.26286180e-03, 4.59940312e-03, 4.71158372e-03, 4.53209504e-03,
          4.59940312e-03, 7.85263954e-04, 3.43272532e-03, 6.70839800e-03,
          1.07917711e-02, 5.51928394e-03, 8.57059564e-03, 4.37504239e-03,
          8.30136240e-03, 2.62502534e-03, 6.32698415e-03, 7.96482060e-03,
          5.45197586e-03, 4.30773385e-03, 5.60902851e-03, 8.39110650e-03,
          1.72758079e-03, 4.17311722e-03, 2.75964197e-03, 5.38466731e-03,
          3.90388374e-03, 4.84620035e-03, 6.21480355e-03, 6.25967560e-03,
          4.64427564e-03, 6.30454812e-03, 4.89107287e-03, 5.81095368e-03,
          7.56097026e-03, 8.36867001e-03, 3.00643919e-03, 4.24042530e-03,
          3.97119205e-03, 2.55771703e-03, 5.54171996e-03, 6.55134534e-03,
          3.74683109e-03, 3.32054496e-03, 3.54490592e-03, 7.22442847e-03,
          5.27248671e-03, 4.71158372e-03, 4.30773385e-03, 4.08337265e-03,
          6.28211163e-03, 3.11861979e-03, 5.20517863e-03, 7.31417304e-03,
          4.75645624e-03, 3.07374750e-03, 3.90388374e-03, 6.61865342e-03,
          5.96800633e-03, 1.11956205e-02, 5.56415599e-03, 5.60902851e-03,
          7.35904556e-03, 7.38148158e-03, 4.82376432e-03, 5.81095368e-03,
          7.02250376e-03, 6.30454812e-03, 2.17630295e-03, 6.34942017e-03,
          3.63465049e-03, 7.62827881e-03, 4.10580868e-03, 6.82057859e-03,
          4.17311722e-03, 3.79170314e-03, 2.58015306e-03, 4.41991445e-03,
          3.36541701e-03, 5.87826176e-03, 3.16349207e-03, 3.47759761e-03,
          7.24686496e-03, 4.01606457e-03, 5.31735877e-03, 4.84620035e-03,
          4.06093663e-03, 2.26604752e-03, 8.18918180e-03, 5.20517863e-03,
          3.41028930e-03, 4.33016988e-03, 7.56097026e-03, 4.28529782e-03,
          5.02568949e-03, 3.05131148e-03, 5.51928394e-03, 1.59296405e-03,
          2.19873921e-03, 7.26930099e-03, 5.63146453e-03, 4.06093663e-03,
          4.17311722e-03, 6.75327005e-03, 9.42316744e-03, 3.02887545e-03,
          5.45197586e-03, 4.80132829e-03, 4.71158372e-03, 1.72758079e-03,
          2.89425859e-03, 4.41991445e-03, 7.85264000e-03, 5.96800633e-03,
          7.22442847e-03, 4.89107287e-03, 1.48078357e-03, 6.14749501e-03,
          8.14430974e-03, 4.80132829e-03, 4.89107287e-03, 3.25323641e-03,
          7.47122569e-03, 5.90069778e-03, 3.50003364e-03, 2.78207799e-03,
          4.06093663e-03, 1.72758079e-03, 3.83657543e-03, 5.09299804e-03,
          5.76608116e-03, 5.51928394e-03, 3.85901146e-03, 2.64746137e-03,
          3.81413940e-03, 1.57052791e-03, 3.32054496e-03, 5.45197586e-03,
          4.44235047e-03, 3.56734218e-03, 4.10580868e-03, 4.93594492e-03,
          5.27248671e-03, 6.05775090e-03, 4.98081744e-03, 5.09299804e-03,
          3.47759761e-03, 3.58977821e-03, 3.50003364e-03, 1.00738155e-02,
          6.32698415e-03, 5.36223128e-03, 4.80132829e-03, 5.09299804e-03,
          1.63783634e-03, 1.05898455e-02, 3.43272532e-03, 4.21798928e-03,
          7.49366218e-03, 2.84938654e-03, 6.88788714e-03, 3.43272532e-03,
          5.69877308e-03, 5.25005069e-03, 3.27567267e-03, 5.87826176e-03,
          5.09299804e-03, 3.11861979e-03, 3.41028930e-03, 2.89425859e-03,
          3.27567267e-03, 4.48722299e-03, 5.13787009e-03, 4.46478650e-03,
          3.43272532e-03, 7.58340629e-03, 6.39429223e-03, 6.37185620e-03,
          3.65708652e-03, 3.34298098e-03, 4.64427564e-03, 4.77889227e-03,
          2.08655861e-03, 3.63465049e-03, 3.70195881e-03, 8.59303121e-03 ]
      - [ 1.45161292e-02, 5.64516103e-03, 4.03225794e-03, 0.,
          8.06451601e-04, 4.03225794e-03, 7.25806458e-03, 3.22580640e-03,
          8.06451601e-04, 2.41935486e-03, 4.03225794e-03, 4.83870972e-03,
          2.41935486e-03, 4.03225794e-03, 5.64516103e-03, 7.25806458e-03,
          8.06451601e-04, 6.45161280e-03, 4.83870972e-03, 3.22580640e-03,
          8.06451601e-04, 6.45161280e-03, 4.83870972e-03, 8.06451601e-04,
          5.64516103e-03, 4.83870972e-03, 7.25806458e-03, 4.83870972e-03,
          3.22580640e-03, 2.41935486e-03, 3.22580640e-03, 3.22580640e-03,
          3.22580640e-03, 8.06451601e-04, 8.87096766e-03, 2.41935486e-03,
          2.25806441e-02, 4.83870972e-03, 5.64516103e-03, 3.22580640e-03,
          1.45161292e-02, 1.61290318e-02, 8.06451601e-04, 7.25806458e-03,
          2.41935486e-03, 6.45161280e-03, 1.61290320e-03, 6.45161280e-03,
          8.06451601e-04, 5.64516103e-03, 2.41935486e-03, 4.03225794e-03,
          7.25806458e-03, 8.06451589e-03, 5.64516103e-03, 2.41935486e-03,
          2.41935486e-03, 6.45161280e-03, 1.61290320e-03, 2.41935486e-03,
          4.83870972e-03, 1.37096774e-02, 2.41935486e-03, 7.25806458e-03,
          3.22580640e-03, 8.06451601e-04, 8.06451601e-04, 0.,
          3.22580640e-03, 0., 8.06451601e-04, 4.83870972e-03,
          1.12903221e-02, 4.03225794e-03, 2.41935486e-03, 1.61290320e-03,
          4.03225794e-03, 8.87096766e-03, 3.22580640e-03, 1.04838712e-02,
          1.61290320e-03, 4.03225794e-03, 3.22580640e-03, 1.61290320e-03,
          4.03225794e-03, 1.53225800e-02, 6.45161280e-03, 0.,
          6.45161280e-03, 2.41935486e-03, 4.83870972e-03, 1.61290320e-03,
          8.06451601e-04, 3.22580640e-03, 1.37096774e-02, 5.64516103e-03,
          3.22580640e-03, 1.61290320e-03, 8.87096766e-03, 2.41935486e-03,
          4.83870972e-03, 5.64516103e-03, 8.87096766e-03, 0.,
          4.83870972e-03, 3.22580640e-03, 4.83870972e-03, 5.64516103e-03,
          8.06451601e-04, 4.83870972e-03, 8.06451601e-04, 8.06451589e-03,
          3.22580640e-03, 3.22580640e-03, 8.06451601e-04, 3.22580640e-03,
          8.06451589e-03, 1.61290320e-03, 8.06451601e-04, 8.06451589e-03,
          3.22580640e-03, 1.61290320e-03, 1.04838712e-02, 6.45161280e-03,
          2.41935486e-03, 5.64516103e-03, 1.29032256e-02, 4.83870972e-03,
          0., 3.22580640e-03, 8.06451589e-03, 4.83870972e-03,
          5.64516103e-03, 8.06451601e-04, 8.87096766e-03, 3.22580640e-03,
          3.22580640e-03, 7.25806458e-03, 1.69354845e-02, 1.04838712e-02,
          4.83870972e-03, 8.06451589e-03, 3.22580640e-03, 4.03225794e-03,
          7.25806458e-03, 8.06451601e-04, 7.25806458e-03, 8.87096766e-03,
          3.22580640e-03, 2.09677424e-02, 8.06451601e-04, 5.64516103e-03,
          1.61290320e-03, 8.87096766e-03, 2.41935486e-03, 3.22580640e-03,
          2.41935486e-03, 7.25806458e-03, 0., 2.41935486e-03,
          2.41935486e-03, 2.41935486e-03, 4.83870972e-03, 1.69354845e-02,
          1.61290320e-03, 2.41935486e-03, 4.83870972e-03, 1.61290320e-03,
          1.12903221e-02, 1.04838712e-02, 8.87096766e-03, 7.25806458e-03,
          9.67741944e-03, 2.41935486e-03, 2.41935486e-03, 0.,
          3.22580640e-03, 6.45161280e-03, 8.06451589e-03, 1.04838712e-02,
          8.87096766e-03, 6.45161280e-03, 8.87096766e-03, 1.04838712e-02,
          1.61290320e-03, 5.64516103e-03, 6.45161280e-03, 8.06451601e-04,
          1.61290320e-03, 8.06451601e-04, 5.64516103e-03, 3.22580640e-03,
          9.67741944e-03, 4.03225794e-03, 2.41935486e-03, 8.06451601e-04,
          6.45161280e-03, 1.20967738e-02, 6.45161280e-03, 5.64516103e-03 ]
      - [ 5.63607085e-03, 3.22061195e-03, 1.61030591e-02, 5.63607085e-03,
          3.22061195e-03, 3.22061195e-03, 4.83091781e-03, 2.41545890e-03,
          2.41545890e-03, 8.05152988e-04, 1.93236712e-02, 4.02576476e-03,
          4.83091781e-03, 2.41545890e-03, 4.02576476e-03, 3.22061195e-03,
          1.61030598e-03, 4.83091781e-03, 3.22061195e-03, 1.61030598e-03,
          1.61030598e-03, 1.93236712e-02, 3.22061195e-03, 3.22061195e-03,
          1.61030598e-03, 6.44122390e-03, 8.05152988e-04, 7.24637695e-03,
          1.61030598e-03, 1.28824478e-02, 7.24637695e-03, 2.41545890e-03,
          4.83091781e-03, 2.41545890e-03, 4.02576476e-03, 1.61030598e-03,
          7.24637695e-03, 8.05152988e-04, 1.04669891e-02, 2.41545890e-03,
          5.63607085e-03, 3.22061195e-03, 1.61030598e-03, 4.83091781e-03,
          4.02576476e-03, 4.02576476e-03, 1.61030598e-03, 4.02576476e-03,
          3.22061195e-03, 0., 8.05152953e-03, 6.44122390e-03,
          9.66183562e-03, 4.02576476e-03, 1.04669891e-02, 3.22061195e-03,
          7.24637695e-03, 3.22061195e-03, 2.41545890e-03, 1.61030598e-03,
          0., 2.41545890e-03, 4.83091781e-03, 1.61030598e-03,
          1.61030598e-03, 1.61030591e-02, 8.05152953e-03, 4.02576476e-03,
          5.63607085e-03, 2.41545890e-03, 4.02576476e-03, 8.05152953e-03,
          0., 8.05152988e-04, 6.44122390e-03, 4.02576476e-03,
          6.44122390e-03, 2.41545890e-03, 2.41545890e-03, 3.22061195e-03,
          2.41545890e-03, 4.83091781e-03, 1.12721417e-02, 4.83091781e-03,
          1.12721417e-02, 6.44122390e-03, 4.83091781e-03, 4.83091781e-03,
          1.61030598e-03, 9.66183562e-03, 1.28824478e-02, 2.41545890e-03,
          7.24637695e-03, 8.05152953e-03, 5.63607085e-03, 8.85668304e-03,
          3.22061195e-03, 1.20772952e-02, 5.63607085e-03, 4.02576476e-03,
          1.61030598e-03, 1.44927539e-02, 3.22061195e-03, 8.05152988e-04,
          4.83091781e-03, 2.41545890e-03, 3.22061195e-03, 1.12721417e-02,
          8.05152988e-04, 1.28824478e-02, 3.22061195e-03, 2.97906604e-02,
          1.44927539e-02, 1.61030598e-03, 2.41545890e-03, 4.02576476e-03,
          0., 1.61030598e-03, 4.02576476e-03, 2.17391308e-02,
          1.61030598e-03, 2.41545890e-03, 5.63607085e-03, 1.61030591e-02,
          8.05152988e-04, 4.02576476e-03, 5.63607085e-03, 5.63607085e-03,
          4.02576476e-03, 0., 6.44122390e-03, 2.41545890e-03,
          1.61030598e-03, 2.41545890e-03, 3.22061195e-03, 4.02576476e-03,
          1.61030598e-03, 4.02576476e-03, 3.22061195e-03, 1.36876004e-02,
          4.02576476e-03, 4.83091781e-03, 4.02576476e-03, 4.83091781e-03,
          5.63607085e-03, 8.05152988e-04, 0., 8.05152988e-04,
          1.61030598e-03, 3.22061195e-03, 8.05152988e-04, 2.41545890e-03,
          3.22061195e-03, 4.02576476e-03, 2.41545890e-03, 5.63607085e-03,
          8.05152988e-04, 4.83091781e-03, 8.05152988e-04, 5.63607085e-03,
          8.05152988e-04, 3.22061195e-03, 8.85668304e-03, 2.41545890e-03,
          8.05152988e-04, 4.02576476e-03, 2.41545890e-03, 2.41545890e-03,
          1.69082135e-02, 2.41545890e-03, 4.02576476e-03, 1.61030591e-02,
          4.02576476e-03, 8.05152988e-04, 4.83091781e-03, 1.61030598e-03,
          5.63607085e-03, 4.02576476e-03, 1.28824478e-02, 0.,
          2.41545890e-03, 3.22061195e-03, 9.66183562e-03, 1.28824478e-02,
          0., 5.63607085e-03, 5.63607085e-03, 4.02576476e-03,
          5.63607085e-03, 3.22061195e-03, 1.61030598e-03, 1.61030598e-03,
          7.24637695e-03, 4.02576476e-03, 8.05152953e-03, 8.05152988e-04,
          1.28824478e-02, 1.20772952e-02, 9.66183562e-03, 8.05152988e-04 ]
      - [ 4.65270830e-03, 3.98803595e-03, 2.32635415e-03, 0.,
          3.32336320e-04, 4.65270830e-03, 2.65869056e-03, 5.31738112e-03,
          2.65869056e-03, 1.66168157e-03, 1.03024263e-02, 4.32037236e-03,
          9.97008989e-04, 7.31139909e-03, 5.98205393e-03, 3.65569955e-03,
          1.32934528e-03, 7.31139909e-03, 3.32336320e-04, 1.66168157e-03,
          1.99401798e-03, 3.29012945e-02, 6.97906269e-03, 7.31139909e-03,
          1.32934528e-03, 6.64672640e-04, 7.97607191e-03, 1.32934528e-03,
          1.99401798e-03, 8.97308066e-03, 3.32336314e-03, 9.97008989e-04,
          4.65270830e-03, 0., 9.97008989e-04, 3.32336314e-03,
          1.92755070e-02, 1.72814894e-02, 6.64672640e-04, 4.98504471e-03,
          4.98504471e-03, 6.64672628e-03, 2.65869056e-03, 1.32934528e-03,
          2.65869056e-03, 5.98205393e-03, 1.32934528e-03, 4.98504471e-03,
          6.64672640e-04, 7.31139909e-03, 3.98803595e-03, 9.97008989e-04,
          4.98504471e-03, 1.99401798e-03, 1.99401798e-03, 4.65270830e-03,
          5.31738112e-03, 3.32336314e-03, 3.32336320e-04, 2.99102697e-03,
          3.32336320e-04, 5.64971752e-03, 6.64672640e-04, 1.99401798e-03,
          2.32635415e-03, 4.32037236e-03, 9.97008989e-04, 0.,
          1.99401798e-03, 3.32336320e-04, 9.97008989e-04, 3.32336320e-04,
          6.31438987e-03, 3.32336320e-04, 5.31738112e-03, 2.99102697e-03,
          6.64672640e-04, 6.31438987e-03, 6.64672640e-04, 1.69491526e-02,
          3.32336320e-04, 4.98504471e-03, 5.31738112e-03, 6.64672640e-04,
          1.03024263e-02, 9.97008942e-03, 6.31438987e-03, 9.97008989e-04,
          1.99401798e-03, 2.32635415e-03, 8.64074472e-03, 3.32336320e-04,
          3.32336320e-04, 1.99401798e-03, 9.30541661e-03, 7.97607191e-03,
          1.99401798e-03, 1.99401798e-03, 7.97607191e-03, 3.32336314e-03,
          1.19641079e-02, 1.69491526e-02, 7.97607191e-03, 3.32336320e-04,
          9.30541661e-03, 3.98803595e-03, 9.63775348e-03, 2.99102697e-03,
          3.32336320e-04, 6.97906269e-03, 2.65869056e-03, 2.75839139e-02,
          6.31438987e-03, 2.32635415e-03, 2.99102697e-03, 1.06347622e-02,
          1.99401798e-03, 6.64672640e-04, 9.97008989e-04, 7.64373550e-03,
          5.64971752e-03, 1.32934528e-03, 9.97008942e-03, 9.97008942e-03,
          7.64373550e-03, 7.31139909e-03, 1.66168157e-03, 1.32934528e-03,
          0., 3.98803595e-03, 2.69192420e-02, 7.97607191e-03,
          6.64672640e-04, 1.66168157e-03, 3.65569955e-03, 5.98205393e-03,
          5.64971752e-03, 6.31438987e-03, 6.64672628e-03, 2.02725157e-02,
          2.65869056e-03, 5.98205393e-03, 3.32336314e-03, 6.97906269e-03,
          1.99401798e-03, 1.32934528e-03, 8.97308066e-03, 2.62545701e-02,
          3.32336314e-03, 2.02725157e-02, 1.32934528e-03, 7.64373550e-03,
          1.32934528e-03, 2.99102697e-03, 3.32336320e-04, 1.32934528e-03,
          1.66168157e-03, 2.65869056e-03, 3.32336320e-04, 1.32934528e-03,
          1.16317710e-02, 2.65869056e-03, 3.32336320e-04, 3.32336314e-03,
          2.65869056e-03, 0., 9.97008942e-03, 9.97008989e-04,
          2.16018613e-02, 2.65869056e-03, 4.98504471e-03, 1.99401798e-03,
          4.98504471e-03, 9.97008989e-04, 1.66168157e-03, 4.98504471e-03,
          6.64672640e-04, 1.56198069e-02, 4.65270830e-03, 5.31738112e-03,
          1.82784982e-02, 2.09371876e-02, 5.98205393e-03, 1.22964438e-02,
          9.97008989e-04, 6.64672640e-04, 6.64672640e-04, 6.64672640e-04,
          6.64672640e-04, 1.32934528e-03, 2.99102697e-03, 3.32336314e-03,
          3.98803595e-03, 7.64373550e-03, 2.99102697e-03, 9.97008989e-04,
          1.62844788e-02, 6.64672628e-03, 4.32037236e-03, 1.66168157e-03 ]
      - [ 2.90697673e-03, 3.39147286e-03, 4.84496122e-03, 3.87596898e-03,
          3.39147286e-03, 4.84496122e-03, 2.90697673e-03, 2.90697673e-03,
          1.45348837e-03, 6.78294571e-03, 7.26744160e-03, 7.75193796e-03,
          3.87596898e-03, 5.32945711e-03, 3.39147286e-03, 6.78294571e-03,
          3.87596898e-03, 5.81395347e-03, 5.32945711e-03, 4.36046533e-03,
          5.81395347e-03, 9.20542609e-03, 3.87596898e-03, 2.90697673e-03,
          5.81395347e-03, 9.20542609e-03, 3.87596898e-03, 5.81395347e-03,
          1.45348837e-03, 3.39147286e-03, 8.23643431e-03, 3.39147286e-03,
          5.81395347e-03, 2.90697673e-03, 4.36046533e-03, 1.45348837e-03,
          1.55038759e-02, 8.72093067e-03, 5.81395347e-03, 4.36046533e-03,
          1.40503878e-02, 5.81395347e-03, 2.42248061e-03, 5.32945711e-03,
          2.90697673e-03, 4.84496122e-03, 1.45348837e-03, 8.72093067e-03,
          1.45348837e-03, 8.72093067e-03, 6.29844982e-03, 3.39147286e-03,
          3.39147286e-03, 1.45348837e-03, 5.32945711e-03, 1.16279069e-02,
          2.42248061e-03, 5.32945711e-03, 3.39147286e-03, 5.32945711e-03,
          9.68992244e-04, 6.29844982e-03, 3.87596898e-03, 1.93798449e-03,
          5.32945711e-03, 5.81395347e-03, 5.32945711e-03, 2.90697673e-03,
          4.84496122e-03, 2.90697673e-03, 8.23643431e-03, 8.23643431e-03,
          4.36046533e-03, 4.36046533e-03, 1.11434106e-02, 2.42248061e-03,
          7.75193796e-03, 4.36046533e-03, 3.87596898e-03, 6.78294571e-03,
          2.42248061e-03, 4.84496122e-03, 3.87596898e-03, 3.39147286e-03,
          6.29844982e-03, 1.40503878e-02, 5.81395347e-03, 4.84496122e-03,
          2.90697673e-03, 3.39147286e-03, 5.32945711e-03, 5.32945711e-03,
          1.45348837e-03, 5.32945711e-03, 4.84496122e-03, 6.29844982e-03,
          5.32945711e-03, 2.42248061e-03, 3.87596898e-03, 1.93798449e-03,
          5.32945711e-03, 6.29844982e-03, 1.06589142e-02, 2.42248061e-03,
          8.23643431e-03, 1.93798449e-03, 5.32945711e-03, 5.32945711e-03,
          1.93798449e-03, 6.29844982e-03, 7.26744160e-03, 6.29844982e-03,
          1.45348837e-03, 4.36046533e-03, 2.90697673e-03, 3.39147286e-03,
          2.90697673e-03, 2.90697673e-03, 3.39147286e-03, 6.29844982e-03,
          6.29844982e-03, 1.93798449e-03, 5.32945711e-03, 8.72093067e-03,
          1.98643412e-02, 4.84496122e-03, 1.25968996e-02, 7.26744160e-03,
          5.32945711e-03, 2.42248061e-03, 9.68992244e-03, 3.87596898e-03,
          7.75193796e-03, 3.39147286e-03, 6.78294571e-03, 7.75193796e-03,
          5.32945711e-03, 6.29844982e-03, 4.36046533e-03, 3.87596898e-03,
          2.42248061e-03, 3.39147286e-03, 2.42248061e-03, 5.32945711e-03,
          8.23643431e-03, 2.90697673e-03, 2.42248061e-03, 1.35658914e-02,
          1.93798449e-03, 5.81395347e-03, 9.68992244e-04, 6.29844982e-03,
          5.32945711e-03, 6.29844982e-03, 3.39147286e-03, 2.42248061e-03,
          9.68992244e-04, 4.36046533e-03, 2.42248061e-03, 4.36046533e-03,
          6.78294571e-03, 4.36046533e-03, 2.42248061e-03, 2.42248061e-03,
          3.39147286e-03, 2.42248061e-03, 5.81395347e-03, 3.39147286e-03,
          6.29844982e-03, 5.81395347e-03, 3.87596898e-03, 5.32945711e-03,
          2.90697673e-03, 1.93798449e-03, 1.45348837e-03, 2.90697673e-03,
          9.68992244e-04, 6.29844982e-03, 4.84496122e-03, 2.90697673e-03,
          4.36046533e-03, 5.32945711e-03, 8.72093067e-03, 5.81395347e-03,
          3.39147286e-03, 5.81395347e-03, 9.68992244e-03, 3.87596898e-03,
          2.42248061e-03, 6.78294571e-03, 4.84496122e-03, 3.87596898e-03,
          6.29844982e-03, 9.68992244e-04, 3.87596898e-03, 4.36046533e-03,
          3.39147286e-03, 6.29844982e-03, 9.68992244e-03, 7.26744160e-03 ]
      - [ 1.36798900e-03, 5.58595499e-03, 4.78796149e-03, 8.66393093e-03,
          1.16279069e-02, 6.15595048e-03, 8.66393093e-03, 7.40994047e-03,
          4.90196049e-03, 4.10396699e-03, 4.55996342e-04, 5.81395347e-03,
          1.28818965e-02, 3.64797073e-03, 5.12995897e-03, 7.97993597e-03,
          7.18194246e-03, 5.24395797e-03, 1.04879159e-02, 2.62197899e-03,
          2.05198349e-03, 4.55996342e-04, 2.16598273e-03, 2.84997723e-03,
          7.63793895e-03, 6.04195148e-03, 8.89192894e-03, 6.95394399e-03,
          1.21979024e-02, 1.13999085e-04, 7.18194246e-03, 1.00319199e-02,
          6.26994949e-03, 4.33196547e-03, 7.97993597e-03, 1.21979024e-02,
          0., 1.13999087e-03, 1.36798900e-03, 6.04195148e-03,
          6.83994498e-04, 9.11992684e-04, 7.18194246e-03, 5.24395797e-03,
          7.06794346e-03, 4.78796149e-03, 7.63793895e-03, 6.49794796e-03,
          1.00319199e-02, 3.41997249e-03, 1.59598724e-03, 4.44596447e-03,
          1.59598724e-03, 3.98996798e-03, 5.58595499e-03, 6.26994949e-03,
          4.44596447e-03, 4.10396699e-03, 4.44596447e-03, 8.20793398e-03,
          1.11719100e-02, 2.27998174e-03, 4.10396699e-03, 3.76196974e-03,
          6.61194697e-03, 3.19197448e-03, 5.69995446e-03, 1.11719100e-02,
          5.58595499e-03, 1.02599175e-03, 3.41997249e-03, 7.75193796e-03,
          1.70998625e-03, 1.70998629e-02, 3.19197448e-03, 3.19197448e-03,
          9.00592748e-03, 7.63793895e-03, 6.04195148e-03, 1.82398537e-03,
          1.55038759e-02, 5.35795698e-03, 3.41997249e-04, 6.95394399e-03,
          2.84997723e-03, 2.50797998e-03, 2.84997723e-03, 1.35658914e-02,
          1.59598724e-03, 2.62197899e-03, 1.82398537e-03, 4.33196547e-03,
          1.48198809e-02, 5.58595499e-03, 1.25398999e-03, 3.98996798e-03,
          1.17419055e-02, 5.12995897e-03, 3.19197448e-03, 5.58595499e-03,
          3.07797524e-03, 4.55996342e-04, 6.95394399e-03, 7.52393948e-03,
          3.53397173e-03, 5.01595996e-03, 7.97993597e-03, 2.73597799e-03,
          1.09439120e-02, 6.83994498e-04, 8.89192894e-03, 5.69995434e-04,
          4.55996342e-04, 3.87596898e-03, 4.90196049e-03, 4.21796599e-03,
          1.13999087e-03, 1.06019145e-02, 1.43638849e-02, 3.41997249e-04,
          4.44596447e-03, 7.29594147e-03, 1.36798900e-03, 2.27998171e-04,
          7.97993620e-04, 3.41997249e-03, 8.20793398e-03, 7.75193796e-03,
          1.43638849e-02, 1.93798449e-03, 1.13999085e-04, 5.58595499e-03,
          1.00319199e-02, 5.47195598e-03, 5.47195598e-03, 2.05198349e-03,
          6.72594598e-03, 4.44596447e-03, 2.27998171e-04, 1.13999085e-04,
          3.76196974e-03, 0., 3.19197448e-03, 5.01595996e-03,
          7.63793895e-03, 7.75193796e-03, 3.30597349e-03, 1.13999087e-03,
          5.69995446e-03, 1.13999085e-04, 4.78796149e-03, 3.07797524e-03,
          5.92795247e-03, 1.59598724e-03, 6.95394399e-03, 6.72594598e-03,
          8.77792947e-03, 5.12995897e-03, 7.06794346e-03, 8.09393544e-03,
          2.84997723e-03, 2.96397624e-03, 3.53397173e-03, 3.87596898e-03,
          6.83994498e-03, 5.47195598e-03, 2.96397624e-03, 4.55996348e-03,
          2.27998171e-04, 8.54993146e-03, 3.53397173e-03, 2.39398074e-03,
          5.58595499e-03, 1.48198812e-03, 9.80392098e-03, 1.25398999e-03,
          6.61194697e-03, 4.21796599e-03, 1.36798900e-03, 3.19197448e-03,
          1.82398537e-03, 9.11992684e-04, 2.50797998e-03, 4.55996342e-04,
          9.11992684e-04, 8.09393544e-03, 3.64797073e-03, 3.41997249e-03,
          4.78796149e-03, 7.18194246e-03, 9.00592748e-03, 6.26994949e-03,
          2.84997723e-03, 4.55996348e-03, 5.12995897e-03, 4.10396699e-03,
          0., 1.36798900e-03, 3.98996798e-03, 7.75193796e-03 ]
      - [ 2.43298803e-03, 2.81052059e-03, 5.80980722e-03, 8.66227597e-03,
          1.73035786e-02, 5.64201502e-03, 6.66974252e-03, 6.98435307e-03,
          3.79630015e-03, 4.32065083e-03, 1.15357188e-03, 4.80305357e-03,
          1.31297447e-02, 2.30714376e-03, 3.02026095e-03, 4.59331321e-03,
          5.57909301e-03, 8.70422367e-03, 1.83313061e-02, 4.74013155e-03,
          7.34091154e-04, 5.87272923e-04, 4.34162514e-03, 2.09740340e-03,
          5.64201502e-03, 9.58513375e-03, 4.74013155e-03, 7.04727555e-03,
          5.74688520e-03, 2.93636462e-04, 4.90792375e-03, 1.31297447e-02,
          3.20902723e-03, 5.47422282e-03, 8.20084754e-03, 4.92889807e-03,
          3.56558565e-04, 6.92143105e-04, 3.23000131e-03, 3.48168961e-03,
          6.71169080e-04, 2.93636462e-03, 5.70493704e-03, 5.97759942e-03,
          5.55811916e-03, 3.69142997e-03, 1.18503291e-02, 3.92214442e-03,
          1.41364988e-02, 3.77532607e-03, 1.19551993e-03, 6.46000262e-03,
          1.61500066e-03, 5.32740448e-03, 4.29967698e-03, 3.96409258e-03,
          4.36259899e-03, 2.51688412e-03, 5.91467740e-03, 6.12441776e-03,
          1.02772769e-02, 1.06967567e-03, 5.60006686e-03, 3.43974144e-03,
          4.13188478e-03, 3.04123480e-03, 7.40383379e-03, 1.72196813e-02,
          7.27798976e-03, 4.82402771e-04, 5.41130081e-03, 1.01933805e-02,
          1.38428621e-03, 1.55627327e-02, 2.91539077e-03, 3.29292333e-03,
          1.42623428e-02, 2.72662449e-03, 6.77461270e-03, 1.13259780e-03,
          1.43252648e-02, 6.41805446e-03, 4.82402771e-04, 7.52967829e-03,
          1.00675365e-03, 2.72662449e-03, 3.81727424e-03, 1.63597465e-02,
          1.76181889e-03, 1.48915639e-03, 1.09064975e-03, 5.18058613e-03,
          3.17127407e-02, 5.89370355e-03, 2.47493596e-03, 2.43298803e-03,
          1.14098741e-02, 2.78954650e-03, 2.57980614e-03, 7.31993793e-03,
          1.46818231e-03, 6.29221031e-04, 3.67045589e-03, 5.05474210e-03,
          1.38428621e-03, 2.99928687e-03, 3.92214442e-03, 3.33487126e-03,
          1.24795502e-02, 1.32136408e-03, 5.78883337e-03, 4.19480668e-04,
          2.51688412e-04, 1.44720834e-03, 8.55740532e-03, 1.59402657e-03,
          3.06220888e-03, 6.69071684e-03, 1.58773437e-02, 1.40526029e-03,
          2.47493596e-03, 1.51222786e-02, 8.59935360e-04, 4.82402771e-04,
          1.25844206e-04, 3.41876759e-03, 5.18058613e-03, 1.58983171e-02,
          1.95268262e-02, 3.23000131e-03, 2.30714373e-04, 2.28616968e-03,
          1.46189015e-02, 5.51617099e-03, 5.66298934e-03, 3.14610515e-04,
          3.02026095e-03, 4.94987192e-03, 6.50195056e-04, 6.71169080e-04,
          5.24350861e-03, 9.43831517e-04, 2.89441668e-03, 4.46746917e-03,
          5.32740448e-03, 5.05474210e-03, 3.41876759e-03, 2.30714373e-04,
          5.11766411e-03, 1.27941603e-03, 1.88766303e-03, 1.34233816e-03,
          6.16636593e-03, 9.43831517e-04, 4.19480680e-03, 1.16196144e-02,
          4.71915770e-03, 3.04123480e-03, 4.06896276e-03, 8.03305488e-03,
          3.56558565e-04, 7.55065214e-03, 4.32065083e-03, 3.14610498e-03,
          5.24350861e-03, 7.06824940e-03, 2.26519560e-03, 9.27052274e-03,
          3.98506643e-04, 6.85850903e-03, 5.80980722e-03, 2.41201394e-03,
          5.07571595e-03, 2.30714376e-03, 1.51642263e-02, 3.35584540e-04,
          4.57233936e-03, 1.86668895e-03, 2.66370224e-03, 1.19551993e-03,
          1.99253322e-03, 8.38961336e-04, 4.44649532e-03, 7.76039262e-04,
          6.29221031e-04, 8.66227597e-03, 2.32811784e-03, 3.29292333e-03,
          8.11695121e-03, 6.50195032e-03, 3.52363777e-03, 8.07500258e-03,
          3.48168961e-03, 1.36331224e-03, 4.63526137e-03, 4.38357284e-03,
          1.25844206e-04, 1.25844206e-03, 5.20156045e-03, 5.26448246e-03 ]
      - [ 2.72963021e-04, 1.77425961e-03, 5.73222339e-03, 1.21468548e-02,
          1.02361133e-02, 3.82148242e-03, 6.41463092e-03, 6.27814932e-03,
          1.32387066e-02, 6.82407571e-03, 4.09444515e-03, 3.00259329e-03,
          6.82407571e-03, 3.13907466e-03, 3.27555626e-03, 3.27555626e-03,
          3.27555626e-03, 5.04981587e-03, 5.18629747e-03, 2.59314873e-03,
          6.00518659e-03, 5.45926043e-04, 2.04722257e-03, 3.13907466e-03,
          2.32018577e-03, 4.50388994e-03, 2.18370417e-03, 5.32277906e-03,
          3.00259329e-03, 6.82407524e-04, 3.68500082e-03, 5.45926020e-03,
          3.68500082e-03, 3.54851922e-03, 2.72963010e-03, 1.63777813e-03,
          1.36481511e-04, 1.22833357e-03, 1.22833357e-03, 2.32018577e-03,
          1.36481511e-04, 4.09444532e-04, 1.09185204e-02, 6.27814932e-03,
          4.77685267e-03, 2.04722257e-03, 9.55370534e-03, 1.77425961e-03,
          1.24198170e-02, 1.36481511e-04, 5.73222339e-03, 5.86870499e-03,
          2.45666713e-03, 4.36740834e-03, 6.00518659e-03, 4.36740834e-03,
          3.82148242e-03, 2.04722257e-03, 6.00518659e-03, 5.04981587e-03,
          1.40575953e-02, 5.45926043e-04, 7.64296483e-03, 2.32018577e-03,
          2.32018577e-03, 3.13907466e-03, 5.45926020e-03, 6.82407571e-03,
          4.09444515e-03, 3.30285244e-02, 4.23092674e-03, 5.04981587e-03,
          6.82407524e-04, 5.18629747e-03, 2.86611170e-03, 7.09703844e-03,
          5.18629747e-03, 1.77425961e-03, 2.32018577e-03, 6.82407524e-04,
          1.06455581e-02, 1.63777813e-03, 5.59574179e-03, 1.02361133e-02,
          7.50648323e-03, 1.09185209e-03, 5.45926043e-04, 6.27814932e-03,
          1.77425961e-03, 6.96055684e-03, 4.23092674e-03, 6.82407571e-03,
          6.82407571e-03, 5.73222339e-03, 2.18370417e-03, 3.41203786e-03,
          6.96055684e-03, 8.18889029e-03, 3.00259329e-03, 3.00259329e-03,
          6.96055684e-03, 9.55370604e-04, 1.77425961e-03, 6.00518659e-03,
          9.14426148e-03, 9.41722468e-03, 3.00259329e-03, 4.77685267e-03,
          6.96055684e-03, 9.55370604e-04, 4.50388994e-03, 9.55370604e-04,
          6.96055684e-03, 2.32018577e-03, 3.27555626e-03, 6.68759411e-03,
          8.18889064e-04, 3.95796401e-03, 9.14426148e-03, 2.59314873e-03,
          3.13907466e-03, 4.09444515e-03, 2.18370417e-03, 5.45926043e-04,
          4.09444532e-04, 2.18370417e-03, 2.72963010e-03, 6.68759411e-03,
          6.96055684e-03, 1.09185209e-03, 5.45926043e-04, 1.77425961e-03,
          6.27814932e-03, 1.46035217e-02, 1.63777813e-03, 2.45666713e-03,
          3.68500082e-03, 5.04981587e-03, 4.09444532e-04, 9.55370604e-04,
          5.32277906e-03, 2.72963021e-04, 2.04722257e-03, 2.59314873e-03,
          3.27555626e-03, 7.37000164e-03, 2.59314873e-03, 1.09185209e-03,
          4.09444515e-03, 9.55370604e-04, 5.50020486e-02, 1.36481505e-03,
          7.09703844e-03, 2.04722257e-03, 4.77685267e-03, 2.86611170e-03,
          9.14426148e-03, 6.68759411e-03, 1.59683377e-02, 1.50129665e-02,
          1.36481505e-03, 3.27555626e-03, 4.09444515e-03, 4.09444532e-04,
          1.10550020e-02, 8.18889029e-03, 1.36481505e-03, 1.05090765e-02,
          1.09185209e-03, 3.41203786e-03, 1.50129665e-03, 3.68500082e-03,
          2.04722257e-03, 1.77425961e-03, 6.41463092e-03, 6.96055684e-03,
          1.58318561e-02, 4.77685267e-03, 2.32018577e-03, 2.72963021e-04,
          2.86611170e-03, 4.09444532e-04, 9.55370604e-04, 1.09185209e-03,
          2.85246354e-02, 1.00996317e-02, 7.91592803e-03, 6.14166819e-03,
          5.18629747e-03, 8.18889029e-03, 1.50129665e-03, 7.64296483e-03,
          4.50388994e-03, 1.06455581e-02, 1.54224103e-02, 7.64296483e-03,
          1.22833357e-03, 1.63777813e-03, 3.95796401e-03, 2.72963010e-03 ]
      - [ 1.31463632e-03, 1.20508322e-03, 1.02979839e-02, 5.47765102e-03,
          3.61524988e-03, 4.16301470e-03, 5.25854528e-03, 5.03943907e-03,
          1.11744087e-02, 6.02541631e-03, 1.46801053e-02, 2.30061356e-03,
          1.97195448e-03, 5.47765102e-03, 7.66871148e-04, 2.19106046e-03,
          3.72480275e-03, 1.09553023e-03, 1.09553023e-03, 7.66871148e-04,
          7.99737033e-03, 5.80631010e-03, 1.53374230e-03, 3.50569678e-03,
          3.06748459e-03, 5.36809815e-03, 0., 5.58720436e-03,
          1.97195448e-03, 8.54513608e-03, 4.16301470e-03, 1.53374230e-03,
          3.50569678e-03, 2.41016643e-03, 3.28659080e-03, 7.66871148e-04,
          3.17703770e-03, 5.47765114e-04, 1.13935145e-02, 1.75284839e-03,
          1.09553023e-03, 1.42418931e-03, 3.17703770e-03, 5.80631010e-03,
          1.97195448e-03, 2.30061356e-03, 2.62927264e-03, 2.41016643e-03,
          2.41016643e-03, 1.53374230e-03, 1.24890450e-02, 2.95793172e-03,
          1.07361963e-02, 4.92988620e-03, 8.43558274e-03, 3.94390896e-03,
          3.17703770e-03, 2.08150735e-03, 2.51971954e-03, 2.30061356e-03,
          7.23049976e-03, 6.57318160e-04, 9.75021906e-03, 2.08150735e-03,
          5.47765114e-04, 7.66871171e-03, 2.73882551e-03, 1.31463632e-03,
          1.86240138e-03, 2.08150744e-02, 6.35407539e-03, 2.73882551e-03,
          7.66871148e-04, 7.66871148e-04, 6.13496918e-03, 8.43558274e-03,
          2.51971954e-03, 9.85977240e-04, 1.42418931e-03, 1.20508322e-03,
          3.83435586e-03, 1.53374230e-03, 1.64329540e-02, 8.98334756e-03,
          2.02673096e-02, 1.31463632e-03, 2.95793172e-03, 9.85977240e-04,
          5.36809815e-03, 1.62138473e-02, 1.07361963e-02, 1.97195448e-03,
          6.57318160e-04, 5.14899194e-03, 4.92988620e-03, 7.88781792e-03,
          4.05346183e-03, 1.50087643e-02, 7.12094642e-03, 2.62927264e-03,
          6.57318160e-03, 7.12094642e-03, 6.57318160e-04, 3.17703770e-03,
          1.71998255e-02, 8.21647700e-03, 1.09553023e-03, 6.57318160e-03,
          1.09553023e-03, 6.90184068e-03, 3.50569678e-03, 5.14899194e-03,
          1.85144618e-02, 3.83435586e-03, 5.47765114e-04, 5.80631010e-03,
          7.66871148e-04, 9.85977240e-04, 2.19106046e-03, 1.16126202e-02,
          3.72480275e-03, 4.38212097e-04, 9.96932480e-03, 1.35845747e-02,
          1.09553024e-04, 6.57318160e-04, 1.20508322e-03, 4.27256804e-03,
          3.61524988e-03, 1.64329540e-03, 2.41016643e-03, 1.53374230e-03,
          3.17703770e-03, 1.06266430e-02, 2.08150735e-03, 6.24452252e-03,
          1.53374230e-03, 4.16301470e-03, 6.57318160e-04, 8.32602940e-03,
          2.84837862e-03, 3.17703770e-03, 2.41016643e-03, 1.64329540e-03,
          2.51971954e-03, 5.36809815e-03, 1.75284839e-03, 2.41016643e-03,
          4.71077999e-03, 1.75284839e-03, 2.89219990e-02, 1.31463632e-03,
          5.25854528e-03, 9.75021906e-03, 3.50569678e-03, 1.31463632e-03,
          6.35407539e-03, 1.25985974e-02, 5.14899194e-03, 1.17221735e-02,
          4.38212091e-03, 1.42418931e-03, 2.95793172e-03, 1.09553024e-04,
          6.24452252e-03, 3.61524988e-03, 1.09553023e-03, 6.24452252e-03,
          5.25854528e-03, 8.76424194e-04, 1.20508322e-03, 9.31200664e-03,
          8.76424194e-04, 4.82033286e-03, 2.84837862e-03, 1.17221735e-02,
          1.25985974e-02, 4.82033286e-03, 3.83435586e-03, 8.76424194e-04,
          2.19106046e-03, 1.09553023e-03, 5.58720436e-03, 8.76424182e-03,
          2.54163016e-02, 6.90184068e-03, 1.68711655e-02, 5.14899194e-03,
          3.83435586e-03, 9.42155998e-03, 8.76424194e-04, 5.36809815e-03,
          5.25854528e-03, 6.68273447e-03, 1.40227871e-02, 4.27256804e-03,
          7.23049976e-03, 6.46362826e-03, 4.82033286e-03, 2.73882551e-03 ]
      - [ 6.91722380e-04, 3.11275083e-03, 8.12773872e-03, 7.09015457e-03,
          8.99239164e-03, 4.20797803e-03, 6.16785837e-03, 6.80193724e-03,
          9.51118302e-03, 7.78187718e-03, 4.84205689e-03, 4.84205689e-03,
          5.93728386e-03, 6.22550165e-03, 5.47613576e-03, 3.57389916e-03,
          5.59142279e-03, 3.34332488e-03, 3.63154267e-03, 4.43855207e-03,
          7.78187718e-03, 2.30574142e-03, 3.28568136e-03, 4.95734392e-03,
          2.47867196e-03, 3.45861213e-03, 2.07516714e-03, 5.82199683e-03,
          4.84205689e-03, 5.53377904e-03, 3.74682969e-03, 6.57136273e-03,
          3.97740398e-03, 5.59142279e-03, 3.05510731e-03, 2.76688952e-03,
          1.32580125e-03, 1.90223660e-03, 5.82199683e-03, 3.86211672e-03,
          1.09522720e-03, 9.79940058e-04, 7.09015457e-03, 7.55130313e-03,
          4.61148284e-03, 2.88217678e-03, 5.93728386e-03, 2.70924601e-03,
          6.97486755e-03, 9.22296545e-04, 9.68411379e-03, 7.95480795e-03,
          7.03251129e-03, 5.13027469e-03, 7.37837236e-03, 6.39843242e-03,
          4.89970017e-03, 3.22803785e-03, 5.18791797e-03, 4.15033428e-03,
          8.76181759e-03, 8.07009463e-04, 4.26562130e-03, 2.93982029e-03,
          3.17039434e-03, 5.24556171e-03, 5.87964058e-03, 6.28314540e-03,
          4.38090879e-03, 1.15287071e-02, 6.85958052e-03, 4.09269100e-03,
          1.78694958e-03, 3.34332488e-03, 7.78187718e-03, 6.39843242e-03,
          4.26562130e-03, 3.51625565e-03, 3.57389916e-03, 1.09522720e-03,
          6.51371945e-03, 2.47867196e-03, 7.09015457e-03, 7.49365939e-03,
          7.14779831e-03, 1.09522720e-03, 2.59395898e-03, 5.30320499e-03,
          5.47613576e-03, 9.16532148e-03, 5.07263094e-03, 5.01498766e-03,
          4.03504726e-03, 5.13027469e-03, 5.01498766e-03, 4.95734392e-03,
          7.32072862e-03, 4.95734392e-03, 3.91976023e-03, 3.34332488e-03,
          5.70670981e-03, 4.61148284e-03, 3.17039434e-03, 6.11021463e-03,
          8.93474743e-03, 7.32072862e-03, 2.76688952e-03, 6.11021463e-03,
          6.16785837e-03, 5.70670981e-03, 4.26562130e-03, 2.93982029e-03,
          6.57136273e-03, 5.47613576e-03, 2.76688952e-03, 6.80193724e-03,
          2.13281065e-03, 4.15033428e-03, 6.39843242e-03, 5.64906653e-03,
          6.85958052e-03, 2.70924601e-03, 3.40096862e-03, 5.36084874e-03,
          1.09522720e-03, 2.99746380e-03, 4.26562130e-03, 6.05257088e-03,
          5.07263094e-03, 2.70924601e-03, 1.78694958e-03, 2.70924601e-03,
          5.47613576e-03, 9.28060897e-03, 2.13281065e-03, 5.53377904e-03,
          4.49619582e-03, 5.18791797e-03, 1.21051422e-03, 5.01498766e-03,
          5.36084874e-03, 2.93982029e-03, 3.63154267e-03, 4.03504726e-03,
          2.93982029e-03, 8.41595605e-03, 2.76688952e-03, 1.84459309e-03,
          4.38090879e-03, 2.01752363e-03, 2.27691960e-02, 2.53631547e-03,
          6.39843242e-03, 3.05510731e-03, 5.64906653e-03, 3.86211672e-03,
          6.45607570e-03, 6.34078868e-03, 9.33825225e-03, 9.45353974e-03,
          5.53377904e-03, 2.30574142e-03, 5.30320499e-03, 7.49365950e-04,
          7.89716374e-03, 5.18791797e-03, 2.19045440e-03, 7.20544159e-03,
          4.20797803e-03, 2.24809791e-03, 1.95988012e-03, 7.03251129e-03,
          2.82453327e-03, 5.70670981e-03, 4.95734392e-03, 8.01245123e-03,
          1.07793408e-02, 5.53377904e-03, 5.93728386e-03, 5.18791785e-04,
          3.34332488e-03, 1.21051422e-03, 3.34332488e-03, 4.26562130e-03,
          1.24510033e-02, 5.41849202e-03, 4.49619582e-03, 7.89716374e-03,
          6.45607570e-03, 5.87964058e-03, 3.40096862e-03, 5.76435355e-03,
          6.16785837e-03, 6.80193724e-03, 8.58888682e-03, 7.78187718e-03,
          4.89970017e-03, 3.86211672e-03, 4.84205689e-03, 3.28568136e-03 ]
      - [ 3.70828179e-03, 5.73900761e-03, 2.73706508e-03, 2.64877267e-03,
          1.67755596e-03, 4.14974382e-03, 2.64877267e-03, 5.56242233e-03,
          5.82729978e-03, 3.53169674e-03, 3.97315901e-03, 8.47607292e-03,
          2.73706508e-03, 7.68144056e-03, 6.00388460e-03, 7.50485575e-03,
          1.67755596e-03, 3.79657419e-03, 1.67755596e-03, 3.35511193e-03,
          6.26876205e-03, 7.68144056e-03, 6.44534687e-03, 6.97510131e-03,
          4.06145118e-03, 1.94243330e-03, 8.82924255e-03, 1.58926356e-03,
          5.38583752e-03, 8.74094944e-03, 2.82535749e-03, 3.00194230e-03,
          4.85608308e-03, 1.67755596e-03, 3.09023471e-03, 4.67949826e-03,
          1.07716750e-02, 1.54511733e-02, 4.67949826e-03, 6.18046941e-03,
          6.71022385e-03, 9.53558180e-03, 2.56048026e-03, 3.53169674e-03,
          3.26681952e-03, 6.18046941e-03, 1.14780152e-03, 3.79657419e-03,
          1.85414089e-03, 9.00582690e-03, 3.09023471e-03, 2.82535749e-03,
          2.82535749e-03, 2.56048026e-03, 2.82535749e-03, 5.12096053e-03,
          5.29754534e-03, 4.14974382e-03, 1.67755596e-03, 5.91559242e-03,
          3.17852711e-03, 5.56242233e-03, 1.58926356e-03, 4.59120609e-03,
          7.68144056e-03, 3.88486660e-03, 2.82535749e-03, 2.03072559e-03,
          4.59120609e-03, 3.00194230e-03, 2.82535749e-03, 2.38389545e-03,
          8.38777982e-03, 4.14974382e-03, 6.09217724e-03, 3.97315901e-03,
          2.82535749e-03, 5.03266789e-03, 2.64877267e-03, 1.13014299e-02,
          1.50097115e-03, 4.85608308e-03, 2.56048026e-03, 2.38389545e-03,
          5.20925270e-03, 1.03302132e-02, 5.73900761e-03, 3.88486660e-03,
          5.03266789e-03, 2.91364989e-03, 3.35511193e-03, 1.23609393e-03,
          1.23609393e-03, 3.17852711e-03, 4.94437572e-03, 4.50291345e-03,
          2.38389545e-03, 2.73706508e-03, 5.56242233e-03, 2.64877267e-03,
          7.23997876e-03, 6.44534687e-03, 8.12290236e-03, 1.85414089e-03,
          5.56242233e-03, 4.32632864e-03, 6.35705423e-03, 2.64877267e-03,
          1.94243330e-03, 4.67949826e-03, 3.35511193e-03, 1.10365525e-02,
          4.67949826e-03, 7.15168612e-03, 3.26681952e-03, 1.12131378e-02,
          4.76779090e-03, 3.44340433e-03, 1.94243330e-03, 3.53169674e-03,
          4.41462127e-03, 2.47218786e-03, 4.94437572e-03, 6.44534687e-03,
          1.21843545e-02, 6.97510131e-03, 6.35705423e-03, 2.11901823e-03,
          7.94631778e-04, 5.91559242e-03, 1.25375241e-02, 7.94631802e-03,
          3.97315901e-03, 2.64877267e-03, 3.70828179e-03, 1.20077692e-02,
          8.91753472e-03, 4.32632864e-03, 6.62193168e-03, 5.82729978e-03,
          4.76779090e-03, 1.13014299e-02, 3.88486660e-03, 7.32827093e-03,
          3.17852711e-03, 1.76584837e-03, 8.21119547e-03, 1.20960614e-02,
          4.50291345e-03, 8.47607292e-03, 5.47413016e-03, 7.06339348e-03,
          1.94243330e-03, 5.47413016e-03, 2.03072559e-03, 2.64877267e-03,
          5.03266789e-03, 2.11901823e-03, 1.94243330e-03, 2.91364989e-03,
          1.21843545e-02, 4.76779090e-03, 1.14780152e-03, 6.71022385e-03,
          5.65071497e-03, 3.00194230e-03, 7.76973320e-03, 3.53169674e-03,
          7.76973320e-03, 7.50485575e-03, 5.38583752e-03, 3.09023471e-03,
          9.44728870e-03, 4.14974382e-03, 2.38389545e-03, 5.56242233e-03,
          2.91364989e-03, 1.05950907e-02, 5.91559242e-03, 7.76973320e-03,
          1.09482603e-02, 1.11248447e-02, 4.41462127e-03, 7.15168612e-03,
          6.79851649e-03, 1.94243330e-03, 2.64877267e-03, 1.94243330e-03,
          2.20731064e-03, 2.38389545e-03, 7.50485575e-03, 5.20925270e-03,
          3.00194230e-03, 1.08599681e-02, 3.00194230e-03, 2.47218786e-03,
          9.00582690e-03, 6.44534687e-03, 4.67949826e-03, 3.26681952e-03 ]
      - [ 1.33229392e-02, 6.30713627e-03, 1.62993406e-03, 1.48820074e-03,
          2.05513439e-03, 4.39373543e-03, 2.83466792e-03, 7.22840335e-03,
          2.76380125e-03, 3.54333501e-03, 2.90553458e-03, 4.81893541e-03,
          4.03940165e-03, 7.29927002e-03, 5.45673585e-03, 4.74806875e-03,
          2.97640148e-03, 5.59846917e-03, 5.74020250e-03, 4.18113545e-03,
          3.54333501e-03, 8.92920420e-03, 6.23626960e-03, 4.67720209e-03,
          6.02366962e-03, 1.98426750e-03, 7.65360333e-03, 1.20473385e-03,
          4.67720209e-03, 5.52760251e-03, 3.75593500e-03, 4.96066874e-03,
          2.62206793e-03, 2.40946771e-03, 3.75593500e-03, 5.59846917e-03,
          8.64573754e-03, 1.56615414e-02, 2.40946771e-03, 4.39373543e-03,
          1.42442062e-02, 9.92133748e-03, 3.18900147e-03, 2.33860104e-03,
          4.18113545e-03, 7.58273667e-03, 1.62993406e-03, 4.60633542e-03,
          2.33860104e-03, 1.87088083e-02, 1.62993406e-03, 2.12600105e-03,
          3.25986813e-03, 2.69293459e-03, 1.77166751e-03, 4.25200211e-03,
          4.32286877e-03, 5.88193582e-03, 2.97640148e-03, 3.82680167e-03,
          4.25200211e-03, 8.85833707e-03, 1.41733396e-03, 9.28353798e-03,
          8.64573754e-03, 3.04726814e-03, 1.84253417e-03, 3.47246835e-03,
          3.18900147e-03, 1.77166751e-03, 2.12600105e-03, 2.69293459e-03,
          1.02048051e-02, 3.75593500e-03, 4.11026878e-03, 3.68506834e-03,
          1.98426750e-03, 4.11026878e-03, 4.81893541e-03, 1.14804050e-02,
          2.12600105e-03, 6.44886959e-03, 2.40946771e-03, 3.18900147e-03,
          2.33860104e-03, 1.56615414e-02, 7.65360333e-03, 4.32286877e-03,
          6.94493670e-03, 1.62993406e-03, 3.18900147e-03, 2.62206793e-03,
          3.33073479e-03, 3.25986813e-03, 4.81893541e-03, 2.90553458e-03,
          2.69293459e-03, 2.48033437e-03, 2.55120127e-03, 5.81106916e-03,
          4.81893541e-03, 6.44886959e-03, 6.94493670e-03, 2.83466792e-03,
          1.98426750e-03, 5.17326919e-03, 6.23626960e-03, 1.55906740e-03,
          2.97640148e-03, 3.68506834e-03, 1.70080084e-03, 8.07880331e-03,
          2.69293459e-03, 7.08667003e-03, 7.08667003e-03, 7.79533712e-03,
          1.08426046e-02, 6.23626960e-03, 2.19686772e-03, 3.25986813e-03,
          3.96853499e-03, 1.11260721e-02, 4.53546876e-03, 3.96853499e-03,
          1.41733401e-02, 6.59060292e-03, 7.22840335e-03, 2.97640148e-03,
          2.48033437e-03, 9.77960415e-03, 8.36227089e-03, 4.67720209e-03,
          3.11813480e-03, 1.98426750e-03, 4.96066874e-03, 5.38586918e-03,
          7.01580336e-03, 6.59060292e-03, 8.92920420e-03, 4.60633542e-03,
          4.03940165e-03, 8.36227089e-03, 6.09453628e-03, 4.25200211e-03,
          3.89766856e-03, 2.33860104e-03, 7.22840335e-03, 9.21267085e-03,
          2.19686772e-03, 7.58273667e-03, 3.04726814e-03, 7.22840335e-03,
          1.77166751e-03, 4.81893541e-03, 2.12600105e-03, 8.29140376e-03,
          4.81893541e-03, 2.33860104e-03, 1.84253417e-03, 2.33860104e-03,
          6.59060292e-03, 9.14180465e-03, 1.55906740e-03, 1.16930055e-02,
          4.81893541e-03, 2.33860104e-03, 5.24413586e-03, 2.83466792e-03,
          4.11026878e-03, 8.22053757e-03, 9.85047128e-03, 2.76380125e-03,
          7.37013668e-03, 4.96066874e-03, 3.04726814e-03, 3.25986813e-03,
          2.26773438e-03, 7.22840335e-03, 3.04726814e-03, 1.19056059e-02,
          1.13386717e-02, 9.35440417e-03, 6.37800293e-03, 4.67720209e-03,
          3.47246835e-03, 1.55906740e-03, 2.05513439e-03, 1.77166751e-03,
          2.19686772e-03, 2.12600105e-03, 6.94493670e-03, 5.24413586e-03,
          2.33860104e-03, 6.23626960e-03, 2.97640148e-03, 1.98426750e-03,
          4.03940165e-03, 4.46460210e-03, 3.96853499e-03, 8.07880331e-03 ]
      - [ 1.05540901e-02, 6.86015841e-03, 5.27704484e-04, 0.,
          1.05540897e-03, 3.69393127e-03, 4.74934047e-03, 6.33245381e-03,
          2.11081794e-03, 2.11081794e-03, 4.22163587e-03, 1.37203168e-02,
          1.58311345e-03, 7.91556761e-03, 6.33245381e-03, 7.38786254e-03,
          3.16622690e-03, 5.27704507e-03, 1.58311345e-03, 3.69393127e-03,
          4.74934047e-03, 1.58311352e-02, 2.63852254e-03, 6.86015841e-03,
          6.33245381e-03, 1.58311345e-03, 4.74934047e-03, 0.,
          3.16622690e-03, 8.44327174e-03, 2.63852254e-03, 1.05540897e-03,
          6.33245381e-03, 5.27704484e-04, 3.16622690e-03, 6.86015841e-03,
          1.95250660e-02, 2.69129295e-02, 1.05540897e-03, 4.74934047e-03,
          1.53034301e-02, 1.31926117e-02, 1.05540897e-03, 1.58311345e-03,
          4.22163587e-03, 8.44327174e-03, 1.05540897e-03, 7.38786254e-03,
          5.27704484e-04, 9.49868094e-03, 1.05540897e-03, 5.27704484e-04,
          3.16622690e-03, 1.58311345e-03, 2.11081794e-03, 3.69393127e-03,
          3.69393127e-03, 2.11081794e-03, 0., 4.22163587e-03,
          5.27704484e-04, 1.10817943e-02, 1.05540897e-03, 4.22163587e-03,
          3.16622690e-03, 3.69393127e-03, 5.27704484e-04, 0.,
          2.63852254e-03, 5.27704484e-04, 0., 2.63852254e-03,
          1.42480209e-02, 3.16622690e-03, 4.22163587e-03, 1.58311345e-03,
          0., 1.58311345e-03, 1.58311345e-03, 1.53034301e-02,
          1.05540897e-03, 5.80474921e-03, 5.27704507e-03, 2.63852254e-03,
          5.80474921e-03, 1.16094984e-02, 3.69393127e-03, 1.58311345e-03,
          5.27704507e-03, 2.63852254e-03, 4.74934047e-03, 1.58311345e-03,
          0., 3.16622690e-03, 5.80474921e-03, 3.69393127e-03,
          1.58311345e-03, 2.63852254e-03, 5.80474921e-03, 2.11081794e-03,
          8.44327174e-03, 1.63588393e-02, 5.27704507e-03, 1.05540897e-03,
          4.74934047e-03, 8.44327174e-03, 5.80474921e-03, 1.05540897e-03,
          1.05540897e-03, 3.69393127e-03, 3.69393127e-03, 2.05804743e-02,
          2.63852254e-03, 5.80474921e-03, 2.11081794e-03, 1.00263851e-02,
          5.27704507e-03, 1.58311345e-03, 1.05540897e-03, 3.69393127e-03,
          1.58311345e-03, 2.63852254e-03, 7.91556761e-03, 6.86015841e-03,
          2.26912927e-02, 3.16622690e-03, 1.10817943e-02, 1.05540897e-03,
          5.27704484e-04, 5.80474921e-03, 2.11081803e-02, 6.86015841e-03,
          2.11081794e-03, 1.05540897e-03, 3.69393127e-03, 9.49868094e-03,
          1.00263851e-02, 4.74934047e-03, 1.26649076e-02, 1.63588393e-02,
          1.05540897e-03, 1.42480209e-02, 5.27704507e-03, 6.33245381e-03,
          4.22163587e-03, 1.58311345e-03, 5.80474921e-03, 1.05540901e-02,
          1.05540897e-03, 6.33245381e-03, 5.27704484e-04, 8.97097588e-03,
          1.05540897e-03, 5.80474921e-03, 1.05540897e-03, 3.69393127e-03,
          5.80474921e-03, 2.63852254e-03, 5.27704484e-04, 2.11081794e-03,
          8.44327174e-03, 5.80474921e-03, 1.58311345e-03, 1.16094984e-02,
          6.33245381e-03, 1.05540897e-03, 6.33245381e-03, 1.58311345e-03,
          9.49868094e-03, 1.16094984e-02, 4.22163587e-03, 2.11081794e-03,
          6.86015841e-03, 6.33245381e-03, 1.05540897e-03, 3.16622690e-03,
          1.58311345e-03, 8.97097588e-03, 1.58311345e-03, 7.91556761e-03,
          1.31926117e-02, 9.49868094e-03, 2.11081794e-03, 7.91556761e-03,
          1.05540897e-03, 1.05540897e-03, 2.11081794e-03, 5.27704484e-04,
          1.05540897e-03, 2.63852254e-03, 5.80474921e-03, 3.69393127e-03,
          1.58311345e-03, 9.49868094e-03, 3.16622690e-03, 1.05540897e-03,
          7.38786254e-03, 6.33245381e-03, 4.74934047e-03, 2.63852254e-03 ]
      - [ 1.71142304e-03, 3.45396274e-03, 1.07352901e-02, 7.71696214e-03,
          9.27280076e-03, 4.60528396e-03, 6.62787445e-03, 4.35634935e-03,
          5.07203536e-03, 5.66325430e-03, 5.81883825e-03, 4.69863415e-03,
          6.09888928e-03, 4.01406502e-03, 4.72975103e-03, 5.28985308e-03,
          5.97442221e-03, 5.66325430e-03, 6.97015924e-03, 4.63640038e-03,
          3.64066358e-03, 1.86700700e-03, 3.26726213e-03, 3.45396274e-03,
          3.85848107e-03, 8.33929796e-03, 2.02259095e-03, 8.55711475e-03,
          4.29411605e-03, 3.42284609e-03, 3.82736418e-03, 6.22335635e-03,
          3.82736418e-03, 6.31670700e-03, 7.37467734e-03, 3.04944464e-03,
          1.74253981e-03, 2.55157612e-03, 6.50340738e-03, 3.95183126e-03,
          2.36487552e-03, 1.33802160e-03, 7.34356046e-03, 5.13426913e-03,
          5.60102100e-03, 3.64066358e-03, 9.33503453e-03, 4.35634935e-03,
          8.71269871e-03, 1.61807262e-03, 6.22335635e-03, 8.46376456e-03,
          5.00980206e-03, 6.87680906e-03, 8.74381606e-03, 5.10315225e-03,
          4.26299917e-03, 4.76086792e-03, 5.75660495e-03, 4.63640038e-03,
          6.09888928e-03, 1.52472232e-03, 5.97442221e-03, 2.73827696e-03,
          3.26726213e-03, 7.34356046e-03, 7.25021027e-03, 7.12574320e-03,
          5.28985308e-03, 4.94756829e-03, 7.25021027e-03, 6.87680906e-03,
          1.77365658e-03, 5.91218844e-03, 5.60102100e-03, 5.88107202e-03,
          7.15686008e-03, 2.58269301e-03, 4.63640038e-03, 1.21355453e-03,
          8.02813005e-03, 3.70289711e-03, 4.66751726e-03, 6.06777240e-03,
          6.06777240e-03, 1.68030628e-03, 4.13853209e-03, 6.31670700e-03,
          5.63213741e-03, 4.63640038e-03, 4.91645141e-03, 7.56137818e-03,
          7.18797650e-03, 5.60102100e-03, 4.91645141e-03, 5.84995514e-03,
          7.68584525e-03, 7.00127613e-03, 5.44543704e-03, 4.57416708e-03,
          4.23188228e-03, 3.39172920e-03, 3.45396274e-03, 4.76086792e-03,
          6.56564115e-03, 3.64066358e-03, 3.04944464e-03, 6.65899133e-03,
          7.00127613e-03, 4.51193331e-03, 4.35634935e-03, 3.95183126e-03,
          4.29411605e-03, 3.57843004e-03, 4.13853209e-03, 2.36487552e-03,
          2.33375863e-03, 4.10741521e-03, 7.12574320e-03, 5.84995514e-03,
          4.63640038e-03, 4.63640038e-03, 4.91645141e-03, 3.11167818e-03,
          3.17391171e-03, 4.41858312e-03, 3.98294814e-03, 8.43264814e-03,
          9.45950206e-03, 3.36061255e-03, 1.68030628e-03, 3.29837902e-03,
          8.30818061e-03, 8.12148023e-03, 3.26726213e-03, 2.39599217e-03,
          3.67178023e-03, 5.07203536e-03, 1.27578806e-03, 3.42284609e-03,
          5.97442221e-03, 2.11594114e-03, 3.17391171e-03, 5.25873620e-03,
          6.00553909e-03, 6.97015924e-03, 2.89386068e-03, 2.08482449e-03,
          4.32523293e-03, 2.80051050e-03, 4.57416708e-03, 2.39599217e-03,
          6.47229049e-03, 4.91645141e-03, 6.65899133e-03, 4.01406502e-03,
          5.32096997e-03, 7.65472837e-03, 6.87680906e-03, 8.65046587e-03,
          2.55157612e-03, 3.23614525e-03, 7.21909339e-03, 1.86700700e-03,
          6.22335635e-03, 7.34356046e-03, 2.45822570e-03, 5.97442221e-03,
          2.70716008e-03, 3.32949567e-03, 2.80051050e-03, 6.06777240e-03,
          3.79624753e-03, 4.82310122e-03, 6.65899133e-03, 4.07629833e-03,
          7.84142874e-03, 3.88959772e-03, 6.09888928e-03, 9.33503499e-04,
          2.83162715e-03, 1.46248878e-03, 4.94756829e-03, 3.26726213e-03,
          4.82310122e-03, 8.99275020e-03, 7.74807902e-03, 7.34356046e-03,
          7.49914441e-03, 7.93477986e-03, 3.60954669e-03, 5.97442221e-03,
          7.43691111e-03, 2.83162715e-03, 5.81883825e-03, 6.97015924e-03,
          3.48507962e-03, 4.16964898e-03, 7.28132715e-03, 3.92071437e-03 ]
      - [ 4.64447634e-03, 3.53864860e-03, 8.29370751e-04, 3.87039676e-04,
          8.84662149e-04, 3.75981419e-03, 3.59394005e-03, 5.91617823e-03,
          3.09631741e-03, 2.93044327e-03, 1.49286736e-03, 9.73128341e-03,
          3.04102618e-03, 7.07729720e-03, 4.20214515e-03, 8.23841617e-03,
          1.05053629e-03, 3.31748300e-03, 1.87990710e-03, 3.92568810e-03,
          3.09631741e-03, 5.14209876e-03, 6.13734359e-03, 5.97146945e-03,
          6.52438356e-03, 5.52913873e-04, 1.39887203e-02, 3.31748306e-04,
          6.13734359e-03, 4.64447634e-03, 2.59869499e-03, 2.70927791e-03,
          4.31272807e-03, 1.27170188e-03, 1.38228456e-03, 1.39334286e-02,
          9.78657510e-03, 1.42651768e-02, 1.05053629e-03, 5.41855581e-03,
          6.24792650e-03, 1.59792099e-02, 1.60345016e-03, 3.09631741e-03,
          4.36801929e-03, 1.21088130e-02, 8.29370751e-04, 5.14209876e-03,
          4.42331075e-04, 1.84120312e-02, 1.38228456e-03, 1.71403296e-03,
          3.20690032e-03, 3.87039676e-04, 7.74079352e-04, 4.42331098e-03,
          6.30321773e-03, 4.47860220e-03, 1.10582775e-03, 5.08680753e-03,
          3.26219178e-03, 1.43204685e-02, 1.43757602e-03, 5.52913826e-03,
          9.56540927e-03, 1.05053629e-03, 7.74079352e-04, 1.60345016e-03,
          3.53864860e-03, 7.74079352e-04, 6.08205213e-04, 1.60345016e-03,
          1.44310510e-02, 2.65398645e-03, 4.25743638e-03, 1.99048989e-03,
          1.16111909e-03, 8.51487275e-03, 3.48335714e-03, 2.36647129e-02,
          1.87990710e-03, 4.03627101e-03, 1.76932430e-03, 7.74079352e-04,
          1.99048989e-03, 2.80880239e-02, 3.04102618e-03, 4.75505926e-03,
          3.64923128e-03, 1.10582775e-03, 3.31748300e-03, 1.10582775e-03,
          1.21641043e-03, 2.81986059e-03, 4.75505926e-03, 2.76456913e-03,
          1.71403296e-03, 2.76456913e-03, 3.04102618e-03, 2.65398645e-03,
          5.30797290e-03, 7.07729720e-03, 9.56540927e-03, 2.37752963e-03,
          1.54815870e-03, 9.89715755e-03, 1.25511447e-02, 1.16111909e-03,
          1.32699322e-03, 2.87515204e-03, 4.20214515e-03, 3.31748300e-03,
          1.16111909e-03, 4.09156224e-03, 3.37277446e-03, 1.31040579e-02,
          6.13734359e-03, 6.96671428e-03, 2.32223817e-03, 2.81986059e-03,
          4.47860220e-03, 3.53864860e-03, 5.14209876e-03, 2.37752963e-03,
          1.19429389e-02, 6.08205236e-03, 7.63021084e-03, 1.21641043e-03,
          6.08205213e-04, 6.46909187e-03, 1.19429389e-02, 1.24405613e-02,
          1.32699322e-03, 1.32699322e-03, 4.31272807e-03, 6.69025769e-03,
          1.62003748e-02, 5.36326412e-03, 8.68074689e-03, 5.97146945e-03,
          2.65398645e-03, 1.00630317e-02, 3.53864860e-03, 3.59394005e-03,
          2.87515204e-03, 1.05053629e-03, 9.28895269e-03, 1.32699320e-02,
          1.60345016e-03, 8.45958199e-03, 1.05053629e-03, 1.29934754e-02,
          1.05053629e-03, 4.31272807e-03, 1.38228456e-03, 3.98097979e-03,
          7.35375425e-03, 8.29370751e-04, 7.74079352e-04, 8.29370751e-04,
          7.35375425e-03, 4.81035048e-03, 4.97622474e-04, 2.57104933e-02,
          5.69501240e-03, 1.10582775e-03, 1.05053633e-02, 2.93044327e-03,
          4.97622462e-03, 1.14453165e-02, 4.69976757e-03, 1.32699322e-03,
          1.01183234e-02, 3.04102618e-03, 2.65398645e-03, 2.76456913e-03,
          1.49286736e-03, 8.29370786e-03, 2.76456913e-03, 2.28906330e-02,
          1.53157134e-02, 1.51498392e-02, 2.21165549e-03, 3.53864860e-03,
          1.87990710e-03, 4.42331075e-04, 4.42331075e-04, 9.39953548e-04,
          8.29370751e-04, 8.84662149e-04, 9.89715755e-03, 5.19738998e-03,
          1.05053629e-03, 1.04500717e-02, 1.32699322e-03, 8.29370751e-04,
          4.31272807e-03, 4.47860220e-03, 2.37752963e-03, 6.13734359e-03 ]
      - [ 4.54347720e-03, 4.35013790e-03, 4.30180272e-03, 2.90009170e-03,
          4.39847261e-03, 6.13852777e-03, 4.54347720e-03, 8.21692683e-03,
          4.54347720e-03, 6.67021098e-03, 4.54347720e-03, 5.70351398e-03,
          3.96345882e-03, 7.63690844e-03, 4.54347720e-03, 5.12349559e-03,
          3.57677997e-03, 5.60684409e-03, 7.39523396e-03, 4.25346801e-03,
          3.77011928e-03, 7.63690844e-03, 6.18686248e-03, 8.31359625e-03,
          4.20513330e-03, 2.46507791e-03, 4.68848180e-03, 5.65517880e-03,
          6.23519719e-03, 5.75184869e-03, 4.59181191e-03, 6.23519719e-03,
          2.32007354e-03, 4.20513330e-03, 5.36516961e-03, 4.97849099e-03,
          4.06012870e-03, 7.25022936e-03, 3.48011008e-03, 3.38344043e-03,
          2.46507791e-03, 5.51017420e-03, 5.26850019e-03, 5.46183949e-03,
          5.22016501e-03, 4.83348640e-03, 3.14176618e-03, 4.39847261e-03,
          5.65517880e-03, 6.96022017e-03, 3.19010089e-03, 4.44680732e-03,
          7.73357786e-03, 3.72178457e-03, 3.86678893e-03, 4.06012870e-03,
          4.93015582e-03, 4.49514249e-03, 4.15679812e-03, 5.60684409e-03,
          5.22016501e-03, 3.57677997e-03, 3.43177537e-03, 6.23519719e-03,
          5.75184869e-03, 4.83348640e-03, 5.17183030e-03, 5.80018340e-03,
          5.60684409e-03, 3.14176618e-03, 3.96345882e-03, 3.86678893e-03,
          6.71854615e-03, 5.07516041e-03, 3.86678893e-03, 4.93015582e-03,
          3.09343124e-03, 4.25346801e-03, 5.65517880e-03, 6.57354156e-03,
          4.88182111e-03, 5.26850019e-03, 3.77011928e-03, 3.38344043e-03,
          3.67344962e-03, 6.67021098e-03, 4.06012870e-03, 5.55850938e-03,
          6.38020178e-03, 2.36840826e-03, 5.60684409e-03, 4.78515122e-03,
          6.42853696e-03, 4.64014709e-03, 4.44680732e-03, 5.84851857e-03,
          4.64014709e-03, 2.46507791e-03, 5.75184869e-03, 6.18686248e-03,
          5.89685328e-03, 7.87858292e-03, 6.47687167e-03, 4.10846341e-03,
          4.68848180e-03, 3.72178457e-03, 6.04185788e-03, 3.52844503e-03,
          5.17183030e-03, 7.49190385e-03, 3.33510549e-03, 7.39523396e-03,
          4.20513330e-03, 6.47687167e-03, 6.67021098e-03, 5.55850938e-03,
          6.96022017e-03, 5.55850938e-03, 3.77011928e-03, 8.41026660e-03,
          2.65841745e-03, 6.52520638e-03, 3.72178457e-03, 3.23843583e-03,
          3.86678893e-03, 6.13852777e-03, 5.36516961e-03, 4.54347720e-03,
          3.72178457e-03, 5.89685328e-03, 5.02682570e-03, 4.25346801e-03,
          4.49514249e-03, 5.75184869e-03, 5.31683490e-03, 3.77011928e-03,
          6.18686248e-03, 5.80018340e-03, 5.65517880e-03, 6.67021098e-03,
          4.20513330e-03, 6.28353236e-03, 5.46183949e-03, 4.78515122e-03,
          3.77011928e-03, 3.81845422e-03, 6.13852777e-03, 7.39523396e-03,
          3.28677078e-03, 6.23519719e-03, 5.55850938e-03, 5.89685328e-03,
          3.72178457e-03, 3.67344962e-03, 4.64014709e-03, 7.68524315e-03,
          4.83348640e-03, 2.90009170e-03, 4.39847261e-03, 6.86355075e-03,
          4.35013790e-03, 4.59181191e-03, 3.14176618e-03, 3.67344962e-03,
          6.76688086e-03, 4.78515122e-03, 4.68848180e-03, 4.54347720e-03,
          6.09019259e-03, 4.88182111e-03, 6.42853696e-03, 6.04185788e-03,
          5.17183030e-03, 5.07516041e-03, 5.60684409e-03, 2.90009170e-03,
          4.20513330e-03, 6.71854615e-03, 4.20513330e-03, 4.30180272e-03,
          8.21692683e-03, 8.89361463e-03, 4.10846341e-03, 6.62187627e-03,
          3.62511468e-03, 4.78515122e-03, 2.75508710e-03, 4.44680732e-03,
          3.23843583e-03, 3.04509629e-03, 4.83348640e-03, 4.64014709e-03,
          4.30180272e-03, 4.73681651e-03, 3.19010089e-03, 3.77011928e-03,
          5.65517880e-03, 4.39847261e-03, 6.04185788e-03, 4.59181191e-03 ]
      - [ 2.91463290e-03, 4.10857890e-03, 5.09182876e-03, 3.93299852e-03,
          9.93784517e-03, 4.35439125e-03, 5.54833747e-03, 7.05832802e-03,
          5.19717671e-03, 6.03996217e-03, 1.93138327e-03, 5.40787308e-03,
          7.02321203e-03, 5.86438179e-03, 4.98648034e-03, 5.54833747e-03,
          5.23229269e-03, 7.09344400e-03, 1.10615585e-02, 6.32089097e-03,
          3.01998109e-03, 2.03673146e-03, 4.14369488e-03, 5.72391786e-03,
          4.17881133e-03, 3.75741837e-03, 5.54833747e-03, 4.10857890e-03,
          5.86438179e-03, 2.38789199e-03, 4.28415928e-03, 8.81413091e-03,
          5.33764111e-03, 8.00646190e-03, 4.52997163e-03, 3.82765057e-03,
          1.58022274e-03, 8.81413091e-03, 2.66882055e-03, 4.28415928e-03,
          2.03673146e-03, 3.09021329e-03, 6.81251567e-03, 5.86438179e-03,
          4.91624838e-03, 4.17881133e-03, 7.40948878e-03, 3.82765057e-03,
          9.69203282e-03, 4.70555201e-03, 3.47648980e-03, 8.04157741e-03,
          4.31927526e-03, 4.35439125e-03, 4.17881133e-03, 6.67205127e-03,
          5.26740914e-03, 4.52997163e-03, 6.95297960e-03, 5.12694474e-03,
          7.40948878e-03, 1.75580301e-03, 3.37114185e-03, 5.44298906e-03,
          6.63693529e-03, 4.00323095e-03, 7.19879242e-03, 9.90272872e-03,
          5.58345346e-03, 3.30090965e-03, 5.54833747e-03, 4.67043603e-03,
          3.58183798e-03, 6.46135490e-03, 5.23229269e-03, 4.45973966e-03,
          6.49647089e-03, 5.44298906e-03, 6.67205127e-03, 4.07346291e-03,
          7.97134545e-03, 4.38950770e-03, 2.70393654e-03, 6.25065854e-03,
          2.63370457e-03, 4.42462368e-03, 3.30090965e-03, 9.23552364e-03,
          4.49485565e-03, 3.51160602e-03, 2.63370457e-03, 7.51483673e-03,
          1.16936481e-02, 5.40787308e-03, 3.61695420e-03, 3.47648980e-03,
          7.26902438e-03, 4.38950770e-03, 3.05509730e-03, 4.91624838e-03,
          3.51160602e-03, 2.84440094e-03, 7.37437233e-03, 6.42623892e-03,
          3.51160602e-03, 3.09021329e-03, 4.07346291e-03, 3.82765057e-03,
          9.41110402e-03, 2.80928472e-03, 4.91624838e-03, 2.17719562e-03,
          2.10696366e-03, 5.30252513e-03, 5.96973021e-03, 5.40787308e-03,
          4.67043603e-03, 7.19879242e-03, 7.79576506e-03, 3.96811496e-03,
          4.31927526e-03, 7.72553310e-03, 3.26579367e-03, 2.17719562e-03,
          7.51483673e-03, 5.82926581e-03, 8.21715780e-03, 6.46135490e-03,
          7.65530113e-03, 4.95136436e-03, 1.86115119e-03, 3.09021329e-03,
          6.14531059e-03, 5.65368542e-03, 3.01998109e-03, 2.66882055e-03,
          4.74066800e-03, 5.89949824e-03, 2.56347237e-03, 2.73905275e-03,
          5.02159633e-03, 2.77416874e-03, 4.95136436e-03, 4.42462368e-03,
          3.51160602e-03, 6.42623892e-03, 4.49485565e-03, 3.09021329e-03,
          4.63532005e-03, 2.56347237e-03, 7.86599703e-03, 3.01998109e-03,
          4.21392731e-03, 3.16044549e-03, 7.26902438e-03, 7.26902438e-03,
          5.61856944e-03, 4.42462368e-03, 6.49647089e-03, 6.84763165e-03,
          3.01998109e-03, 4.95136436e-03, 3.58183798e-03, 3.23067745e-03,
          7.97134545e-03, 6.11019460e-03, 3.16044549e-03, 7.02321203e-03,
          2.49324017e-03, 5.79414982e-03, 4.42462368e-03, 3.75741837e-03,
          5.86438179e-03, 5.72391786e-03, 7.26902438e-03, 3.19556147e-03,
          5.65368542e-03, 5.26740914e-03, 3.19556147e-03, 2.91463290e-03,
          6.88274764e-03, 2.98486510e-03, 2.98486510e-03, 2.80928472e-03,
          3.30090965e-03, 5.72391786e-03, 4.35439125e-03, 5.26740914e-03,
          4.84601641e-03, 4.56508761e-03, 5.33764111e-03, 6.35600695e-03,
          5.26740914e-03, 4.56508761e-03, 4.17881133e-03, 5.54833747e-03,
          2.38789199e-03, 2.84440094e-03, 6.70716725e-03, 4.35439125e-03 ]
      - [ 9.84736602e-04, 4.13589366e-03, 1.02412608e-02, 1.01427874e-02,
          1.13244709e-02, 5.61299874e-03, 6.99162995e-03, 5.61299874e-03,
          4.03742027e-03, 5.02215652e-03, 4.33284091e-03, 5.41605148e-03,
          9.65041853e-03, 3.15115717e-03, 5.51452488e-03, 3.74199916e-03,
          5.80994599e-03, 5.80994599e-03, 6.99162995e-03, 3.15115717e-03,
          3.15115717e-03, 7.87789293e-04, 3.74199916e-03, 2.75726244e-03,
          4.82520927e-03, 8.46873503e-03, 3.54505191e-03, 8.07484053e-03,
          5.21910423e-03, 2.46184156e-03, 5.12063038e-03, 7.48399831e-03,
          4.92368313e-03, 5.31757763e-03, 7.18857720e-03, 3.44657805e-03,
          1.08321023e-03, 8.86262977e-04, 5.80994599e-03, 4.82520927e-03,
          1.87099958e-03, 1.47710496e-03, 6.00689324e-03, 4.72673588e-03,
          8.46873503e-03, 4.03742027e-03, 8.86262953e-03, 3.74199916e-03,
          1.03397341e-02, 1.57557859e-03, 4.62826202e-03, 1.08321030e-02,
          6.00689324e-03, 8.17331392e-03, 9.55194514e-03, 4.03742027e-03,
          4.33284091e-03, 4.62826202e-03, 6.10536709e-03, 5.41605148e-03,
          8.07484053e-03, 2.36336794e-03, 5.21910423e-03, 2.46184156e-03,
          3.93894641e-03, 5.21910423e-03, 6.89315610e-03, 9.25652403e-03,
          8.27178732e-03, 3.74199916e-03, 5.51452488e-03, 8.27178732e-03,
          1.28015759e-03, 8.37026164e-03, 4.82520927e-03, 3.74199916e-03,
          7.87789281e-03, 3.74199916e-03, 3.84047278e-03, 2.36336794e-03,
          9.45347175e-03, 4.23436752e-03, 3.54505191e-03, 7.38552446e-03,
          4.82520927e-03, 1.67405221e-03, 2.65878881e-03, 8.86262953e-03,
          3.34810442e-03, 5.51452488e-03, 4.43131477e-03, 6.30231434e-03,
          6.20384049e-03, 7.77941942e-03, 6.69620885e-03, 7.28705106e-03,
          8.86262953e-03, 6.40078820e-03, 5.71147259e-03, 4.13589366e-03,
          2.75726244e-03, 2.56031519e-03, 3.74199916e-03, 5.61299874e-03,
          4.92368313e-03, 2.85573630e-03, 2.16642045e-03, 7.48399831e-03,
          5.61299874e-03, 4.33284091e-03, 4.23436752e-03, 3.24963080e-03,
          3.34810442e-03, 4.23436752e-03, 2.95420992e-03, 1.57557859e-03,
          1.77252595e-03, 6.20384049e-03, 1.15214186e-02, 6.59773545e-03,
          3.54505191e-03, 3.93894641e-03, 5.12063038e-03, 2.65878881e-03,
          3.05268355e-03, 5.02215652e-03, 4.52978862e-03, 1.13244709e-02,
          1.04382085e-02, 2.46184156e-03, 8.86262977e-04, 3.84047278e-03,
          7.58247217e-03, 6.30231434e-03, 2.75726244e-03, 2.06794683e-03,
          3.64352553e-03, 4.03742027e-03, 1.18168397e-03, 2.95420992e-03,
          8.27178732e-03, 1.87099958e-03, 3.05268355e-03, 6.59773545e-03,
          6.30231434e-03, 6.59773545e-03, 1.67405221e-03, 2.16642045e-03,
          5.71147259e-03, 1.77252595e-03, 3.64352553e-03, 2.06794683e-03,
          5.61299874e-03, 6.10536709e-03, 3.54505191e-03, 5.51452488e-03,
          4.13589366e-03, 7.77941942e-03, 6.49926160e-03, 8.76415614e-03,
          2.26489431e-03, 2.75726244e-03, 8.56720842e-03, 7.87789293e-04,
          4.82520927e-03, 5.02215652e-03, 2.95420992e-03, 7.58247217e-03,
          1.87099958e-03, 5.31757763e-03, 1.67405221e-03, 6.30231434e-03,
          4.52978862e-03, 3.93894641e-03, 6.79468270e-03, 2.85573630e-03,
          8.07484053e-03, 2.46184156e-03, 5.41605148e-03, 1.18168397e-03,
          1.67405221e-03, 2.06794683e-03, 3.93894641e-03, 3.05268355e-03,
          3.44657805e-03, 8.96110293e-03, 7.58247217e-03, 5.21910423e-03,
          6.49926160e-03, 6.79468270e-03, 3.15115717e-03, 5.41605148e-03,
          7.68094556e-03, 2.46184156e-03, 6.00689324e-03, 7.18857720e-03,
          1.77252595e-03, 5.31757763e-03, 6.79468270e-03, 4.82520927e-03 ]
      - [ 2.03392585e-04, 2.92885327e-03, 1.42781604e-02, 8.17638263e-03,
          6.79331273e-03, 4.75938665e-03, 5.04413620e-03, 3.29495990e-03,
          6.26449194e-03, 5.45092160e-03, 9.60012991e-03, 4.23056586e-03,
          3.70174507e-03, 2.76613934e-03, 2.84749619e-03, 3.01021035e-03,
          5.85770654e-03, 4.47463710e-03, 3.53903114e-03, 5.16617205e-03,
          4.31192294e-03, 1.09832000e-03, 3.53903114e-03, 3.49835260e-03,
          3.49835260e-03, 9.84420162e-03, 1.01696292e-03, 7.44416891e-03,
          2.68478226e-03, 5.16617205e-03, 4.71870834e-03, 2.76613934e-03,
          4.18988755e-03, 3.86445923e-03, 6.34584902e-03, 1.54578371e-03,
          1.09832000e-03, 3.66106658e-04, 9.23402328e-03, 3.74242361e-03,
          2.84749636e-04, 4.88142221e-04, 4.23056586e-03, 5.89838531e-03,
          3.41699552e-03, 2.11528293e-03, 6.83399104e-03, 3.94581631e-03,
          5.49159991e-03, 2.44071111e-04, 1.06577715e-02, 7.20009767e-03,
          8.90859589e-03, 7.40349013e-03, 9.72216576e-03, 4.88142204e-03,
          4.75938665e-03, 4.14920878e-03, 5.12549328e-03, 3.25428136e-03,
          4.51531541e-03, 9.76284442e-04, 7.97298923e-03, 3.13224597e-03,
          2.35935417e-03, 8.37977510e-03, 6.34584902e-03, 4.18988755e-03,
          4.18988755e-03, 8.94927420e-03, 6.46788441e-03, 9.64080915e-03,
          1.22035551e-03, 2.80681788e-03, 5.45092160e-03, 6.91534812e-03,
          6.67127687e-03, 2.56274664e-03, 4.63735126e-03, 6.91534835e-04,
          4.18988755e-03, 3.86445923e-03, 8.90859589e-03, 7.32213352e-03,
          1.10238781e-02, 8.13570339e-04, 3.66106676e-03, 3.37631698e-03,
          6.22381316e-03, 1.00475941e-02, 8.66452418e-03, 4.02717339e-03,
          3.41699552e-03, 6.34584902e-03, 7.85095431e-03, 7.76959723e-03,
          5.00345789e-03, 9.80352331e-03, 6.91534812e-03, 3.94581631e-03,
          4.27124463e-03, 5.57295699e-03, 1.91189034e-03, 4.63735126e-03,
          1.32611971e-02, 3.78310215e-03, 2.23731855e-03, 9.64080915e-03,
          4.55599418e-03, 8.74588173e-03, 3.78310215e-03, 2.07460439e-03,
          8.37977510e-03, 3.62038822e-03, 2.52206810e-03, 2.31867563e-03,
          3.17292451e-03, 2.60342518e-03, 5.49159991e-03, 9.84420162e-03,
          4.06785170e-03, 1.34239113e-03, 6.34584902e-03, 8.25773925e-03,
          2.84749636e-04, 2.88817473e-03, 2.96953181e-03, 8.46113171e-03,
          7.15941936e-03, 2.56274664e-03, 1.78985484e-03, 1.95256888e-03,
          5.89838531e-03, 9.11198836e-03, 3.33563844e-03, 2.76613934e-03,
          2.11528293e-03, 3.53903114e-03, 1.83053338e-03, 5.85770654e-03,
          8.42045341e-03, 2.19664001e-03, 4.14920878e-03, 2.60342518e-03,
          5.08481497e-03, 4.88142204e-03, 3.41699552e-03, 2.31867563e-03,
          3.74242361e-03, 3.01021035e-03, 1.01289507e-02, 1.83053338e-03,
          8.66452418e-03, 6.46788441e-03, 5.24752866e-03, 2.44071102e-03,
          3.70174507e-03, 1.02509866e-02, 5.81702823e-03, 8.21706094e-03,
          3.66106676e-03, 2.27799709e-03, 8.42045341e-03, 2.03392585e-04,
          4.80006495e-03, 5.28820744e-03, 3.41699552e-03, 7.52552599e-03,
          4.92210081e-03, 1.70849776e-03, 1.17967709e-03, 1.16340565e-02,
          2.56274664e-03, 5.45092160e-03, 5.00345789e-03, 5.97974239e-03,
          7.52552599e-03, 2.60342518e-03, 7.56620429e-03, 1.22035555e-04,
          1.26103405e-03, 1.95256888e-03, 4.47463710e-03, 6.46788441e-03,
          8.25773925e-03, 9.55945160e-03, 8.33909586e-03, 7.76959723e-03,
          6.22381316e-03, 9.07131005e-03, 1.50510517e-03, 4.84074373e-03,
          8.13570339e-03, 2.68478226e-03, 9.03063081e-03, 7.03738350e-03,
          3.94581631e-03, 8.09502508e-03, 5.97974239e-03, 3.33563844e-03 ]
      - [ 4.52370569e-02, 1.08742928e-02, 1.59489620e-03, 7.24952843e-04,
          2.31984910e-03, 6.08960399e-03, 2.89981137e-03, 2.02986784e-03,
          7.24952843e-04, 1.59489620e-03, 4.63969819e-03, 2.75482074e-03,
          1.73988682e-03, 1.44990569e-03, 3.04480200e-03, 3.91474552e-03,
          2.31984910e-03, 3.62476427e-03, 6.37958478e-03, 4.49470757e-03,
          7.24952843e-04, 2.17485847e-03, 5.94461337e-03, 5.79962274e-04,
          8.98941513e-03, 1.01493392e-03, 5.07467007e-03, 3.04480200e-03,
          2.46483972e-03, 2.46483972e-03, 6.81455666e-03, 2.17485847e-03,
          2.89981137e-03, 1.15992455e-03, 5.65463211e-03, 1.50790196e-02,
          1.31941419e-02, 3.47977364e-03, 2.31984910e-03, 3.18979239e-03,
          7.61200488e-02, 2.75482088e-02, 2.89981137e-03, 2.17485847e-03,
          4.05973569e-03, 7.24952854e-03, 1.01493392e-03, 1.11642741e-02,
          7.24952843e-04, 2.39234436e-02, 1.01493392e-03, 3.33478302e-03,
          2.31984910e-03, 2.75482074e-03, 1.59489620e-03, 1.59489620e-03,
          3.91474552e-03, 9.42438655e-03, 1.15992455e-03, 4.92967945e-03,
          8.69943411e-04, 1.59489624e-02, 1.73988682e-03, 3.76975490e-03,
          1.39190946e-02, 1.88487745e-03, 5.79962274e-04, 1.44990569e-03,
          6.81455666e-03, 4.34971706e-04, 8.69943411e-04, 2.31984910e-03,
          6.66956604e-03, 3.47977364e-03, 1.73988682e-03, 8.69943411e-04,
          2.02986784e-03, 4.05973569e-03, 3.76975490e-03, 7.82949105e-03,
          2.17485847e-03, 1.44990571e-02, 1.59489620e-03, 1.30491517e-03,
          2.46483972e-03, 1.52240098e-02, 1.27591696e-02, 5.94461337e-03,
          1.44990569e-03, 7.24952843e-04, 2.46483972e-03, 1.30491517e-03,
          5.65463211e-03, 8.69943411e-04, 4.78468882e-03, 2.31984910e-03,
          3.04480200e-03, 2.02986784e-03, 3.47977364e-03, 5.21966070e-03,
          1.44990569e-03, 2.17485847e-03, 4.78468882e-03, 1.01493392e-03,
          3.04480200e-03, 3.47977364e-03, 1.29041607e-02, 1.44990569e-03,
          8.69943411e-04, 4.34971694e-03, 4.05973569e-03, 1.04393214e-02,
          1.15992455e-03, 1.01493392e-03, 5.21966070e-03, 1.44990569e-03,
          6.52457541e-03, 5.65463211e-03, 2.46483972e-03, 2.60983035e-03,
          1.44990569e-03, 1.55139910e-02, 1.44990569e-03, 6.37958478e-03,
          3.47977364e-03, 8.69943388e-03, 3.91474552e-03, 1.73988682e-03,
          1.59489620e-03, 4.63969819e-03, 4.78468882e-03, 6.37958478e-03,
          1.30491517e-03, 1.59489620e-03, 1.27591696e-02, 7.24952843e-04,
          8.98941513e-03, 1.30491517e-03, 9.27939638e-03, 2.89981137e-03,
          4.78468882e-03, 2.75482074e-03, 3.33478302e-03, 1.15992455e-03,
          1.00043491e-02, 1.30491517e-03, 5.94461337e-03, 1.59489620e-03,
          2.17485847e-03, 1.37741044e-02, 2.89981137e-04, 6.81455666e-03,
          1.88487745e-03, 1.73988682e-03, 1.30491517e-03, 9.13440622e-03,
          3.33478302e-03, 4.34971706e-04, 5.79962274e-04, 1.59489620e-03,
          1.30491517e-03, 1.10192830e-02, 3.91474552e-03, 2.74032168e-02,
          1.44990569e-03, 3.18979239e-03, 8.26446246e-03, 1.30491517e-03,
          6.37958478e-03, 5.79962274e-03, 1.92837454e-02, 2.31984910e-03,
          9.27939638e-03, 1.01493392e-03, 3.33478302e-03, 8.69943411e-04,
          4.34971706e-04, 2.60983035e-03, 5.21966070e-03, 1.05843116e-02,
          1.73988682e-03, 6.23459462e-03, 9.71436780e-03, 4.20472631e-03,
          2.89981137e-04, 4.05973569e-03, 7.24952843e-04, 2.31984910e-03,
          4.92967945e-03, 8.69943411e-04, 9.85935889e-03, 2.02986784e-03,
          1.15992455e-03, 1.88487745e-03, 7.24952843e-04, 2.17485847e-03,
          2.46483972e-03, 4.20472631e-03, 3.04480200e-03, 7.24952854e-03 ]
      - [ 8.41323379e-03, 6.06359215e-03, 7.92056695e-03, 6.40466902e-03,
          6.29097689e-03, 5.72251529e-03, 6.55625900e-03, 3.71395028e-03,
          3.48656555e-03, 4.01713001e-03, 4.73718159e-03, 5.49513055e-03,
          7.84477219e-03, 3.18338582e-03, 4.09292476e-03, 3.94133478e-03,
          6.25307951e-03, 4.50979685e-03, 9.70174745e-03, 4.66138637e-03,
          2.08435976e-03, 1.81907765e-03, 3.86554003e-03, 2.99389870e-03,
          5.76041266e-03, 6.97313109e-03, 3.67605267e-03, 6.51836162e-03,
          6.40466902e-03, 2.69071897e-03, 6.97313109e-03, 5.34354057e-03,
          4.85087372e-03, 4.58559161e-03, 8.37533642e-03, 5.98779740e-03,
          1.78118015e-03, 1.62959041e-03, 5.64672006e-03, 3.33497580e-03,
          7.04892585e-03, 5.15405321e-03, 6.66995160e-03, 4.50979685e-03,
          6.59415638e-03, 3.94133478e-03, 6.02569478e-03, 7.73108006e-03,
          7.20051583e-03, 4.96456586e-03, 3.14548844e-03, 7.84477219e-03,
          4.05502738e-03, 7.20051583e-03, 6.63205376e-03, 3.86554003e-03,
          4.09292476e-03, 6.29097689e-03, 4.09292476e-03, 5.98779740e-03,
          4.66138637e-03, 2.65282160e-03, 4.66138637e-03, 2.88020633e-03,
          5.38143795e-03, 5.07825846e-03, 6.02569478e-03, 9.09538846e-03,
          6.63205376e-03, 2.42543686e-03, 4.77507897e-03, 9.47436318e-03,
          1.78118015e-03, 9.55015793e-03, 3.78974504e-03, 3.78974504e-03,
          7.46579794e-03, 3.86554003e-03, 4.88877110e-03, 1.81907765e-03,
          8.64061899e-03, 1.03460038e-02, 2.50123185e-03, 5.60882268e-03,
          3.03179608e-03, 3.86554003e-03, 7.35210534e-03, 8.03426001e-03,
          4.47189901e-03, 3.71395028e-03, 3.48656555e-03, 5.22984844e-03,
          9.96703003e-03, 5.04036108e-03, 4.62348899e-03, 4.92666848e-03,
          8.64061899e-03, 5.91200218e-03, 4.58559161e-03, 7.57949008e-03,
          1.70538528e-03, 3.63815529e-03, 2.91810371e-03, 4.58559161e-03,
          4.01713001e-03, 3.63815529e-03, 7.01102847e-03, 4.96456586e-03,
          5.91200218e-03, 5.64672006e-03, 4.73718159e-03, 2.04646238e-03,
          2.65282160e-03, 3.29707819e-03, 6.51836162e-03, 1.78118015e-03,
          3.10759107e-03, 5.34354057e-03, 9.66385007e-03, 4.92666848e-03,
          2.95600109e-03, 7.80687481e-03, 3.33497580e-03, 4.43400163e-03,
          1.47800054e-03, 4.88877110e-03, 4.24451474e-03, 7.73108006e-03,
          1.15966201e-02, 2.95600109e-03, 1.40220567e-03, 4.62348899e-03,
          5.98779740e-03, 4.85087372e-03, 8.90590064e-03, 1.47800054e-03,
          4.09292476e-03, 5.00246370e-03, 2.50123185e-03, 3.33497580e-03,
          6.66995160e-03, 1.74328277e-03, 5.30564319e-03, 4.28241212e-03,
          8.60272162e-03, 6.82154112e-03, 2.50123185e-03, 1.25061593e-03,
          4.13082214e-03, 2.91810371e-03, 1.28851330e-03, 3.52446293e-03,
          6.25307951e-03, 4.16871952e-03, 5.19195059e-03, 7.01102847e-03,
          5.45723271e-03, 5.79831004e-03, 5.19195059e-03, 8.07215739e-03,
          1.06112869e-03, 5.76041266e-03, 7.35210534e-03, 4.50979685e-03,
          4.39610425e-03, 7.61738745e-03, 3.56236030e-03, 5.00246370e-03,
          3.10759107e-03, 4.73718159e-03, 6.32887427e-03, 5.38143795e-03,
          5.34354057e-03, 3.90343741e-03, 8.45113117e-03, 2.23594951e-03,
          4.92666848e-03, 2.46333424e-03, 6.55625900e-03, 1.70538528e-03,
          1.74328277e-03, 1.02323119e-03, 5.83620742e-03, 4.24451474e-03,
          1.59169291e-03, 6.02569478e-03, 4.81297635e-03, 4.58559161e-03,
          9.32277273e-03, 5.60882268e-03, 6.44256687e-03, 5.57092531e-03,
          4.77507897e-03, 1.93277001e-03, 5.04036108e-03, 4.35820688e-03,
          2.23594951e-03, 4.81297635e-03, 6.10148953e-03, 6.02569478e-03 ]
      - [ 6.39853766e-03, 3.19926883e-03, 2.74223043e-03, 4.57038404e-04,
          9.14076809e-04, 5.48446085e-03, 2.74223043e-03, 5.02742268e-03,
          3.19926883e-03, 1.37111521e-03, 6.85557630e-03, 9.14076809e-03,
          1.82815362e-03, 1.18829980e-02, 5.02742268e-03, 6.85557630e-03,
          0., 2.74223043e-03, 9.14076809e-04, 1.37111521e-03,
          1.82815362e-03, 2.74223043e-03, 5.48446085e-03, 5.48446085e-03,
          5.94149902e-03, 9.14076809e-04, 9.59780626e-03, 1.82815362e-03,
          4.11334541e-03, 3.19926883e-03, 2.74223043e-03, 1.37111521e-03,
          5.94149902e-03, 4.57038404e-04, 2.28519202e-03, 1.14259599e-02,
          1.14259599e-02, 2.01096907e-02, 3.19926883e-03, 4.57038404e-03,
          2.10237671e-02, 1.50822671e-02, 1.82815362e-03, 5.94149902e-03,
          3.19926883e-03, 1.50822671e-02, 4.57038404e-04, 9.14076809e-03,
          1.37111521e-03, 1.32541135e-02, 2.28519202e-03, 1.82815362e-03,
          1.37111521e-03, 4.57038404e-04, 3.19926883e-03, 5.48446085e-03,
          5.02742268e-03, 2.28519202e-03, 1.37111521e-03, 4.57038404e-03,
          2.28519202e-03, 1.69104207e-02, 9.14076809e-04, 4.57038404e-03,
          1.00548454e-02, 2.28519202e-03, 9.14076809e-04, 9.14076809e-04,
          3.19926883e-03, 4.57038404e-04, 0., 4.57038404e-04,
          1.59963444e-02, 4.11334541e-03, 8.22669081e-03, 4.57038404e-04,
          1.37111521e-03, 8.68372992e-03, 3.19926883e-03, 2.05667280e-02,
          9.14076809e-04, 4.11334541e-03, 2.74223043e-03, 4.57038404e-04,
          4.57038404e-03, 1.96526516e-02, 6.39853766e-03, 2.28519202e-03,
          2.74223043e-03, 4.57038404e-04, 4.57038404e-03, 1.37111521e-03,
          2.28519202e-03, 3.19926883e-03, 4.57038404e-03, 3.65630724e-03,
          2.74223043e-03, 1.82815362e-03, 4.11334541e-03, 2.28519202e-03,
          5.02742268e-03, 2.28519202e-03, 1.32541135e-02, 1.37111521e-03,
          9.14076809e-04, 3.65630724e-03, 1.05118835e-02, 4.57038404e-04,
          1.82815362e-03, 2.28519202e-03, 5.02742268e-03, 1.00548454e-02,
          2.74223043e-03, 3.19926883e-03, 1.37111521e-03, 3.65630724e-03,
          7.31261447e-03, 2.28519202e-03, 1.37111521e-03, 1.37111521e-03,
          2.74223043e-03, 2.74223043e-03, 7.31261447e-03, 2.28519202e-03,
          2.33089589e-02, 6.85557630e-03, 1.14259599e-02, 9.14076809e-04,
          4.57038404e-04, 3.19926883e-03, 1.91956125e-02, 5.48446085e-03,
          1.82815362e-03, 3.65630724e-03, 3.65630724e-03, 5.94149902e-03,
          1.00548454e-02, 5.94149902e-03, 1.09689217e-02, 3.19926883e-03,
          2.28519202e-03, 3.19926883e-03, 2.28519202e-03, 4.57038404e-03,
          5.94149902e-03, 9.14076809e-04, 6.39853766e-03, 2.28519198e-02,
          1.82815362e-03, 1.59963444e-02, 4.57038404e-04, 1.27970753e-02,
          1.37111521e-03, 8.22669081e-03, 9.14076809e-04, 2.28519202e-03,
          1.37111521e-03, 0., 0., 3.19926883e-03, 4.57038404e-03,
          6.39853766e-03, 4.57038404e-04, 1.87385753e-02, 5.02742268e-03,
          9.14076809e-04, 1.05118835e-02, 1.82815362e-03, 9.14076809e-03,
          1.00548454e-02, 5.02742268e-03, 1.37111521e-03, 9.14076809e-03,
          1.82815362e-03, 1.82815362e-03, 2.28519202e-03, 0.,
          1.05118835e-02, 4.11334541e-03, 1.96526516e-02, 1.82815362e-02,
          1.96526516e-02, 2.74223043e-03, 3.19926883e-03, 4.57038404e-04,
          0., 0., 1.37111521e-03, 4.57038404e-04, 4.57038404e-04,
          6.85557630e-03, 5.48446085e-03, 1.37111521e-03, 8.68372992e-03,
          2.28519202e-03, 0., 3.19926883e-03, 2.28519202e-03,
          5.94149902e-03, 8.22669081e-03 ]
      - [ 6.91829808e-03, 4.70632501e-03, 4.00037644e-03, 3.57680721e-03,
          8.89495481e-03, 4.42394568e-03, 5.74171683e-03, 6.16528606e-03,
          4.75338846e-03, 4.14156634e-03, 2.58847885e-03, 4.37688222e-03,
          6.40060194e-03, 3.71799688e-03, 5.17695770e-03, 5.97703271e-03,
          5.03576780e-03, 5.64759038e-03, 8.04781634e-03, 6.07115962e-03,
          1.88253005e-03, 5.12989424e-03, 7.53012020e-03, 4.56513558e-03,
          3.48268053e-03, 2.96498486e-03, 4.42394568e-03, 3.71799688e-03,
          4.42394568e-03, 4.23569279e-03, 3.43561731e-03, 6.82417164e-03,
          3.34149087e-03, 7.38893030e-03, 5.31814760e-03, 4.23569279e-03,
          4.98870481e-03, 6.58885529e-03, 1.88253005e-03, 3.05911130e-03,
          8.23606923e-03, 8.14194232e-03, 5.12989424e-03, 4.84751491e-03,
          4.98870481e-03, 4.28275578e-03, 6.40060194e-03, 4.51807212e-03,
          7.67131010e-03, 8.04781634e-03, 2.58847885e-03, 6.02409616e-03,
          4.04743943e-03, 3.76506010e-03, 3.76506010e-03, 4.37688222e-03,
          5.50640048e-03, 6.07115962e-03, 6.40060194e-03, 5.22402069e-03,
          6.96536107e-03, 4.32981923e-03, 3.52974376e-03, 5.78877982e-03,
          5.92996972e-03, 2.87085841e-03, 4.28275578e-03, 8.42432212e-03,
          5.92996972e-03, 1.64721382e-03, 3.71799688e-03, 4.75338846e-03,
          4.98870481e-03, 7.71837309e-03, 4.04743943e-03, 4.09450289e-03,
          5.60052693e-03, 3.71799688e-03, 6.77710818e-03, 7.34186731e-03,
          8.33019521e-03, 5.78877982e-03, 2.35316250e-03, 3.24736442e-03,
          1.69427705e-03, 9.60090291e-03, 3.62387043e-03, 8.56551155e-03,
          7.43599376e-03, 2.16490962e-03, 2.40022573e-03, 6.40060194e-03,
          9.88328271e-03, 5.12989424e-03, 4.47100867e-03, 4.37688222e-03,
          6.49472885e-03, 3.24736442e-03, 3.29442765e-03, 6.87123463e-03,
          2.44728895e-03, 4.61219857e-03, 5.17695770e-03, 3.48268053e-03,
          2.40022573e-03, 4.00037644e-03, 6.02409616e-03, 2.58847885e-03,
          5.69465337e-03, 4.75338846e-03, 4.61219857e-03, 6.87123463e-03,
          1.78840361e-03, 4.61219857e-03, 8.56551155e-03, 3.57680721e-03,
          7.38893030e-03, 6.11822261e-03, 6.82417164e-03, 4.61219857e-03,
          4.04743943e-03, 7.85956252e-03, 3.29442765e-03, 2.25903606e-03,
          5.27108414e-03, 6.07115962e-03, 4.09450289e-03, 6.07115962e-03,
          6.07115962e-03, 5.27108414e-03, 4.42394568e-03, 4.14156634e-03,
          5.92996972e-03, 4.84751491e-03, 4.61219857e-03, 2.25903606e-03,
          4.42394568e-03, 4.84751491e-03, 7.20067741e-03, 3.85918655e-03,
          7.67131010e-03, 8.18900578e-03, 5.36521059e-03, 3.76506010e-03,
          4.37688222e-03, 4.75338846e-03, 6.44766539e-03, 3.81212332e-03,
          3.62387043e-03, 1.01185990e-02, 4.18862933e-03, 3.62387043e-03,
          3.24736442e-03, 2.68260529e-03, 7.57718366e-03, 9.45971347e-03,
          4.89457790e-03, 2.68260529e-03, 5.08283125e-03, 6.11822261e-03,
          1.64721382e-03, 4.61219857e-03, 3.48268053e-03, 6.16528606e-03,
          6.68298174e-03, 5.88290626e-03, 3.29442765e-03, 6.49472885e-03,
          3.24736442e-03, 5.78877982e-03, 5.97703271e-03, 4.32981923e-03,
          7.20067741e-03, 6.11822261e-03, 7.85956252e-03, 1.64721382e-03,
          3.90624977e-03, 2.72966851e-03, 8.65963846e-03, 5.92996972e-03,
          4.56513558e-03, 8.14194232e-03, 3.67093366e-03, 2.87085841e-03,
          1.97665649e-03, 4.80045145e-03, 2.87085841e-03, 4.94164135e-03,
          4.42394568e-03, 3.29442765e-03, 4.98870481e-03, 7.53012020e-03,
          4.51807212e-03, 2.35316250e-03, 3.52974376e-03, 4.51807212e-03,
          2.96498486e-03, 3.62387043e-03, 4.51807212e-03, 3.90624977e-03 ]
      - [ 8.89776647e-03, 4.90285130e-03, 3.54094803e-03, 2.58761598e-03,
          5.22062834e-03, 4.58507380e-03, 5.17523196e-03, 6.94570597e-03,
