%YAML:1.0
---
opencv_ml_svm:
   format: 3
   svmType: C_SVC
   kernel:
      type: RBF
      gamma: 5.0625000000000009e-01
   C: 6.2500000000000000e+01
   term_criteria: { iterations:100 }
   var_count: 110
   class_count: 2
   class_labels: !!opencv-matrix
      rows: 2
      cols: 1
      dt: i
      data: [ 0, 1 ]
   sv_total: 149
   support_vectors:
      - [ 3.19829443e-03, 6.39658887e-03, 8.52878485e-03, 1.38592757e-02,
          4.26439242e-03, 1.70575697e-02, 5.33049041e-03, 2.13219621e-03,
          9.59488284e-03, 3.19829443e-03, 5.33049041e-03, 1.06609808e-02,
          4.26439242e-03, 2.13219621e-03, 2.13219621e-03, 1.27931777e-02,
          4.69083153e-02, 1.06609811e-03, 8.52878485e-03, 1.06609811e-03,
          1.06609811e-03, 3.62473354e-02, 1.06609808e-02, 5.33049041e-03,
          9.59488284e-03, 1.49253737e-02, 1.06609811e-03, 8.52878485e-03,
          9.59488284e-03, 1.06609811e-03, 3.73134352e-02, 1.06609811e-03,
          1.49253737e-02, 2.13219617e-02, 7.46268686e-03, 2.87846494e-02,
          5.33049041e-03, 0., 7.46268686e-03, 2.13219621e-03,
          9.59488284e-03, 6.39658887e-03, 2.13219621e-03, 1.49253737e-02,
          5.33049041e-03, 1.06609808e-02, 5.33049041e-03, 1.38592757e-02,
          8.52878485e-03, 6.39658887e-03, 3.30490395e-02, 3.19829443e-03,
          1.06609808e-02, 5.33049041e-03, 9.59488284e-03, 2.13219621e-03,
          9.59488284e-03, 1.70575697e-02, 2.77185515e-02, 1.27931777e-02,
          5.33049041e-03, 1.06609808e-02, 6.39658887e-03, 2.13219621e-03,
          4.26439242e-03, 1.27931777e-02, 7.46268686e-03, 5.33049041e-03,
          9.59488284e-03, 1.70575697e-02, 1.38592757e-02, 5.33049041e-03,
          3.19829443e-03, 6.39658887e-03, 5.33049041e-03, 5.33049041e-03,
          9.59488284e-03, 9.59488284e-03, 3.19829443e-03, 2.13219621e-03,
          3.19829443e-03, 7.46268686e-03, 8.52878485e-03, 2.02558637e-02,
          2.13219621e-03, 3.19829443e-03, 9.59488284e-03, 5.33049041e-03,
          2.13219621e-03, 1.17270788e-02, 1.06609811e-03, 9.59488284e-03,
          1.70575697e-02, 6.39658887e-03, 5.33049041e-03, 2.13219621e-03,
          1.38592757e-02, 1.17270788e-02, 1.06609808e-02, 7.46268686e-03,
          1.38592757e-02, 4.26439242e-03, 1.59914717e-02, 2.13219621e-03,
          5.33049041e-03, 1.27931777e-02, 6.39658887e-03, 1.27931777e-02,
          2.13219621e-03, 1.38592757e-02 ]
      - [ 2.95566511e-03, 1.47783253e-02, 7.88177364e-03, 1.77339911e-02,
          6.89655170e-03, 7.88177364e-03, 1.97044341e-03, 3.94088682e-03,
          1.97044341e-03, 7.88177364e-03, 9.85221751e-03, 2.95566511e-03,
          6.89655170e-03, 8.86699557e-03, 1.18226605e-02, 1.08374385e-02,
          2.56157648e-02, 9.85221704e-04, 4.92610876e-03, 1.08374385e-02,
          5.91133023e-03, 3.64532024e-02, 1.18226605e-02, 6.89655170e-03,
          5.91133023e-03, 1.97044341e-03, 1.97044341e-03, 5.91133023e-03,
          1.37931034e-02, 8.86699557e-03, 2.06896551e-02, 9.85221751e-03,
          6.89655170e-03, 6.89655170e-03, 1.18226605e-02, 2.75862068e-02,
          5.91133023e-03, 5.91133023e-03, 6.89655170e-03, 1.18226605e-02,
          3.94088682e-03, 1.18226605e-02, 7.88177364e-03, 1.37931034e-02,
          5.91133023e-03, 1.97044350e-02, 9.85221751e-03, 4.92610876e-03,
          8.86699557e-03, 5.91133023e-03, 2.75862068e-02, 5.91133023e-03,
          5.91133023e-03, 1.47783253e-02, 5.91133023e-03, 2.95566511e-03,
          6.89655170e-03, 3.64532024e-02, 1.18226605e-02, 1.67487692e-02,
          9.85221751e-03, 4.92610876e-03, 7.88177364e-03, 1.37931034e-02,
          9.85221751e-03, 3.94088682e-03, 6.89655170e-03, 9.85221704e-04,
          1.37931034e-02, 6.89655170e-03, 5.91133023e-03, 3.94088682e-03,
          1.97044341e-03, 1.18226605e-02, 6.89655170e-03, 4.92610876e-03,
          1.18226605e-02, 1.67487692e-02, 7.88177364e-03, 8.86699557e-03,
          1.08374385e-02, 1.08374385e-02, 6.89655170e-03, 7.88177364e-03,
          3.94088682e-03, 6.89655170e-03, 2.95566511e-03, 5.91133023e-03,
          6.89655170e-03, 4.92610876e-03, 2.95566511e-03, 6.89655170e-03,
          1.67487692e-02, 3.94088682e-03, 6.89655170e-03, 1.97044341e-03,
          2.66009867e-02, 3.94088682e-03, 7.88177364e-03, 7.88177364e-03,
          8.86699557e-03, 4.92610876e-03, 1.87192131e-02, 4.92610876e-03,
          1.28078824e-02, 8.86699557e-03, 2.95566511e-03, 1.97044341e-03,
          8.86699557e-03, 4.92610876e-03 ]
      - [ 3.86597915e-03, 0., 5.15463902e-03, 1.03092780e-02,
          7.73195829e-03, 1.28865978e-02, 1.15979379e-02, 1.03092780e-02,
          3.86597915e-03, 6.44329889e-03, 9.02061816e-03, 7.73195829e-03,
          3.86597915e-03, 1.15979379e-02, 5.15463902e-03, 7.73195829e-03,
          2.06185561e-02, 6.44329889e-03, 1.28865978e-02, 2.57731951e-03,
          7.73195829e-03, 2.31958758e-02, 1.15979379e-02, 2.57731951e-03,
          6.44329889e-03, 1.93298962e-02, 6.44329889e-03, 1.03092780e-02,
          6.44329889e-03, 6.44329889e-03, 1.03092780e-02, 3.86597915e-03,
          1.80412363e-02, 1.93298962e-02, 7.73195829e-03, 5.15463902e-03,
          6.44329889e-03, 9.02061816e-03, 9.02061816e-03, 3.86597915e-03,
          3.86597915e-03, 5.15463902e-03, 6.44329889e-03, 1.28865978e-02,
          7.73195829e-03, 6.44329889e-03, 5.15463902e-03, 9.02061816e-03,
          3.86597915e-03, 1.15979379e-02, 9.02061816e-03, 7.73195829e-03,
          7.73195829e-03, 2.57731951e-03, 1.28865978e-02, 1.41752576e-02,
          5.15463902e-03, 1.80412363e-02, 9.02061816e-03, 9.02061816e-03,
          5.15463902e-03, 1.15979379e-02, 3.35051529e-02, 3.86597915e-03,
          1.03092780e-02, 9.02061816e-03, 1.15979379e-02, 3.86597915e-03,
          1.15979379e-02, 1.15979379e-02, 1.67525765e-02, 7.73195829e-03,
          1.28865978e-02, 7.73195829e-03, 5.15463902e-03, 6.44329889e-03,
          1.03092780e-02, 1.28865978e-02, 6.44329889e-03, 7.73195829e-03,
          3.86597915e-03, 7.73195829e-03, 9.02061816e-03, 1.28865978e-02,
          2.57731951e-03, 5.15463902e-03, 6.44329889e-03, 7.73195829e-03,
          6.44329889e-03, 6.44329889e-03, 6.44329889e-03, 1.80412363e-02,
          1.54639166e-02, 1.03092780e-02, 2.57731951e-03, 9.02061816e-03,
          6.44329889e-03, 1.28865978e-02, 2.83505153e-02, 3.86597915e-03,
          6.44329889e-03, 1.15979379e-02, 1.54639166e-02, 7.73195829e-03,
          2.57731951e-03, 6.44329889e-03, 5.15463902e-03, 1.93298962e-02,
          7.73195829e-03, 9.02061816e-03 ]
      - [ 2.95857992e-03, 1.18343197e-02, 2.95857992e-03, 2.36686394e-02,
          5.91715984e-03, 5.91715984e-03, 8.87573976e-03, 5.91715984e-03,
          1.47928996e-02, 2.07100585e-02, 2.95857992e-03, 0.,
          1.18343197e-02, 1.47928996e-02, 1.47928996e-02, 1.18343197e-02,
          5.91715984e-03, 2.95857992e-03, 5.91715984e-03, 5.91715984e-03,
          1.18343197e-02, 1.77514795e-02, 5.91715984e-03, 8.87573976e-03,
          2.95857992e-03, 0., 8.87573976e-03, 1.18343197e-02,
          5.91715984e-03, 2.95857992e-03, 2.95857992e-03, 2.07100585e-02,
          1.18343197e-02, 8.87573976e-03, 1.77514795e-02, 0.,
          5.91715984e-03, 2.95857992e-02, 5.91715984e-03, 5.91715984e-03,
          2.95857992e-03, 2.95857992e-03, 2.95857992e-03, 8.87573976e-03,
          2.95857992e-03, 5.91715984e-03, 8.87573976e-03, 5.91715984e-03,
          1.47928996e-02, 8.87573976e-03, 1.18343197e-02, 1.77514795e-02,
          1.18343197e-02, 8.87573976e-03, 8.87573976e-03, 8.87573976e-03,
          1.77514795e-02, 2.07100585e-02, 5.91715984e-03, 5.91715984e-03,
          8.87573976e-03, 0., 8.87573976e-03, 1.18343197e-02,
          2.36686394e-02, 2.95857992e-03, 2.95857992e-03, 1.47928996e-02,
          1.77514795e-02, 2.95857992e-03, 2.95857992e-03, 5.91715984e-03,
          2.95857992e-03, 2.07100585e-02, 8.87573976e-03, 8.87573976e-03,
          5.91715984e-03, 5.91715984e-03, 8.87573976e-03, 1.47928996e-02,
          8.87573976e-03, 2.95857992e-03, 1.18343197e-02, 0.,
          2.95857992e-03, 2.66272202e-02, 8.87573976e-03, 2.95857992e-03,
          2.36686394e-02, 0., 1.47928996e-02, 1.47928996e-02,
          5.91715984e-03, 1.18343197e-02, 1.18343197e-02, 5.91715984e-03,
          0., 0., 0., 2.95857992e-03, 8.87573976e-03, 5.91715984e-03,
          1.77514795e-02, 2.36686394e-02, 1.47928996e-02, 1.77514795e-02,
          1.18343197e-02, 0., 1.18343197e-02, 0. ]
      - [ 8.30258336e-03, 5.53505542e-03, 6.45756442e-03, 1.47601478e-02,
          5.53505542e-03, 5.53505542e-03, 1.84501847e-03, 9.22509236e-04,
          4.61254641e-03, 1.01476014e-02, 1.66051667e-02, 3.69003695e-03,
          1.10701108e-02, 7.38007389e-03, 6.45756442e-03, 6.45756442e-03,
          3.78228799e-02, 4.61254641e-03, 1.84501847e-03, 0.,
          1.84501847e-03, 3.04428041e-02, 2.21402217e-02, 2.76752771e-03,
          1.84501847e-03, 7.38007389e-03, 9.22509236e-04, 7.38007389e-03,
          2.02952027e-02, 5.53505542e-03, 2.30627302e-02, 2.76752771e-03,
          1.10701108e-02, 1.10701108e-02, 1.75276753e-02, 4.70479727e-02,
          8.30258336e-03, 0., 2.76752771e-03, 9.22509283e-03,
          9.22509236e-04, 1.10701108e-02, 9.22509236e-04, 3.78228799e-02,
          4.61254641e-03, 1.01476014e-02, 9.22509236e-04, 9.22509236e-04,
          1.19926203e-02, 0., 2.95202956e-02, 4.61254641e-03,
          3.69003695e-03, 7.38007389e-03, 1.10701108e-02, 1.84501847e-03,
          1.93726942e-02, 4.70479727e-02, 2.30627302e-02, 1.10701108e-02,
          2.76752771e-03, 9.22509236e-04, 4.61254641e-03, 6.45756442e-03,
          1.56826563e-02, 6.45756442e-03, 7.38007389e-03, 2.76752771e-03,
          1.47601478e-02, 4.61254641e-03, 4.61254641e-03, 2.76752771e-03,
          3.69003695e-03, 7.38007389e-03, 1.47601478e-02, 1.84501847e-03,
          1.19926203e-02, 1.66051667e-02, 2.76752771e-03, 8.30258336e-03,
          5.53505542e-03, 3.69003695e-03, 9.22509236e-04, 5.53505542e-03,
          1.84501847e-03, 5.53505542e-03, 1.84501847e-03, 4.61254641e-03,
          1.66051667e-02, 6.45756442e-03, 3.69003695e-03, 1.84501847e-03,
          6.45756442e-03, 5.53505542e-03, 0., 9.22509236e-04,
          2.02952027e-02, 1.84501847e-03, 2.12177131e-02, 3.69003695e-03,
          6.45756442e-03, 9.22509283e-03, 4.52029519e-02, 6.45756442e-03,
          1.10701108e-02, 1.75276753e-02, 2.76752771e-03, 0.,
          4.61254641e-03, 6.45756442e-03 ]
      - [ 4.05405415e-03, 6.75675692e-03, 9.45946015e-03, 1.89189203e-02,
          4.05405415e-03, 6.75675692e-03, 1.35135138e-03, 0.,
          8.10810830e-03, 1.48648657e-02, 9.45946015e-03, 1.35135138e-03,
          9.45946015e-03, 6.75675692e-03, 1.62162166e-02, 6.75675692e-03,
          1.48648657e-02, 6.75675692e-03, 6.75675692e-03, 4.05405415e-03,
          8.10810830e-03, 9.45946015e-03, 1.21621620e-02, 2.70270277e-03,
          9.45946015e-03, 2.70270277e-03, 1.35135138e-03, 1.35135138e-02,
          9.45946015e-03, 2.70270277e-03, 6.35135174e-02, 2.97297314e-02,
          2.83783786e-02, 2.97297314e-02, 8.10810830e-03, 5.13513535e-02,
          5.40540554e-03, 2.70270277e-03, 6.75675692e-03, 5.40540554e-03,
          0., 8.10810830e-03, 5.40540554e-03, 9.45946015e-03,
          6.75675692e-03, 6.75675692e-03, 5.40540554e-03, 0.,
          8.10810830e-03, 8.10810830e-03, 1.62162166e-02, 9.45946015e-03,
          2.70270277e-03, 1.62162166e-02, 2.70270277e-03, 2.70270277e-03,
          1.21621620e-02, 1.89189203e-02, 2.70270277e-03, 5.40540554e-03,
          5.40540554e-03, 4.05405415e-03, 4.05405415e-03, 1.48648657e-02,
          1.48648657e-02, 2.70270277e-03, 6.75675692e-03, 6.75675692e-03,
          3.10810823e-02, 9.45946015e-03, 5.40540554e-03, 8.10810830e-03,
          0., 5.40540554e-03, 1.08108111e-02, 2.70270277e-03,
          1.35135138e-02, 6.75675692e-03, 6.75675692e-03, 1.48648657e-02,
          8.10810830e-03, 1.08108111e-02, 1.35135138e-03, 5.40540554e-03,
          8.10810830e-03, 1.75675675e-02, 2.70270277e-03, 5.40540554e-03,
          4.05405415e-03, 4.05405415e-03, 9.45946015e-03, 1.08108111e-02,
          4.05405415e-03, 0., 2.70270277e-03, 1.35135138e-03,
          8.10810830e-03, 6.75675692e-03, 5.40540554e-03, 1.21621620e-02,
          1.08108111e-02, 8.10810830e-03, 2.43243240e-02, 1.21621620e-02,
          1.35135138e-02, 6.75675692e-03, 1.35135138e-03, 0.,
          1.08108111e-02, 2.70270277e-03 ]
      - [ 6.64451811e-03, 3.32225906e-03, 1.32890362e-02, 9.96677764e-03,
          1.16279069e-02, 1.66112953e-03, 9.96677764e-03, 6.64451811e-03,
          4.98338882e-03, 1.82724241e-02, 4.98338882e-03, 6.64451811e-03,
          1.66112948e-02, 1.49501655e-02, 9.96677764e-03, 8.30564741e-03,
          8.30564741e-03, 9.96677764e-03, 1.66112953e-03, 1.32890362e-02,
          6.64451811e-03, 3.32225906e-03, 6.64451811e-03, 1.66112953e-03,
          3.32225906e-03, 0., 9.96677764e-03, 0., 4.98338882e-03, 0.,
          8.30564741e-03, 3.65448482e-02, 0., 8.30564741e-03,
          8.30564741e-03, 1.49501655e-02, 1.99335553e-02, 1.99335553e-02,
          1.32890362e-02, 6.64451811e-03, 8.30564741e-03, 4.98338882e-03,
          1.16279069e-02, 9.96677764e-03, 1.82724241e-02, 4.98338882e-03,
          6.64451811e-03, 0., 4.98338882e-03, 4.98338882e-03,
          4.98338882e-03, 1.66112948e-02, 1.66112953e-03, 8.30564741e-03,
          0., 2.49169432e-02, 4.98338882e-03, 1.82724241e-02,
          1.66112953e-03, 3.32225906e-03, 1.66112953e-03, 0.,
          3.32225906e-03, 1.99335553e-02, 3.48837189e-02, 1.66112953e-03,
          3.32225906e-03, 6.64451811e-03, 2.32558139e-02, 0., 0.,
          1.16279069e-02, 6.64451811e-03, 8.30564741e-03, 1.66112948e-02,
          9.96677764e-03, 9.96677764e-03, 1.16279069e-02, 1.82724241e-02,
          6.64451811e-03, 8.30564741e-03, 4.98338882e-03, 4.98338882e-03,
          0., 4.98338882e-03, 1.66112948e-02, 6.64451811e-03,
          6.64451811e-03, 2.15946846e-02, 2.49169432e-02, 1.82724241e-02,
          8.30564741e-03, 0., 1.66112953e-03, 1.16279069e-02,
          8.30564741e-03, 0., 1.66112953e-03, 6.64451811e-03,
          2.32558139e-02, 4.98338882e-03, 3.32225906e-03, 1.32890362e-02,
          9.96677764e-03, 2.15946846e-02, 2.65780725e-02, 1.66112948e-02,
          3.32225906e-03, 1.16279069e-02, 1.66112953e-03 ]
      - [ 5.44662308e-03, 1.08932459e-03, 6.53594732e-03, 8.71459674e-03,
          5.44662308e-03, 7.62527203e-03, 5.44662308e-03, 3.26797366e-03,
          6.53594732e-03, 9.80392098e-03, 5.44662308e-03, 6.53594732e-03,
          1.08932462e-02, 1.63398683e-02, 5.44662308e-03, 3.26797366e-03,
          7.62527203e-03, 9.80392098e-03, 3.26797366e-03, 9.80392098e-03,
          8.71459674e-03, 1.52505441e-02, 1.74291935e-02, 1.08932459e-03,
          3.26797366e-03, 4.35729837e-03, 7.62527203e-03, 6.53594732e-03,
          9.80392098e-03, 1.08932459e-03, 1.52505441e-02, 1.74291935e-02,
          1.41612198e-02, 1.52505441e-02, 9.80392098e-03, 9.80392098e-03,
          6.53594732e-03, 5.44662308e-03, 8.71459674e-03, 8.71459674e-03,
          6.53594732e-03, 2.17864919e-03, 5.44662308e-03, 7.62527203e-03,
          1.63398683e-02, 3.26797366e-03, 4.35729837e-03, 1.08932459e-03,
          5.44662308e-03, 4.35729837e-03, 5.44662308e-03, 1.85185187e-02,
          4.35729837e-03, 7.62527203e-03, 5.44662308e-03, 1.19825704e-02,
          1.08932462e-02, 4.35729846e-02, 1.30718946e-02, 4.35729837e-03,
          2.17864919e-03, 3.26797366e-03, 1.63398683e-02, 1.41612198e-02,
          3.26797366e-02, 4.35729837e-03, 4.35729837e-03, 7.62527203e-03,
          2.28758156e-02, 1.08932459e-03, 0., 1.19825704e-02,
          9.80392098e-03, 5.44662308e-03, 2.50544660e-02, 7.62527203e-03,
          1.08932462e-02, 1.19825704e-02, 4.35729837e-03, 3.26797366e-03,
          1.30718946e-02, 1.08932459e-03, 1.08932459e-03, 6.53594732e-03,
          9.80392098e-03, 1.63398683e-02, 9.80392098e-03, 2.17864919e-03,
          2.61437893e-02, 9.80392098e-03, 1.19825704e-02, 2.17864919e-03,
          4.35729837e-03, 8.71459674e-03, 1.30718946e-02, 2.17864919e-03,
          4.35729837e-03, 5.44662308e-03, 1.63398683e-02, 3.48583870e-02,
          5.44662308e-03, 8.71459674e-03, 3.05010881e-02, 5.44662308e-03,
          1.63398683e-02, 1.63398683e-02, 0., 2.17864919e-03,
          3.26797366e-03, 6.53594732e-03 ]
      - [ 1.43072288e-02, 1.12951808e-02, 1.58132520e-02, 5.27108414e-03,
          6.77710818e-03, 6.77710818e-03, 6.77710818e-03, 5.27108414e-03,
          8.28313269e-03, 8.28313269e-03, 1.20481923e-02, 3.76506010e-03,
          1.50602404e-02, 7.53012020e-03, 1.58132520e-02, 4.51807212e-03,
          1.28012039e-02, 6.77710818e-03, 6.02409616e-03, 4.51807212e-03,
          1.12951808e-02, 6.02409616e-03, 1.50602404e-02, 1.28012039e-02,
          6.02409616e-03, 3.01204808e-03, 2.25903606e-03, 8.28313269e-03,
          1.20481923e-02, 1.50602404e-02, 1.12951808e-02, 1.50602404e-02,
          2.25903606e-03, 3.76506010e-03, 1.43072288e-02, 1.58132520e-02,
          1.28012039e-02, 6.77710818e-03, 7.53012020e-03, 1.20481923e-02,
          9.78915580e-03, 1.50602404e-03, 5.27108414e-03, 1.50602404e-02,
          8.28313269e-03, 1.05421683e-02, 1.35542164e-02, 8.28313269e-03,
          8.28313269e-03, 1.12951808e-02, 6.02409616e-03, 9.78915580e-03,
          1.20481923e-02, 1.12951808e-02, 3.76506010e-03, 5.27108414e-03,
          1.35542164e-02, 1.12951808e-02, 9.78915580e-03, 4.51807212e-03,
          1.05421683e-02, 8.28313269e-03, 2.25903606e-03, 8.28313269e-03,
          1.65662654e-02, 9.03614424e-03, 1.20481923e-02, 9.78915580e-03,
          1.12951808e-02, 3.01204808e-03, 3.01204808e-03, 7.53012020e-03,
          9.03614424e-03, 1.20481923e-02, 1.50602404e-02, 8.28313269e-03,
          1.05421683e-02, 7.53012020e-03, 1.43072288e-02, 6.77710818e-03,
          8.28313269e-03, 1.50602404e-02, 2.25903606e-03, 1.50602404e-03,
          9.03614424e-03, 1.05421683e-02, 8.28313269e-03, 4.51807212e-03,
          1.35542164e-02, 1.28012039e-02, 6.02409616e-03, 1.12951808e-02,
          5.27108414e-03, 2.25903606e-03, 6.02409616e-03, 4.51807212e-03,
          9.03614424e-03, 6.77710818e-03, 6.77710818e-03, 1.80722885e-02,
          1.43072288e-02, 1.28012039e-02, 5.27108414e-03, 1.12951808e-02,
          1.43072288e-02, 1.43072288e-02, 1.12951808e-02, 5.27108414e-03,
          9.03614424e-03, 4.51807212e-03 ]
      - [ 5.86510263e-03, 2.93255132e-03, 1.31964814e-02, 1.90615840e-02,
          1.46627566e-02, 2.93255132e-03, 1.46627566e-03, 2.34604105e-02,
          7.33137829e-03, 1.17302053e-02, 1.17302053e-02, 1.46627566e-03,
          1.31964814e-02, 1.17302053e-02, 1.31964814e-02, 0.,
          1.02639291e-02, 5.86510263e-03, 0., 2.05278583e-02,
          1.31964814e-02, 5.86510263e-03, 7.33137829e-03, 2.93255132e-03,
          8.79765395e-03, 2.93255132e-03, 2.63929628e-02, 8.79765395e-03,
          5.86510263e-03, 1.31964814e-02, 1.46627566e-02, 2.63929628e-02,
          5.86510263e-03, 2.93255132e-03, 1.17302053e-02, 1.46627566e-02,
          1.61290318e-02, 4.54545468e-02, 1.17302053e-02, 4.39882698e-03,
          1.46627566e-03, 1.46627566e-03, 7.33137829e-03, 1.17302053e-02,
          1.61290318e-02, 2.93255132e-03, 4.39882698e-03, 0.,
          2.93255132e-03, 4.39882698e-03, 1.02639291e-02, 7.33137829e-03,
          1.46627566e-03, 4.39882698e-03, 7.33137829e-03, 8.79765395e-03,
          4.39882698e-03, 2.19941344e-02, 5.86510263e-03, 7.33137829e-03,
          1.17302053e-02, 2.93255132e-03, 0., 7.33137829e-03,
          2.05278583e-02, 0., 2.93255132e-03, 1.17302053e-02,
          1.75953079e-02, 0., 0., 1.46627566e-02, 7.33137829e-03,
          5.86510263e-03, 1.46627566e-02, 7.33137829e-03, 8.79765395e-03,
          4.39882698e-03, 1.02639291e-02, 8.79765395e-03, 1.02639291e-02,
          4.39882698e-03, 2.93255132e-03, 2.93255132e-03, 1.02639291e-02,
          2.05278583e-02, 2.93255132e-03, 4.39882698e-03, 1.02639291e-02,
          1.46627566e-02, 1.61290318e-02, 5.86510263e-03, 2.93255132e-03,
          0., 2.93255132e-02, 7.33137829e-03, 2.93255132e-03,
          1.46627566e-03, 4.39882698e-03, 1.61290318e-02, 2.93255132e-03,
          7.33137829e-03, 1.17302053e-02, 1.61290318e-02, 1.75953079e-02,
          1.46627566e-02, 1.02639291e-02, 4.39882698e-03, 1.61290318e-02,
          0. ]
      - [ 4.03225794e-03, 4.03225794e-03, 4.03225794e-03, 1.20967738e-02,
          1.20967738e-02, 1.61290318e-02, 4.03225794e-03, 0.,
          2.41935477e-02, 4.03225794e-03, 2.41935477e-02, 2.82258056e-02,
          8.06451589e-03, 4.03225794e-03, 8.06451589e-03, 8.06451589e-03,
          1.20967738e-02, 0., 1.61290318e-02, 0., 1.61290318e-02,
          1.61290318e-02, 0., 0., 8.06451589e-03, 2.01612897e-02,
          4.03225794e-03, 0., 8.06451589e-03, 1.20967738e-02, 0., 0.,
          1.20967738e-02, 1.61290318e-02, 8.06451589e-03, 4.03225794e-03,
          4.03225794e-03, 2.82258056e-02, 4.03225794e-03, 1.61290318e-02,
          2.41935477e-02, 4.03225794e-03, 0., 0., 0., 4.03225794e-03,
          4.03225794e-03, 1.61290318e-02, 8.06451589e-03, 1.61290318e-02,
          0., 8.06451589e-03, 1.61290318e-02, 4.03225794e-03,
          1.61290318e-02, 1.20967738e-02, 4.03225794e-03, 8.06451589e-03,
          4.03225794e-03, 1.20967738e-02, 1.20967738e-02, 1.61290318e-02,
          2.01612897e-02, 4.03225794e-03, 1.61290318e-02, 1.20967738e-02,
          2.01612897e-02, 1.20967738e-02, 4.03225794e-03, 1.61290318e-02,
          1.61290318e-02, 4.03225794e-03, 8.06451589e-03, 0., 0.,
          4.03225794e-03, 4.03225794e-03, 1.61290318e-02, 0.,
          8.06451589e-03, 1.20967738e-02, 0., 2.01612897e-02,
          2.01612897e-02, 8.06451589e-03, 0., 1.20967738e-02,
          1.61290318e-02, 4.03225794e-03, 8.06451589e-03, 8.06451589e-03,
          4.03225794e-03, 2.01612897e-02, 1.20967738e-02, 4.03225794e-03,
          4.03225794e-03, 8.06451589e-03, 8.06451589e-03, 2.01612897e-02,
          4.03225794e-03, 0., 2.82258056e-02, 1.20967738e-02, 0., 0.,
          4.03225794e-03, 1.20967738e-02, 2.01612897e-02, 4.03225794e-03,
          0. ]
      - [ 4.14364645e-03, 1.10497242e-02, 2.34806631e-02, 4.14364645e-03,
          2.76243105e-03, 1.51933711e-02, 5.52486209e-03, 9.66850854e-03,
          4.14364645e-03, 0., 1.10497242e-02, 1.51933711e-02,
          4.14364645e-03, 5.52486209e-03, 1.38121555e-02, 9.66850854e-03,
          2.76243105e-03, 2.76243105e-03, 1.79558024e-02, 1.38121552e-03,
          2.90055256e-02, 6.90607773e-03, 1.38121552e-03, 1.10497242e-02,
          9.66850854e-03, 2.20994484e-02, 1.24309398e-02, 4.14364645e-03,
          1.24309398e-02, 1.24309398e-02, 0., 5.52486209e-03,
          4.14364645e-03, 9.66850854e-03, 1.10497242e-02, 0.,
          8.28729291e-03, 1.38121555e-02, 5.52486209e-03, 9.66850854e-03,
          8.28729291e-03, 9.66850854e-03, 1.38121552e-03, 5.52486209e-03,
          4.14364645e-03, 6.90607773e-03, 1.38121555e-02, 1.38121555e-02,
          6.90607773e-03, 6.90607773e-03, 1.38121552e-03, 9.66850854e-03,
          2.34806631e-02, 6.90607773e-03, 9.66850854e-03, 8.28729291e-03,
          4.14364645e-03, 1.38121552e-03, 1.79558024e-02, 1.38121552e-03,
          1.38121555e-02, 1.93370171e-02, 4.14364645e-03, 2.76243105e-03,
          5.52486209e-03, 1.79558024e-02, 1.10497242e-02, 1.38121555e-02,
          2.76243105e-03, 4.14364645e-03, 1.38121555e-02, 1.38121555e-02,
          1.79558024e-02, 8.28729291e-03, 5.52486209e-03, 9.66850854e-03,
          1.10497242e-02, 4.14364645e-03, 1.65745858e-02, 4.14364645e-03,
          5.52486209e-03, 8.28729291e-03, 1.93370171e-02, 1.51933711e-02,
          2.76243105e-03, 1.38121552e-03, 4.14364645e-03, 1.10497242e-02,
          8.28729291e-03, 1.24309398e-02, 2.76243105e-03, 9.66850854e-03,
          1.38121555e-02, 4.14364645e-03, 1.93370171e-02, 1.65745858e-02,
          2.76243105e-03, 1.24309398e-02, 8.28729291e-03, 8.28729291e-03,
          2.76243105e-03, 1.79558024e-02, 1.38121552e-03, 8.28729291e-03,
          1.38121552e-03, 2.76243105e-03, 1.65745858e-02, 2.20994484e-02,
          1.10497242e-02, 1.38121555e-02 ]
      - [ 4.85436898e-03, 0., 1.45631069e-02, 4.85436898e-03,
          4.85436898e-03, 4.85436898e-03, 1.94174759e-02, 4.85436898e-03,
          9.70873795e-03, 4.85436898e-03, 9.70873795e-03, 9.70873795e-03,
          4.85436898e-03, 1.94174759e-02, 1.45631069e-02, 2.42718458e-02,
          0., 0., 1.45631069e-02, 0., 1.94174759e-02, 1.45631069e-02,
          1.45631069e-02, 0., 1.45631069e-02, 4.36893217e-02, 0.,
          4.85436898e-03, 9.70873795e-03, 2.42718458e-02, 0., 0.,
          9.70873795e-03, 4.85436898e-03, 4.85436898e-03, 0., 0., 0.,
          4.85436898e-03, 1.45631069e-02, 1.45631069e-02, 9.70873795e-03,
          0., 4.85436898e-03, 0., 1.94174759e-02, 4.85436898e-03,
          1.94174759e-02, 1.94174759e-02, 0., 0., 4.85436898e-03,
          3.39805819e-02, 1.45631069e-02, 1.45631069e-02, 4.85436898e-03,
          0., 0., 9.70873795e-03, 4.85436898e-03, 4.85436898e-03, 0.,
          9.70873795e-03, 4.85436898e-03, 9.70873795e-03, 9.70873795e-03,
          9.70873795e-03, 1.45631069e-02, 4.85436898e-03, 1.94174759e-02,
          1.94174759e-02, 1.45631069e-02, 4.85436898e-03, 0.,
          9.70873795e-03, 4.85436898e-03, 4.85436898e-03, 0.,
          1.45631069e-02, 9.70873795e-03, 9.70873795e-03, 0.,
          9.70873795e-03, 2.91262139e-02, 1.45631069e-02, 0.,
          9.70873795e-03, 1.45631069e-02, 4.85436898e-03, 4.85436898e-03,
          0., 0., 2.42718458e-02, 1.45631069e-02, 0., 4.85436898e-03,
          4.85436898e-03, 1.45631069e-02, 0., 9.70873795e-03,
          3.88349518e-02, 9.70873795e-03, 9.70873795e-03, 1.45631069e-02,
          0., 4.85436898e-03, 4.85436898e-03, 1.94174759e-02,
          4.85436898e-03, 1.94174759e-02 ]
      - [ 4.75737359e-03, 1.33206472e-02, 1.52235962e-02, 1.61750708e-02,
          4.75737359e-03, 6.66032359e-03, 1.90294953e-03, 3.80589906e-03,
          1.52235962e-02, 9.51474719e-03, 1.33206472e-02, 5.70884859e-03,
          6.66032359e-03, 1.04662227e-02, 1.23691717e-02, 5.70884859e-03,
          1.23691717e-02, 1.04662227e-02, 5.70884859e-03, 8.56327266e-03,
          1.14176972e-02, 2.56898180e-02, 9.51474719e-03, 2.85442430e-03,
          8.56327266e-03, 1.90294953e-03, 9.51474765e-04, 1.14176972e-02,
          1.42721217e-02, 1.90294953e-03, 9.51474719e-03, 1.04662227e-02,
          9.51474719e-03, 5.70884859e-03, 1.23691717e-02, 9.51474719e-03,
          6.66032359e-03, 0., 7.61179812e-03, 1.14176972e-02,
          5.70884859e-03, 6.66032359e-03, 8.56327266e-03, 1.04662227e-02,
          8.56327266e-03, 7.61179812e-03, 7.61179812e-03, 3.80589906e-03,
          1.04662227e-02, 4.75737359e-03, 1.90294944e-02, 9.51474719e-03,
          5.70884859e-03, 1.61750708e-02, 6.66032359e-03, 6.66032359e-03,
          1.14176972e-02, 2.56898180e-02, 2.37868689e-02, 8.56327266e-03,
          6.66032359e-03, 9.51474765e-04, 7.61179812e-03, 6.66032359e-03,
          1.99809708e-02, 4.75737359e-03, 1.04662227e-02, 7.61179812e-03,
          2.66412944e-02, 9.51474765e-04, 6.66032359e-03, 4.75737359e-03,
          9.51474765e-04, 8.56327266e-03, 1.23691717e-02, 1.14176972e-02,
          5.70884859e-03, 1.42721217e-02, 1.33206472e-02, 1.52235962e-02,
          7.61179812e-03, 6.66032359e-03, 4.75737359e-03, 1.33206472e-02,
          8.56327266e-03, 5.70884859e-03, 7.61179812e-03, 1.04662227e-02,
          9.51474719e-03, 8.56327266e-03, 7.61179812e-03, 1.52235962e-02,
          4.75737359e-03, 9.51474719e-03, 1.90294953e-03, 3.80589906e-03,
          4.75737359e-03, 7.61179812e-03, 5.70884859e-03, 2.18839198e-02,
          5.70884859e-03, 1.04662227e-02, 1.61750708e-02, 1.23691717e-02,
          1.33206472e-02, 8.56327266e-03, 3.80589906e-03, 1.90294953e-03,
          1.04662227e-02, 4.75737359e-03 ]
      - [ 2.22717156e-03, 8.90868623e-03, 1.55902011e-02, 1.11358576e-02,
          1.33630298e-02, 4.45434311e-03, 4.45434311e-03, 1.11358576e-02,
          1.55902011e-02, 1.55902011e-02, 2.22717156e-03, 4.45434311e-03,
          1.33630298e-02, 6.68151490e-03, 1.78173725e-02, 2.22717156e-03,
          2.22717156e-03, 8.90868623e-03, 0., 2.00445447e-02,
          2.00445447e-02, 6.68151490e-03, 2.22717156e-03, 0.,
          2.22717156e-03, 0., 3.56347449e-02, 6.68151490e-03, 0.,
          6.68151490e-03, 0., 2.44988874e-02, 0., 2.22717156e-03,
          1.11358576e-02, 4.45434311e-03, 1.78173725e-02, 2.44988874e-02,
          4.45434311e-03, 4.45434311e-03, 2.22717156e-03, 0.,
          8.90868623e-03, 1.55902011e-02, 8.90868623e-03, 4.45434311e-03,
          6.68151490e-03, 2.22717156e-03, 4.45434311e-03, 6.68151490e-03,
          6.68151490e-03, 2.00445447e-02, 2.22717156e-03, 8.90868623e-03,
          0., 2.67260596e-02, 2.22717151e-02, 2.22717151e-02,
          2.22717156e-03, 1.11358576e-02, 1.11358576e-02, 4.45434311e-03,
          2.22717156e-03, 1.33630298e-02, 3.11804023e-02, 2.22717156e-03,
          2.22717156e-03, 8.90868623e-03, 4.23162580e-02, 0., 0.,
          1.55902011e-02, 1.11358576e-02, 1.33630298e-02, 1.55902011e-02,
          8.90868623e-03, 8.90868623e-03, 2.22717156e-03, 1.55902011e-02,
          6.68151490e-03, 1.11358576e-02, 6.68151490e-03, 0.,
          2.22717156e-03, 4.45434311e-03, 1.78173725e-02, 6.68151490e-03,
          6.68151490e-03, 2.00445447e-02, 6.68151490e-03, 1.55902011e-02,
          4.45434311e-03, 0., 2.22717156e-03, 1.11358576e-02,
          6.68151490e-03, 0., 2.22717156e-03, 2.22717156e-03,
          3.78619172e-02, 2.22717156e-03, 1.55902011e-02, 1.11358576e-02,
          6.68151490e-03, 2.00445447e-02, 1.11358576e-02, 8.90868623e-03,
          0., 4.45434311e-03, 2.22717156e-03 ]
      - [ 1.41388178e-02, 0., 5.14138816e-03, 2.57069408e-03,
          3.85604100e-03, 1.79948583e-02, 1.15681235e-02, 1.54241640e-02,
          5.14138816e-03, 5.14138816e-03, 1.41388178e-02, 1.15681235e-02,
          1.02827763e-02, 1.41388178e-02, 3.85604100e-03, 1.54241640e-02,
          1.15681235e-02, 1.02827763e-02, 5.14138816e-03, 3.85604100e-03,
          7.71208201e-03, 7.71208201e-03, 7.71208201e-03, 1.28534704e-03,
          2.57069408e-03, 1.92802064e-02, 3.98457572e-02, 5.14138816e-03,
          3.85604100e-03, 1.28534704e-03, 8.99742916e-03, 2.57069408e-03,
          2.95629818e-02, 2.44215932e-02, 6.42673532e-03, 5.14138816e-03,
          1.02827763e-02, 2.95629818e-02, 5.14138816e-03, 6.42673532e-03,
          5.14138816e-03, 6.42673532e-03, 7.71208201e-03, 5.14138816e-03,
          5.14138816e-03, 7.71208201e-03, 2.57069408e-03, 1.28534706e-02,
          1.28534704e-03, 8.99742916e-03, 6.42673532e-03, 7.71208201e-03,
          1.02827763e-02, 3.85604100e-03, 6.42673532e-03, 2.69922875e-02,
          6.42673532e-03, 1.15681235e-02, 7.71208201e-03, 2.57069408e-03,
          5.14138816e-03, 7.71208201e-03, 2.57069408e-03, 8.99742916e-03,
          1.28534706e-02, 1.54241640e-02, 1.02827763e-02, 5.14138816e-03,
          8.99742916e-03, 1.54241640e-02, 1.41388178e-02, 3.85604100e-03,
          2.31362469e-02, 6.42673532e-03, 1.02827763e-02, 2.57069408e-03,
          6.42673532e-03, 6.42673532e-03, 8.99742916e-03, 1.28534704e-03,
          8.99742916e-03, 2.57069408e-03, 7.71208201e-03, 1.92802064e-02,
          1.02827763e-02, 6.42673532e-03, 7.71208201e-03, 3.85604100e-03,
          6.42673532e-03, 6.42673532e-03, 7.71208201e-03, 1.28534704e-03,
          1.28534706e-02, 1.54241640e-02, 8.99742916e-03, 1.28534706e-02,
          1.28534706e-02, 7.71208201e-03, 1.67095121e-02, 1.02827763e-02,
          5.14138816e-03, 1.41388178e-02, 1.02827763e-02, 2.57069408e-03,
          3.85604100e-03, 8.99742916e-03, 1.02827763e-02, 1.02827763e-02,
          5.14138816e-03, 7.71208201e-03 ]
      - [ 5.31208515e-03, 7.96812773e-03, 9.29614902e-03, 1.32802129e-02,
          1.19521916e-02, 6.64010644e-03, 0., 1.19521916e-02,
          1.06241703e-02, 1.72642767e-02, 5.31208515e-03, 2.65604258e-03,
          1.59362555e-02, 9.29614902e-03, 9.29614902e-03, 2.65604258e-03,
          6.64010644e-03, 9.29614902e-03, 1.32802129e-03, 1.46082342e-02,
          1.06241703e-02, 5.31208515e-03, 7.96812773e-03, 2.65604258e-03,
          5.31208515e-03, 2.65604258e-03, 1.59362555e-02, 3.98406386e-03,
          0., 5.31208515e-03, 2.65604258e-03, 3.45285535e-02,
          3.98406386e-03, 2.65604258e-03, 1.32802129e-02, 1.32802129e-03,
          1.46082342e-02, 1.59362555e-02, 1.06241703e-02, 9.29614902e-03,
          7.96812773e-03, 2.65604258e-03, 9.29614902e-03, 6.64010644e-03,
          9.29614902e-03, 3.98406386e-03, 2.65604258e-03, 2.65604258e-03,
          5.31208515e-03, 2.65604258e-03, 3.98406386e-03, 1.59362555e-02,
          0., 7.96812773e-03, 1.06241703e-02, 1.72642767e-02,
          7.96812773e-03, 9.29614902e-03, 1.32802129e-02, 3.98406386e-03,
          2.65604258e-03, 3.98406386e-03, 1.19521916e-02, 1.46082342e-02,
          3.05444896e-02, 2.65604258e-03, 3.98406386e-03, 1.32802129e-02,
          2.92164683e-02, 1.32802129e-03, 7.96812773e-03, 1.46082342e-02,
          1.72642767e-02, 1.72642767e-02, 2.12483406e-02, 1.19521916e-02,
          5.31208515e-03, 1.06241703e-02, 1.46082342e-02, 7.96812773e-03,
          1.46082342e-02, 5.31208515e-03, 3.98406386e-03, 2.65604258e-03,
          9.29614902e-03, 2.65604258e-02, 1.32802129e-03, 6.64010644e-03,
          1.99203193e-02, 1.85922980e-02, 1.59362555e-02, 6.64010644e-03,
          2.65604258e-03, 5.31208515e-03, 6.64010644e-03, 3.98406386e-03,
          2.65604258e-03, 2.65604258e-03, 9.29614902e-03, 2.25763619e-02,
          3.98406386e-03, 1.85922980e-02, 0., 7.96812773e-03,
          1.19521916e-02, 1.19521916e-02, 1.85922980e-02, 1.32802129e-03,
          1.19521916e-02, 0. ]
      - [ 1.27388537e-02, 2.72975443e-03, 4.54959041e-03, 4.54959041e-03,
          1.54686077e-02, 4.54959041e-03, 4.54959041e-03, 5.45950886e-03,
          1.45586897e-02, 1.27388537e-02, 1.00090988e-02, 5.45950886e-03,
          1.27388537e-02, 2.27479525e-02, 6.36942685e-03, 5.45950886e-03,
          9.09918081e-03, 1.36487717e-02, 9.09918104e-04, 2.54777074e-02,
          9.09918081e-03, 4.54959041e-03, 1.36487717e-02, 4.54959041e-03,
          4.54959041e-03, 2.72975443e-03, 1.27388537e-02, 1.81983621e-03,
          4.54959041e-03, 5.45950886e-03, 0., 2.36578714e-02,
          1.36487717e-02, 9.09918104e-04, 7.27934483e-03, 3.63967242e-03,
          1.81983616e-02, 6.36942685e-03, 1.36487717e-02, 8.18926282e-03,
          8.18926282e-03, 1.81983621e-03, 1.91082805e-02, 4.54959041e-03,
          1.36487717e-02, 1.81983621e-03, 1.00090988e-02, 6.36942685e-03,
          6.36942685e-03, 4.54959041e-03, 4.54959041e-03, 1.00090988e-02,
          3.63967242e-03, 7.27934483e-03, 1.81983621e-03, 1.27388537e-02,
          7.27934483e-03, 2.09281165e-02, 9.09918104e-04, 3.63967242e-03,
          5.45950886e-03, 7.27934483e-03, 4.73157428e-02, 1.91082805e-02,
          9.09918081e-03, 3.63967242e-03, 2.72975443e-03, 1.72884446e-02,
          9.09918081e-03, 2.72975443e-03, 1.81983621e-03, 2.00181976e-02,
          7.27934483e-03, 1.72884446e-02, 1.63785256e-02, 1.45586897e-02,
          2.72975443e-03, 1.00090988e-02, 2.72975434e-02, 3.63967242e-03,
          1.36487717e-02, 9.09918104e-04, 2.72975443e-03, 5.45950886e-03,
          1.72884446e-02, 3.45768891e-02, 7.27934483e-03, 2.72975443e-03,
          1.18289357e-02, 2.72975443e-03, 2.00181976e-02, 6.36942685e-03,
          1.81983621e-03, 0., 1.09190177e-02, 1.27388537e-02,
          9.09918104e-04, 4.54959041e-03, 6.36942685e-03, 1.27388537e-02,
          2.72975443e-03, 6.36942685e-03, 1.45586897e-02, 6.36942685e-03,
          1.18289357e-02, 1.00090988e-02, 1.00090988e-02, 3.63967242e-03,
          1.09190177e-02, 9.09918104e-04 ]
      - [ 6.98689977e-03, 2.00873371e-02, 1.39737995e-02, 2.00873371e-02,
          6.11353712e-03, 3.49344988e-03, 1.74672494e-03, 5.24017494e-03,
          4.36681230e-03, 1.74672492e-02, 4.36681230e-03, 4.36681230e-03,
          1.83406118e-02, 8.73362459e-03, 1.31004369e-02, 4.36681230e-03,
          4.36681230e-03, 6.98689977e-03, 6.11353712e-03, 1.04803499e-02,
          6.11353712e-03, 7.86026195e-03, 1.74672494e-03, 8.73362459e-03,
          1.65938865e-02, 6.11353712e-03, 6.11353712e-03, 6.11353712e-03,
          4.36681230e-03, 3.49344988e-03, 8.73362471e-04, 2.62008738e-02,
          2.62008747e-03, 4.36681230e-03, 6.11353712e-03, 3.49344988e-03,
          9.60698724e-03, 1.39737995e-02, 1.57205239e-02, 1.31004369e-02,
          5.24017494e-03, 9.60698724e-03, 9.60698724e-03, 1.48471622e-02,
          8.73362459e-03, 8.73362459e-03, 1.83406118e-02, 3.49344988e-03,
          4.36681230e-03, 1.13537125e-02, 7.86026195e-03, 9.60698724e-03,
          2.62008747e-03, 1.39737995e-02, 9.60698724e-03, 2.62008747e-03,
          1.39737995e-02, 4.36681230e-03, 2.62008747e-03, 1.57205239e-02,
          1.83406118e-02, 1.74672494e-03, 1.31004369e-02, 1.31004369e-02,
          8.73362459e-03, 8.73362471e-04, 7.86026195e-03, 7.86026195e-03,
          3.23144123e-02, 4.36681230e-03, 2.62008747e-03, 5.24017494e-03,
          3.49344988e-03, 1.57205239e-02, 1.65938865e-02, 7.86026195e-03,
          9.60698724e-03, 3.49344988e-03, 1.04803499e-02, 2.00873371e-02,
          1.57205239e-02, 1.65938865e-02, 4.36681230e-03, 5.24017494e-03,
          9.60698724e-03, 1.92139745e-02, 5.24017494e-03, 2.62008747e-03,
          8.73362459e-03, 1.04803499e-02, 6.98689977e-03, 1.13537125e-02,
          3.49344988e-03, 4.36681230e-03, 1.04803499e-02, 4.36681230e-03,
          8.73362459e-03, 6.11353712e-03, 2.62008747e-03, 1.04803499e-02,
          1.48471622e-02, 9.60698724e-03, 2.62008747e-03, 1.74672492e-02,
          2.44541485e-02, 1.13537125e-02, 4.36681230e-03, 4.36681230e-03,
          1.57205239e-02, 3.49344988e-03 ]
      - [ 5.28541207e-03, 1.47991544e-02, 1.37420716e-02, 7.39957718e-03,
          2.11416488e-03, 1.05708241e-02, 1.26849897e-02, 7.39957718e-03,
          7.39957718e-03, 8.45665950e-03, 6.34249486e-03, 1.26849897e-02,
          1.90274846e-02, 6.34249486e-03, 7.39957718e-03, 1.16279069e-02,
          3.17124743e-03, 8.45665950e-03, 4.22832975e-03, 1.26849897e-02,
          6.34249486e-03, 4.22832975e-03, 5.28541207e-03, 1.26849897e-02,
          9.51374229e-03, 8.45665950e-03, 8.45665950e-03, 2.11416488e-03,
          8.45665950e-03, 4.22832975e-03, 6.34249486e-03, 9.51374229e-03,
          2.43128967e-02, 1.90274846e-02, 1.26849897e-02, 9.51374229e-03,
          9.51374229e-03, 1.05708241e-02, 1.05708241e-02, 5.28541207e-03,
          1.16279069e-02, 1.47991544e-02, 8.45665950e-03, 1.26849897e-02,
          1.16279069e-02, 5.28541207e-03, 6.34249486e-03, 1.16279069e-02,
          4.22832975e-03, 7.39957718e-03, 8.45665950e-03, 1.05708241e-02,
          1.16279069e-02, 4.22832975e-03, 4.22832975e-03, 4.22832975e-03,
          1.26849897e-02, 6.34249486e-03, 4.22832975e-03, 4.22832975e-03,
          7.39957718e-03, 5.28541207e-03, 3.17124743e-03, 8.45665950e-03,
          7.39957718e-03, 7.39957718e-03, 9.51374229e-03, 2.00845655e-02,
          2.21987311e-02, 5.28541207e-03, 3.17124743e-03, 1.37420716e-02,
          4.22832975e-03, 2.11416483e-02, 1.26849897e-02, 1.16279069e-02,
          7.39957718e-03, 0., 1.16279069e-02, 1.16279069e-02,
          1.05708241e-02, 1.79704018e-02, 6.34249486e-03, 4.22832975e-03,
          7.39957718e-03, 1.16279069e-02, 9.51374229e-03, 1.05708241e-02,
          5.28541207e-03, 1.26849897e-02, 1.37420716e-02, 6.34249486e-03,
          4.22832975e-03, 1.05708244e-03, 8.45665950e-03, 1.16279069e-02,
          1.16279069e-02, 9.51374229e-03, 5.28541207e-03, 7.39957718e-03,
          2.11416488e-03, 9.51374229e-03, 4.22832975e-03, 1.16279069e-02,
          1.16279069e-02, 1.79704018e-02, 1.47991544e-02, 6.34249486e-03,
          1.16279069e-02, 7.39957718e-03 ]
      - [ 8.61243997e-03, 6.69856463e-03, 1.24401916e-02, 8.61243997e-03,
          1.33971293e-02, 2.20095683e-02, 5.74162696e-03, 1.62679423e-02,
          7.65550230e-03, 8.61243997e-03, 8.61243997e-03, 1.05263153e-02,
          8.61243997e-03, 9.56937764e-03, 9.56937764e-03, 8.61243997e-03,
          1.14832539e-02, 4.78468882e-03, 4.78468882e-03, 1.05263153e-02,
          1.14832539e-02, 9.56937764e-03, 8.61243997e-03, 8.61243997e-03,
          8.61243997e-03, 8.61243997e-03, 9.56937764e-03, 4.78468882e-03,
          7.65550230e-03, 2.87081348e-03, 5.74162696e-03, 1.24401916e-02,
          1.62679423e-02, 2.20095683e-02, 1.14832539e-02, 9.56937764e-03,
          9.56937764e-03, 2.20095683e-02, 1.43540669e-02, 4.78468882e-03,
          3.82775115e-03, 7.65550230e-03, 1.62679423e-02, 1.43540669e-02,
          7.65550230e-03, 5.74162696e-03, 8.61243997e-03, 5.74162696e-03,
          7.65550230e-03, 4.78468882e-03, 6.69856463e-03, 9.56937764e-03,
          4.78468882e-03, 5.74162696e-03, 5.74162696e-03, 7.65550230e-03,
          4.78468882e-03, 1.62679423e-02, 4.78468882e-03, 3.82775115e-03,
          5.74162696e-03, 6.69856463e-03, 9.56937764e-03, 1.43540669e-02,
          1.53110046e-02, 5.74162696e-03, 3.82775115e-03, 5.74162696e-03,
          1.81818176e-02, 7.65550230e-03, 7.65550230e-03, 8.61243997e-03,
          7.65550230e-03, 1.05263153e-02, 1.14832539e-02, 8.61243997e-03,
          2.87081348e-03, 1.81818176e-02, 9.56937764e-03, 7.65550230e-03,
          9.56937764e-03, 4.78468882e-03, 6.69856463e-03, 9.56937764e-03,
          8.61243997e-03, 1.81818176e-02, 4.78468882e-03, 9.56937764e-03,
          7.65550230e-03, 9.56937764e-03, 1.24401916e-02, 9.56937764e-03,
          4.78468882e-03, 8.61243997e-03, 1.14832539e-02, 8.61243997e-03,
          1.91387557e-03, 3.82775115e-03, 1.24401916e-02, 7.65550230e-03,
          9.56937787e-04, 4.78468882e-03, 6.69856463e-03, 1.43540669e-02,
          1.43540669e-02, 9.56937764e-03, 8.61243997e-03, 1.14832539e-02,
          1.05263153e-02, 4.78468882e-03 ]
      - [ 8.09716620e-03, 8.09716620e-03, 6.74763788e-03, 1.21457484e-02,
          1.07962210e-02, 1.61943324e-02, 1.07962210e-02, 9.44669358e-03,
          6.74763788e-03, 5.39811049e-03, 5.39811049e-03, 6.74763788e-03,
          8.09716620e-03, 1.07962210e-02, 9.44669358e-03, 4.04858310e-03,
          2.69905524e-03, 8.09716620e-03, 2.29419693e-02, 1.21457484e-02,
          1.48448041e-02, 5.39811049e-03, 4.04858310e-03, 4.04858310e-03,
          4.04858310e-03, 1.75438598e-02, 8.09716620e-03, 5.39811049e-03,
          4.04858310e-03, 1.07962210e-02, 4.04858310e-03, 6.74763788e-03,
          5.39811049e-03, 1.75438598e-02, 9.44669358e-03, 8.09716620e-03,
          1.07962210e-02, 1.75438598e-02, 1.07962210e-02, 1.21457484e-02,
          1.21457484e-02, 2.69905524e-03, 1.48448041e-02, 4.04858310e-03,
          1.61943324e-02, 2.69905524e-03, 9.44669358e-03, 1.48448041e-02,
          5.39811049e-03, 6.74763788e-03, 9.44669358e-03, 6.74763788e-03,
          9.44669358e-03, 5.39811049e-03, 1.48448041e-02, 2.02429146e-02,
          5.39811049e-03, 1.34952758e-02, 5.39811049e-03, 4.04858310e-03,
          1.21457484e-02, 1.21457484e-02, 1.34952762e-03, 4.04858310e-03,
          9.44669358e-03, 9.44669358e-03, 5.39811049e-03, 5.39811049e-03,
          9.44669358e-03, 5.39811049e-03, 8.09716620e-03, 1.34952758e-02,
          1.61943324e-02, 1.61943324e-02, 1.61943324e-02, 5.39811049e-03,
          2.69905524e-03, 8.09716620e-03, 8.09716620e-03, 2.69905524e-03,
          6.74763788e-03, 5.39811049e-03, 1.34952758e-02, 8.09716620e-03,
          5.39811049e-03, 4.04858310e-03, 1.21457484e-02, 2.69905524e-03,
          1.48448041e-02, 1.07962210e-02, 4.04858310e-03, 1.21457484e-02,
          1.48448041e-02, 1.07962210e-02, 9.44669358e-03, 1.34952758e-02,
          6.74763788e-03, 4.04858310e-03, 1.61943324e-02, 5.39811049e-03,
          9.44669358e-03, 1.21457484e-02, 1.61943324e-02, 8.09716620e-03,
          6.74763788e-03, 6.74763788e-03, 6.74763788e-03, 1.21457484e-02,
          1.21457484e-02, 8.09716620e-03 ]
      - [ 1.60000008e-02, 1.00000007e-02, 4.00000019e-03, 8.00000038e-03,
          1.00000007e-02, 2.20000017e-02, 1.40000004e-02, 0.,
          1.40000004e-02, 2.00000014e-02, 1.40000004e-02, 6.00000005e-03,
          1.20000001e-02, 1.40000004e-02, 1.80000011e-02, 2.00000014e-02,
          6.00000005e-03, 1.40000004e-02, 1.20000001e-02, 1.00000007e-02,
          6.00000005e-03, 8.00000038e-03, 1.00000007e-02, 6.00000005e-03,
          8.00000038e-03, 8.00000038e-03, 0., 4.00000019e-03,
          8.00000038e-03, 2.00000009e-03, 8.00000038e-03, 2.00000009e-03,
          1.40000004e-02, 2.60000005e-02, 4.00000019e-03, 6.00000005e-03,
          4.00000019e-03, 0., 4.00000019e-03, 4.00000019e-03,
          6.00000005e-03, 8.00000038e-03, 1.20000001e-02, 1.00000007e-02,
          1.00000007e-02, 2.00000009e-03, 1.20000001e-02, 6.00000005e-03,
          2.00000009e-03, 4.00000019e-03, 6.00000005e-03, 8.00000038e-03,
          4.00000019e-03, 1.60000008e-02, 1.00000007e-02, 0.,
          1.40000004e-02, 8.00000038e-03, 1.00000007e-02, 1.00000007e-02,
          4.00000019e-03, 4.00000019e-03, 2.00000009e-03, 1.60000008e-02,
          1.20000001e-02, 1.20000001e-02, 1.20000001e-02, 1.00000007e-02,
          1.20000001e-02, 1.00000007e-02, 1.60000008e-02, 8.00000038e-03,
          2.00000009e-03, 6.00000005e-03, 1.20000001e-02, 4.00000019e-03,
          6.00000005e-03, 1.00000007e-02, 6.00000005e-03, 4.00000019e-03,
          1.40000004e-02, 1.20000001e-02, 6.00000005e-03, 2.80000009e-02,
          1.20000001e-02, 8.00000038e-03, 6.00000005e-03, 8.00000038e-03,
          8.00000038e-03, 8.00000038e-03, 1.00000007e-02, 6.00000005e-03,
          1.20000001e-02, 2.00000014e-02, 1.00000007e-02, 6.00000005e-03,
          6.00000005e-03, 6.00000005e-03, 1.20000001e-02, 1.40000004e-02,
          4.00000019e-03, 8.00000038e-03, 1.00000007e-02, 1.60000008e-02,
          1.20000001e-02, 1.20000001e-02, 1.00000007e-02, 2.00000009e-03,
          4.00000019e-03, 8.00000038e-03 ]
      - [ 1.17079895e-02, 5.50964195e-03, 9.64187365e-03, 8.26446339e-03,
          4.13223170e-03, 7.57575780e-03, 6.88705221e-03, 1.17079895e-02,
          1.30853998e-02, 1.30853998e-02, 1.30853998e-02, 3.44352610e-03,
          1.58402212e-02, 2.54820939e-02, 8.95316806e-03, 5.50964195e-03,
          3.44352610e-03, 8.95316806e-03, 2.06611585e-03, 1.10192839e-02,
          9.64187365e-03, 8.26446339e-03, 1.03305783e-02, 6.19834708e-03,
          5.50964195e-03, 4.82093683e-03, 7.57575780e-03, 3.44352610e-03,
          1.17079895e-02, 6.88705221e-03, 6.88705244e-04, 9.64187365e-03,
          0., 6.88705244e-04, 1.17079895e-02, 0., 1.17079895e-02,
          1.03305783e-02, 8.26446339e-03, 1.79063361e-02, 1.51515156e-02,
          1.03305783e-02, 5.50964195e-03, 3.44352610e-03, 6.88705221e-03,
          4.82093683e-03, 4.13223170e-03, 7.57575780e-03, 1.23966942e-02,
          8.26446339e-03, 6.88705221e-03, 1.92837473e-02, 5.50964195e-03,
          1.37741044e-02, 4.82093683e-03, 2.13498622e-02, 2.75482098e-03,
          1.03305783e-02, 6.88705221e-03, 3.44352610e-03, 4.13223170e-03,
          1.30853998e-02, 1.72176305e-02, 9.64187365e-03, 1.51515156e-02,
          5.50964195e-03, 6.19834708e-03, 1.23966942e-02, 4.13223170e-03,
          0., 2.75482098e-03, 1.99724529e-02, 1.99724529e-02,
          1.72176305e-02, 2.34159790e-02, 1.30853998e-02, 5.50964195e-03,
          2.75482088e-02, 1.44628100e-02, 4.82093683e-03, 1.37741044e-02,
          6.88705221e-03, 4.82093683e-03, 5.50964195e-03, 1.30853998e-02,
          1.17079895e-02, 6.19834708e-03, 4.82093683e-03, 2.34159790e-02,
          8.95316806e-03, 1.23966942e-02, 1.03305783e-02, 3.44352610e-03,
          4.13223170e-03, 6.19834708e-03, 1.03305783e-02, 6.19834708e-03,
          3.44352610e-03, 5.50964195e-03, 1.30853998e-02, 7.57575780e-03,
          1.17079895e-02, 5.50964195e-03, 5.50964195e-03, 1.10192839e-02,
          8.95316806e-03, 1.37741044e-02, 4.82093683e-03, 7.57575780e-03,
          4.82093683e-03 ]
      - [ 1.12429736e-02, 4.37226752e-03, 1.93628985e-02, 7.49531575e-03,
          1.31168030e-02, 4.37226752e-03, 9.99375433e-03, 9.99375433e-03,
          8.74453504e-03, 6.24609645e-03, 1.37414122e-02, 8.74453504e-03,
          7.49531575e-03, 1.93628985e-02, 8.11992586e-03, 6.24609645e-03,
          3.12304823e-03, 1.43660214e-02, 1.18675828e-02, 9.99375433e-03,
          1.12429736e-02, 9.36914422e-03, 6.24609645e-03, 6.24609645e-03,
          9.36914422e-03, 8.11992586e-03, 1.74890701e-02, 9.36914422e-03,
          7.49531575e-03, 1.31168030e-02, 3.74765787e-03, 1.12429736e-02,
          6.24609645e-04, 2.49843858e-03, 9.36914422e-03, 1.87382894e-03,
          9.99375433e-03, 1.93628985e-02, 1.24921929e-02, 1.06183644e-02,
          6.87070610e-03, 5.62148681e-03, 1.49906315e-02, 6.24609645e-03,
          1.12429736e-02, 6.24609645e-03, 1.12429736e-02, 5.62148681e-03,
          6.87070610e-03, 7.49531575e-03, 3.74765787e-03, 1.56152416e-02,
          1.12429736e-02, 6.87070610e-03, 3.74765787e-03, 1.43660214e-02,
          4.99687716e-03, 9.36914422e-03, 3.12304823e-03, 7.49531575e-03,
          1.06183644e-02, 1.24921929e-02, 1.12429736e-02, 1.18675828e-02,
          1.43660214e-02, 3.74765787e-03, 3.74765787e-03, 7.49531575e-03,
          9.36914422e-03, 1.24921929e-03, 1.24921929e-03, 1.56152416e-02,
          1.49906315e-02, 8.11992586e-03, 6.24609645e-03, 9.99375433e-03,
          7.49531575e-03, 8.74453504e-03, 1.56152416e-02, 9.36914422e-03,
          4.37226752e-03, 1.18675828e-02, 9.99375433e-03, 7.49531575e-03,
          1.06183644e-02, 1.06183644e-02, 6.24609645e-03, 5.62148681e-03,
          1.31168030e-02, 4.99687716e-03, 9.36914422e-03, 1.24921929e-02,
          2.49843858e-03, 3.12304823e-03, 1.31168030e-02, 2.43597757e-02,
          4.99687716e-03, 9.36914422e-03, 7.49531575e-03, 6.87070610e-03,
          1.18675828e-02, 1.12429736e-02, 8.11992586e-03, 9.36914422e-03,
          6.87070610e-03, 1.06183644e-02, 1.43660214e-02, 7.49531575e-03,
          1.37414122e-02, 3.12304823e-03 ]
      - [ 1.31736528e-02, 7.18562864e-03, 5.98802418e-03, 1.55688627e-02,
          4.79041925e-03, 8.38323403e-03, 5.98802418e-03, 8.38323403e-03,
          9.58083849e-03, 1.07784430e-02, 8.38323403e-03, 5.98802418e-03,
          8.38323403e-03, 1.19760484e-02, 1.19760484e-02, 5.98802418e-03,
          1.55688627e-02, 1.43712573e-02, 2.39520962e-03, 5.98802418e-03,
          2.39520962e-03, 5.98802418e-03, 8.38323403e-03, 1.07784430e-02,
          7.18562864e-03, 2.39520962e-03, 1.19760481e-03, 9.58083849e-03,
          9.58083849e-03, 5.98802418e-03, 2.27544922e-02, 1.19760484e-02,
          1.43712573e-02, 3.59281432e-03, 8.38323403e-03, 3.95209603e-02,
          8.38323403e-03, 1.07784430e-02, 9.58083849e-03, 1.31736528e-02,
          1.19760484e-02, 2.39520962e-03, 9.58083849e-03, 1.31736528e-02,
          4.79041925e-03, 1.07784430e-02, 1.19760481e-03, 3.59281432e-03,
          5.98802418e-03, 8.38323403e-03, 1.55688627e-02, 9.58083849e-03,
          4.79041925e-03, 1.07784430e-02, 2.39520962e-03, 1.07784430e-02,
          1.43712573e-02, 1.19760484e-02, 1.07784430e-02, 1.07784430e-02,
          4.79041925e-03, 5.98802418e-03, 2.63473056e-02, 1.31736528e-02,
          1.19760484e-02, 8.38323403e-03, 5.98802418e-03, 2.39520962e-03,
          2.87425146e-02, 7.18562864e-03, 3.59281432e-03, 9.58083849e-03,
          7.18562864e-03, 1.31736528e-02, 3.59281432e-03, 2.39520962e-03,
          7.18562864e-03, 3.47305387e-02, 7.18562864e-03, 7.18562864e-03,
          2.39520962e-03, 8.38323403e-03, 3.59281432e-03, 8.38323403e-03,
          4.79041925e-03, 7.18562864e-03, 1.19760484e-02, 5.98802418e-03,
          9.58083849e-03, 7.18562864e-03, 1.19760484e-02, 5.98802418e-03,
          3.59281432e-03, 5.98802418e-03, 3.59281432e-03, 5.98802418e-03,
          1.43712573e-02, 4.79041925e-03, 7.18562864e-03, 1.19760484e-02,
          1.79640725e-02, 1.07784430e-02, 4.79041925e-03, 4.79041925e-03,
          9.58083849e-03, 1.07784430e-02, 2.39520962e-03, 7.18562864e-03,
          9.58083849e-03, 5.98802418e-03 ]
      - [ 1.02354139e-02, 8.18833150e-03, 1.02354139e-02, 8.18833150e-03,
          7.16479030e-03, 1.33060385e-02, 8.18833150e-03, 1.02354139e-02,
          8.18833150e-03, 1.22824972e-02, 1.12589560e-02, 6.14124862e-03,
          8.18833150e-03, 4.09416575e-03, 9.21187270e-03, 9.21187270e-03,
          1.02354144e-03, 1.33060385e-02, 7.16479030e-03, 1.02354139e-02,
          9.21187270e-03, 8.18833150e-03, 4.09416575e-03, 5.11770695e-03,
          7.16479030e-03, 7.16479030e-03, 6.14124862e-03, 7.16479030e-03,
          5.11770695e-03, 4.09416575e-03, 5.11770695e-03, 8.18833150e-03,
          6.14124862e-03, 6.14124862e-03, 1.02354139e-02, 9.21187270e-03,
          8.18833150e-03, 7.16479030e-03, 1.33060385e-02, 9.21187270e-03,
          1.12589560e-02, 4.09416575e-03, 8.18833150e-03, 7.16479030e-03,
          1.33060385e-02, 1.12589560e-02, 1.02354139e-02, 9.21187270e-03,
          7.16479030e-03, 1.94472875e-02, 8.18833150e-03, 7.16479030e-03,
          7.16479030e-03, 1.33060385e-02, 1.22824972e-02, 4.09416575e-03,
          1.33060385e-02, 7.16479030e-03, 7.16479030e-03, 1.12589560e-02,
          1.12589560e-02, 6.14124862e-03, 7.16479030e-03, 1.63766630e-02,
          5.11770695e-03, 1.02354139e-02, 7.16479030e-03, 1.74002051e-02,
          1.94472875e-02, 6.14124862e-03, 1.12589560e-02, 1.22824972e-02,
          5.11770695e-03, 1.33060385e-02, 7.16479030e-03, 1.33060385e-02,
          4.09416575e-03, 8.18833150e-03, 1.33060385e-02, 1.33060385e-02,
          8.18833150e-03, 1.22824972e-02, 1.02354139e-02, 1.84237454e-02,
          6.14124862e-03, 1.43295806e-02, 1.02354139e-02, 5.11770695e-03,
          1.02354139e-02, 7.16479030e-03, 1.22824972e-02, 1.22824972e-02,
          4.09416575e-03, 1.02354139e-02, 1.22824972e-02, 6.14124862e-03,
          9.21187270e-03, 6.14124862e-03, 7.16479030e-03, 9.21187270e-03,
          9.21187270e-03, 6.14124862e-03, 5.11770695e-03, 1.02354139e-02,
          9.21187270e-03, 6.14124862e-03, 1.74002051e-02, 3.07062431e-03,
          1.63766630e-02, 3.07062431e-03 ]
      - [ 6.57174177e-03, 7.66703207e-03, 7.66703207e-03, 6.57174177e-03,
          9.85761266e-03, 1.64293535e-02, 1.09529030e-02, 1.53340641e-02,
          1.42387738e-02, 6.57174177e-03, 1.09529030e-02, 6.57174177e-03,
          5.47645148e-03, 1.53340641e-02, 9.85761266e-03, 9.85761266e-03,
          2.19058059e-03, 7.66703207e-03, 1.20481933e-02, 1.31434835e-02,
          1.75246447e-02, 8.76232237e-03, 1.20481933e-02, 6.57174177e-03,
          1.20481933e-02, 1.20481933e-02, 4.38116118e-03, 4.38116118e-03,
          2.19058059e-03, 6.57174177e-03, 1.64293535e-02, 3.28587089e-03,
          1.09529030e-02, 1.20481933e-02, 6.57174177e-03, 1.20481933e-02,
          7.66703207e-03, 1.20481933e-02, 1.20481933e-02, 1.64293535e-02,
          1.31434835e-02, 3.28587089e-03, 5.47645148e-03, 6.57174177e-03,
          6.57174177e-03, 3.28587089e-03, 1.20481933e-02, 1.75246447e-02,
          9.85761266e-03, 1.75246447e-02, 4.38116118e-03, 1.09529030e-02,
          8.76232237e-03, 1.31434835e-02, 6.57174177e-03, 1.20481933e-02,
          4.38116118e-03, 7.66703207e-03, 6.57174177e-03, 2.19058059e-03,
          2.19058059e-03, 1.20481933e-02, 8.76232237e-03, 3.28587089e-03,
          5.47645148e-03, 2.19058059e-02, 3.28587089e-03, 9.85761266e-03,
          4.38116118e-03, 1.75246447e-02, 1.64293535e-02, 8.76232237e-03,
          7.66703207e-03, 4.38116118e-03, 8.76232237e-03, 8.76232237e-03,
          4.38116118e-03, 9.85761266e-03, 8.76232237e-03, 5.47645148e-03,
          1.09529030e-03, 1.20481933e-02, 7.66703207e-03, 1.75246447e-02,
          4.38116118e-03, 8.76232237e-03, 4.38116118e-03, 5.47645148e-03,
          1.20481933e-02, 5.47645148e-03, 8.76232237e-03, 6.57174177e-03,
          1.31434835e-02, 1.75246447e-02, 3.28587089e-03, 8.76232237e-03,
          1.09529030e-03, 7.66703207e-03, 1.75246447e-02, 5.47645148e-03,
          1.64293535e-02, 1.20481933e-02, 3.28587089e-03, 9.85761266e-03,
          3.28587089e-03, 6.57174177e-03, 1.20481933e-02, 9.85761266e-03,
          1.42387738e-02, 8.76232237e-03 ]
      - [ 1.00125158e-02, 2.50312896e-03, 1.62703376e-02, 1.87734663e-02,
          1.25156445e-02, 7.50938710e-03, 1.25156448e-03, 5.00625791e-03,
          3.75469355e-03, 5.00625791e-03, 5.00625791e-03, 6.25782227e-03,
          8.76095146e-03, 2.50312896e-03, 1.00125158e-02, 3.75469355e-03,
          7.50938710e-03, 1.25156445e-02, 1.00125158e-02, 6.25782227e-03,
          1.37672089e-02, 1.00125158e-02, 3.75469355e-03, 1.75219029e-02,
          1.25156445e-02, 1.12640802e-02, 1.25156448e-03, 1.00125158e-02,
          8.76095146e-03, 1.25156445e-02, 2.00250316e-02, 7.50938710e-03,
          5.75719662e-02, 8.76095146e-03, 5.00625791e-03, 6.25782227e-03,
          7.50938710e-03, 8.76095146e-03, 1.00125158e-02, 5.00625791e-03,
          0., 2.12765969e-02, 2.50312896e-03, 1.25156445e-02,
          1.00125158e-02, 1.37672089e-02, 1.62703376e-02, 6.25782227e-03,
          1.00125158e-02, 1.12640802e-02, 1.12640802e-02, 5.00625791e-03,
          7.50938710e-03, 8.76095146e-03, 7.50938710e-03, 6.25782227e-03,
          1.00125158e-02, 3.75469355e-03, 7.50938710e-03, 1.12640802e-02,
          1.12640802e-02, 7.50938710e-03, 1.25156445e-02, 1.00125158e-02,
          1.00125158e-02, 1.25156448e-03, 1.12640802e-02, 7.50938710e-03,
          8.76095146e-03, 3.75469355e-03, 3.75469355e-03, 0., 0.,
          3.75469355e-03, 8.76095146e-03, 7.50938710e-03, 1.37672089e-02,
          8.76095146e-03, 5.00625791e-03, 1.12640802e-02, 1.25156445e-02,
          2.12765969e-02, 8.76095146e-03, 7.50938710e-03, 1.00125158e-02,
          8.76095146e-03, 3.75469355e-03, 3.75469355e-03, 1.00125158e-02,
          1.12640802e-02, 7.50938710e-03, 1.25156445e-02, 1.25156448e-03,
          3.75469355e-03, 1.25156445e-02, 7.50938710e-03, 2.00250316e-02,
          1.50187742e-02, 2.00250316e-02, 3.75469355e-03, 5.00625791e-03,
          3.75469355e-03, 3.75469355e-03, 1.37672089e-02, 7.50938710e-03,
          1.75219029e-02, 6.25782227e-03, 2.50312896e-03, 1.37672089e-02,
          2.50312896e-03 ]
      - [ 1.73775665e-02, 6.31911540e-03, 9.47867334e-03, 0.,
          4.73933667e-03, 7.89889414e-03, 6.31911540e-03, 4.73933667e-03,
          3.15955770e-03, 6.31911540e-03, 1.57977883e-02, 4.73933667e-03,
          1.10584516e-02, 1.26382308e-02, 4.73933667e-03, 6.31911540e-03,
          1.26382308e-02, 4.73933667e-03, 4.73933667e-03, 1.26382308e-02,
          9.47867334e-03, 1.89573467e-02, 7.89889414e-03, 3.15955770e-03,
          6.31911540e-03, 9.47867334e-03, 1.26382308e-02, 6.31911540e-03,
          7.89889414e-03, 4.73933667e-03, 3.15955770e-03, 1.26382308e-02,
          1.42180100e-02, 1.10584516e-02, 1.57977883e-02, 0.,
          6.31911540e-03, 1.42180100e-02, 1.26382308e-02, 1.42180100e-02,
          1.10584516e-02, 1.57977885e-03, 6.31911540e-03, 4.73933667e-03,
          1.42180100e-02, 6.31911540e-03, 1.10584516e-02, 7.89889414e-03,
          3.15955770e-03, 1.26382308e-02, 3.15955770e-03, 1.10584516e-02,
          9.47867334e-03, 1.26382308e-02, 6.31911540e-03, 6.31911540e-03,
          6.31911540e-03, 6.31911540e-03, 1.73775665e-02, 4.73933667e-03,
          6.31911540e-03, 9.47867334e-03, 1.89573467e-02, 9.47867334e-03,
          1.57977883e-02, 7.89889414e-03, 1.10584516e-02, 9.47867334e-03,
          1.42180100e-02, 1.10584516e-02, 1.26382308e-02, 4.73933667e-03,
          7.89889414e-03, 2.05371249e-02, 1.42180100e-02, 6.31911540e-03,
          4.73933667e-03, 2.21169032e-02, 4.73933667e-03, 7.89889414e-03,
          6.31911540e-03, 4.73933667e-03, 4.73933667e-03, 1.42180100e-02,
          6.31911540e-03, 6.31911540e-03, 1.26382308e-02, 9.47867334e-03,
          4.73933667e-03, 1.10584516e-02, 9.47867334e-03, 9.47867334e-03,
          1.10584516e-02, 7.89889414e-03, 6.31911540e-03, 9.47867334e-03,
          4.73933667e-03, 7.89889414e-03, 2.36966833e-02, 6.31911540e-03,
          9.47867334e-03, 6.31911540e-03, 2.68562399e-02, 1.10584516e-02,
          6.31911540e-03, 6.31911540e-03, 9.47867334e-03, 4.73933667e-03,
          7.89889414e-03, 4.73933667e-03 ]
      - [ 9.02255625e-03, 7.51879718e-03, 3.00751883e-03, 1.50375941e-03,
          1.05263162e-02, 2.10526325e-02, 1.65413544e-02, 7.51879718e-03,
          1.35338344e-02, 7.51879718e-03, 4.51127812e-03, 7.51879718e-03,
          4.51127812e-03, 1.35338344e-02, 6.01503765e-03, 9.02255625e-03,
          1.05263162e-02, 7.51879718e-03, 2.10526325e-02, 6.01503765e-03,
          7.51879718e-03, 6.01503765e-03, 6.01503765e-03, 6.01503765e-03,
          6.01503765e-03, 2.70676687e-02, 6.01503765e-03, 7.51879718e-03,
          1.50375941e-03, 1.35338344e-02, 4.51127812e-03, 0.,
          1.80451125e-02, 1.65413544e-02, 7.51879718e-03, 1.05263162e-02,
          1.20300753e-02, 1.80451125e-02, 6.01503765e-03, 3.00751883e-03,
          2.40601506e-02, 4.51127812e-03, 4.51127812e-03, 3.00751883e-03,
          1.20300753e-02, 7.51879718e-03, 4.51127812e-03, 2.40601506e-02,
          0., 7.51879718e-03, 0., 1.20300753e-02, 7.51879718e-03,
          9.02255625e-03, 9.02255625e-03, 9.02255625e-03, 7.51879718e-03,
          3.00751883e-03, 3.00751883e-03, 1.50375941e-03, 9.02255625e-03,
          1.95488725e-02, 4.51127812e-03, 1.50375941e-03, 1.05263162e-02,
          2.55639106e-02, 9.02255625e-03, 7.51879718e-03, 3.00751883e-03,
          3.60902250e-02, 1.65413544e-02, 3.00751883e-03, 1.50375944e-02,
          9.02255625e-03, 6.01503765e-03, 7.51879718e-03, 9.02255625e-03,
          0., 3.00751883e-03, 4.51127812e-03, 1.50375944e-02,
          1.50375941e-03, 1.80451125e-02, 2.70676687e-02, 6.01503765e-03,
          1.50375941e-03, 2.10526325e-02, 9.02255625e-03, 6.01503765e-03,
          7.51879718e-03, 0., 4.51127812e-03, 2.10526325e-02,
          2.25563906e-02, 6.01503765e-03, 6.01503765e-03, 6.01503765e-03,
          1.50375944e-02, 1.05263162e-02, 3.00751883e-03, 6.01503765e-03,
          6.01503765e-03, 1.50375941e-03, 7.51879718e-03, 4.51127812e-03,
          6.01503765e-03, 3.00751883e-03, 1.95488725e-02, 7.51879718e-03,
          6.01503765e-03 ]
      - [ 6.96055684e-03, 9.28074215e-03, 8.12064949e-03, 6.96055684e-03,
          6.96055684e-03, 8.12064949e-03, 1.39211137e-02, 1.74013916e-02,
          1.85614843e-02, 6.96055684e-03, 6.96055684e-03, 9.28074215e-03,
          5.80046372e-03, 9.28074215e-03, 5.80046372e-03, 1.27610201e-02,
          8.12064949e-03, 5.80046372e-03, 2.32018554e-03, 1.50812063e-02,
          1.16009274e-02, 2.32018554e-03, 6.96055684e-03, 1.16009277e-03,
          5.80046372e-03, 4.64037107e-03, 3.36426906e-02, 4.64037107e-03,
          6.96055684e-03, 1.16009274e-02, 2.32018554e-03, 5.80046372e-03,
          5.80046372e-03, 1.04408348e-02, 6.96055684e-03, 2.32018554e-03,
          1.97215769e-02, 3.24825980e-02, 1.16009274e-02, 1.39211137e-02,
          8.12064949e-03, 3.48027842e-03, 8.12064949e-03, 4.64037107e-03,
          9.28074215e-03, 4.64037107e-03, 6.96055684e-03, 8.12064949e-03,
          4.64037107e-03, 8.12064949e-03, 8.12064949e-03, 1.50812063e-02,
          1.27610201e-02, 8.12064949e-03, 9.28074215e-03, 1.16009274e-02,
          1.16009274e-02, 8.12064949e-03, 4.64037107e-03, 8.12064949e-03,
          4.64037107e-03, 8.12064949e-03, 1.39211137e-02, 1.39211137e-02,
          1.39211137e-02, 9.28074215e-03, 9.28074215e-03, 1.97215769e-02,
          4.64037107e-03, 2.32018554e-03, 4.64037107e-03, 1.16009274e-02,
          8.12064949e-03, 8.12064949e-03, 1.74013916e-02, 1.27610201e-02,
          4.64037107e-03, 5.80046372e-03, 1.04408348e-02, 5.80046372e-03,
          4.64037107e-03, 3.48027842e-03, 5.80046372e-03, 1.04408348e-02,
          5.80046372e-03, 1.27610201e-02, 6.96055684e-03, 9.28074215e-03,
          4.64037107e-03, 8.12064949e-03, 1.50812063e-02, 8.12064949e-03,
          1.16009277e-03, 8.12064949e-03, 1.74013916e-02, 1.50812063e-02,
          3.48027842e-03, 9.28074215e-03, 1.04408348e-02, 1.39211137e-02,
          4.64037107e-03, 6.96055684e-03, 8.12064949e-03, 2.32018554e-03,
          1.39211137e-02, 3.48027842e-03, 1.62412990e-02, 8.12064949e-03,
          1.16009274e-02, 1.27610201e-02 ]
      - [ 1.41304340e-02, 8.69565178e-03, 9.78260860e-03, 7.60869542e-03,
          7.60869542e-03, 6.52173907e-03, 4.34782589e-03, 7.60869542e-03,
          8.69565178e-03, 1.08695645e-02, 1.08695645e-02, 9.78260860e-03,
          1.52173908e-02, 6.52173907e-03, 9.78260860e-03, 6.52173907e-03,
          4.34782589e-03, 1.73913036e-02, 5.43478224e-03, 8.69565178e-03,
          1.19565213e-02, 5.43478224e-03, 6.52173907e-03, 5.43478224e-03,
          9.78260860e-03, 5.43478224e-03, 3.26086953e-03, 3.26086953e-03,
          8.69565178e-03, 2.17391294e-03, 1.08695647e-03, 8.69565178e-03,
          1.41304340e-02, 3.04347817e-02, 1.73913036e-02, 3.26086953e-03,
          9.78260860e-03, 9.78260860e-03, 1.30434781e-02, 8.69565178e-03,
          9.78260860e-03, 3.26086953e-03, 1.41304340e-02, 1.30434781e-02,
          1.84782594e-02, 9.78260860e-03, 6.52173907e-03, 3.26086953e-03,
          9.78260860e-03, 9.78260860e-03, 3.26086953e-03, 5.43478224e-03,
          8.69565178e-03, 8.69565178e-03, 5.43478224e-03, 9.78260860e-03,
          1.08695645e-02, 1.08695645e-02, 1.41304340e-02, 8.69565178e-03,
          5.43478224e-03, 2.17391294e-03, 1.41304340e-02, 1.41304340e-02,
          1.52173908e-02, 6.52173907e-03, 5.43478224e-03, 1.41304340e-02,
          2.28260867e-02, 1.41304340e-02, 9.78260860e-03, 5.43478224e-03,
          1.08695645e-02, 1.52173908e-02, 8.69565178e-03, 7.60869542e-03,
          4.34782589e-03, 6.52173907e-03, 6.52173907e-03, 1.08695645e-02,
          8.69565178e-03, 1.19565213e-02, 5.43478224e-03, 3.26086953e-03,
          6.52173907e-03, 1.52173908e-02, 7.60869542e-03, 1.08695645e-02,
          1.52173908e-02, 1.08695645e-02, 1.08695645e-02, 4.34782589e-03,
          1.41304340e-02, 9.78260860e-03, 5.43478224e-03, 2.17391294e-03,
          4.34782589e-03, 1.08695645e-02, 2.39130426e-02, 7.60869542e-03,
          9.78260860e-03, 1.19565213e-02, 5.43478224e-03, 8.69565178e-03,
          3.26086953e-03, 6.52173907e-03, 4.34782589e-03, 5.43478224e-03,
          1.08695645e-02, 2.17391294e-03 ]
      - [ 1.11627914e-02, 9.30232555e-03, 1.02325585e-02, 1.58139542e-02,
          9.30232555e-03, 7.44186062e-03, 4.65116277e-03, 1.11627914e-02,
          5.58139570e-03, 9.30232555e-03, 2.79069785e-03, 5.58139570e-03,
          1.02325585e-02, 1.11627914e-02, 1.02325585e-02, 6.51162816e-03,
          9.30232555e-03, 1.20930234e-02, 5.58139570e-03, 7.44186062e-03,
          8.37209355e-03, 8.37209355e-03, 6.51162816e-03, 5.58139570e-03,
          1.30232563e-02, 4.65116277e-03, 9.30232555e-03, 1.48837212e-02,
          2.79069785e-03, 1.86046516e-03, 2.41860468e-02, 1.67441871e-02,
          8.37209355e-03, 1.39534883e-02, 1.02325585e-02, 1.67441871e-02,
          5.58139570e-03, 1.11627914e-02, 7.44186062e-03, 7.44186062e-03,
          1.39534883e-02, 5.58139570e-03, 9.30232555e-03, 9.30232555e-03,
          1.11627914e-02, 1.02325585e-02, 7.44186062e-03, 9.30232555e-03,
          1.11627914e-02, 1.86046516e-03, 1.02325585e-02, 5.58139570e-03,
          1.20930234e-02, 6.51162816e-03, 9.30232555e-03, 5.58139570e-03,
          6.51162816e-03, 7.44186062e-03, 1.02325585e-02, 5.58139570e-03,
          2.79069785e-03, 1.11627914e-02, 1.11627914e-02, 1.30232563e-02,
          1.30232563e-02, 3.72093031e-03, 8.37209355e-03, 1.20930234e-02,
          2.88372096e-02, 1.48837212e-02, 1.48837212e-02, 8.37209355e-03,
          2.79069785e-03, 1.39534883e-02, 6.51162816e-03, 4.65116277e-03,
          9.30232555e-03, 7.44186062e-03, 8.37209355e-03, 1.30232563e-02,
          4.65116277e-03, 9.30232555e-03, 6.51162816e-03, 9.30232555e-03,
          9.30232555e-03, 1.20930234e-02, 9.30232555e-03, 9.30232555e-03,
          1.11627914e-02, 5.58139570e-03, 1.20930234e-02, 1.30232563e-02,
          4.65116277e-03, 4.65116277e-03, 9.30232555e-03, 9.30232555e-03,
          8.37209355e-03, 8.37209355e-03, 1.11627914e-02, 7.44186062e-03,
          5.58139570e-03, 6.51162816e-03, 9.30232555e-03, 7.44186062e-03,
          1.67441871e-02, 8.37209355e-03, 2.79069785e-03, 5.58139570e-03,
          9.30232555e-03, 4.65116277e-03 ]
      - [ 1.41458102e-02, 6.52883574e-03, 4.35255701e-03, 6.52883574e-03,
          9.79325362e-03, 1.95865072e-02, 6.52883574e-03, 7.61697488e-03,
          1.08813923e-02, 8.70511401e-03, 5.44069614e-03, 5.44069614e-03,
          1.52339498e-02, 1.19695319e-02, 1.30576715e-02, 9.79325362e-03,
          8.70511401e-03, 1.52339498e-02, 7.61697488e-03, 5.44069614e-03,
          7.61697488e-03, 8.70511401e-03, 1.41458102e-02, 5.44069614e-03,
          5.44069614e-03, 1.95865072e-02, 2.17627850e-03, 9.79325362e-03,
          1.74102280e-02, 7.61697488e-03, 6.52883574e-03, 1.08813923e-02,
          2.50272024e-02, 8.70511401e-03, 1.08813923e-02, 1.08813925e-03,
          7.61697488e-03, 2.17627850e-03, 8.70511401e-03, 9.79325362e-03,
          5.44069614e-03, 4.35255701e-03, 4.35255701e-03, 5.44069614e-03,
          9.79325362e-03, 6.52883574e-03, 8.70511401e-03, 1.19695319e-02,
          1.30576715e-02, 4.35255701e-03, 9.79325362e-03, 1.95865072e-02,
          6.52883574e-03, 9.79325362e-03, 1.19695319e-02, 8.70511401e-03,
          6.52883574e-03, 9.79325362e-03, 1.19695319e-02, 3.26441787e-03,
          5.44069614e-03, 1.19695319e-02, 1.41458102e-02, 1.08813923e-02,
          9.79325362e-03, 1.30576715e-02, 7.61697488e-03, 9.79325362e-03,
          7.61697488e-03, 1.19695319e-02, 1.41458102e-02, 1.30576715e-02,
          4.35255701e-03, 1.19695319e-02, 7.61697488e-03, 2.17627850e-03,
          8.70511401e-03, 1.08813923e-02, 7.61697488e-03, 3.26441787e-03,
          1.63220894e-02, 5.44069614e-03, 8.70511401e-03, 2.06746459e-02,
          5.44069614e-03, 6.52883574e-03, 8.70511401e-03, 6.52883574e-03,
          1.30576715e-02, 1.30576715e-02, 4.35255701e-03, 5.44069614e-03,
          7.61697488e-03, 9.79325362e-03, 3.26441787e-03, 7.61697488e-03,
          5.44069614e-03, 2.17627850e-03, 1.95865072e-02, 1.19695319e-02,
          1.30576715e-02, 4.35255701e-03, 7.61697488e-03, 5.44069614e-03,
          6.52883574e-03, 1.41458102e-02, 1.08813923e-02, 7.61697488e-03,
          3.26441787e-03, 5.44069614e-03 ]
      - [ 8.14332254e-03, 8.14332254e-03, 1.62866451e-02, 1.14006512e-02,
          8.95765424e-03, 4.07166127e-03, 1.38436481e-02, 5.70032559e-03,
          8.95765424e-03, 8.14332254e-03, 8.95765424e-03, 1.05863186e-02,
          1.38436481e-02, 2.03583054e-02, 1.54723125e-02, 8.14332254e-03,
          8.95765424e-03, 5.70032559e-03, 4.88599343e-03, 1.14006512e-02,
          1.14006512e-02, 6.51465775e-03, 1.54723125e-02, 8.95765424e-03,
          9.77198686e-03, 5.70032559e-03, 4.07166127e-03, 4.07166127e-03,
          1.38436481e-02, 8.95765424e-03, 1.62866444e-03, 1.30293155e-02,
          2.44299672e-03, 1.62866444e-03, 1.14006512e-02, 3.25732888e-03,
          7.32898992e-03, 1.30293155e-02, 9.77198686e-03, 1.14006512e-02,
          1.46579798e-02, 4.88599343e-03, 9.77198686e-03, 8.14332254e-03,
          1.38436481e-02, 9.77198686e-03, 8.14332254e-03, 9.77198686e-03,
          1.14006512e-02, 1.38436481e-02, 5.70032559e-03, 1.14006512e-02,
          9.77198686e-03, 5.70032559e-03, 8.14332254e-03, 1.05863186e-02,
          4.88599343e-03, 8.14332254e-03, 8.95765424e-03, 7.32898992e-03,
          1.22149829e-02, 7.32898992e-03, 4.88599343e-03, 6.51465775e-03,
          4.88599343e-03, 8.14332254e-03, 1.05863186e-02, 1.38436481e-02,
          8.14332254e-03, 4.88599343e-03, 8.14332254e-03, 8.14332254e-03,
          4.88599343e-03, 8.95765424e-03, 1.87296402e-02, 4.07166127e-03,
          1.05863186e-02, 1.46579798e-02, 9.77198686e-03, 8.14332254e-03,
          1.22149829e-02, 1.30293155e-02, 8.14332254e-03, 3.25732888e-03,
          7.32898992e-03, 1.05863186e-02, 4.88599343e-03, 8.95765424e-03,
          1.38436481e-02, 7.32898992e-03, 7.32898992e-03, 1.46579798e-02,
          6.51465775e-03, 3.25732888e-03, 1.95439737e-02, 7.32898992e-03,
          5.70032559e-03, 8.14332254e-03, 7.32898992e-03, 1.79153085e-02,
          8.95765424e-03, 1.05863186e-02, 4.88599343e-03, 1.38436481e-02,
          7.32898992e-03, 7.32898992e-03, 1.14006512e-02, 4.88599343e-03,
          9.77198686e-03, 5.70032559e-03 ]
      - [ 1.05708241e-02, 8.45665950e-03, 4.22832975e-03, 1.47991544e-02,
          1.69133190e-02, 1.26849897e-02, 1.47991544e-02, 0.,
          8.45665950e-03, 8.45665950e-03, 4.22832975e-03, 4.22832975e-03,
          8.45665950e-03, 1.05708241e-02, 8.45665950e-03, 8.45665950e-03,
          6.34249486e-03, 1.26849897e-02, 1.90274846e-02, 2.11416488e-03,
          4.22832975e-03, 1.26849897e-02, 1.26849897e-02, 1.05708241e-02,
          0., 4.22832975e-03, 2.11416488e-03, 1.05708241e-02,
          2.11416488e-03, 2.11416488e-03, 8.45665950e-03, 2.11416488e-03,
          1.47991544e-02, 4.22832975e-03, 1.26849897e-02, 8.45665950e-03,
          1.26849897e-02, 4.22832975e-03, 1.05708241e-02, 4.22832975e-03,
          2.11416488e-03, 8.45665950e-03, 1.05708241e-02, 2.74841432e-02,
          1.90274846e-02, 8.45665950e-03, 2.11416488e-03, 8.45665950e-03,
          8.45665950e-03, 1.69133190e-02, 2.53699794e-02, 1.05708241e-02,
          4.22832975e-03, 1.05708241e-02, 1.47991544e-02, 1.05708241e-02,
          2.11416483e-02, 2.11416488e-03, 1.05708241e-02, 2.32558139e-02,
          6.34249486e-03, 2.11416488e-03, 2.11416488e-03, 1.47991544e-02,
          1.47991544e-02, 2.11416488e-03, 1.47991544e-02, 6.34249486e-03,
          2.11416483e-02, 6.34249486e-03, 8.45665950e-03, 2.11416488e-03,
          0., 6.34249486e-03, 1.69133190e-02, 1.05708241e-02,
          6.34249486e-03, 4.22832975e-03, 6.34249486e-03, 2.11416488e-03,
          8.45665950e-03, 2.11416488e-03, 1.26849897e-02, 1.05708241e-02,
          6.34249486e-03, 1.05708241e-02, 1.05708241e-02, 1.05708241e-02,
          1.69133190e-02, 6.34249486e-03, 4.22832975e-03, 4.22832975e-03,
          1.05708241e-02, 1.90274846e-02, 1.05708241e-02, 4.22832975e-03,
          1.26849897e-02, 2.53699794e-02, 1.47991544e-02, 0.,
          4.22832975e-03, 2.11416488e-03, 4.22832975e-03, 0.,
          6.34249486e-03, 2.74841432e-02, 6.34249486e-03, 0.,
          8.45665950e-03, 1.26849897e-02 ]
      - [ 6.13496918e-03, 4.90797544e-03, 9.81595088e-03, 1.22699384e-02,
          1.47239268e-02, 4.90797544e-03, 8.58895667e-03, 8.58895667e-03,
          8.58895667e-03, 1.22699384e-02, 1.22699384e-02, 6.13496918e-03,
          1.10429451e-02, 4.90797544e-03, 1.47239268e-02, 3.68098170e-03,
          6.13496918e-03, 4.90797544e-03, 4.90797544e-03, 1.10429451e-02,
          1.22699384e-02, 1.22699384e-02, 1.22699384e-02, 9.81595088e-03,
          9.81595088e-03, 1.10429451e-02, 7.36196339e-03, 9.81595088e-03,
          8.58895667e-03, 6.13496918e-03, 6.13496918e-03, 1.71779133e-02,
          2.20858902e-02, 1.59509201e-02, 8.58895667e-03, 1.96319018e-02,
          2.33128835e-02, 1.59509201e-02, 6.13496918e-03, 8.58895667e-03,
          1.10429451e-02, 4.90797544e-03, 9.81595088e-03, 1.47239268e-02,
          1.47239268e-02, 1.22699384e-02, 9.81595088e-03, 2.45398772e-03,
          7.36196339e-03, 4.90797544e-03, 1.59509201e-02, 6.13496918e-03,
          9.81595088e-03, 2.45398772e-03, 6.13496918e-03, 1.22699384e-02,
          7.36196339e-03, 8.58895667e-03, 1.22699384e-02, 1.10429451e-02,
          1.34969326e-02, 6.13496918e-03, 4.90797544e-03, 8.58895667e-03,
          1.71779133e-02, 8.58895667e-03, 1.22699386e-03, 9.81595088e-03,
          8.58895667e-03, 3.68098170e-03, 2.45398772e-03, 1.10429451e-02,
          8.58895667e-03, 6.13496918e-03, 1.47239268e-02, 8.58895667e-03,
          4.90797544e-03, 3.68098170e-03, 4.90797544e-03, 9.81595088e-03,
          9.81595088e-03, 7.36196339e-03, 7.36196339e-03, 6.13496918e-03,
          4.90797544e-03, 1.47239268e-02, 7.36196339e-03, 6.13496918e-03,
          7.36196339e-03, 4.90797544e-03, 6.13496918e-03, 1.22699384e-02,
          8.58895667e-03, 6.13496918e-03, 6.13496918e-03, 4.90797544e-03,
          1.34969326e-02, 9.81595088e-03, 9.81595088e-03, 1.10429451e-02,
          6.13496918e-03, 1.10429451e-02, 9.81595088e-03, 1.10429451e-02,
          1.22699384e-02, 2.45398772e-03, 4.90797544e-03, 4.90797544e-03,
          7.36196339e-03, 1.10429451e-02 ]
      - [ 4.59619192e-03, 6.56598806e-03, 1.31319761e-02, 1.18187787e-02,
          8.53578467e-03, 4.59619192e-03, 4.59619192e-03, 1.24753779e-02,
          7.87918642e-03, 1.37885753e-02, 7.87918642e-03, 5.25279064e-03,
          1.83847677e-02, 1.51017727e-02, 7.87918642e-03, 3.28299403e-03,
          1.31319766e-03, 1.05055813e-02, 1.96979661e-03, 1.70715693e-02,
          1.05055813e-02, 2.62639532e-03, 3.28299403e-03, 3.93959321e-03,
          7.87918642e-03, 5.25279064e-03, 1.64149702e-02, 9.84898210e-03,
          5.90938935e-03, 3.28299403e-03, 4.59619192e-03, 2.49507558e-02,
          5.25279064e-03, 6.56598806e-03, 1.18187787e-02, 7.87918642e-03,
          1.37885753e-02, 1.96979642e-02, 1.57583728e-02, 6.56598806e-03,
          9.19238385e-03, 5.25279064e-03, 7.22258724e-03, 7.87918642e-03,
          8.53578467e-03, 1.96979661e-03, 3.93959321e-03, 3.93959321e-03,
          5.25279064e-03, 3.93959321e-03, 1.96979661e-03, 1.51017727e-02,
          6.56598806e-03, 8.53578467e-03, 4.59619192e-03, 1.31319761e-02,
          9.19238385e-03, 1.96979661e-03, 1.31319766e-03, 3.93959321e-03,
          8.53578467e-03, 3.93959321e-03, 1.31319761e-02, 2.29809582e-02,
          1.77281685e-02, 3.93959321e-03, 3.93959321e-03, 9.84898210e-03,
          2.16677617e-02, 8.53578467e-03, 3.93959321e-03, 1.37885753e-02,
          1.05055813e-02, 1.24753779e-02, 1.64149702e-02, 1.57583728e-02,
          7.22258724e-03, 6.56598806e-03, 2.23243609e-02, 9.84898210e-03,
          1.51017727e-02, 9.84898210e-03, 1.96979661e-03, 5.90938935e-03,
          9.84898210e-03, 1.90413669e-02, 5.90938935e-03, 6.56598806e-03,
          1.51017727e-02, 1.64149702e-02, 1.44451745e-02, 7.22258724e-03,
          3.28299403e-03, 5.90938935e-03, 1.83847677e-02, 1.18187787e-02,
          5.90938935e-03, 5.25279064e-03, 1.96979661e-03, 1.90413669e-02,
          5.25279064e-03, 1.18187787e-02, 3.28299403e-03, 1.18187787e-02,
          1.44451745e-02, 9.84898210e-03, 9.19238385e-03, 4.59619192e-03,
          7.87918642e-03, 3.93959321e-03 ]
      - [ 1.58835202e-02, 1.25744538e-02, 1.12508275e-02, 8.60357378e-03,
          9.92720015e-03, 9.92720015e-03, 5.29450690e-03, 5.29450690e-03,
          9.92720015e-03, 9.92720015e-03, 1.58835202e-02, 9.26538743e-03,
          1.05890138e-02, 1.38980802e-02, 8.60357378e-03, 5.29450690e-03,
          3.30906687e-03, 1.45598939e-02, 9.26538743e-03, 1.19126402e-02,
          8.60357378e-03, 4.63269372e-03, 5.29450690e-03, 5.29450690e-03,
          3.97088006e-03, 4.63269372e-03, 7.94176012e-03, 9.92720015e-03,
          8.60357378e-03, 4.63269372e-03, 1.98544003e-03, 6.61813375e-03,
          8.60357378e-03, 8.60357378e-03, 1.12508275e-02, 3.30906687e-03,
          9.26538743e-03, 7.94176012e-03, 1.05890138e-02, 1.38980802e-02,
          1.05890138e-02, 2.64725345e-03, 1.78689603e-02, 5.95632009e-03,
          6.61813375e-03, 7.94176012e-03, 1.12508275e-02, 6.61813375e-03,
          5.95632009e-03, 9.26538743e-03, 9.92720015e-03, 1.12508275e-02,
          7.94176012e-03, 1.12508275e-02, 8.60357378e-03, 8.60357378e-03,
          8.60357378e-03, 8.60357378e-03, 9.92720015e-03, 7.27994693e-03,
          6.61813375e-03, 1.05890138e-02, 2.18398403e-02, 1.65453348e-02,
          1.52217075e-02, 2.64725345e-03, 4.63269372e-03, 1.38980802e-02,
          8.60357378e-03, 7.27994693e-03, 7.27994693e-03, 1.05890138e-02,
          9.26538743e-03, 8.60357378e-03, 8.60357378e-03, 9.92720015e-03,
          1.25744538e-02, 2.58107204e-02, 1.12508275e-02, 5.29450690e-03,
          9.92720015e-03, 5.29450690e-03, 9.26538743e-03, 1.19126402e-02,
          1.05890138e-02, 1.19126402e-02, 6.61813375e-03, 5.95632009e-03,
          1.05890138e-02, 7.94176012e-03, 1.38980802e-02, 9.26538743e-03,
          5.29450690e-03, 6.61813375e-03, 9.26538743e-03, 1.05890138e-02,
          6.61813375e-03, 6.61813375e-03, 8.60357378e-03, 9.92720015e-03,
          5.29450690e-03, 9.92720015e-03, 6.61813375e-03, 8.60357378e-03,
          1.19126402e-02, 9.26538743e-03, 1.12508275e-02, 5.95632009e-03,
          9.92720015e-03, 3.97088006e-03 ]
      - [ 6.59195753e-03, 5.93276182e-03, 1.05471322e-02, 7.91034941e-03,
          1.12063279e-02, 7.91034941e-03, 7.25115323e-03, 1.38431108e-02,
          3.95517470e-03, 9.88793653e-03, 5.27356612e-03, 1.12063279e-02,
          1.31839151e-02, 6.59195753e-03, 4.61437041e-03, 7.91034941e-03,
          7.25115323e-03, 8.56954511e-03, 8.56954511e-03, 1.38431108e-02,
          1.51615022e-02, 7.25115323e-03, 5.93276182e-03, 9.88793653e-03,
          5.93276182e-03, 3.29597876e-03, 1.97758731e-02, 6.59195753e-03,
          4.61437041e-03, 9.88793653e-03, 1.51615022e-02, 8.56954511e-03,
          1.58206988e-02, 1.71390902e-02, 9.88793653e-03, 4.61437041e-03,
          9.22874082e-03, 2.37310473e-02, 7.91034941e-03, 7.91034941e-03,
          9.22874082e-03, 8.56954511e-03, 6.59195753e-03, 7.25115323e-03,
          7.25115323e-03, 5.93276182e-03, 1.31839151e-02, 7.91034941e-03,
          8.56954511e-03, 5.27356612e-03, 3.95517470e-03, 1.12063279e-02,
          1.05471322e-02, 1.05471322e-02, 8.56954511e-03, 8.56954511e-03,
          7.91034941e-03, 8.56954511e-03, 9.88793653e-03, 5.93276182e-03,
          1.12063279e-02, 1.58206988e-02, 4.61437041e-03, 7.25115323e-03,
          7.25115323e-03, 4.61437041e-03, 8.56954511e-03, 1.64798945e-02,
          5.27356612e-03, 2.63678306e-03, 2.63678306e-03, 1.12063279e-02,
          9.22874082e-03, 1.31839151e-02, 1.12063279e-02, 1.05471322e-02,
          3.95517470e-03, 4.61437041e-03, 1.25247194e-02, 9.22874082e-03,
          7.91034941e-03, 7.91034941e-03, 7.25115323e-03, 5.93276182e-03,
          8.56954511e-03, 1.05471322e-02, 7.25115323e-03, 7.25115323e-03,
          7.25115323e-03, 9.22874082e-03, 1.38431108e-02, 9.22874082e-03,
          7.25115323e-03, 9.88793653e-03, 1.71390902e-02, 1.64798945e-02,
          7.91034941e-03, 1.45023065e-02, 1.38431108e-02, 1.12063279e-02,
          4.61437041e-03, 7.91034941e-03, 7.91034941e-03, 5.27356612e-03,
          5.93276182e-03, 1.12063279e-02, 1.77982859e-02, 7.25115323e-03,
          1.18655236e-02, 1.97758735e-03 ]
      - [ 1.63766630e-02, 4.09416575e-03, 1.43295806e-02, 5.11770695e-03,
          9.21187270e-03, 9.21187270e-03, 1.22824972e-02, 1.12589560e-02,
          4.09416575e-03, 1.12589560e-02, 5.11770695e-03, 9.21187270e-03,
          1.12589560e-02, 9.21187270e-03, 7.16479030e-03, 1.22824972e-02,
          1.94472875e-02, 1.22824972e-02, 5.11770695e-03, 1.63766630e-02,
          1.33060385e-02, 1.33060385e-02, 4.09416575e-03, 7.16479030e-03,
          4.09416575e-03, 1.12589560e-02, 8.18833150e-03, 4.09416575e-03,
          5.11770695e-03, 4.09416575e-03, 1.63766630e-02, 1.43295806e-02,
          1.12589560e-02, 5.11770695e-03, 9.21187270e-03, 1.43295806e-02,
          7.16479030e-03, 1.33060385e-02, 4.09416575e-03, 4.09416575e-03,
          1.43295806e-02, 4.09416575e-03, 1.22824972e-02, 6.14124862e-03,
          9.21187270e-03, 9.21187270e-03, 1.12589560e-02, 6.14124862e-03,
          7.16479030e-03, 9.21187270e-03, 4.09416575e-03, 6.14124862e-03,
          9.21187270e-03, 8.18833150e-03, 6.14124862e-03, 7.16479030e-03,
          1.43295806e-02, 1.74002051e-02, 6.14124862e-03, 5.11770695e-03,
          9.21187270e-03, 1.22824972e-02, 5.11770695e-03, 6.14124862e-03,
          8.18833150e-03, 1.33060385e-02, 8.18833150e-03, 1.02354139e-02,
          8.18833150e-03, 7.16479030e-03, 1.12589560e-02, 9.21187270e-03,
          6.14124862e-03, 1.33060385e-02, 9.21187270e-03, 5.11770695e-03,
          3.07062431e-03, 2.04708287e-03, 7.16479030e-03, 5.11770695e-03,
          1.12589560e-02, 5.11770695e-03, 1.43295806e-02, 9.21187270e-03,
          8.18833150e-03, 1.33060385e-02, 1.12589560e-02, 1.84237454e-02,
          6.14124862e-03, 2.04708287e-03, 1.53531218e-02, 1.12589560e-02,
          8.18833150e-03, 9.21187270e-03, 1.22824972e-02, 1.02354139e-02,
          3.07062431e-03, 1.12589560e-02, 7.16479030e-03, 4.09416575e-03,
          7.16479030e-03, 1.12589560e-02, 3.17297839e-02, 3.07062431e-03,
          1.22824972e-02, 8.18833150e-03, 7.16479030e-03, 5.11770695e-03,
          7.16479030e-03, 4.09416575e-03 ]
      - [ 1.33868810e-02, 9.37081687e-03, 4.01606411e-03, 2.14190092e-02,
          6.69344049e-03, 1.20481923e-02, 1.07095046e-02, 5.35475230e-03,
          4.01606411e-03, 1.20481923e-02, 8.03212821e-03, 1.33868807e-03,
          8.03212821e-03, 2.67737615e-03, 8.03212821e-03, 9.37081687e-03,
          5.35475230e-03, 9.37081687e-03, 4.01606411e-03, 1.33868807e-03,
          9.37081687e-03, 2.67737615e-03, 8.03212821e-03, 1.74029451e-02,
          1.47255687e-02, 5.35475230e-03, 0., 8.03212821e-03,
          6.69344049e-03, 6.69344049e-03, 8.03212821e-03, 8.03212821e-03,
          1.33868810e-02, 8.03212821e-03, 8.03212821e-03, 6.69344049e-03,
          8.03212821e-03, 1.33868807e-03, 4.01606411e-03, 1.60642564e-02,
          8.03212821e-03, 1.87416337e-02, 9.37081687e-03, 1.87416337e-02,
          6.69344049e-03, 2.67737620e-02, 6.69344049e-03, 6.69344049e-03,
          8.03212821e-03, 1.20481923e-02, 1.07095046e-02, 4.01606411e-03,
          8.03212821e-03, 9.37081687e-03, 2.00803205e-02, 8.03212821e-03,
          1.47255687e-02, 8.03212821e-03, 1.60642564e-02, 1.20481923e-02,
          9.37081687e-03, 1.33868807e-03, 1.20481923e-02, 1.07095046e-02,
          6.69344049e-03, 4.01606411e-03, 9.37081687e-03, 9.37081687e-03,
          1.47255687e-02, 1.60642564e-02, 1.07095046e-02, 0.,
          4.01606411e-03, 1.07095046e-02, 6.69344049e-03, 1.07095046e-02,
          1.20481923e-02, 1.60642564e-02, 6.69344049e-03, 1.47255687e-02,
          1.20481923e-02, 1.20481923e-02, 8.03212821e-03, 1.47255687e-02,
          5.35475230e-03, 9.37081687e-03, 1.60642564e-02, 8.03212821e-03,
          9.37081687e-03, 4.01606411e-03, 1.47255687e-02, 9.37081687e-03,
          2.67737615e-03, 8.03212821e-03, 2.67737615e-03, 6.69344049e-03,
          1.60642564e-02, 9.37081687e-03, 8.03212821e-03, 5.35475230e-03,
          9.37081687e-03, 8.03212821e-03, 4.01606411e-03, 2.67737615e-03,
          1.07095046e-02, 1.47255687e-02, 6.69344049e-03, 5.35475230e-03,
          8.03212821e-03, 1.20481923e-02 ]
      - [ 7.21847918e-03, 9.14340746e-03, 9.14340746e-03, 1.87680461e-02,
          5.77478344e-03, 3.84985562e-03, 4.33108769e-03, 6.73724711e-03,
          1.53994225e-02, 7.21847918e-03, 1.15495669e-02, 1.10683348e-02,
          7.69971125e-03, 1.97305102e-02, 1.20307989e-02, 4.33108769e-03,
          8.18094332e-03, 4.33108769e-03, 7.21847918e-03, 9.62463953e-03,
          1.34744942e-02, 7.69971125e-03, 6.25601551e-03, 1.25120310e-02,
          1.05871027e-02, 2.88739172e-03, 5.77478344e-03, 1.01058707e-02,
          7.21847918e-03, 3.84985562e-03, 3.07988450e-02, 6.25601551e-03,
          3.84985562e-03, 2.16554385e-02, 1.15495669e-02, 7.69971125e-03,
          7.21847918e-03, 2.88739172e-03, 1.05871027e-02, 1.44369584e-02,
          5.77478344e-03, 1.05871027e-02, 6.25601551e-03, 5.29355137e-03,
          3.84985562e-03, 1.15495669e-02, 1.29932631e-02, 6.73724711e-03,
          6.25601551e-03, 1.87680461e-02, 8.66217539e-03, 1.20307989e-02,
          1.01058707e-02, 1.05871027e-02, 5.77478344e-03, 1.87680461e-02,
          8.66217539e-03, 8.66217539e-03, 1.10683348e-02, 9.62463953e-03,
          7.69971125e-03, 6.73724711e-03, 1.15495669e-02, 5.77478344e-03,
          1.10683348e-02, 5.29355137e-03, 1.05871027e-02, 8.66217539e-03,
          2.40615988e-03, 3.36862355e-03, 5.29355137e-03, 1.39557263e-02,
          1.53994225e-02, 6.73724711e-03, 1.49181904e-02, 1.25120310e-02,
          1.63618866e-02, 1.01058707e-02, 1.25120310e-02, 1.29932631e-02,
          9.14340746e-03, 1.10683348e-02, 1.20307989e-02, 3.84985562e-03,
          8.18094332e-03, 6.73724711e-03, 2.88739172e-03, 8.18094332e-03,
          1.39557263e-02, 7.21847918e-03, 4.33108769e-03, 1.25120310e-02,
          3.36862355e-03, 6.73724711e-03, 4.81231976e-03, 6.73724711e-03,
          5.77478344e-03, 6.25601551e-03, 1.92492781e-03, 1.29932631e-02,
          2.02117413e-02, 6.73724711e-03, 7.69971125e-03, 7.21847918e-03,
          4.33108769e-03, 4.81231976e-03, 1.01058707e-02, 2.88739172e-03,
          1.05871027e-02, 1.01058707e-02 ]
      - [ 5.75657887e-03, 5.75657887e-03, 9.04605258e-03, 1.31578948e-02,
          8.22368450e-03, 6.57894742e-03, 9.86842066e-03, 4.11184225e-03,
          8.22368450e-03, 1.23355268e-02, 9.04605258e-03, 6.57894742e-03,
          9.04605258e-03, 1.06907897e-02, 9.04605258e-03, 8.22368450e-03,
          1.56250000e-02, 4.93421033e-03, 5.75657887e-03, 3.28947371e-03,
          4.93421033e-03, 1.56250000e-02, 1.06907897e-02, 4.93421033e-03,
          7.40131596e-03, 9.04605258e-03, 4.11184225e-03, 9.04605258e-03,
          1.97368413e-02, 3.28947371e-03, 2.38486845e-02, 3.28947371e-03,
          4.11184225e-03, 8.22368450e-03, 7.40131596e-03, 2.13815793e-02,
          4.93421033e-03, 3.28947371e-03, 4.11184225e-03, 9.04605258e-03,
          9.86842066e-03, 9.86842066e-03, 8.22368450e-03, 9.04605258e-03,
          1.06907897e-02, 9.86842066e-03, 5.75657887e-03, 1.06907897e-02,
          1.15131577e-02, 6.57894742e-03, 1.48026319e-02, 9.86842066e-03,
          2.46710517e-03, 7.40131596e-03, 9.86842066e-03, 4.11184225e-03,
          1.39802629e-02, 2.38486845e-02, 2.05592103e-02, 8.22368450e-03,
          8.22368450e-03, 8.22368450e-03, 2.22039483e-02, 9.04605258e-03,
          9.86842066e-03, 1.31578948e-02, 1.39802629e-02, 2.46710517e-03,
          1.23355268e-02, 1.23355268e-02, 9.86842066e-03, 3.28947371e-03,
          6.57894742e-03, 9.86842066e-03, 1.15131577e-02, 6.57894742e-03,
          4.93421033e-03, 2.38486845e-02, 4.11184225e-03, 7.40131596e-03,
          3.28947371e-03, 3.28947371e-03, 5.75657887e-03, 1.39802629e-02,
          8.22368450e-03, 4.11184225e-03, 1.23355268e-02, 8.22368450e-03,
          6.57894742e-03, 1.39802629e-02, 9.04605258e-03, 7.40131596e-03,
          6.57894742e-03, 5.75657887e-03, 1.64473685e-03, 6.57894742e-03,
          9.86842066e-03, 9.86842066e-03, 2.54934207e-02, 7.40131596e-03,
          1.15131577e-02, 9.04605258e-03, 1.97368413e-02, 7.40131596e-03,
          7.40131596e-03, 1.06907897e-02, 1.64473685e-03, 2.46710517e-03,
          3.28947371e-03, 6.57894742e-03 ]
      - [ 1.59304850e-02, 6.51701679e-03, 4.34467755e-03, 7.96524249e-03,
          7.96524249e-03, 4.34467755e-03, 2.89645186e-03, 1.37581462e-02,
          6.51701679e-03, 5.06879063e-03, 2.02751625e-02, 5.06879063e-03,
          5.06879063e-03, 1.52063724e-02, 7.96524249e-03, 5.79290371e-03,
          2.53439546e-02, 9.41346865e-03, 3.62056494e-03, 6.51701679e-03,
          1.08616948e-02, 2.09992751e-02, 1.66545976e-02, 2.17233878e-03,
          2.89645186e-03, 8.68935511e-03, 1.08616948e-02, 7.24112988e-03,
          6.51701679e-03, 4.34467755e-03, 4.34467755e-03, 7.24112988e-03,
          7.24112988e-03, 2.89645186e-03, 1.66545976e-02, 2.17233878e-03,
          8.68935511e-03, 1.23099200e-02, 5.79290371e-03, 9.41346865e-03,
          4.34467755e-03, 2.89645186e-03, 1.08616948e-02, 7.24112988e-03,
          7.24112988e-03, 5.79290371e-03, 8.68935511e-03, 2.89645186e-03,
          5.79290371e-03, 4.34467755e-03, 8.68935511e-03, 1.95510499e-02,
          5.06879063e-03, 7.24112988e-03, 5.79290371e-03, 2.24475022e-02,
          6.51701679e-03, 2.31716149e-02, 5.79290371e-03, 9.41346865e-03,
          2.89645186e-03, 7.24112988e-03, 4.05503251e-02, 1.37581462e-02,
          2.02751625e-02, 1.44822593e-03, 3.62056494e-03, 5.79290371e-03,
          2.89645186e-03, 5.06879063e-03, 3.62056494e-03, 1.52063724e-02,
          2.46198401e-02, 7.24112988e-03, 1.37581462e-02, 7.96524249e-03,
          9.41346865e-03, 3.91020998e-02, 7.24112988e-03, 5.79290371e-03,
          1.01375813e-02, 5.79290371e-03, 2.89645186e-03, 4.34467755e-03,
          1.08616948e-02, 7.24112988e-03, 7.96524249e-03, 6.51701679e-03,
          1.23099200e-02, 6.51701679e-03, 1.08616948e-02, 5.79290371e-03,
          7.24112964e-04, 4.34467755e-03, 6.51701679e-03, 7.24112988e-03,
          1.01375813e-02, 3.62056494e-03, 1.08616948e-02, 1.37581462e-02,
          5.79290371e-03, 2.53439546e-02, 9.41346865e-03, 5.06879063e-03,
          8.68935511e-03, 1.15858074e-02, 7.24112988e-03, 4.34467755e-03,
          1.01375813e-02, 5.06879063e-03 ]
      - [ 7.51173729e-03, 1.03286384e-02, 1.03286384e-02, 1.31455399e-02,
          9.38967150e-03, 8.45070463e-03, 7.51173729e-03, 3.75586865e-03,
          3.75586865e-03, 6.57276995e-03, 8.45070463e-03, 1.03286384e-02,
          1.03286384e-02, 1.22065730e-02, 1.31455399e-02, 7.51173729e-03,
          1.50234746e-02, 1.69014093e-02, 6.57276995e-03, 1.31455399e-02,
          6.57276995e-03, 1.03286384e-02, 1.40845077e-02, 1.31455399e-02,
          7.51173729e-03, 4.69483575e-03, 0., 9.38967150e-03,
          1.12676062e-02, 3.75586865e-03, 9.38967150e-03, 1.50234746e-02,
          9.38967150e-03, 1.59624424e-02, 9.38967150e-03, 1.40845077e-02,
          6.57276995e-03, 3.75586865e-03, 1.50234746e-02, 9.38967150e-03,
          8.45070463e-03, 1.03286384e-02, 1.40845077e-02, 1.12676062e-02,
          1.03286384e-02, 2.81690154e-03, 1.03286384e-02, 5.63380308e-03,
          3.75586865e-03, 7.51173729e-03, 1.03286384e-02, 5.63380308e-03,
          8.45070463e-03, 8.45070463e-03, 5.63380308e-03, 3.75586865e-03,
          1.78403761e-02, 2.06572767e-02, 1.22065730e-02, 7.51173729e-03,
          1.22065730e-02, 7.51173729e-03, 5.63380308e-03, 1.03286384e-02,
          1.31455399e-02, 2.81690154e-03, 3.75586865e-03, 2.81690154e-03,
          2.44131461e-02, 5.63380308e-03, 8.45070463e-03, 4.69483575e-03,
          2.81690154e-03, 1.40845077e-02, 8.45070463e-03, 9.38967150e-03,
          4.69483575e-03, 1.03286384e-02, 2.81690154e-03, 1.03286384e-02,
          8.45070463e-03, 1.40845077e-02, 6.57276995e-03, 6.57276995e-03,
          7.51173729e-03, 1.12676062e-02, 9.38967150e-03, 5.63380308e-03,
          1.87793432e-03, 6.57276995e-03, 1.03286384e-02, 8.45070463e-03,
          6.57276995e-03, 5.63380308e-03, 9.38967150e-03, 2.81690154e-03,
          9.38967150e-03, 7.51173729e-03, 1.50234746e-02, 8.45070463e-03,
          1.12676062e-02, 8.45070463e-03, 2.25352123e-02, 9.38967150e-03,
          1.22065730e-02, 1.03286384e-02, 1.12676062e-02, 2.81690154e-03,
          1.22065730e-02, 5.63380308e-03 ]
      - [ 8.63930862e-03, 8.63930862e-03, 1.83585305e-02, 1.18790492e-02,
          1.07991360e-02, 3.23974062e-03, 1.18790492e-02, 6.47948124e-03,
          9.71922185e-03, 9.71922185e-03, 9.71922185e-03, 3.23974062e-03,
          8.63930862e-03, 3.23974062e-03, 1.51187899e-02, 1.61987040e-02,
          3.23974062e-03, 9.71922185e-03, 6.47948124e-03, 5.39956801e-03,
          9.71922185e-03, 2.15982716e-03, 6.47948124e-03, 7.55939493e-03,
          1.61987040e-02, 9.71922185e-03, 5.39956801e-03, 9.71922185e-03,
          7.55939493e-03, 3.23974062e-03, 9.71922185e-03, 1.83585305e-02,
          3.23974062e-03, 6.47948124e-03, 1.40388766e-02, 4.31965431e-03,
          7.55939493e-03, 3.23974062e-03, 6.47948124e-03, 1.51187899e-02,
          9.71922185e-03, 7.55939493e-03, 8.63930862e-03, 5.39956801e-03,
          1.40388766e-02, 9.71922185e-03, 8.63930862e-03, 8.63930862e-03,
          1.29589625e-02, 9.71922185e-03, 4.31965431e-03, 7.55939493e-03,
          9.71922185e-03, 1.51187899e-02, 1.83585305e-02, 3.23974062e-03,
          1.29589625e-02, 4.31965431e-03, 1.40388766e-02, 5.39956801e-03,
          1.51187899e-02, 7.55939493e-03, 3.23974062e-03, 1.61987040e-02,
          7.55939493e-03, 7.55939493e-03, 1.72786172e-02, 9.71922185e-03,
          2.69978400e-02, 5.39956801e-03, 7.55939493e-03, 2.15982716e-03,
          3.23974062e-03, 1.40388766e-02, 5.39956801e-03, 8.63930862e-03,
          1.18790492e-02, 6.47948124e-03, 4.31965431e-03, 1.51187899e-02,
          7.55939493e-03, 9.71922185e-03, 9.71922185e-03, 8.63930862e-03,
          1.07991360e-02, 7.55939493e-03, 1.72786172e-02, 7.55939493e-03,
          1.18790492e-02, 8.63930862e-03, 6.47948124e-03, 1.72786172e-02,
          4.31965431e-03, 7.55939493e-03, 9.71922185e-03, 6.47948124e-03,
          8.63930862e-03, 6.47948124e-03, 6.47948124e-03, 1.07991358e-03,
          1.18790492e-02, 9.71922185e-03, 4.31965431e-03, 7.55939493e-03,
          1.61987040e-02, 1.40388766e-02, 8.63930862e-03, 2.15982716e-03,
          1.07991360e-02, 8.63930862e-03 ]
      - [ 6.85483869e-03, 5.64516103e-03, 1.04838712e-02, 1.20967738e-02,
          1.49193546e-02, 5.64516103e-03, 4.83870972e-03, 2.09677424e-02,
          6.85483869e-03, 9.67741944e-03, 1.00806449e-02, 5.24193561e-03,
          9.27419309e-03, 1.00806449e-02, 1.20967738e-02, 3.62903229e-03,
          1.25000002e-02, 8.06451589e-03, 7.66129000e-03, 1.57258064e-02,
          1.61290318e-02, 7.25806458e-03, 8.87096766e-03, 4.43548383e-03,
          8.06451589e-03, 4.83870972e-03, 2.01612897e-02, 1.08870966e-02,
          8.87096766e-03, 1.12903221e-02, 5.64516103e-03, 1.29032256e-02,
          6.04838692e-03, 2.01612897e-03, 9.67741944e-03, 3.62903229e-03,
          1.41129028e-02, 2.05645151e-02, 6.85483869e-03, 8.87096766e-03,
          6.85483869e-03, 6.85483869e-03, 7.25806458e-03, 1.08870966e-02,
          1.37096774e-02, 1.12903221e-02, 1.20967738e-02, 8.46774224e-03,
          6.45161280e-03, 1.00806449e-02, 8.87096766e-03, 1.12903221e-02,
          7.25806458e-03, 9.27419309e-03, 4.83870972e-03, 1.73387099e-02,
          5.24193561e-03, 1.37096774e-02, 4.03225794e-03, 6.45161280e-03,
          1.12903221e-02, 9.27419309e-03, 9.67741944e-03, 1.12903221e-02,
          1.33064510e-02, 5.64516103e-03, 5.64516103e-03, 4.83870972e-03,
          3.22580640e-03, 7.66129000e-03, 8.46774224e-03, 1.49193546e-02,
          1.53225800e-02, 9.27419309e-03, 1.16935484e-02, 8.46774224e-03,
          7.25806458e-03, 1.08870966e-02, 1.00806449e-02, 6.45161280e-03,
          1.08870966e-02, 6.45161280e-03, 7.25806458e-03, 6.85483869e-03,
          5.24193561e-03, 8.46774224e-03, 4.83870972e-03, 7.66129000e-03,
          1.25000002e-02, 8.06451589e-03, 9.27419309e-03, 8.06451589e-03,
          2.82258051e-03, 7.25806458e-03, 1.65322572e-02, 1.53225800e-02,
          6.45161280e-03, 6.04838692e-03, 1.20967743e-03, 1.00806449e-02,
          4.03225794e-03, 1.61290318e-02, 6.45161280e-03, 1.49193546e-02,
          7.25806458e-03, 8.06451589e-03, 8.46774224e-03, 5.64516103e-03,
          1.37096774e-02, 3.62903229e-03 ]
      - [ 7.77202053e-03, 1.55440411e-02, 1.55440411e-02, 1.16580306e-02,
          6.47668354e-03, 7.77202053e-03, 3.88601026e-03, 9.06735752e-03,
          5.18134702e-03, 1.81347150e-02, 3.88601026e-03, 9.06735752e-03,
          1.94300506e-02, 9.06735752e-03, 7.77202053e-03, 3.88601026e-03,
          3.88601026e-03, 1.16580306e-02, 2.59067351e-03, 7.77202053e-03,
          3.88601026e-03, 6.47668354e-03, 5.18134702e-03, 3.88601026e-03,
          1.03626940e-02, 3.88601026e-03, 3.88601026e-03, 1.29533671e-02,
          2.59067351e-03, 1.29533675e-03, 2.59067351e-03, 4.01554406e-02,
          1.42487045e-02, 3.88601026e-03, 1.94300506e-02, 3.88601026e-03,
          9.06735752e-03, 1.03626940e-02, 1.68393776e-02, 5.18134702e-03,
          6.47668354e-03, 5.18134702e-03, 7.77202053e-03, 1.16580306e-02,
          5.18134702e-03, 1.16580306e-02, 9.06735752e-03, 1.16580306e-02,
          7.77202053e-03, 9.06735752e-03, 1.03626940e-02, 5.18134702e-03,
          0., 6.47668354e-03, 5.18134702e-03, 3.88601026e-03,
          2.46113986e-02, 3.88601026e-03, 1.03626940e-02, 1.03626940e-02,
          2.59067351e-03, 5.18134702e-03, 3.88601026e-03, 2.46113986e-02,
          2.07253881e-02, 3.88601026e-03, 7.77202053e-03, 5.18134702e-03,
          4.27461118e-02, 5.18134702e-03, 7.77202053e-03, 6.47668354e-03,
          1.29533675e-03, 1.55440411e-02, 1.29533671e-02, 7.77202053e-03,
          6.47668354e-03, 0., 3.88601026e-03, 9.06735752e-03,
