%YAML:1.0
---
opencv_ml_svm:
   format: 3
   svmType: C_SVC
   kernel:
      type: RBF
      gamma: 5.0625000000000009e-01
   C: 3.1250000000000000e+02
   term_criteria: { iterations:100 }
   var_count: 120
   class_count: 2
   class_labels: !!opencv-matrix
      rows: 2
      cols: 1
      dt: i
      data: [ 0, 1 ]
   sv_total: 71
   support_vectors:
      - [ 8.73709284e-03, 8.73709284e-03, 3.17712477e-03, 1.19142178e-02,
          8.73709284e-03, 6.35424955e-03, 1.19142178e-02, 7.14853080e-03,
          1.27084991e-02, 5.55996830e-03, 2.14455929e-02, 8.73709284e-03,
          1.11199366e-02, 5.55996830e-03, 1.74741857e-02, 7.14853080e-03,
          4.76568704e-03, 0., 3.17712477e-03, 1.27084991e-02,
          4.76568704e-03, 0., 1.11199366e-02, 1.19142178e-02,
          1.11199366e-02, 3.17712477e-03, 9.53137409e-03, 2.38284357e-02,
          2.38284352e-03, 1.11199366e-02, 5.55996830e-03, 7.94281194e-04,
          1.42970616e-02, 7.94281159e-03, 5.55996830e-03, 1.35027803e-02,
          1.58856239e-03, 1.19142178e-02, 6.35424955e-03, 3.97140579e-03,
          8.73709284e-03, 5.55996830e-03, 1.90627482e-02, 8.73709284e-03,
          1.74741857e-02, 1.82684679e-02, 3.97140579e-03, 3.97140579e-03,
          8.73709284e-03, 5.55996830e-03, 1.03256553e-02, 1.42970616e-02,
          1.03256553e-02, 5.55996830e-03, 7.94281159e-03, 1.58856239e-03,
          1.19142178e-02, 1.42970616e-02, 9.53137409e-03, 7.14853080e-03,
          2.38284352e-03, 2.06513107e-02, 7.94281194e-04, 1.66799054e-02,
          2.38284352e-03, 4.76568704e-03, 7.94281159e-03, 1.35027803e-02,
          3.17712477e-03, 9.53137409e-03, 4.76568704e-03, 7.94281194e-04,
          1.19142178e-02, 1.11199366e-02, 1.11199366e-02, 1.58856239e-03,
          7.94281194e-04, 8.73709284e-03, 1.19142178e-02, 4.76568704e-03,
          1.27084991e-02, 3.17712477e-03, 7.94281194e-04, 1.11199366e-02,
          7.94281159e-03, 1.66799054e-02, 1.03256553e-02, 7.94281194e-04,
          7.94281194e-04, 1.03256553e-02, 1.58856239e-03, 5.55996830e-03,
          2.38284352e-03, 3.97140579e-03, 3.97140579e-03, 6.35424955e-03,
          1.90627482e-02, 7.94281194e-04, 7.94281194e-04, 1.03256553e-02,
          5.55996830e-03, 2.85941232e-02, 1.50913429e-02, 3.97140579e-03,
          1.11199366e-02, 1.50913429e-02, 5.55996830e-03, 4.76568704e-03,
          6.35424955e-03, 0., 1.74741857e-02, 7.94281194e-04,
          1.11199366e-02, 1.35027803e-02, 3.97140579e-03, 2.38284352e-03,
          1.03256553e-02, 2.46227179e-02, 2.38284352e-03, 7.94281159e-03 ]
      - [ 8.15586746e-03, 7.24966032e-03, 6.79655652e-03, 4.07793373e-03,
          3.39827836e-02, 2.71862256e-03, 4.53103753e-03, 9.51517932e-03,
          1.85772553e-02, 1.08744903e-02, 2.26551876e-03, 1.63117349e-02,
          1.17806979e-02, 2.89986413e-02, 9.96828265e-03, 4.98414133e-03,
          6.79655652e-03, 2.71862256e-03, 6.34345273e-03, 3.89669240e-02,
          4.07793373e-03, 3.62483016e-03, 3.17172636e-03, 2.71862256e-03,
          1.81241508e-03, 1.49524240e-02, 2.71862256e-03, 2.49207076e-02,
          2.03896705e-02, 2.26551876e-03, 3.17172636e-03, 6.34345273e-03,
          5.43724513e-03, 4.98414133e-03, 4.07793373e-03, 6.79655652e-03,
          4.53103753e-03, 4.07793373e-03, 6.79655652e-03, 9.51517932e-03,
          3.03579532e-02, 5.89034893e-03, 9.06207541e-04, 9.06207541e-04,
          9.06207541e-04, 1.04213869e-02, 6.34345273e-03, 4.98414133e-03,
          3.62483016e-03, 2.03896705e-02, 5.89034893e-03, 7.70276412e-03,
          1.85772553e-02, 1.44993206e-02, 8.15586746e-03, 2.71862256e-03,
          2.26551876e-03, 8.60897172e-03, 1.58586316e-02, 1.08744903e-02,
          4.53103753e-03, 2.71862256e-03, 1.35931130e-02, 3.17172636e-03,
          1.35931130e-02, 8.15586746e-03, 0., 8.60897172e-03,
          4.53103753e-03, 1.04213869e-02, 6.79655652e-03, 3.62483016e-03,
          4.53103753e-03, 4.53103753e-03, 9.51517932e-03, 3.62483016e-03,
          8.60897172e-03, 7.24966032e-03, 2.71862256e-03, 7.24966032e-03,
          4.53103753e-03, 2.71862256e-03, 6.79655652e-03, 2.26551876e-03,
          7.24966032e-03, 2.26551876e-03, 8.60897172e-03, 4.53103770e-04,
          1.04213869e-02, 1.85772553e-02, 3.17172636e-03, 1.49524240e-02,
          1.13275945e-02, 2.26551890e-02, 3.53420936e-02, 4.53103753e-03,
          7.24966032e-03, 6.79655652e-03, 2.08427738e-02, 1.72179434e-02,
          6.79655652e-03, 2.26551876e-03, 1.35931128e-03, 4.98414133e-03,
          1.04213869e-02, 8.15586746e-03, 3.62483016e-03, 1.04213869e-02,
          1.17806979e-02, 8.60897172e-03, 9.06207541e-04, 4.07793373e-03,
          2.71862256e-03, 4.98414133e-03, 5.89034893e-03, 8.15586746e-03,
          2.71862256e-03, 2.71862256e-03, 8.15586746e-03, 3.62483016e-03 ]
      - [ 1.75685175e-02, 9.83836967e-03, 2.10822211e-03, 1.47575540e-02,
          7.02740683e-04, 3.65425162e-02, 7.73014734e-03, 9.83836967e-03,
          0., 7.73014734e-03, 3.51370336e-03, 4.91918484e-03,
          8.43288843e-03, 1.40548137e-03, 6.32466609e-03, 1.40548137e-03,
          7.02740671e-03, 7.02740683e-04, 1.82712581e-02, 4.21644421e-03,
          1.75685175e-02, 7.02740683e-04, 4.14616987e-02, 2.45959237e-02,
          1.05411103e-02, 1.26493322e-02, 4.21644421e-03, 1.40548137e-03,
          3.51370336e-03, 1.47575540e-02, 1.40548137e-03, 4.21644421e-03,
          1.33520728e-02, 1.12438509e-02, 6.32466609e-03, 4.91918484e-03,
          6.32466609e-03, 1.26493322e-02, 1.40548134e-02, 8.43288843e-03,
          2.81096273e-03, 1.19465915e-02, 5.62192546e-03, 4.21644421e-03,
          4.91918484e-03, 4.21644421e-03, 5.62192546e-03, 8.43288843e-03,
          2.10822211e-03, 2.10822211e-03, 4.21644421e-03, 7.02740671e-03,
          7.02740683e-04, 6.32466609e-03, 1.40548134e-02, 2.10822211e-03,
          0., 2.81096273e-03, 7.02740683e-04, 4.21644421e-03,
          4.21644421e-03, 1.96767393e-02, 0., 6.32466609e-03,
          4.91918484e-03, 7.73014734e-03, 1.19465915e-02, 2.81096273e-03,
          2.03794800e-02, 2.10822211e-03, 1.19465915e-02, 4.91918484e-03,
          1.61630362e-02, 1.40548134e-02, 7.73014734e-03, 9.13562905e-03,
          3.51370336e-03, 1.26493322e-02, 2.03794800e-02, 6.32466609e-03,
          1.12438509e-02, 1.40548137e-03, 5.62192546e-03, 4.56781462e-02,
          1.19465915e-02, 4.91918484e-03, 9.83836967e-03, 7.02740683e-04,
          0., 1.12438509e-02, 5.62192546e-03, 7.73014734e-03,
          7.02740671e-03, 2.81096273e-03, 2.81096273e-03, 5.62192546e-03,
          9.13562905e-03, 1.40548134e-02, 1.40548137e-03, 0.,
          1.54602947e-02, 1.68657769e-02, 8.43288843e-03, 6.32466609e-03,
          6.32466609e-03, 1.61630362e-02, 1.75685175e-02, 5.62192546e-03,
          5.62192546e-03, 4.91918484e-03, 4.21644421e-03, 2.10822211e-03,
          6.32466609e-03, 1.82712581e-02, 1.05411103e-02, 5.62192546e-03,
          1.40548134e-02, 5.62192546e-03, 5.62192546e-03, 7.02740671e-03 ]
      - [ 4.78011463e-03, 6.69216039e-03, 4.78011463e-03, 5.73613774e-03,
          2.86806887e-03, 1.05162524e-02, 1.72084123e-02, 6.69216039e-03,
          9.56022937e-04, 4.78011463e-03, 3.82409175e-03, 6.69216039e-03,
          3.82409175e-03, 2.86806887e-03, 8.60420614e-03, 1.91204587e-03,
          5.73613774e-03, 1.91204585e-02, 1.62523892e-02, 3.82409175e-03,
          9.56022926e-03, 8.60420614e-03, 2.48565972e-02, 9.56022926e-03,
          6.69216039e-03, 1.05162524e-02, 0., 3.82409175e-03,
          2.86806887e-03, 7.64818350e-03, 0., 1.14722755e-02,
          4.78011463e-03, 9.56022937e-04, 1.91204585e-02, 7.64818350e-03,
          1.91204585e-02, 4.78011463e-03, 1.24282986e-02, 4.78011463e-03,
          4.78011463e-03, 1.52963670e-02, 2.86806887e-03, 1.91204587e-03,
          9.56022937e-04, 9.56022926e-03, 9.56022926e-03, 9.56022926e-03,
          5.73613774e-03, 6.69216039e-03, 1.91204587e-03, 9.56022937e-04,
          1.91204587e-03, 4.78011463e-03, 1.05162524e-02, 3.82409175e-03,
          0., 0., 4.78011463e-03, 5.73613774e-03, 1.24282986e-02,
          1.33843208e-02, 0., 5.73613774e-03, 8.60420614e-03,
          3.82409175e-03, 2.10325047e-02, 9.56022937e-04, 1.24282986e-02,
          6.69216039e-03, 1.05162524e-02, 5.73613774e-03, 1.81644354e-02,
          6.69216039e-03, 6.69216039e-03, 2.10325047e-02, 7.64818350e-03,
          9.56022926e-03, 5.73613774e-03, 7.64818350e-03, 5.73613774e-03,
          9.56022926e-03, 2.29445510e-02, 2.29445510e-02, 4.78011463e-03,
          7.64818350e-03, 7.64818350e-03, 9.56022937e-04, 3.82409175e-03,
          6.69216039e-03, 1.52963670e-02, 8.60420614e-03, 1.14722755e-02,
          2.86806887e-03, 2.86806887e-03, 9.56022926e-03, 1.62523892e-02,
          1.14722755e-02, 1.91204587e-03, 9.56022937e-04, 9.56022926e-03,
          9.56022926e-03, 2.86806887e-03, 1.24282986e-02, 7.64818350e-03,
          1.24282986e-02, 3.82409170e-02, 5.73613774e-03, 4.78011463e-03,
          4.20650095e-02, 1.91204587e-03, 2.86806887e-03, 1.81644354e-02,
          1.52963670e-02, 5.73613774e-03, 1.24282986e-02, 1.24282986e-02,
          0., 4.78011463e-03, 1.43403439e-02 ]
      - [ 1.68067235e-02, 2.80112051e-03, 9.33706854e-03, 1.82072837e-02,
          3.73482727e-03, 1.21381888e-02, 3.73482727e-03, 1.12044821e-02,
          4.66853427e-03, 2.33426713e-03, 4.66853427e-03, 8.40336177e-03,
          8.87021516e-03, 2.33426713e-03, 6.53594779e-03, 9.33706819e-04,
          7.00280117e-03, 9.33706819e-04, 1.30718956e-02, 8.40336177e-03,
          8.87021516e-03, 2.33426713e-03, 3.54808606e-02, 1.58730168e-02,
          3.26797389e-03, 1.96078438e-02, 2.33426713e-03, 1.30718956e-02,
          7.00280117e-03, 1.07376287e-02, 5.60224103e-03, 4.20168089e-03,
          1.07376287e-02, 1.26050422e-02, 7.93650839e-03, 9.33706854e-03,
          5.13538765e-03, 7.93650839e-03, 7.93650839e-03, 1.21381888e-02,
          9.33706819e-04, 1.21381888e-02, 1.86741364e-03, 1.86741364e-03,
          6.53594779e-03, 5.13538765e-03, 8.40336177e-03, 3.26797389e-03,
          2.80112051e-03, 2.80112051e-03, 5.13538765e-03, 6.53594779e-03,
          3.73482727e-03, 8.87021516e-03, 6.06909441e-03, 4.66853409e-04,
          9.33706819e-04, 6.06909441e-03, 1.40056026e-03, 3.26797389e-03,
          3.26797389e-03, 1.30718956e-02, 9.33706819e-04, 6.53594779e-03,
          1.40056023e-02, 7.93650839e-03, 1.07376287e-02, 7.00280117e-03,
          1.96078438e-02, 4.20168089e-03, 9.33706854e-03, 2.80112051e-03,
          1.72735769e-02, 1.82072837e-02, 1.63398702e-02, 6.53594779e-03,
          4.20168089e-03, 7.46965455e-03, 1.77404303e-02, 5.13538765e-03,
          1.07376287e-02, 3.26797389e-03, 9.33706819e-04, 5.83566763e-02,
          1.63398702e-02, 3.26797389e-03, 4.66853427e-03, 9.33706819e-04,
          4.66853409e-04, 9.80392192e-03, 4.66853427e-03, 1.54061625e-02,
          1.21381888e-02, 4.20168089e-03, 1.40056026e-03, 3.73482727e-03,
          7.46965455e-03, 1.21381888e-02, 0., 2.33426713e-03,
          2.52100844e-02, 1.63398702e-02, 3.73482727e-03, 5.60224103e-03,
          1.44724557e-02, 8.40336177e-03, 1.91409905e-02, 8.40336177e-03,
          7.00280117e-03, 4.66853427e-03, 2.33426713e-03, 0.,
          8.87021516e-03, 1.44724557e-02, 2.42763776e-02, 3.26797389e-03,
          9.33706854e-03, 8.40336177e-03, 4.20168089e-03, 1.07376287e-02 ]
      - [ 1.04053756e-02, 6.97633158e-03, 1.08389333e-02, 4.76913061e-03,
          3.50787304e-03, 1.06024472e-02, 8.19817465e-03, 5.34063810e-03,
          3.38963000e-03, 1.38344206e-02, 4.59176628e-03, 5.12385927e-03,
          5.06473798e-03, 2.81812274e-03, 4.94649494e-03, 8.59231781e-03,
          7.82373920e-03, 1.88991576e-02, 2.35500466e-02, 6.22745976e-03,
          1.16666332e-02, 1.02477185e-02, 3.21226567e-03, 7.82373920e-03,
          6.97633158e-03, 1.18045835e-02, 1.45832915e-03, 3.38963000e-03,
          8.04051757e-03, 5.99097414e-03, 7.76461745e-03, 1.17454622e-02,
          6.01068093e-03, 3.74435866e-03, 7.31135299e-03, 5.63624548e-03,
          2.30967812e-02, 8.53319652e-03, 6.64131017e-03, 1.40906135e-02,
          8.33612494e-03, 7.40988879e-03, 2.83782976e-03, 3.70494439e-03,
          1.04447897e-03, 4.03996604e-03, 1.73620004e-02, 8.19817465e-03,
          4.11879458e-03, 5.04503073e-03, 9.83386859e-03, 3.74435866e-03,
          3.44875152e-03, 8.43466073e-03, 5.18298056e-03, 1.60613284e-02,
          2.44368683e-03, 4.69030207e-03, 3.21226567e-03, 4.65088757e-03,
          1.26716979e-02, 3.38963000e-03, 6.73984597e-03, 4.71000932e-03,
          9.57767572e-03, 5.32093085e-03, 7.60696037e-03, 3.54728731e-03,
          1.63569357e-02, 5.97126689e-03, 6.50335988e-03, 1.26519911e-02,
          5.69536677e-03, 7.15369591e-03, 6.48365263e-03, 1.11739552e-02,
          1.70269795e-02, 4.53264499e-03, 7.27193896e-03, 1.00112325e-02,
          6.44423859e-03, 1.06024472e-02, 1.76970214e-02, 2.77870824e-03,
          1.01097682e-02, 2.26632250e-03, 8.13905336e-03, 6.70043146e-03,
          8.23758915e-03, 3.46845854e-03, 1.41300270e-02, 1.22381411e-02,
          2.38456540e-02, 3.90201597e-03, 5.83331659e-03, 1.29673053e-02,
          5.06473798e-03, 1.28884772e-02, 9.40031093e-03, 3.27138719e-03,
          9.38060414e-03, 3.17285140e-03, 2.52251537e-03, 1.99633446e-02,
          5.47858793e-03, 5.57712372e-03, 1.21593121e-02, 8.00110307e-03,
          1.51350927e-02, 3.79165597e-02, 2.77870824e-03, 1.41891493e-02,
          7.01574609e-03, 3.94143024e-03, 1.49380211e-02, 1.17454622e-02,
          5.71507402e-03, 3.31080146e-03, 1.09768836e-02, 7.21281720e-03 ]
      - [ 1.04503976e-02, 8.68413318e-03, 8.83132126e-03, 8.83132126e-03,
          5.15160430e-03, 1.14807179e-02, 7.65381195e-03, 8.53694417e-03,
          4.56284964e-03, 5.88754751e-03, 3.53252864e-03, 1.03032086e-02,
          8.38975515e-03, 5.00441575e-03, 8.97851028e-03, 2.35501910e-03,
          7.06505729e-03, 6.18192507e-03, 9.71445348e-03, 7.94818904e-03,
          1.26582272e-02, 6.32911362e-03, 1.48660578e-02, 9.42007639e-03,
          5.29879285e-03, 1.47188697e-02, 4.12128353e-03, 9.27288737e-03,
          7.80100096e-03, 8.68413318e-03, 2.20783032e-03, 8.83132126e-03,
          6.03473652e-03, 6.91786874e-03, 1.16279069e-02, 4.26847208e-03,
          1.20694730e-02, 6.32911362e-03, 1.00088315e-02, 1.16279069e-02,
          5.44598186e-03, 7.65381195e-03, 2.20783032e-03, 3.38533986e-03,
          5.88754751e-03, 8.97851028e-03, 1.01560196e-02, 1.07447747e-02,
          7.65381195e-03, 8.24256707e-03, 5.44598186e-03, 7.06505729e-03,
          7.21224584e-03, 6.32911362e-03, 9.56726540e-03, 5.00441575e-03,
          5.59317041e-03, 5.29879285e-03, 6.77067973e-03, 8.09537806e-03,
          8.09537806e-03, 9.12569929e-03, 5.29879285e-03, 9.71445348e-03,
          9.86164249e-03, 9.56726540e-03, 1.17750950e-02, 7.35943485e-03,
          1.57491900e-02, 8.53694417e-03, 1.04503976e-02, 6.62349118e-03,
          1.38357375e-02, 7.65381195e-03, 8.24256707e-03, 1.47188697e-02,
          9.56726540e-03, 9.86164249e-03, 6.91786874e-03, 5.44598186e-03,
          6.03473652e-03, 8.53694417e-03, 1.04503976e-02, 2.01648511e-02,
          1.11863408e-02, 3.23815132e-03, 8.97851028e-03, 1.17750955e-03,
          6.18192507e-03, 7.35943485e-03, 1.22166611e-02, 1.72210764e-02,
          8.38975515e-03, 8.68413318e-03, 6.32911362e-03, 6.77067973e-03,
          9.27288737e-03, 8.24256707e-03, 5.44598186e-03, 5.59317041e-03,
          1.83985867e-02, 8.24256707e-03, 1.91345299e-03, 1.04503976e-02,
          7.94818904e-03, 8.83132126e-03, 1.48660578e-02, 6.47630263e-03,
          1.05975857e-02, 1.35413595e-02, 1.91345299e-03, 2.79658521e-03,
          9.71445348e-03, 1.32469824e-02, 1.41301146e-02, 8.24256707e-03,
          1.01560196e-02, 3.09096253e-03, 7.06505729e-03, 9.12569929e-03 ]
      - [ 1.07868016e-02, 6.02791877e-03, 3.17258877e-03, 8.09010118e-03,
          8.80393386e-03, 8.80393386e-03, 7.53489835e-03, 7.21763959e-03,
          1.16592636e-02, 1.17385788e-02, 4.60025389e-03, 8.09010118e-03,
          6.42449223e-03, 1.02315992e-02, 1.07074874e-02, 7.85215758e-03,
          6.34517753e-03, 1.10247461e-02, 1.03109134e-02, 1.59422588e-02,
          8.96256324e-03, 1.20558375e-02, 7.69352773e-03, 9.20050777e-03,
          1.04695428e-02, 7.29695428e-03, 4.83819796e-03, 8.80393386e-03,
          1.45145934e-02, 6.90038037e-03, 1.03902286e-02, 6.97969552e-03,
          6.97969552e-03, 6.97969552e-03, 6.42449223e-03, 6.58312161e-03,
          8.64530448e-03, 9.75571014e-03, 8.72461870e-03, 8.80393386e-03,
          1.32455584e-02, 6.82106568e-03, 6.82106568e-03, 5.71065955e-03,
          1.58629438e-03, 7.13832490e-03, 8.64530448e-03, 6.74175099e-03,
          7.93147180e-03, 1.21351518e-02, 1.05488580e-02, 5.39340079e-03,
          8.64530448e-03, 7.77284242e-03, 6.18654815e-03, 8.01078696e-03,
          3.56916245e-03, 6.90038037e-03, 9.20050777e-03, 2.61738570e-03,
          5.63134486e-03, 7.45558366e-03, 1.08661167e-02, 6.50380692e-03,
          1.11040603e-02, 6.74175099e-03, 4.99682734e-03, 1.18178930e-02,
          7.61421304e-03, 8.40735994e-03, 6.82106568e-03, 7.13832490e-03,
          8.88324901e-03, 8.24873056e-03, 1.26110399e-02, 6.34517753e-03,
          1.10247461e-02, 7.13832490e-03, 8.32804572e-03, 1.00729689e-02,
          7.45558366e-03, 7.69352773e-03, 6.66243630e-03, 8.24873056e-03,
          9.20050777e-03, 5.86928939e-03, 6.10723346e-03, 5.47271548e-03,
          8.72461870e-03, 1.26110399e-02, 7.77284242e-03, 9.12119262e-03,
          1.10247461e-02, 1.09454310e-02, 1.18178930e-02, 9.83502530e-03,
          8.64530448e-03, 7.77284242e-03, 1.22937812e-02, 7.29695428e-03,
          8.24873056e-03, 8.24873056e-03, 4.28299466e-03, 9.20050777e-03,
          1.05488580e-02, 8.96256324e-03, 8.24873056e-03, 7.77284242e-03,
          1.43559640e-02, 1.79251265e-02, 5.63134486e-03, 9.91433952e-03,
          6.50380692e-03, 5.47271548e-03, 6.10723346e-03, 9.59708076e-03,
          6.18654815e-03, 4.20367997e-03, 9.35913716e-03, 4.91751265e-03 ]
      - [ 1.10038258e-02, 7.14155566e-03, 1.15868095e-02, 9.61923786e-03,
          6.12133322e-03, 9.91072971e-03, 1.00200400e-02, 9.91072971e-03,
          7.10511906e-03, 7.90672190e-03, 6.44926168e-03, 7.61523005e-03,
          8.05246830e-03, 8.05246830e-03, 8.52614269e-03, 9.32774600e-03,
          8.30752403e-03, 4.29950794e-03, 1.08216424e-02, 8.99981707e-03,
          7.28730159e-03, 6.48569828e-03, 1.19876107e-02, 9.43705533e-03,
          6.88649993e-03, 8.92694481e-03, 6.81362674e-03, 8.78119841e-03,
          8.41683336e-03, 8.23465083e-03, 1.06030237e-02, 6.44926168e-03,
          8.59901588e-03, 9.47349239e-03, 8.52614269e-03, 8.67188908e-03,
          8.12534150e-03, 5.75696817e-03, 9.29130986e-03, 6.59500808e-03,
          7.32373819e-03, 1.00200400e-02, 5.35616651e-03, 4.66387300e-03,
          7.54235731e-03, 8.63545202e-03, 6.04846049e-03, 7.25086499e-03,
          8.74476228e-03, 9.69211105e-03, 9.14556347e-03, 1.03115318e-02,
          7.97959510e-03, 8.38039722e-03, 9.83785745e-03, 7.10511906e-03,
          1.08216424e-02, 8.41683336e-03, 7.50592072e-03, 1.29349604e-02,
          6.37638895e-03, 1.20240478e-02, 5.31972991e-03, 1.01657854e-02,
          9.72854719e-03, 7.72453984e-03, 9.58280172e-03, 7.10511906e-03,
          8.78119841e-03, 8.12534150e-03, 8.34396016e-03, 8.52614269e-03,
          1.24612860e-02, 8.05246830e-03, 1.08945156e-02, 9.36418213e-03,
          6.19420642e-03, 6.48569828e-03, 8.45326949e-03, 8.63545202e-03,
          1.08945156e-02, 6.77719060e-03, 6.26707915e-03, 1.51211508e-02,
          1.03479680e-02, 5.42903971e-03, 6.44926168e-03, 9.72854719e-03,
          4.55456367e-03, 1.02750948e-02, 7.39661092e-03, 9.94716678e-03,
          9.47349239e-03, 7.32373819e-03, 6.33995235e-03, 7.17799226e-03,
          8.99981707e-03, 7.46948412e-03, 4.48169047e-03, 7.36017479e-03,
          8.05246830e-03, 1.07487701e-02, 4.99180146e-03, 7.25086499e-03,
          1.06394598e-02, 7.21442839e-03, 1.10038258e-02, 8.41683336e-03,
          6.70431741e-03, 7.36017479e-03, 3.75296036e-03, 8.27108696e-03,
          8.78119841e-03, 1.19511746e-02, 9.47349239e-03, 6.44926168e-03,
          8.34396016e-03, 5.72053157e-03, 7.39661092e-03, 9.47349239e-03 ]
      - [ 1.19309267e-02, 1.03610680e-02, 1.82103608e-02, 9.73312370e-03,
          8.47723708e-03, 8.47723708e-03, 8.16326495e-03, 7.53532164e-03,
          5.65149123e-03, 3.76766082e-03, 7.53532164e-03, 8.16326495e-03,
          1.16169546e-02, 8.16326495e-03, 6.90737832e-03, 3.76766082e-03,
          8.16326495e-03, 6.27943489e-04, 5.96546335e-03, 1.13029825e-02,
          5.65149123e-03, 2.51177396e-03, 1.41287288e-02, 6.90737832e-03,
          4.39560460e-03, 1.31868133e-02, 1.75824184e-02, 1.22448979e-02,
          8.47723708e-03, 1.25588700e-02, 5.33751957e-03, 3.45368916e-03,
          1.75824184e-02, 1.19309267e-02, 3.45368916e-03, 9.10518039e-03,
          3.76766082e-03, 9.10518039e-03, 8.16326495e-03, 5.65149123e-03,
          7.53532164e-03, 9.10518039e-03, 5.33751957e-03, 5.33751957e-03,
          2.29199380e-02, 6.59340667e-03, 4.08163248e-03, 8.16326495e-03,
          7.84929376e-03, 7.22134998e-03, 9.10518039e-03, 1.31868133e-02,
          9.10518039e-03, 7.53532164e-03, 1.53846154e-02, 9.41915205e-04,
          1.60125587e-02, 1.13029825e-02, 8.47723708e-03, 1.28728412e-02,
          4.70957626e-03, 1.97802205e-02, 4.70957626e-03, 9.10518039e-03,
          1.06750391e-02, 5.96546335e-03, 8.47723708e-03, 4.08163248e-03,
          1.06750391e-02, 5.65149123e-03, 9.73312370e-03, 4.39560460e-03,
          1.16169546e-02, 9.73312370e-03, 1.09890113e-02, 7.22134998e-03,
          4.08163248e-03, 1.13029825e-02, 1.13029825e-02, 5.33751957e-03,
          1.22448979e-02, 6.27943501e-03, 3.76766082e-03, 1.03610680e-02,
          1.82103608e-02, 1.09890113e-02, 5.02354791e-03, 4.39560460e-03,
          2.51177396e-03, 9.41915251e-03, 5.96546335e-03, 1.16169546e-02,
          3.76766082e-03, 4.08163248e-03, 8.47723708e-03, 4.08163248e-03,
          5.96546335e-03, 8.79120920e-03, 5.96546335e-03, 6.59340667e-03,
          1.28728412e-02, 1.35007855e-02, 8.16326495e-03, 3.45368916e-03,
          1.09890113e-02, 1.09890113e-02, 7.53532164e-03, 7.22134998e-03,
          9.41915251e-03, 3.13971750e-03, 1.88383041e-03, 3.45368916e-03,
          5.96546335e-03, 1.00470958e-02, 1.09890113e-02, 3.76766082e-03,
          1.06750391e-02, 7.84929376e-03, 5.96546335e-03, 6.27943501e-03 ]
      - [ 1.30821560e-02, 7.32600736e-03, 6.80272095e-03, 6.27943501e-03,
          9.94243845e-03, 6.80272095e-03, 1.04657244e-02, 6.27943501e-03,
          8.37257970e-03, 6.27943501e-03, 1.25588700e-02, 5.75614860e-03,
          7.84929376e-03, 1.30821560e-02, 7.32600736e-03, 7.84929376e-03,
          6.80272095e-03, 2.61643110e-03, 1.67451594e-02, 1.09890113e-02,
          1.25588700e-02, 7.32600736e-03, 8.89586564e-03, 1.04657244e-02,
          3.66300368e-03, 1.36054419e-02, 5.75614860e-03, 1.72684453e-02,
          7.32600736e-03, 4.18628985e-03, 8.89586564e-03, 7.84929376e-03,
          2.61643110e-03, 4.18628985e-03, 8.37257970e-03, 1.04657244e-02,
          7.32600736e-03, 7.84929376e-03, 7.84929376e-03, 8.37257970e-03,
          7.32600736e-03, 5.75614860e-03, 6.27943501e-03, 3.13971750e-03,
          5.75614860e-03, 6.80272095e-03, 8.37257970e-03, 3.13971750e-03,
          1.15122972e-02, 1.30821560e-02, 1.09890113e-02, 3.66300368e-03,
          1.09890113e-02, 8.37257970e-03, 6.27943501e-03, 5.75614860e-03,
          5.23286220e-03, 1.46520147e-02, 1.36054419e-02, 1.04657244e-02,
          9.94243845e-03, 7.32600736e-03, 5.23286220e-03, 1.15122972e-02,
          1.20355831e-02, 9.41915251e-03, 6.27943501e-03, 3.66300368e-03,
          7.32600736e-03, 4.18628985e-03, 8.37257970e-03, 5.23286220e-03,
          1.51753007e-02, 3.66300368e-03, 7.32600736e-03, 3.66300368e-03,
          1.25588700e-02, 8.37257970e-03, 9.41915251e-03, 9.41915251e-03,
          8.37257970e-03, 6.80272095e-03, 6.27943501e-03, 7.32600736e-03,
          1.30821560e-02, 1.36054419e-02, 7.84929376e-03, 5.75614860e-03,
          3.66300368e-03, 1.15122972e-02, 7.32600736e-03, 6.80272095e-03,
          1.04657244e-02, 7.84929376e-03, 5.75614860e-03, 5.75614860e-03,
          5.23286220e-03, 5.75614860e-03, 7.32600736e-03, 1.93615910e-02,
          1.98848769e-02, 6.80272095e-03, 4.18628985e-03, 5.75614860e-03,
          1.15122972e-02, 1.15122972e-02, 1.04657244e-02, 4.18628985e-03,
          8.37257970e-03, 1.15122972e-02, 5.75614860e-03, 6.27943501e-03,
          8.37257970e-03, 7.84929376e-03, 9.94243845e-03, 7.32600736e-03,
          8.37257970e-03, 1.04657244e-02, 5.75614860e-03, 1.04657244e-02 ]
      - [ 9.51877329e-03, 7.93231092e-03, 8.98995250e-03, 7.40349013e-03,
          1.05764149e-02, 8.46113171e-03, 1.05764149e-02, 3.17292428e-03,
          1.32205179e-02, 3.70174507e-03, 4.75938665e-03, 1.32205179e-02,
          4.75938665e-03, 8.98995250e-03, 1.16340565e-02, 7.40349013e-03,
          4.75938665e-03, 2.11528293e-03, 7.93231092e-03, 1.05764149e-02,
          1.26916971e-02, 3.70174507e-03, 1.37493387e-02, 1.26916971e-02,
          3.70174507e-03, 1.11052357e-02, 5.28820744e-03, 1.53358011e-02,
          9.51877329e-03, 4.75938665e-03, 5.28820744e-03, 7.40349013e-03,
          3.70174507e-03, 5.28820744e-03, 1.32205179e-02, 1.00475941e-02,
          3.70174507e-03, 8.46113171e-03, 7.93231092e-03, 5.28820744e-03,
          8.98995250e-03, 6.34584855e-03, 3.70174507e-03, 3.70174507e-03,
          3.17292428e-03, 1.32205179e-02, 7.40349013e-03, 9.51877329e-03,
          1.53358011e-02, 1.74510833e-02, 5.81702823e-03, 2.64410372e-03,
          1.48069803e-02, 3.70174507e-03, 1.16340565e-02, 5.81702823e-03,
          2.11528293e-03, 1.32205179e-02, 1.63934436e-02, 6.87466934e-03,
          1.00475941e-02, 1.26916971e-02, 9.51877329e-03, 1.42781595e-02,
          8.98995250e-03, 8.46113171e-03, 1.11052357e-02, 4.23056586e-03,
          2.64410372e-03, 1.48069803e-02, 9.51877329e-03, 7.93231092e-03,
          1.11052357e-02, 6.87466934e-03, 8.98995250e-03, 7.40349013e-03,
          8.46113171e-03, 1.16340565e-02, 3.17292428e-03, 1.00475941e-02,
          5.28820744e-03, 4.23056586e-03, 5.28820744e-03, 1.32205179e-02,
          1.32205179e-02, 4.23056586e-03, 7.40349013e-03, 1.05764146e-03,
          4.75938665e-03, 8.46113171e-03, 6.87466934e-03, 7.40349013e-03,
          8.46113171e-03, 1.53358011e-02, 7.40349013e-03, 1.00475941e-02,
          1.21628772e-02, 3.17292428e-03, 6.34584855e-03, 1.26916971e-02,
          7.40349013e-03, 1.00475941e-02, 1.05764146e-03, 5.81702823e-03,
          1.21628772e-02, 1.11052357e-02, 1.58646218e-02, 4.23056586e-03,
          6.34584855e-03, 7.93231092e-03, 4.75938665e-03, 4.23056586e-03,
          8.98995250e-03, 8.46113171e-03, 8.46113171e-03, 1.21628772e-02,
          8.98995250e-03, 6.34584855e-03, 1.05764149e-02, 1.16340565e-02 ]
      - [ 9.63324867e-03, 7.94743001e-03, 6.64006080e-03, 1.18351346e-02,
          1.10094268e-02, 9.22039524e-03, 5.26388222e-03, 1.14222812e-02,
          5.33269113e-03, 9.18599125e-03, 5.16066886e-03, 9.11718234e-03,
          8.73873290e-03, 8.46349727e-03, 1.36585711e-02, 4.74781543e-03,
          9.01396852e-03, 4.54138871e-03, 8.01623892e-03, 1.23512009e-02,
          6.36482518e-03, 5.36709558e-03, 1.35553572e-02, 9.28920414e-03,
          8.11945274e-03, 1.15598990e-02, 5.19507332e-03, 6.26161182e-03,
          1.32113127e-02, 8.25707056e-03, 5.77994948e-03, 5.98637620e-03,
          9.11718234e-03, 9.25480016e-03, 7.50017213e-03, 8.46349727e-03,
          7.50017213e-03, 7.39695877e-03, 6.70886971e-03, 1.07341912e-02,
          1.55164115e-02, 1.08374050e-02, 4.40377090e-03, 3.78449052e-03,
          4.81662434e-03, 7.50017213e-03, 7.87862111e-03, 7.63778994e-03,
          7.39695877e-03, 1.19039435e-02, 7.25934096e-03, 7.98183493e-03,
          8.63551907e-03, 7.87862111e-03, 1.09750228e-02, 4.57579317e-03,
          3.37163708e-03, 7.36255432e-03, 7.05291424e-03, 8.05064384e-03,
          6.33042073e-03, 1.24544147e-02, 5.81435394e-03, 9.22039524e-03,
          1.18007297e-02, 8.32587946e-03, 8.18826165e-03, 8.39468837e-03,
          1.08030001e-02, 8.94515961e-03, 7.29374541e-03, 6.70886971e-03,
          9.59884468e-03, 1.14222812e-02, 9.87408031e-03, 8.25707056e-03,
          6.88089198e-03, 6.70886971e-03, 9.87408031e-03, 4.88543324e-03,
          8.87635071e-03, 6.57125190e-03, 5.22947777e-03, 1.34521443e-02,
          1.10438317e-02, 3.95651301e-03, 6.98410533e-03, 3.23401927e-03,
          6.88089198e-03, 1.05277644e-02, 7.32814986e-03, 1.05965734e-02,
          9.15158633e-03, 7.98183493e-03, 1.33489305e-02, 8.97956453e-03,
          1.20071564e-02, 9.56443977e-03, 8.08504783e-03, 6.50244299e-03,
          1.07341912e-02, 9.01396852e-03, 5.22947777e-03, 6.29601628e-03,
          1.10094268e-02, 6.70886971e-03, 1.00805070e-02, 9.22039524e-03,
          1.19383475e-02, 1.48283225e-02, 6.22720737e-03, 4.98864660e-03,
          7.60338549e-03, 9.90848430e-03, 1.14222812e-02, 5.91756729e-03,
          7.60338549e-03, 5.05745551e-03, 6.05518511e-03, 6.33042073e-03 ]
      - [ 1.04095945e-02, 9.35354922e-03, 2.79097841e-03, 1.05604585e-02,
          3.92245594e-03, 1.50109371e-02, 1.12393452e-02, 7.92034343e-03,
          3.16813751e-03, 8.37293454e-03, 8.44836701e-03, 7.16602523e-03,
          7.31688924e-03, 5.28022926e-03, 7.69404834e-03, 6.41170703e-03,
          8.59923009e-03, 2.94184196e-03, 9.95700341e-03, 6.26084302e-03,
          1.13147767e-02, 5.50652482e-03, 1.56143922e-02, 1.54635282e-02,
          1.10130496e-02, 9.35354922e-03, 5.58195682e-03, 6.56257058e-03,
          5.80825238e-03, 9.42898076e-03, 1.99894384e-02, 5.20479726e-03,
          9.05182119e-03, 7.84491189e-03, 1.01078674e-02, 8.82552564e-03,
          6.26084302e-03, 1.42566189e-02, 8.97638965e-03, 8.82552564e-03,
          5.20479726e-03, 8.75009410e-03, 8.90095811e-03, 6.78886613e-03,
          5.58195682e-03, 7.39232078e-03, 5.20479726e-03, 1.03341630e-02,
          1.11639136e-02, 7.99577590e-03, 9.50441230e-03, 6.86429814e-03,
          5.95911592e-03, 5.88368392e-03, 9.65527631e-03, 3.92245594e-03,
          3.69616039e-03, 6.78886613e-03, 5.65738836e-03, 2.94184196e-03,
          6.78886613e-03, 1.06358901e-02, 3.39443306e-03, 9.88157187e-03,
          7.84491189e-03, 7.76948035e-03, 1.33514367e-02, 5.28022926e-03,
          1.17673678e-02, 9.27811675e-03, 9.12725367e-03, 5.12936572e-03,
          1.30497096e-02, 1.37285963e-02, 9.80614033e-03, 9.35354922e-03,
          5.35566127e-03, 9.27811675e-03, 1.10884812e-02, 8.22207145e-03,
          8.14663898e-03, 8.52379855e-03, 4.90307016e-03, 1.90842580e-02,
          1.08621856e-02, 7.09059369e-03, 7.39232078e-03, 8.22207145e-03,
          3.62072862e-03, 6.86429814e-03, 6.41170703e-03, 1.04095945e-02,
          9.05182119e-03, 6.33627502e-03, 3.62072862e-03, 7.46775279e-03,
          9.05182119e-03, 8.22207145e-03, 2.94184196e-03, 5.43109281e-03,
          1.24462545e-02, 1.10130496e-02, 6.10997947e-03, 7.99577590e-03,
          1.11639136e-02, 1.32005727e-02, 1.55389607e-02, 8.22207145e-03,
          6.56257058e-03, 4.90307016e-03, 8.44836701e-03, 3.62072862e-03,
          1.02587314e-02, 1.13902092e-02, 1.04850270e-02, 7.09059369e-03,
          9.88157187e-03, 7.39232078e-03, 5.28022926e-03, 9.20268521e-03 ]
      - [ 5.28052822e-03, 9.24092438e-03, 5.94059424e-03, 1.32013205e-02,
          1.18811885e-02, 9.90099087e-03, 7.26072630e-03, 1.45214526e-02,
          1.18811885e-02, 4.62046219e-03, 7.26072630e-03, 1.05610564e-02,
          1.05610564e-02, 8.58085789e-03, 1.25412550e-02, 4.62046219e-03,
          1.18811885e-02, 1.32013205e-03, 8.58085789e-03, 1.18811885e-02,
          5.28052822e-03, 4.62046219e-03, 1.71617158e-02, 5.28052822e-03,
          3.96039616e-03, 1.12211220e-02, 7.26072630e-03, 1.25412550e-02,
          1.18811885e-02, 3.96039616e-03, 7.26072630e-03, 1.98019808e-03,
          4.62046219e-03, 9.24092438e-03, 8.58085789e-03, 9.24092438e-03,
          3.96039616e-03, 5.94059424e-03, 1.65016502e-02, 9.90099087e-03,
          5.28052822e-03, 1.12211220e-02, 2.64026411e-03, 5.28052822e-03,
          9.90099087e-03, 1.38613861e-02, 5.28052822e-03, 3.30033014e-03,
          1.38613861e-02, 1.65016502e-02, 3.96039616e-03, 7.26072630e-03,
          1.38613861e-02, 1.12211220e-02, 2.64026411e-03, 3.30033014e-03,
          5.94059424e-03, 4.62046219e-03, 1.05610564e-02, 1.71617158e-02,
          5.94059424e-03, 7.26072630e-03, 3.96039616e-03, 1.32013205e-02,
          8.58085789e-03, 9.24092438e-03, 1.51815191e-02, 7.26072630e-03,
          7.92079233e-03, 1.51815191e-02, 1.25412550e-02, 2.64026411e-03,
          1.78217832e-02, 6.60066027e-03, 1.12211220e-02, 4.62046219e-03,
          5.94059424e-03, 9.90099087e-03, 6.60066027e-03, 1.32013205e-03,
          7.26072630e-03, 2.64026411e-03, 1.98019808e-03, 2.50825100e-02,
          8.58085789e-03, 3.30033014e-03, 9.90099087e-03, 1.32013205e-02,
          3.96039616e-03, 1.12211220e-02, 7.92079233e-03, 7.92079233e-03,
          5.28052822e-03, 1.18811885e-02, 9.90099087e-03, 4.62046219e-03,
          9.24092438e-03, 1.05610564e-02, 5.28052822e-03, 4.62046219e-03,
          9.90099087e-03, 6.60066027e-03, 2.64026411e-03, 6.60066027e-03,
          6.60066027e-03, 1.18811885e-02, 1.32013205e-02, 9.24092438e-03,
          1.05610564e-02, 3.96039616e-03, 1.98019808e-03, 3.96039616e-03,
          1.45214526e-02, 1.25412550e-02, 9.90099087e-03, 5.28052822e-03,
          5.94059424e-03, 2.64026411e-03, 6.60066027e-03, 8.58085789e-03 ]
      - [ 1.09129492e-02, 6.97216205e-03, 6.50061481e-03, 8.72362312e-03,
          1.08455857e-02, 7.03952601e-03, 6.45009195e-03, 1.13844965e-02,
          7.49423215e-03, 1.31696397e-02, 4.81651770e-03, 6.14695437e-03,
          8.10050685e-03, 8.35312158e-03, 7.24161789e-03, 8.16787127e-03,
          7.76368799e-03, 1.15697477e-02, 1.37422327e-02, 1.08287446e-02,
          6.88795745e-03, 1.16876345e-02, 7.15741282e-03, 5.69224823e-03,
          6.36588736e-03, 1.14687020e-02, 4.47969837e-03, 1.00203780e-02,
          1.13508152e-02, 7.07320822e-03, 5.87749900e-03, 7.71316513e-03,
          8.80782772e-03, 9.49830748e-03, 5.50699746e-03, 8.82466882e-03,
          8.57205410e-03, 6.53429702e-03, 6.43325131e-03, 1.03235152e-02,
          1.27149336e-02, 1.06434943e-02, 2.66087358e-03, 3.80605948e-03,
          2.27353116e-03, 6.39956910e-03, 9.17832926e-03, 8.57205410e-03,
          5.79329440e-03, 7.41002755e-03, 9.96985473e-03, 8.94255564e-03,
          8.18471238e-03, 1.06434943e-02, 6.75322954e-03, 1.21928630e-02,
          4.21024300e-03, 1.11992462e-02, 7.93209765e-03, 5.28806495e-03,
          6.18063658e-03, 7.05636712e-03, 1.10476771e-02, 6.63534272e-03,
          1.10982005e-02, 7.10688997e-03, 6.33220514e-03, 7.59527832e-03,
          9.12780687e-03, 8.21839366e-03, 5.92802186e-03, 9.31305718e-03,
          7.83105195e-03, 8.99307895e-03, 1.04919253e-02, 8.35312158e-03,
          9.32989828e-03, 5.72593044e-03, 7.46055041e-03, 9.95301455e-03,
          9.26253479e-03, 8.31944030e-03, 8.55521392e-03, 8.89203325e-03,
          1.03066750e-02, 2.86296522e-03, 7.49423215e-03, 5.50699746e-03,
          1.37759149e-02, 8.10050685e-03, 8.43732711e-03, 1.26138879e-02,
          1.30854351e-02, 7.19109504e-03, 1.11655639e-02, 8.80782772e-03,
          7.67948292e-03, 8.87519214e-03, 1.11318817e-02, 8.74046423e-03,
          1.03740385e-02, 5.99538581e-03, 2.03775754e-03, 1.03908796e-02,
          1.04750842e-02, 6.46693306e-03, 6.85427524e-03, 1.10982005e-02,
          1.21928630e-02, 1.49042597e-02, 2.34089512e-03, 1.32875266e-02,
          5.86065790e-03, 6.85427524e-03, 9.73408110e-03, 9.39726178e-03,
          6.41641021e-03, 4.29444760e-03, 8.80782772e-03, 6.36588736e-03 ]
      - [ 8.95625260e-03, 8.95625260e-03, 6.54495368e-03, 7.23389629e-03,
          1.17120221e-02, 9.64519475e-03, 9.30072367e-03, 6.88942522e-03,
          5.16706891e-03, 1.20564941e-02, 5.51153999e-03, 9.98966582e-03,
          7.57836737e-03, 9.30072367e-03, 8.95625260e-03, 5.51153999e-03,
          3.78918368e-03, 2.06682738e-03, 1.03341378e-02, 1.10230800e-02,
          7.92283844e-03, 7.23389629e-03, 9.98966582e-03, 9.30072367e-03,
          7.92283844e-03, 1.27454363e-02, 4.47812630e-03, 9.64519475e-03,
          9.64519475e-03, 8.95625260e-03, 1.92903895e-02, 6.88942522e-03,
          8.61178152e-03, 7.92283844e-03, 9.64519475e-03, 8.61178152e-03,
          5.16706891e-03, 8.95625260e-03, 8.26730952e-03, 8.26730952e-03,
          1.20564941e-02, 7.23389629e-03, 7.23389629e-03, 4.82259737e-03,
          2.41129869e-03, 7.23389629e-03, 6.20048260e-03, 8.95625260e-03,
          1.27454363e-02, 1.17120221e-02, 1.30899074e-02, 6.20048260e-03,
          1.30899074e-02, 6.54495368e-03, 1.03341378e-02, 5.51153999e-03,
          6.88942522e-03, 1.10230800e-02, 7.23389629e-03, 6.54495368e-03,
          8.95625260e-03, 1.06786089e-02, 7.92283844e-03, 1.27454363e-02,
          7.23389629e-03, 8.26730952e-03, 1.03341378e-02, 4.13365476e-03,
          8.26730952e-03, 7.92283844e-03, 6.54495368e-03, 5.85601106e-03,
          1.27454363e-02, 7.23389629e-03, 8.61178152e-03, 7.92283844e-03,
          9.64519475e-03, 6.20048260e-03, 6.54495368e-03, 8.61178152e-03,
          6.88942522e-03, 7.57836737e-03, 6.54495368e-03, 7.92283844e-03,
          1.06786089e-02, 6.88942522e-03, 6.54495368e-03, 1.41233215e-02,
          7.23389629e-03, 8.26730952e-03, 6.54495368e-03, 8.95625260e-03,
          7.92283844e-03, 7.57836737e-03, 7.57836737e-03, 7.92283844e-03,
          8.26730952e-03, 8.95625260e-03, 5.16706891e-03, 9.64519475e-03,
          7.57836737e-03, 8.26730952e-03, 5.85601106e-03, 5.85601106e-03,
          1.20564941e-02, 6.54495368e-03, 8.95625260e-03, 7.23389629e-03,
          1.10230800e-02, 4.47812630e-03, 5.51153999e-03, 5.85601106e-03,
          1.06786089e-02, 9.98966582e-03, 3.78918368e-03, 1.03341378e-02,
          1.10230800e-02, 6.54495368e-03, 8.95625260e-03, 1.48122637e-02 ]
      - [ 1.12878187e-02, 8.72812700e-03, 4.90957173e-03, 9.10578668e-03,
          5.24526881e-03, 1.69527084e-02, 8.89597554e-03, 6.96571684e-03,
          3.65070696e-03, 1.27984555e-02, 1.53161846e-02, 4.36406350e-03,
          8.39242991e-03, 4.65779845e-03, 3.60874482e-03, 5.49704162e-03,
          7.63711147e-03, 7.55318720e-03, 1.83374602e-02, 5.95862512e-03,
          1.17074400e-02, 7.17552751e-03, 5.32919308e-03, 1.11199701e-02,
          6.12647412e-03, 1.10360458e-02, 4.40602563e-03, 5.53900376e-03,
          5.74881444e-03, 1.56938434e-02, 1.40573205e-02, 5.41311735e-03,
          1.68687850e-02, 8.51831678e-03, 6.37824694e-03, 9.98699199e-03,
          1.19172502e-02, 7.84692168e-03, 5.20330667e-03, 9.77718085e-03,
          7.25945178e-03, 7.84692168e-03, 1.49804875e-02, 6.16843626e-03,
          1.08681973e-02, 4.36406350e-03, 6.83983043e-03, 6.88179256e-03,
          4.65779845e-03, 3.60874482e-03, 1.18752886e-02, 7.38533866e-03,
          4.11229068e-03, 6.00058725e-03, 7.38533866e-03, 5.74881444e-03,
          1.23368725e-02, 6.21039839e-03, 3.44089628e-03, 6.00058725e-03,
          8.26654397e-03, 7.38533866e-03, 3.56678269e-03, 6.37824694e-03,
          6.71394402e-03, 4.95153386e-03, 7.09160324e-03, 4.74172318e-03,
          1.96802486e-02, 3.90248001e-03, 4.48994990e-03, 6.25236053e-03,
          5.07742027e-03, 1.12878187e-02, 8.60224105e-03, 1.04905376e-02,
          6.08451199e-03, 6.21039839e-03, 1.15815531e-02, 6.37824694e-03,
          1.14556672e-02, 9.31559689e-03, 1.25886453e-02, 5.70685230e-03,
          1.01548405e-02, 1.40992822e-02, 6.00058725e-03, 5.49704162e-03,
          4.86760959e-03, 5.95862512e-03, 9.94502939e-03, 9.90306772e-03,
          1.88410059e-02, 3.69266933e-03, 5.74881444e-03, 5.41311735e-03,
          4.11229068e-03, 1.36796609e-02, 2.85342615e-03, 4.82564745e-03,
          9.44148377e-03, 5.95862512e-03, 2.41282359e-02, 9.56737064e-03,
          7.88888428e-03, 6.58805761e-03, 9.02186241e-03, 7.17552751e-03,
          1.20431371e-02, 2.28274092e-02, 1.30502284e-02, 7.25945178e-03,
          5.53900376e-03, 6.04254939e-03, 1.15395915e-02, 5.16134454e-03,
          5.41311735e-03, 1.20011745e-02, 5.20330667e-03, 6.67198189e-03 ]
      - [ 1.24413911e-02, 1.43911615e-02, 7.42769626e-04, 1.06773134e-02,
          3.76027124e-03, 2.28865892e-02, 1.40661998e-02, 6.77777268e-03,
          3.34246340e-03, 6.49923412e-03, 7.52054248e-03, 4.41019470e-03,
          1.08165825e-02, 3.52815562e-03, 3.57457879e-03, 2.78538605e-03,
          7.98477326e-03, 2.97107850e-03, 1.23949684e-02, 5.10654133e-03,
          1.32770073e-02, 5.89573383e-03, 1.31841609e-02, 1.70837007e-02,
          7.42769614e-03, 1.19771603e-02, 5.33865672e-03, 4.36377153e-03,
          5.52434893e-03, 1.44840078e-02, 3.38888634e-03, 5.24581037e-03,
          1.48553923e-02, 8.21688864e-03, 1.27199301e-02, 8.26331228e-03,
          1.10486979e-02, 8.30973499e-03, 8.58827401e-03, 1.29520455e-02,
          5.89573383e-03, 8.21688864e-03, 9.93454363e-03, 3.89954052e-03,
          8.77396576e-03, 4.17807931e-03, 6.54565729e-03, 1.45768542e-02,
          7.33485026e-03, 3.15677095e-03, 6.40638825e-03, 6.73134951e-03,
          2.59969360e-03, 6.31354190e-03, 1.37412380e-02, 3.48173268e-03,
          5.33865672e-03, 6.12784922e-03, 2.78538605e-03, 9.28462017e-04,
          8.72754306e-03, 1.24413911e-02, 2.92465533e-03, 7.65981199e-03,
          8.07761960e-03, 8.58827401e-03, 1.54588930e-02, 2.87823239e-03,
          1.86620876e-02, 4.50304104e-03, 8.40258133e-03, 6.77777268e-03,
          1.09094288e-02, 1.09094288e-02, 7.42769614e-03, 1.31841609e-02,
          6.54565729e-03, 7.79908104e-03, 1.34162763e-02, 4.96727182e-03,
          1.05844671e-02, 1.36019690e-02, 1.14665059e-02, 1.34162763e-02,
          1.10951215e-02, 9.42388922e-03, 7.70623470e-03, 1.11415447e-03,
          3.66742513e-03, 5.66361845e-03, 1.02130827e-02, 1.21628530e-02,
          1.15129296e-02, 2.87823239e-03, 5.29223355e-03, 6.59208046e-03,
          4.64231009e-03, 1.17914677e-02, 3.48173268e-03, 2.22830893e-03,
          1.36019690e-02, 8.95965844e-03, 9.23819747e-03, 8.30973499e-03,
          7.05631124e-03, 1.03059290e-02, 1.98226646e-02, 6.26711873e-03,
          9.60958190e-03, 7.00988853e-03, 3.99238663e-03, 3.66742513e-03,
          9.65600554e-03, 1.30448919e-02, 1.39733534e-02, 7.10273441e-03,
          1.10951215e-02, 7.33485026e-03, 4.64231009e-03, 1.07237361e-02 ]
      - [ 1.16387401e-02, 7.61878025e-03, 1.71007798e-03, 1.02604674e-02,
          3.15215858e-03, 1.26979668e-02, 8.37172475e-03, 8.01439490e-03,
          3.33082350e-03, 1.32339615e-02, 6.35536434e-03, 5.83213149e-03,
          8.11648928e-03, 3.42015596e-03, 6.72545610e-03, 8.63972213e-03,
          8.10372736e-03, 7.98887201e-03, 1.48291839e-02, 5.20680472e-03,
          1.05157029e-02, 6.61059981e-03, 1.05029419e-02, 1.12431245e-02,
          1.11027453e-02, 1.14600752e-02, 2.79482896e-03, 4.81118960e-03,
          7.72087462e-03, 1.12814102e-02, 1.12814102e-02, 7.58049497e-03,
          1.04901800e-02, 8.00163392e-03, 8.47381912e-03, 7.31249759e-03,
          1.23533988e-02, 1.20343547e-02, 7.70811271e-03, 1.11665539e-02,
          7.59325689e-03, 9.04809870e-03, 6.06184360e-03, 4.67080995e-03,
          2.97349389e-03, 5.75556094e-03, 1.04391323e-02, 1.14217894e-02,
          5.97251114e-03, 4.26243292e-03, 1.16132163e-02, 7.29973568e-03,
          3.50948842e-03, 8.34620185e-03, 7.73363607e-03, 7.65706552e-03,
          4.17310093e-03, 7.77192134e-03, 2.99901725e-03, 1.73560157e-03,
          8.18029791e-03, 8.01439490e-03, 2.92244670e-03, 5.14299562e-03,
          8.99705198e-03, 9.60961729e-03, 8.92048143e-03, 5.92146395e-03,
          1.14345513e-02, 8.06544255e-03, 8.20582174e-03, 9.11190826e-03,
          9.58409347e-03, 1.39996679e-02, 1.21747339e-02, 9.45647620e-03,
          9.48199909e-03, 9.16295499e-03, 1.42549034e-02, 9.78828222e-03,
          8.12925119e-03, 8.97152815e-03, 1.04263714e-02, 1.10261748e-02,
          1.22640664e-02, 4.93880734e-03, 8.41001049e-03, 5.66622848e-03,
          4.77290433e-03, 5.28337527e-03, 8.83114897e-03, 1.17153106e-02,
          1.55566046e-02, 3.90510354e-03, 4.88776015e-03, 1.26086343e-02,
          7.49116251e-03, 9.13743116e-03, 3.61158256e-03, 2.34816666e-03,
          1.19960690e-02, 7.77192134e-03, 5.42375492e-03, 1.26469200e-02,
          1.44335683e-02, 8.97152815e-03, 1.22768283e-02, 7.83572998e-03,
          1.28766317e-02, 1.70242097e-02, 5.28337527e-03, 7.82296900e-03,
          8.06544255e-03, 7.69535080e-03, 1.13324570e-02, 8.42277240e-03,
          5.56413410e-03, 6.31707907e-03, 7.35078286e-03, 7.74639798e-03 ]
      - [ 1.28676472e-02, 5.97426482e-03, 1.14889704e-02, 1.37867648e-02,
          1.51654417e-02, 5.51470602e-03, 8.27205926e-03, 7.81250000e-03,
          1.42463231e-02, 5.97426482e-03, 5.05514722e-03, 1.10294120e-02,
          1.60845593e-02, 1.56250000e-02, 1.10294120e-02, 4.13602963e-03,
          5.97426482e-03, 4.59558825e-04, 4.59558843e-03, 1.47058824e-02,
          4.59558843e-03, 2.29779421e-03, 1.47058824e-02, 1.05698528e-02,
          3.67647060e-03, 1.24080880e-02, 6.89338241e-03, 1.01102944e-02,
          9.19117685e-03, 1.10294120e-02, 6.89338241e-03, 2.75735301e-03,
          1.14889704e-02, 1.24080880e-02, 8.27205926e-03, 7.81250000e-03,
          1.83823530e-03, 4.13602963e-03, 6.43382361e-03, 7.35294120e-03,
          9.65073518e-03, 1.37867648e-02, 3.21691181e-03, 2.75735301e-03,
          1.28676472e-02, 6.43382361e-03, 3.67647060e-03, 7.81250000e-03,
          1.56250000e-02, 1.14889704e-02, 5.05514722e-03, 1.37867648e-02,
          1.14889704e-02, 1.01102944e-02, 1.37867648e-02, 9.19117650e-04,
          6.89338241e-03, 4.59558843e-03, 1.01102944e-02, 6.89338241e-03,
          4.13602963e-03, 1.56250000e-02, 9.19117685e-03, 1.14889704e-02,
          1.14889704e-02, 6.43382361e-03, 1.05698528e-02, 1.24080880e-02,
          5.05514722e-03, 1.10294120e-02, 5.97426482e-03, 2.29779421e-03,
          1.33272056e-02, 1.05698528e-02, 1.10294120e-02, 9.19117685e-03,
          3.21691181e-03, 7.35294120e-03, 7.81250000e-03, 3.67647060e-03,
          7.81250000e-03, 5.97426482e-03, 4.13602963e-03, 2.02205889e-02,
          8.73161759e-03, 6.89338241e-03, 6.43382361e-03, 4.13602963e-03,
          6.43382361e-03, 1.14889704e-02, 2.29779421e-03, 1.28676472e-02,
          6.43382361e-03, 6.43382361e-03, 1.33272056e-02, 5.51470602e-03,
          1.42463231e-02, 9.19117685e-03, 6.43382361e-03, 8.73161759e-03,
          1.01102944e-02, 1.05698528e-02, 1.01102944e-02, 3.21691181e-03,
          1.19485296e-02, 6.89338241e-03, 1.24080880e-02, 5.51470602e-03,
          4.59558843e-03, 4.59558825e-04, 4.59558825e-04, 2.75735301e-03,
          1.14889704e-02, 1.19485296e-02, 8.27205926e-03, 5.05514722e-03,
          1.05698528e-02, 8.27205926e-03, 2.29779421e-03, 7.81250000e-03 ]
      - [ 1.02163460e-02, 6.85096160e-03, 1.39423078e-02, 3.84615385e-03,
          1.08173080e-02, 6.97115390e-03, 1.04567306e-02, 6.12980779e-03,
          9.25480761e-03, 1.09374998e-02, 6.61057699e-03, 6.00961549e-03,
          4.80769249e-03, 1.04567306e-02, 7.33173080e-03, 1.87500007e-02,
          7.33173080e-03, 7.33173080e-03, 1.05769234e-02, 1.40624996e-02,
          5.28846169e-03, 1.37019232e-02, 5.40865399e-03, 4.80769249e-03,
          6.37019239e-03, 7.21153850e-03, 8.29326920e-03, 5.76923089e-03,
          9.97596141e-03, 4.80769249e-03, 1.49038462e-02, 7.57211540e-03,
          6.97115390e-03, 6.61057699e-03, 7.93269277e-03, 6.61057699e-03,
          6.73076930e-03, 6.00961549e-03, 5.40865399e-03, 5.64903859e-03,
          9.01442301e-03, 7.57211540e-03, 4.68750019e-03, 7.81250000e-03,
          3.84615385e-03, 7.69230770e-03, 6.73076930e-03, 4.80769249e-03,
          1.50240380e-02, 1.28605766e-02, 1.09374998e-02, 6.97115390e-03,
          1.45432688e-02, 7.69230770e-03, 6.85096160e-03, 1.23798074e-02,
          3.96634638e-03, 7.69230770e-03, 1.34615386e-02, 8.41346197e-03,
          5.76923089e-03, 8.17307737e-03, 1.10576926e-02, 1.34615386e-02,
          8.29326920e-03, 5.64903859e-03, 8.65384657e-03, 5.04807709e-03,
          5.64903859e-03, 7.81250000e-03, 5.64903859e-03, 1.18990382e-02,
          5.16826939e-03, 4.80769249e-03, 8.77403840e-03, 6.85096160e-03,
          8.29326920e-03, 5.04807709e-03, 4.80769249e-03, 1.80288460e-02,
          7.09134620e-03, 6.73076930e-03, 6.85096160e-03, 5.64903859e-03,
          8.77403840e-03, 4.32692328e-03, 5.28846169e-03, 1.47836534e-02,
          1.35817304e-02, 1.09374998e-02, 8.05288460e-03, 9.13461577e-03,
          1.09374998e-02, 1.03365388e-02, 7.57211540e-03, 9.37500037e-03,
          7.21153850e-03, 1.02163460e-02, 1.23798074e-02, 1.81490388e-02,
          4.32692328e-03, 5.52884629e-03, 3.12500005e-03, 8.17307737e-03,
          6.49038469e-03, 6.61057699e-03, 5.04807709e-03, 9.13461577e-03,
          9.49519221e-03, 8.65384657e-03, 3.72596155e-03, 1.43028842e-02,
          1.06971152e-02, 6.12980779e-03, 5.04807709e-03, 9.49519221e-03,
          5.52884629e-03, 6.00961549e-03, 1.55048082e-02, 9.01442301e-03 ]
      - [ 9.90643911e-03, 6.05393527e-03, 2.25646682e-02, 1.65107325e-02,
          8.80572386e-03, 8.25536624e-03, 9.35608149e-03, 1.54100172e-02,
          7.15465052e-03, 3.85250431e-03, 1.65107322e-03, 9.35608149e-03,
          8.80572386e-03, 7.70500861e-03, 1.10071544e-02, 3.30214645e-03,
          1.10071544e-02, 1.10071548e-03, 5.50357718e-03, 1.21078705e-02,
          8.25536624e-03, 2.20143097e-03, 1.37589434e-02, 8.80572386e-03,
          8.25536624e-03, 1.10071544e-02, 2.75178859e-03, 1.26582282e-02,
          1.26582282e-02, 7.15465052e-03, 3.85250431e-03, 4.40286193e-03,
          8.25536624e-03, 5.50357718e-03, 9.90643911e-03, 9.90643911e-03,
          1.04567967e-02, 4.95321956e-03, 9.35608149e-03, 7.70500861e-03,
          1.26582282e-02, 1.04567967e-02, 1.65107322e-03, 1.10071548e-03,
          1.65107322e-03, 1.26582282e-02, 8.80572386e-03, 9.90643911e-03,
          8.80572386e-03, 1.04567967e-02, 2.75178859e-03, 9.90643911e-03,
          9.35608149e-03, 8.25536624e-03, 7.70500861e-03, 1.65107322e-03,
          2.20143097e-03, 3.30214645e-03, 7.70500861e-03, 2.20143087e-02,
          1.04567967e-02, 5.50357718e-03, 7.15465052e-03, 1.15575129e-02,
          8.80572386e-03, 7.70500861e-03, 1.59603748e-02, 6.05393527e-03,
          9.35608149e-03, 1.15575129e-02, 9.90643911e-03, 7.15465052e-03,
          9.90643911e-03, 1.43093010e-02, 1.04567967e-02, 1.32085858e-02,
          4.40286193e-03, 8.25536624e-03, 1.04567967e-02, 3.30214645e-03,
          1.26582282e-02, 4.40286193e-03, 6.60429290e-03, 4.95321956e-03,
          1.43093010e-02, 6.05393527e-03, 7.15465052e-03, 1.65107322e-03,
          8.80572386e-03, 1.10071544e-02, 1.32085858e-02, 1.43093010e-02,
          7.70500861e-03, 1.10071544e-02, 9.35608149e-03, 6.60429290e-03,
          6.05393527e-03, 1.15575129e-02, 6.60429290e-03, 1.21078705e-02,
          1.04567967e-02, 8.25536624e-03, 1.65107322e-03, 6.60429290e-03,
          1.10071544e-02, 1.15575129e-02, 9.35608149e-03, 1.43093010e-02,
          8.25536624e-03, 2.20143097e-03, 5.50357741e-04, 1.65107322e-03,
          1.10071544e-02, 9.90643911e-03, 8.80572386e-03, 7.15465052e-03,
          6.60429290e-03, 2.75178859e-03, 4.40286193e-03, 7.70500861e-03 ]
      - [ 1.45137880e-03, 1.01596517e-02, 1.16110304e-02, 7.25689391e-03,
          1.16110304e-02, 1.45137880e-03, 5.80551522e-03, 8.70827306e-03,
          2.75761969e-02, 1.45137880e-03, 1.88679248e-02, 1.30624091e-02,
          1.16110304e-02, 1.30624091e-02, 1.74165461e-02, 1.45137880e-03,
          1.16110304e-02, 0., 1.45137880e-03, 2.46734396e-02,
          4.35413653e-03, 7.25689391e-03, 1.30624091e-02, 2.90275761e-03,
          4.35413653e-03, 5.80551522e-03, 1.01596517e-02, 1.45137878e-02,
          1.30624091e-02, 5.80551522e-03, 1.16110304e-02, 5.80551522e-03,
          1.30624091e-02, 5.80551522e-03, 4.35413653e-03, 5.80551522e-03,
          2.90275761e-03, 1.45137880e-03, 4.35413653e-03, 2.90275761e-03,
          1.16110304e-02, 8.70827306e-03, 8.70827306e-03, 1.01596517e-02,
          7.25689391e-03, 1.59651674e-02, 2.90275761e-03, 5.80551522e-03,
          8.70827306e-03, 1.88679248e-02, 1.45137880e-03, 7.25689391e-03,
          8.70827306e-03, 1.01596517e-02, 1.30624091e-02, 4.35413653e-03,
          1.45137878e-02, 1.01596517e-02, 1.74165461e-02, 2.61248183e-02,
          1.45137880e-03, 1.45137878e-02, 7.25689391e-03, 1.16110304e-02,
          1.30624091e-02, 2.90275761e-03, 1.74165461e-02, 1.45137878e-02,
          2.90275761e-03, 5.80551522e-03, 4.35413653e-03, 1.45137880e-03,
          1.30624091e-02, 4.35413653e-03, 1.30624091e-02, 2.90275761e-03,
          1.45137880e-03, 5.80551522e-03, 2.90275761e-03, 1.45137880e-03,
          7.25689391e-03, 1.45137880e-03, 1.45137880e-03, 1.45137878e-02,
          4.35413653e-03, 1.30624091e-02, 2.90275761e-03, 1.01596517e-02,
          1.45137880e-03, 8.70827306e-03, 7.25689391e-03, 1.30624091e-02,
          0., 1.59651674e-02, 8.70827306e-03, 2.90275761e-03,
          8.70827306e-03, 1.16110304e-02, 4.35413653e-03, 1.59651674e-02,
          1.16110304e-02, 1.01596517e-02, 1.88679248e-02, 0.,
          1.30624091e-02, 7.25689391e-03, 1.45137880e-03, 2.90275761e-03,
          1.01596517e-02, 0., 1.30624091e-02, 1.45137880e-03,
          1.16110304e-02, 4.35413653e-03, 4.35413653e-03, 8.70827306e-03,
          1.30624091e-02, 8.70827306e-03, 2.90275761e-03, 8.70827306e-03 ]
      - [ 1.02199288e-02, 8.46650917e-03, 5.21015981e-03, 1.43279396e-02,
          6.26221113e-03, 1.24743246e-02, 1.09713944e-02, 8.81719310e-03,
          3.20625212e-03, 4.65908507e-03, 7.46455556e-03, 7.51465326e-03,
          9.46846325e-03, 6.01172261e-03, 7.16396980e-03, 5.31035522e-03,
          5.96162491e-03, 1.65322376e-03, 8.46650917e-03, 7.71504408e-03,
          9.41836555e-03, 4.25830344e-03, 1.68328229e-02, 1.25745200e-02,
          7.26416474e-03, 1.20234452e-02, 8.61680228e-03, 1.28751062e-02,
          6.01172261e-03, 9.71895177e-03, 8.81719310e-03, 5.76123409e-03,
          1.08711990e-02, 9.86924488e-03, 1.11717852e-02, 7.11387210e-03,
          6.46260194e-03, 6.96357898e-03, 1.03702219e-02, 9.26807243e-03,
          4.80937818e-03, 1.02700265e-02, 7.86533765e-03, 5.36045292e-03,
          1.26747154e-02, 5.81133179e-03, 6.26221113e-03, 8.66689999e-03,
          1.18230544e-02, 5.76123409e-03, 6.46260194e-03, 8.76709539e-03,
          5.05986670e-03, 6.91348128e-03, 1.15224682e-02, 2.55498220e-03,
          1.09212967e-02, 8.66689999e-03, 4.85947588e-03, 7.41445785e-03,
          7.76514178e-03, 1.18230544e-02, 3.15615442e-03, 1.04704173e-02,
          8.86729080e-03, 9.11777932e-03, 1.28751062e-02, 7.31426245e-03,
          9.61875636e-03, 6.96357898e-03, 8.41641147e-03, 5.56084374e-03,
          1.48790134e-02, 1.10715898e-02, 1.07209058e-02, 9.56865866e-03,
          5.86142950e-03, 7.16396980e-03, 1.12719797e-02, 6.41250424e-03,
          8.51660687e-03, 7.41445785e-03, 5.26025752e-03, 1.76343862e-02,
          1.25745200e-02, 8.86729080e-03, 6.91348128e-03, 5.31035522e-03,
          3.10605671e-03, 9.06768162e-03, 6.31230883e-03, 1.26246177e-02,
          7.21406750e-03, 5.31035522e-03, 5.76123409e-03, 6.61289506e-03,
          8.61680228e-03, 8.21602065e-03, 3.70722893e-03, 6.46260194e-03,
          1.66324321e-02, 1.12218820e-02, 8.11582524e-03, 7.36436015e-03,
          1.10715898e-02, 8.36631376e-03, 1.63819436e-02, 7.06377439e-03,
          5.76123409e-03, 3.50683834e-03, 4.75928048e-03, 3.00586130e-03,
          1.17729567e-02, 1.10214921e-02, 1.31255947e-02, 6.56279735e-03,
          6.71309046e-03, 8.66689999e-03, 4.45869425e-03, 9.96944029e-03 ]
      - [ 1.13968039e-02, 9.08038020e-03, 1.85313879e-03, 1.38985412e-02,
          5.46675967e-03, 1.18600884e-02, 8.29279609e-03, 1.19064171e-02,
          3.38197825e-03, 6.06902968e-03, 5.93004422e-03, 7.69052608e-03,
          1.18137598e-02, 5.69840195e-03, 7.59786926e-03, 4.26221918e-03,
          8.66342429e-03, 2.45540892e-03, 8.89506657e-03, 8.38545337e-03,
          7.96849653e-03, 4.03057691e-03, 2.34422069e-02, 1.20454021e-02,
          8.57076701e-03, 1.09335193e-02, 3.93792009e-03, 7.96849653e-03,
          7.69052608e-03, 1.10725043e-02, 4.54019010e-03, 4.40120464e-03,
          1.20917307e-02, 1.29256435e-02, 9.58999339e-03, 8.20013974e-03,
          6.20801514e-03, 9.54366475e-03, 1.07945334e-02, 1.00069493e-02,
          5.83738741e-03, 1.00532779e-02, 4.58651874e-03, 2.96502211e-03,
          7.41255516e-03, 5.65207331e-03, 5.83738741e-03, 6.67129969e-03,
          6.30067196e-03, 5.55941649e-03, 7.78318290e-03, 1.15357889e-02,
          4.21589101e-03, 9.35835112e-03, 1.14431325e-02, 3.10400757e-03,
          6.30067196e-03, 6.34700060e-03, 4.77183238e-03, 2.59439438e-03,
          6.99559925e-03, 1.46397967e-02, 4.30854782e-03, 8.01482517e-03,
          9.68265068e-03, 8.20013974e-03, 1.06555484e-02, 9.08038020e-03,
          1.22307166e-02, 8.33912473e-03, 8.61709565e-03, 5.88371558e-03,
          1.74195040e-02, 1.40375262e-02, 1.66782495e-02, 8.98772292e-03,
          6.48598606e-03, 9.12670884e-03, 1.32962707e-02, 5.79105876e-03,
          1.10261757e-02, 5.69840195e-03, 5.69840195e-03, 2.33495496e-02,
          1.13041466e-02, 5.55941649e-03, 8.10748246e-03, 1.34352560e-03,
          2.77970824e-03, 8.01482517e-03, 6.06902968e-03, 1.22770444e-02,
          8.47810972e-03, 5.00347465e-03, 6.53231423e-03, 8.70975200e-03,
          1.13968039e-02, 9.86796431e-03, 3.33564985e-03, 2.50173733e-03,
          1.49177676e-02, 1.37595553e-02, 5.37410239e-03, 6.11535832e-03,
          1.44081544e-02, 1.12578180e-02, 1.64466072e-02, 7.96849653e-03,
          9.03405156e-03, 5.51308785e-03, 3.10400757e-03, 3.42830690e-03,
          5.51308785e-03, 1.22770444e-02, 1.05628911e-02, 5.09613194e-03,
          1.00996066e-02, 6.53231423e-03, 5.42043103e-03, 8.75608064e-03 ]
      - [ 2.59067351e-03, 1.03626940e-02, 1.68393776e-02, 1.03626940e-02,
          6.47668354e-03, 1.55440411e-02, 1.42487045e-02, 7.77202053e-03,
          1.03626940e-02, 1.29533675e-03, 2.59067351e-03, 9.06735752e-03,
          5.18134702e-03, 9.06735752e-03, 9.06735752e-03, 1.29533675e-03,
          3.88601026e-03, 0., 7.77202053e-03, 1.03626940e-02,
          9.06735752e-03, 1.29533675e-03, 3.36787552e-02, 1.81347150e-02,
          7.77202053e-03, 5.18134702e-03, 5.18134702e-03, 1.03626940e-02,
          7.77202053e-03, 1.55440411e-02, 0., 5.18134702e-03,
          1.03626940e-02, 5.18134702e-03, 1.81347150e-02, 6.47668354e-03,
          2.59067351e-03, 3.88601026e-03, 1.29533671e-02, 6.47668354e-03,
          2.59067351e-03, 6.47668354e-03, 3.88601026e-03, 2.59067351e-03,
          2.59067351e-03, 5.18134702e-03, 5.18134702e-03, 7.77202053e-03,
          1.29533671e-02, 1.42487045e-02, 5.18134702e-03, 9.06735752e-03,
          9.06735752e-03, 3.88601026e-03, 7.77202053e-03, 1.29533675e-03,
          3.88601026e-03, 6.47668354e-03, 9.06735752e-03, 1.29533671e-02,
          5.18134702e-03, 1.42487045e-02, 1.29533675e-03, 1.29533671e-02,
          9.06735752e-03, 7.77202053e-03, 9.06735752e-03, 5.18134702e-03,
          7.77202053e-03, 1.03626940e-02, 1.29533671e-02, 3.88601026e-03,
          2.72020716e-02, 7.77202053e-03, 6.47668354e-03, 5.18134702e-03,
          2.59067351e-03, 2.07253881e-02, 1.42487045e-02, 5.18134702e-03,
          5.18134702e-03, 1.03626940e-02, 7.77202053e-03, 3.75647657e-02,
          5.18134702e-03, 2.59067351e-03, 7.77202053e-03, 2.59067351e-03,
          6.47668354e-03, 7.77202053e-03, 9.06735752e-03, 1.16580306e-02,
          5.18134702e-03, 9.06735752e-03, 6.47668354e-03, 5.18134702e-03,
          1.03626940e-02, 2.59067351e-03, 3.88601026e-03, 9.06735752e-03,
          1.55440411e-02, 1.42487045e-02, 6.47668354e-03, 3.88601026e-03,
          1.03626940e-02, 7.77202053e-03, 3.23834196e-02, 1.03626940e-02,
          3.88601026e-03, 2.59067351e-03, 1.29533675e-03, 0.,
          1.03626940e-02, 1.29533671e-02, 7.77202053e-03, 3.88601026e-03,
          1.55440411e-02, 3.88601026e-03, 1.29533675e-03, 9.06735752e-03 ]
      - [ 9.80690308e-03, 6.91804755e-03, 5.01748500e-03, 1.20875780e-02,
          9.42679029e-03, 7.98236299e-03, 6.76600263e-03, 1.36080272e-02,
          9.80690308e-03, 6.61395770e-03, 5.85373258e-03, 9.27474536e-03,
          1.06431497e-02, 1.03390599e-02, 1.26197347e-02, 5.47362026e-03,
          6.91804755e-03, 2.50874250e-03, 5.09350747e-03, 1.37600731e-02,
          6.61395770e-03, 3.11692245e-03, 1.57366581e-02, 8.43849778e-03,
          6.30986737e-03, 9.50281229e-03, 5.39759779e-03, 1.06431497e-02,
          1.06431497e-02, 1.06431497e-02, 5.32157486e-03, 5.24555240e-03,
          1.36840502e-02, 1.69530176e-02, 5.47362026e-03, 9.95894801e-03,
          3.11692245e-03, 7.14611495e-03, 9.04667750e-03, 5.70168765e-03,
          7.83031806e-03, 1.13273524e-02, 5.01748500e-03, 3.64908017e-03,
          1.07951956e-02, 8.89463257e-03, 6.08179998e-03, 9.12270043e-03,
          5.54964272e-03, 1.07951956e-02, 7.75429513e-03, 1.76372211e-02,
          9.42679029e-03, 8.97065550e-03, 9.73088015e-03, 4.02919250e-03,
          9.42679029e-03, 1.07191727e-02, 6.15782244e-03, 5.01748500e-03,
          4.94146254e-03, 1.62688158e-02, 4.78941761e-03, 6.91804755e-03,
          9.95894801e-03, 8.28645285e-03, 6.08179998e-03, 1.49004105e-02,
          6.46191277e-03, 9.95894801e-03, 8.89463257e-03, 6.08179998e-03,
          1.31518925e-02, 1.29998475e-02, 1.66489277e-02, 5.92975505e-03,
          4.33328236e-03, 7.83031806e-03, 1.12513304e-02, 7.83031806e-03,
          1.07191727e-02, 5.32157486e-03, 4.33328236e-03, 1.72571074e-02,
          1.12513304e-02, 6.23384491e-03, 6.68998016e-03, 2.58476497e-03,
          4.56135022e-03, 1.44442748e-02, 5.39759779e-03, 8.43849778e-03,
          6.00577751e-03, 7.60225020e-03, 9.12270043e-03, 8.59054271e-03,
          1.52805224e-02, 6.00577751e-03, 5.92975505e-03, 4.10521496e-03,
          7.52622774e-03, 1.50524555e-02, 4.40930529e-03, 7.07009248e-03,
          1.64968818e-02, 7.07009248e-03, 8.81861057e-03, 1.04150828e-02,
          6.84202509e-03, 3.42101255e-03, 2.43272004e-03, 3.80112510e-03,
          6.23384491e-03, 1.18595101e-02, 6.61395770e-03, 3.80112510e-03,
          8.13440792e-03, 7.37418281e-03, 5.77771012e-03, 6.30986737e-03 ]
      - [ 6.38728775e-03, 7.94516318e-03, 3.58311273e-03, 8.87988787e-03,
          1.40208751e-03, 1.77597757e-02, 1.32419383e-02, 6.38728775e-03,
          9.34725045e-04, 2.95996270e-03, 5.60835004e-03, 8.56831297e-03,
          3.73890018e-03, 2.49260012e-03, 6.07571285e-03, 3.27153760e-03,
          3.89468763e-03, 1.40208751e-03, 5.76413795e-03, 3.73890018e-03,
          1.58903264e-02, 5.14098769e-03, 2.44586393e-02, 1.69808380e-02,
          7.94516318e-03, 9.34725069e-03, 9.03567579e-03, 5.29677514e-03,
          4.98520024e-03, 6.38728775e-03, 5.60835004e-03, 7.94516318e-03,
          5.29677514e-03, 6.23150030e-03, 1.32419383e-02, 4.98520024e-03,
          1.10609131e-02, 7.94516318e-03, 1.51113886e-02, 7.47780036e-03,
          2.18102522e-03, 6.69886265e-03, 1.02819754e-02, 6.54307520e-03,
          8.41252506e-03, 8.72410089e-03, 1.05935503e-02, 1.26187885e-02,
          8.87988787e-03, 4.05047508e-03, 3.58311273e-03, 3.89468763e-03,
          4.36205044e-03, 5.14098769e-03, 1.47998128e-02, 2.49260012e-03,
          5.91992540e-03, 4.20626253e-03, 2.80417502e-03, 2.02523754e-03,
          1.37093011e-02, 1.12167001e-02, 2.33681267e-03, 1.07493382e-02,
          5.60835004e-03, 1.19956378e-02, 1.69808380e-02, 1.86945009e-03,
          8.72410089e-03, 5.76413795e-03, 1.82271376e-02, 8.87988787e-03,
          1.94734391e-02, 7.16622546e-03, 4.67362534e-03, 1.71366259e-02,
          9.81461257e-03, 1.43324509e-02, 6.38728775e-03, 6.69886265e-03,
          3.73890018e-03, 1.04377633e-02, 1.02819754e-02, 2.83533260e-02,
          8.87988787e-03, 1.29303634e-02, 9.50303767e-03, 3.89468763e-03,
          2.49260012e-03, 3.73890018e-03, 1.19956378e-02, 6.38728775e-03,
          6.54307520e-03, 4.20626253e-03, 3.42732528e-03, 9.97040048e-03,
          8.72410089e-03, 7.63358781e-03, 2.80417502e-03, 3.27153760e-03,
          1.19956378e-02, 8.72410089e-03, 7.63358781e-03, 1.32419383e-02,
          7.16622546e-03, 1.51113886e-02, 3.00669894e-02, 5.45256259e-03,
          3.73890018e-03, 2.49260012e-03, 7.94516318e-03, 4.05047508e-03,
          1.27745755e-02, 1.66692641e-02, 1.37093011e-02, 7.32201291e-03,
          1.43324509e-02, 5.76413795e-03, 4.82941279e-03, 1.33977253e-02 ]
      - [ 7.97448121e-03, 4.38596494e-03, 3.18979248e-02, 4.38596494e-03,
          2.43221689e-02, 4.78468882e-03, 4.38596494e-03, 3.58851673e-03,
          2.51196176e-02, 6.77830912e-03, 8.37320555e-03, 1.27591705e-02,
          4.78468882e-03, 2.43221689e-02, 9.96810198e-03, 3.98724061e-03,
          3.58851673e-03, 1.99362030e-03, 5.98086137e-03, 1.55502390e-02,
          7.97448121e-03, 3.98724061e-03, 4.78468882e-03, 6.37958525e-03,
          3.98724061e-03, 7.57575734e-03, 4.78468882e-03, 1.95374805e-02,
          1.15629984e-02, 3.58851673e-03, 8.77192989e-03, 3.98724061e-03,
          4.78468882e-03, 4.78468882e-03, 5.98086137e-03, 1.19617227e-02,
          2.39234441e-03, 4.78468882e-03, 4.78468882e-03, 3.18979262e-03,
          1.39553426e-02, 9.56937764e-03, 3.58851673e-03, 5.58213703e-03,
          7.97448156e-04, 1.27591705e-02, 3.98724061e-03, 3.58851673e-03,
          9.17065423e-03, 2.19298247e-02, 7.97448121e-03, 5.18341316e-03,
          2.51196176e-02, 8.77192989e-03, 6.37958525e-03, 3.18979262e-03,
          7.17703346e-03, 9.56937764e-03, 3.22966501e-02, 4.02711332e-02,
          4.38596494e-03, 6.77830912e-03, 1.59489624e-02, 1.27591705e-02,
          8.77192989e-03, 3.58851673e-03, 7.57575734e-03, 9.17065423e-03,
          5.58213703e-03, 8.37320555e-03, 3.18979262e-03, 5.98086137e-03,
          7.17703346e-03, 4.38596494e-03, 5.58213703e-03, 4.78468882e-03,
          5.58213703e-03, 4.38596494e-03, 5.98086137e-03, 7.57575734e-03,
          9.17065423e-03, 4.38596494e-03, 4.78468882e-03, 2.79106852e-03,
          8.77192989e-03, 4.78468882e-03, 3.58851673e-03, 2.79106852e-03,
          7.97448121e-03, 1.19617227e-02, 4.78468882e-03, 7.57575734e-03,
          5.18341316e-03, 1.99362040e-02, 1.79425832e-02, 4.38596494e-03,
          7.57575734e-03, 5.18341316e-03, 1.55502390e-02, 3.18979248e-02,
          8.77192989e-03, 3.98724061e-03, 3.98724061e-03, 2.79106852e-03,
          6.37958525e-03, 7.57575734e-03, 4.38596494e-03, 7.17703346e-03,
          6.77830912e-03, 1.99362030e-03, 7.17703346e-03, 4.78468882e-03,
          4.78468882e-03, 5.58213703e-03, 5.58213703e-03, 6.77830912e-03,
          2.79106852e-03, 7.17703346e-03, 5.18341316e-03, 8.37320555e-03 ]
      - [ 5.30035375e-03, 2.94464082e-03, 5.77149615e-02, 4.12249705e-03,
          3.41578349e-02, 4.12249705e-03, 2.94464082e-03, 7.65606621e-03,
          3.82803306e-02, 8.24499410e-03, 4.71142540e-03, 1.11896349e-02,
          7.06713833e-03, 3.00353374e-02, 1.35453483e-02, 5.30035375e-03,
          9.42285080e-03, 3.53356916e-03, 5.30035375e-03, 2.70906966e-02,
          3.53356916e-03, 6.47820998e-03, 5.88928175e-04, 2.35571270e-03,
          2.94464082e-03, 6.47820998e-03, 4.71142540e-03, 1.53121324e-02,
          1.53121324e-02, 4.71142540e-03, 5.88928163e-03, 1.17785635e-03,
          4.71142540e-03, 3.53356916e-03, 2.35571270e-03, 1.00117791e-02,
          2.35571270e-03, 5.30035375e-03, 4.12249705e-03, 6.47820998e-03,
          1.59010608e-02, 7.06713833e-03, 1.76678458e-03, 1.76678458e-03,
          2.94464082e-03, 8.83392245e-03, 2.35571270e-03, 5.88928175e-04,
          4.71142540e-03, 2.17903424e-02, 5.88928163e-03, 4.12249705e-03,
          3.23910490e-02, 4.71142540e-03, 4.12249705e-03, 5.88928163e-03,
          7.65606621e-03, 9.42285080e-03, 3.53356898e-02, 4.71142530e-02,
          2.35571270e-03, 4.12249705e-03, 2.59128399e-02, 7.06713833e-03,
          1.06007075e-02, 5.30035375e-03, 1.17785635e-03, 1.23674916e-02,
          4.12249705e-03, 9.42285080e-03, 5.88928175e-04, 2.94464082e-03,
          1.17785635e-03, 2.35571270e-03, 8.24499410e-03, 0.,
          2.94464082e-03, 1.17785635e-03, 4.71142540e-03, 4.71142540e-03,
          1.06007075e-02, 2.35571270e-03, 2.35571270e-03, 4.71142540e-03,
          3.53356916e-03, 5.30035375e-03, 3.53356916e-03, 2.94464082e-03,
          7.65606621e-03, 1.70789175e-02, 3.53356916e-03, 1.76678458e-03,
          7.65606621e-03, 1.82567742e-02, 2.82685533e-02, 3.53356916e-03,
          6.47820998e-03, 7.65606621e-03, 1.82567742e-02, 4.12249714e-02,
          2.35571270e-03, 2.94464082e-03, 5.88928175e-04, 4.71142540e-03,
          3.53356916e-03, 7.06713833e-03, 1.17785635e-03, 6.47820998e-03,
          1.00117791e-02, 3.53356916e-03, 1.17785635e-03, 7.65606621e-03,
          1.17785635e-03, 1.17785635e-03, 3.53356916e-03, 6.47820998e-03,
          2.35571270e-03, 2.94464082e-03, 4.71142540e-03, 2.94464082e-03 ]
      - [ 1.04844980e-02, 6.99542277e-03, 1.55453838e-03, 1.43017527e-02,
          7.49632949e-03, 7.72087416e-03, 7.51360226e-03, 1.57526564e-02,
          6.71906024e-03, 6.30451692e-03, 4.52543376e-03, 1.12790391e-02,
          1.01217721e-02, 7.85905495e-03, 1.22808535e-02, 5.59633831e-03,
          9.34450328e-03, 1.00181357e-03, 7.84178264e-03, 1.41981170e-02,
          6.06269948e-03, 3.02271359e-03, 1.52344760e-02, 8.99904966e-03,
          6.61542453e-03, 1.41290268e-02, 3.10907676e-03, 9.27541219e-03,
          1.28163053e-02, 7.70360138e-03, 9.53450240e-03, 5.73451957e-03,
          9.89722740e-03, 1.19181275e-02, 5.94179099e-03, 1.04844980e-02,
          5.18179452e-03, 7.80723710e-03, 1.13481302e-02, 1.16763106e-02,
          9.74177383e-03, 1.33690303e-02, 3.22998525e-03, 3.88634601e-03,
          1.55453838e-03, 8.61905143e-03, 6.56360667e-03, 6.99542277e-03,
          7.06451340e-03, 9.93177295e-03, 8.35996214e-03, 1.12617668e-02,
          6.54633390e-03, 1.25053972e-02, 1.02599533e-02, 1.74453750e-03,
          1.89999130e-03, 5.97633654e-03, 6.01088163e-03, 1.24363066e-03,
          6.56360667e-03, 9.96631850e-03, 4.30088956e-03, 8.37723445e-03,
          1.45953884e-02, 8.96450505e-03, 8.86086840e-03, 1.10026775e-02,
          9.63813812e-03, 9.70722828e-03, 9.79359169e-03, 5.64815616e-03,
          1.61671992e-02, 1.16590383e-02, 1.70826502e-02, 7.40996609e-03,
          5.09543112e-03, 8.11814517e-03, 1.12444945e-02, 6.73633302e-03,
          9.58632026e-03, 5.30270301e-03, 4.50816145e-03, 1.67717412e-02,
          1.29199410e-02, 2.52180663e-03, 8.20450764e-03, 7.08178570e-03,
          4.30088956e-03, 1.54935662e-02, 6.16633566e-03, 1.58735644e-02,
          6.66724239e-03, 8.32541659e-03, 9.62086488e-03, 7.39269378e-03,
          1.15035838e-02, 8.70541483e-03, 4.92270477e-03, 3.33362119e-03,
          1.41808446e-02, 9.17177647e-03, 2.00362713e-03, 4.81906906e-03,
          1.59944724e-02, 8.60177912e-03, 1.15554016e-02, 1.01908622e-02,
          8.94723181e-03, 2.41817092e-03, 2.57362472e-03, 2.41817092e-03,
          8.04905407e-03, 1.04499524e-02, 1.26435785e-02, 6.04542717e-03,
          9.32723004e-03, 4.87088691e-03, 5.00906818e-03, 8.44632555e-03 ]
      - [ 1.15242070e-02, 6.89136004e-03, 1.47671998e-02, 1.03080841e-02,
          1.21612232e-02, 8.86031985e-03, 7.93375075e-03, 7.99166132e-03,
          5.84896933e-03, 9.61315725e-03, 7.18091289e-03, 8.33912473e-03,
          7.99166132e-03, 1.22191338e-02, 8.33912473e-03, 5.90687990e-03,
          8.04957189e-03, 3.12717166e-03, 9.55524668e-03, 1.05976379e-02,
          7.52837630e-03, 7.41255516e-03, 1.01922629e-02, 8.22330359e-03,
          5.15404204e-03, 1.07713696e-02, 9.03405156e-03, 1.26824183e-02,
          8.80240928e-03, 7.87584018e-03, 5.03822090e-03, 5.55941649e-03,
          9.84479953e-03, 1.06555484e-02, 7.00718118e-03, 8.97614099e-03,
          5.38568478e-03, 6.08061161e-03, 7.81792961e-03, 1.00764418e-02,
          8.80240928e-03, 8.62867758e-03, 6.42807502e-03, 5.21195307e-03,
          5.79105876e-03, 7.64419744e-03, 5.61732706e-03, 6.02270104e-03,
          8.68658815e-03, 9.78688896e-03, 9.20778327e-03, 1.07713696e-02,
          1.07713696e-02, 8.39703530e-03, 9.72897839e-03, 4.34329407e-03,
          8.39703530e-03, 1.20454021e-02, 1.06555484e-02, 1.23349549e-02,
          4.40120464e-03, 1.10609224e-02, 1.01922629e-02, 9.26569384e-03,
          8.91823042e-03, 7.64419744e-03, 1.01922629e-02, 7.81792961e-03,
          9.20778327e-03, 8.28121416e-03, 7.06509175e-03, 6.71762833e-03,
          1.21033126e-02, 9.38151497e-03, 1.22770444e-02, 7.35464459e-03,
          6.42807502e-03, 7.41255516e-03, 1.01343524e-02, 7.23882345e-03,
          9.09196213e-03, 6.65971730e-03, 4.86448919e-03, 1.00764418e-02,
          1.11188330e-02, 6.94927061e-03, 5.96479047e-03, 2.83761881e-03,
          7.12300232e-03, 9.49733611e-03, 5.84896933e-03, 1.13504753e-02,
          9.03405156e-03, 8.22330359e-03, 8.74449871e-03, 7.93375075e-03,
          8.68658815e-03, 7.93375075e-03, 8.10748246e-03, 1.14083858e-02,
          9.14987270e-03, 9.61315725e-03, 6.48598559e-03, 6.71762833e-03,
          1.06555484e-02, 8.80240928e-03, 8.51285644e-03, 8.22330359e-03,
          1.14083858e-02, 4.92239976e-03, 3.30090337e-03, 5.90687990e-03,
          7.41255516e-03, 8.74449871e-03, 7.41255516e-03, 6.19643275e-03,
          8.28121416e-03, 8.33912473e-03, 7.23882345e-03, 7.52837630e-03 ]
      - [ 1.33888805e-02, 6.41932618e-03, 9.27527156e-03, 9.51108336e-03,
          8.54163431e-03, 8.48923158e-03, 6.89095026e-03, 1.09783579e-02,
          7.54598342e-03, 1.13189751e-02, 6.26211800e-03, 6.78614480e-03,
          7.31017115e-03, 9.77309607e-03, 7.65078841e-03, 9.17046610e-03,
          7.23156752e-03, 4.61143441e-03, 9.40627791e-03, 1.17643978e-02,
          8.07000976e-03, 7.44117796e-03, 9.22286883e-03, 7.54598342e-03,
          5.86909801e-03, 1.20788133e-02, 5.71189029e-03, 1.22360215e-02,
          1.12141697e-02, 7.25776888e-03, 6.83854753e-03, 7.88660068e-03,
          8.41062702e-03, 8.59403610e-03, 6.57653389e-03, 9.72069334e-03,
          6.36692345e-03, 6.75994344e-03, 8.46302975e-03, 9.64208972e-03,
          1.04019288e-02, 1.13713779e-02, 3.51097831e-03, 4.32321941e-03,
          3.06555582e-03, 6.44552754e-03, 7.62458751e-03, 7.15296343e-03,
          9.95650608e-03, 9.09186155e-03, 1.03495261e-02, 8.48923158e-03,
          1.09521560e-02, 1.04805324e-02, 8.48923158e-03, 6.52413117e-03,
          3.98260215e-03, 1.11093642e-02, 1.05853379e-02, 8.01760703e-03,
          6.26211800e-03, 8.38442612e-03, 8.85604974e-03, 9.58968699e-03,
          1.23146251e-02, 8.25341884e-03, 7.88660068e-03, 6.75994344e-03,
          7.88660068e-03, 6.57653389e-03, 8.48923158e-03, 8.82984884e-03,
          9.58968699e-03, 9.69449244e-03, 1.47251477e-02, 7.88660068e-03,
          7.49358069e-03, 8.72504339e-03, 8.35822430e-03, 9.85170063e-03,
          1.01661161e-02, 6.57653389e-03, 5.65948756e-03, 7.80799659e-03,
          1.18954042e-02, 3.85159557e-03, 7.49358069e-03, 4.45422623e-03,
          7.15296343e-03, 9.90410335e-03, 8.14861432e-03, 1.13713779e-02,
          9.77309607e-03, 7.33637251e-03, 9.48488154e-03, 8.41062702e-03,
          8.30582157e-03, 8.38442612e-03, 8.59403610e-03, 8.72504339e-03,
          1.11617669e-02, 5.97390346e-03, 3.32756899e-03, 7.04815798e-03,
          1.33626787e-02, 9.19666700e-03, 8.98705609e-03, 8.85604974e-03,
          1.08735524e-02, 5.18786348e-03, 3.17036104e-03, 8.33202340e-03,
          7.07435934e-03, 9.48488154e-03, 9.98270698e-03, 7.78179523e-03,
          7.96520431e-03, 5.86909801e-03, 8.80364701e-03, 7.49358069e-03 ]
      - [ 1.40557121e-02, 8.43342766e-03, 8.43342766e-03, 8.94454401e-03,
          1.35445958e-02, 7.92231038e-03, 5.62228495e-03, 7.92231038e-03,
          9.45566129e-03, 1.12445699e-02, 7.92231038e-03, 7.92231038e-03,
          5.11116814e-03, 1.43112708e-02, 7.92231038e-03, 7.66675221e-03,
          8.17786902e-03, 1.27779203e-03, 1.15001285e-02, 1.15001285e-02,
          1.04778949e-02, 5.11116814e-03, 7.92231038e-03, 9.45566129e-03,
          5.62228495e-03, 9.96677764e-03, 4.60005132e-03, 1.84002053e-02,
          1.07334536e-02, 5.62228495e-03, 1.12445699e-02, 8.17786902e-03,
          1.27779208e-02, 9.71121900e-03, 6.38896041e-03, 1.17556863e-02,
          7.66675221e-03, 5.36672678e-03, 5.11116814e-03, 8.68898630e-03,
          1.22668035e-02, 1.04778949e-02, 7.66675221e-03, 5.62228495e-03,
          5.62228495e-03, 8.43342766e-03, 4.60005132e-03, 5.62228495e-03,
          6.90007675e-03, 1.30334785e-02, 1.25223622e-02, 7.66675221e-03,
          1.27779208e-02, 1.02223363e-02, 6.64451858e-03, 5.11116814e-03,
          4.85560950e-03, 1.30334785e-02, 1.22668035e-02, 1.07334536e-02,
          6.13340177e-03, 7.92231038e-03, 7.41119403e-03, 5.62228495e-03,
          1.40557121e-02, 6.13340177e-03, 7.15563539e-03, 9.71121900e-03,
          5.87784313e-03, 5.62228495e-03, 6.64451858e-03, 5.87784313e-03,
          8.68898630e-03, 9.20010265e-03, 1.25223622e-02, 4.34449315e-03,
          5.87784313e-03, 9.71121900e-03, 8.17786902e-03, 9.20010265e-03,
          9.20010265e-03, 3.57781770e-03, 5.87784313e-03, 5.87784313e-03,
          1.12445699e-02, 5.87784313e-03, 6.64451858e-03, 8.43342766e-03,
          4.85560950e-03, 8.68898630e-03, 4.08893451e-03, 9.71121900e-03,
          1.45668294e-02, 9.45566129e-03, 8.94454401e-03, 6.13340177e-03,
          7.92231038e-03, 8.17786902e-03, 7.41119403e-03, 1.17556863e-02,
          7.66675221e-03, 8.68898630e-03, 3.83337610e-03, 8.43342766e-03,
          1.22668035e-02, 5.87784313e-03, 6.13340177e-03, 9.96677764e-03,
          1.07334536e-02, 5.11116814e-03, 8.68898630e-03, 9.96677764e-03,
          4.08893451e-03, 1.12445699e-02, 7.15563539e-03, 6.13340177e-03,
          9.71121900e-03, 8.68898630e-03, 6.13340177e-03, 5.36672678e-03 ]
      - [ 2.16423962e-02, 6.06796145e-03, 1.82038837e-03, 1.07200649e-02,
          1.03155347e-02, 9.70873795e-03, 7.28155347e-03, 1.53721692e-02,
          3.23624606e-03, 1.11245960e-02, 6.67475769e-03, 4.85436898e-03,
          8.09061527e-03, 6.06796145e-03, 1.27427187e-02, 6.27022656e-03,
          7.68608460e-03, 4.04530758e-04, 1.17313918e-02, 9.70873795e-03,
          1.09223304e-02, 1.82038837e-03, 1.25404531e-02, 9.10194218e-03,
          7.07928836e-03, 1.09223304e-02, 8.49514548e-03, 1.98220070e-02,
          1.03155347e-02, 9.10194218e-03, 8.69741105e-03, 5.86569589e-03,
          1.01132691e-02, 8.69741105e-03, 5.86569589e-03, 1.19336573e-02,
          3.64077673e-03, 1.11245960e-02, 5.86569589e-03, 9.70873795e-03,
          1.05177993e-02, 1.19336573e-02, 3.03398073e-03, 1.41585770e-03,
          2.02265382e-03, 1.03155347e-02, 5.86569589e-03, 6.87702280e-03,
          8.89967661e-03, 1.09223304e-02, 1.27427187e-02, 9.30420775e-03,
          5.66343078e-03, 1.19336573e-02, 6.27022656e-03, 3.03398073e-03,
          3.03398073e-03, 1.35517800e-02, 5.66343078e-03, 1.61812303e-03,
          3.03398073e-03, 1.13268616e-02, 2.02265382e-03, 9.70873795e-03,
          1.21359229e-02, 9.70873795e-03, 9.70873795e-03, 5.25889965e-03,
          5.05663455e-03, 1.13268616e-02, 6.87702280e-03, 5.86569589e-03,
          1.90129448e-02, 8.69741105e-03, 1.96197424e-02, 3.23624606e-03,
          5.46116522e-03, 1.09223304e-02, 1.07200649e-02, 9.50647239e-03,
          1.05177993e-02, 2.62944982e-03, 3.23624606e-03, 1.29449842e-02,
          2.00242717e-02, 5.46116522e-03, 8.49514548e-03, 1.41585770e-03,
          1.21359224e-03, 1.07200649e-02, 3.23624606e-03, 1.45631069e-02,
          1.11245960e-02, 6.67475769e-03, 5.86569589e-03, 9.70873795e-03,
          1.29449842e-02, 9.30420775e-03, 2.02265382e-03, 6.06796145e-03,
          1.49676381e-02, 9.70873795e-03, 2.22491915e-03, 6.27022656e-03,
          2.10355986e-02, 6.67475769e-03, 8.49514548e-03, 7.68608460e-03,
          9.70873795e-03, 6.06796122e-04, 4.24757274e-03, 1.41585770e-03,
          4.65210387e-03, 1.29449842e-02, 1.33495154e-02, 5.25889965e-03,
          9.10194218e-03, 1.07200649e-02, 9.30420775e-03, 6.47249212e-03 ]
      - [ 1.30548300e-02, 7.54279085e-03, 1.58592016e-02, 7.15598091e-03,
          4.83512226e-03, 1.18944012e-02, 1.08306743e-02, 6.09225407e-03,
          3.38458573e-03, 8.79992265e-03, 1.02504594e-02, 5.60874166e-03,
          5.60874166e-03, 6.47906400e-03, 9.18673258e-03, 6.47906400e-03,
          5.31863468e-03, 6.28565904e-03, 1.17009962e-02, 6.67246897e-03,
          1.06372694e-02, 5.41533716e-03, 1.64394155e-02, 1.06372694e-02,
          8.02630279e-03, 8.60651769e-03, 1.02504594e-02, 9.28343460e-03,
          4.35160985e-03, 5.70544414e-03, 1.54723916e-02, 4.73841978e-03,
          5.02852723e-03, 6.09225407e-03, 7.92960078e-03, 5.41533716e-03,
          8.70321970e-03, 5.89884911e-03, 9.09002963e-03, 8.70321970e-03,
          5.80214662e-03, 5.89884911e-03, 1.33449379e-02, 6.96257595e-03,
          1.13141863e-02, 8.02630279e-03, 8.02630279e-03, 7.15598091e-03,
          7.54279085e-03, 7.15598091e-03, 8.50981567e-03, 5.80214662e-03,
          8.70321970e-03, 5.22193220e-03, 9.96035151e-03, 5.22193220e-03,
          6.67246897e-03, 7.92960078e-03, 7.92960078e-03, 1.06372694e-02,
          6.67246897e-03, 1.30548300e-02, 4.15820535e-03, 6.09225407e-03,
          5.99555159e-03, 7.15598091e-03, 1.14108883e-02, 4.54501482e-03,
          8.79992265e-03, 6.76917145e-03, 9.28343460e-03, 7.83289783e-03,
          1.57624986e-02, 8.60651769e-03, 7.54279085e-03, 9.67024453e-03,
          5.70544414e-03, 9.38013755e-03, 6.96257595e-03, 7.83289783e-03,
          7.83289783e-03, 6.09225407e-03, 4.93182475e-03, 1.97272990e-02,
          9.67024453e-03, 1.22812111e-02, 7.92960078e-03, 6.86587347e-03,
          4.54501482e-03, 5.70544414e-03, 7.54279085e-03, 8.89662467e-03,
          1.09273763e-02, 4.93182475e-03, 5.70544414e-03, 9.28343460e-03,
          1.16042932e-02, 5.22193220e-03, 4.93182475e-03, 8.99332762e-03,
          8.60651769e-03, 1.38284499e-02, 5.80214662e-03, 6.76917145e-03,
          7.34938588e-03, 1.34416400e-02, 1.70196313e-02, 5.31863468e-03,
          7.34938588e-03, 1.09273763e-02, 1.02504594e-02, 4.15820535e-03,
          8.21970776e-03, 1.40218548e-02, 1.24746151e-02, 5.99555159e-03,
          1.12174833e-02, 8.99332762e-03, 5.31863468e-03, 8.79992265e-03 ]
      - [ 1.43423500e-02, 7.92910438e-03, 6.29664166e-03, 1.25932833e-02,
          6.99626841e-03, 9.32835788e-03, 1.01445895e-02, 1.00279851e-02,
          3.14832083e-03, 5.48041053e-03, 3.38152982e-03, 1.02611938e-02,
          8.04570876e-03, 4.89738816e-03, 9.67817102e-03, 4.78078332e-03,
          6.41324604e-03, 1.98227610e-03, 8.51212628e-03, 8.62873159e-03,
          9.32835788e-03, 5.24720130e-03, 1.53917903e-02, 1.11940298e-02,
          7.22947763e-03, 1.14272386e-02, 4.78078332e-03, 9.56156664e-03,
          7.57929077e-03, 6.06343290e-03, 5.01399254e-03, 7.57929077e-03,
          6.99626841e-03, 9.91138071e-03, 7.22947763e-03, 7.11287279e-03,
          8.04570876e-03, 8.16231314e-03, 1.14272386e-02, 1.01445895e-02,
          5.94682805e-03, 1.15438430e-02, 2.68190284e-03, 2.56529846e-03,
          2.79850746e-03, 7.34608201e-03, 8.97854473e-03, 8.62873159e-03,
          8.74533597e-03, 7.69589515e-03, 7.46268639e-03, 6.99626841e-03,
          6.41324604e-03, 1.02611938e-02, 9.91138071e-03, 2.44869408e-03,
          8.16231302e-04, 6.64645527e-03, 5.94682805e-03, 4.19776095e-03,
          7.92910438e-03, 1.34095149e-02, 4.43097018e-03, 8.16231314e-03,
          1.04944026e-02, 1.10774254e-02, 1.35261193e-02, 4.78078332e-03,
          1.09608211e-02, 1.09608211e-02, 1.15438430e-02, 8.27891752e-03,
          1.77238807e-02, 9.56156664e-03, 1.48087684e-02, 1.20102605e-02,
          6.41324604e-03, 1.01445895e-02, 8.62873159e-03, 1.00279851e-02,
          8.04570876e-03, 7.57929077e-03, 6.41324604e-03, 1.58582088e-02,
          1.63246263e-02, 3.38152982e-03, 9.91138071e-03, 1.63246260e-03,
          4.19776095e-03, 1.08442158e-02, 8.62873159e-03, 1.64412316e-02,
          7.11287279e-03, 5.94682805e-03, 5.59701491e-03, 9.44496226e-03,
          9.79477633e-03, 8.62873159e-03, 4.89738816e-03, 2.91511184e-03,
          1.45755596e-02, 9.79477633e-03, 3.03171645e-03, 8.16231314e-03,
          1.32929105e-02, 1.15438430e-02, 1.74906719e-02, 8.04570876e-03,
          9.56156664e-03, 3.84794758e-03, 2.91511184e-03, 4.43097018e-03,
          1.20102605e-02, 1.27098877e-02, 1.02611938e-02, 7.92910438e-03,
          1.22434702e-02, 3.38152982e-03, 6.76305965e-03, 9.21175350e-03 ]
      - [ 1.04638999e-02, 7.49912811e-03, 1.32542728e-02, 6.97593298e-03,
          8.19672178e-03, 1.09870946e-02, 9.24311113e-03, 4.35995823e-03,
          5.92954317e-03, 1.43006630e-02, 1.98814105e-02, 6.80153491e-03,
          4.53435676e-03, 1.04638999e-02, 5.75514510e-03, 9.76630673e-03,
          6.62713638e-03, 2.26717838e-03, 8.71991646e-03, 6.62713638e-03,
          1.02895014e-02, 4.01116163e-03, 5.92954317e-03, 1.06382985e-02,
          1.02895014e-02, 9.06871352e-03, 9.24311113e-03, 1.60446465e-02,
          8.37112032e-03, 9.06871352e-03, 1.63934436e-02, 4.70875483e-03,
          9.41750966e-03, 7.49912811e-03, 5.23194997e-03, 9.76630673e-03,
          3.83676332e-03, 6.27833977e-03, 5.58074657e-03, 9.24311113e-03,
          7.15033151e-03, 5.23194997e-03, 1.44750616e-02, 7.15033151e-03,
          1.15102902e-02, 8.71991646e-03, 4.88315336e-03, 4.53435676e-03,
          8.89431499e-03, 7.32473005e-03, 1.56958494e-02, 1.04638999e-02,
          1.39518660e-02, 4.18556016e-03, 8.71991646e-03, 4.35995823e-03,
          1.06382985e-02, 1.55214518e-02, 8.19672178e-03, 9.06871352e-03,
          4.70875483e-03, 1.44750616e-02, 4.88315336e-03, 1.01151029e-02,
          4.18556016e-03, 6.97593298e-03, 6.45273831e-03, 3.31356819e-03,
          8.19672178e-03, 7.15033151e-03, 6.10394171e-03, 4.70875483e-03,
          9.41750966e-03, 1.02895014e-02, 9.41750966e-03, 4.01116163e-03,
          3.31356819e-03, 7.84792472e-03, 1.36030698e-02, 1.16846878e-02,
          9.24311113e-03, 4.53435676e-03, 3.66236502e-03, 9.59190819e-03,
          9.94070526e-03, 1.60446465e-02, 5.05755143e-03, 9.06871352e-03,
          4.18556016e-03, 5.23194997e-03, 5.05755143e-03, 8.89431499e-03,
          1.37774684e-02, 6.45273831e-03, 8.71991646e-03, 7.15033151e-03,
          6.80153491e-03, 9.24311113e-03, 5.05755143e-03, 1.51726548e-02,
          8.54551792e-03, 1.04638999e-02, 1.18590863e-02, 4.35995823e-03,
          1.16846878e-02, 7.32473005e-03, 6.62713638e-03, 6.45273831e-03,
          8.71991646e-03, 3.48796649e-03, 8.54551792e-03, 6.45273831e-03,
          8.02232325e-03, 8.89431499e-03, 8.89431499e-03, 5.23194997e-03,
          1.02895014e-02, 1.22078834e-02, 5.75514510e-03, 8.19672178e-03 ]
      - [ 1.25171943e-02, 6.74002757e-03, 6.18982129e-03, 6.87757926e-03,
          1.26547460e-02, 4.95185703e-03, 8.25309474e-03, 1.12792300e-02,
          6.46492466e-03, 8.25309474e-03, 5.50206332e-03, 1.12792300e-02,
          8.11554398e-03, 1.18294368e-02, 1.37551585e-02, 4.53920243e-03,
          8.94085318e-03, 1.65061909e-03, 6.74002757e-03, 1.71939489e-02,
          4.81430534e-03, 5.08940872e-03, 6.18982129e-03, 7.70288892e-03,
          3.98899615e-03, 1.52682262e-02, 9.21595655e-03, 2.15955991e-02,
          1.80192571e-02, 6.87757926e-03, 1.01788174e-02, 4.95185703e-03,
          7.15268264e-03, 9.62861069e-03, 6.46492466e-03, 1.14167817e-02,
          4.53920243e-03, 3.98899615e-03, 1.05914725e-02, 1.01788174e-02,
          1.93947740e-02, 1.03163691e-02, 4.81430534e-03, 3.71389277e-03,
          3.43878963e-03, 7.97799230e-03, 6.32737298e-03, 4.95185703e-03,
          1.26547460e-02, 1.40302619e-02, 7.29023386e-03, 8.25309474e-03,
          1.19669875e-02, 1.05914725e-02, 8.66574980e-03, 3.71389277e-03,
          3.98899615e-03, 1.34800551e-02, 8.52819812e-03, 7.42778555e-03,
          2.88858335e-03, 7.84044061e-03, 7.15268264e-03, 1.26547460e-02,
          1.40302619e-02, 7.01513095e-03, 8.52819812e-03, 9.21595655e-03,
          6.32737298e-03, 9.07840487e-03, 7.84044061e-03, 4.95185703e-03,
          1.19669875e-02, 1.00412657e-02, 1.05914725e-02, 6.32737298e-03,
          5.22696041e-03, 7.70288892e-03, 7.01513095e-03, 6.05226960e-03,
          1.16918851e-02, 4.26409906e-03, 2.61348020e-03, 7.97799230e-03,
          1.19669875e-02, 4.12654737e-03, 6.60247635e-03, 5.50206332e-03,
          5.91471838e-03, 1.69188455e-02, 3.16368649e-03, 1.71939489e-02,
          7.01513095e-03, 9.49105900e-03, 9.76616237e-03, 4.95185703e-03,
          1.25171943e-02, 7.42778555e-03, 5.77716669e-03, 1.40302619e-02,
          8.80330149e-03, 7.70288892e-03, 2.47592852e-03, 5.36451163e-03,
          1.19669875e-02, 1.03163691e-02, 4.95185703e-03, 1.14167817e-02,
          1.37551585e-02, 3.98899615e-03, 3.85144446e-03, 3.16368649e-03,
          7.97799230e-03, 9.21595655e-03, 7.70288892e-03, 5.63961500e-03,
          8.11554398e-03, 6.18982129e-03, 5.36451163e-03, 7.56533723e-03 ]
      - [ 1.18083088e-02, 4.56817774e-03, 4.91294591e-03, 1.88760553e-02,
          7.41251511e-03, 8.27443507e-03, 8.96397140e-03, 1.85312871e-02,
          5.25771407e-03, 6.20582653e-03, 5.51629020e-03, 6.98155491e-03,
          9.56731569e-03, 7.92966690e-03, 8.10205098e-03, 4.48198570e-03,
          1.18083088e-02, 3.87864164e-03, 7.58489920e-03, 8.53301119e-03,
          6.29201857e-03, 4.74056182e-03, 1.00844679e-02, 7.15393899e-03,
          7.06774695e-03, 1.53421825e-02, 5.77486632e-03, 1.35321496e-02,
          1.10325804e-02, 1.23254610e-02, 5.25771407e-03, 8.18824302e-03,
          1.29288053e-02, 1.25840371e-02, 9.48112365e-03, 1.02568520e-02,
          8.96397140e-03, 6.29201857e-03, 7.32632307e-03, 1.32735735e-02,
          9.99827590e-03, 1.97379757e-02, 4.65436978e-03, 3.10291327e-03,
          3.10291327e-03, 6.03344245e-03, 8.18824302e-03, 7.75728328e-03,
          7.75728328e-03, 4.82675387e-03, 8.10205098e-03, 1.15497326e-02,
          6.89536287e-03, 9.39493161e-03, 6.89536287e-03, 4.05102549e-03,
          4.13721753e-03, 9.91208386e-03, 4.56817774e-03, 4.56817774e-03,
          7.67109124e-03, 8.70539527e-03, 4.05102549e-03, 7.32632307e-03,
          1.03430441e-02, 6.46440266e-03, 1.04292361e-02, 5.94725041e-03,
          1.10325804e-02, 6.37821062e-03, 1.12911565e-02, 5.34390612e-03,
          1.11187724e-02, 1.18083088e-02, 1.23254610e-02, 1.06016202e-02,
          6.80917082e-03, 8.27443507e-03, 9.73969977e-03, 5.34390612e-03,
          1.00844679e-02, 6.80917082e-03, 1.09463884e-02, 1.24978451e-02,
          1.47388382e-02, 3.79244960e-03, 8.18824302e-03, 1.89622480e-03,
          5.43009816e-03, 1.02568520e-02, 9.22254752e-03, 1.42216859e-02,
          7.06774695e-03, 5.51629020e-03, 4.82675387e-03, 6.89536287e-03,
          1.04292361e-02, 8.36062711e-03, 2.93052918e-03, 8.27443507e-03,
          1.48250302e-02, 9.48112365e-03, 3.36148939e-03, 7.84347486e-03,
          1.28426133e-02, 5.86105837e-03, 1.05154281e-02, 1.12049645e-02,
          1.15497326e-02, 5.08532999e-03, 3.27529735e-03, 3.10291327e-03,
          7.58489920e-03, 1.01706600e-02, 1.27564212e-02, 4.91294591e-03,
          1.02568520e-02, 6.29201857e-03, 5.77486632e-03, 7.58489920e-03 ]
      - [ 1.07903965e-02, 6.87887799e-03, 8.29511695e-03, 1.02508767e-02,
          7.75559759e-03, 1.20043159e-02, 6.60911761e-03, 1.11950366e-02,
          9.91367642e-03, 1.05880769e-02, 1.06555168e-02, 4.18127887e-03,
          7.48583768e-03, 7.55327754e-03, 3.57431872e-03, 1.23415161e-02,
          1.05880769e-02, 7.41839781e-03, 1.11950366e-02, 7.41839781e-03,
          9.84623656e-03, 8.16023722e-03, 4.99055814e-03, 8.09279736e-03,
          6.60911761e-03, 7.89047778e-03, 5.86727820e-03, 8.22767708e-03,
          9.44159739e-03, 1.32182352e-02, 9.10439715e-03, 7.41839781e-03,
          9.17183701e-03, 1.49042355e-02, 5.26031852e-03, 1.69948749e-02,
          8.22767708e-03, 7.62071740e-03, 6.13703812e-03, 5.19287819e-03,
          8.02535750e-03, 1.57135148e-02, 8.09279736e-03, 5.59751829e-03,
          5.59751829e-03, 5.86727820e-03, 6.60911761e-03, 7.01375771e-03,
          6.60911761e-03, 5.12543833e-03, 1.22066364e-02, 1.50391152e-02,
          8.22767708e-03, 9.98111628e-03, 6.13703812e-03, 1.20717557e-02,
          1.07229566e-02, 1.03857564e-02, 8.09279736e-03, 6.87887799e-03,
          5.32775838e-03, 7.01375771e-03, 5.66495815e-03, 7.62071740e-03,
          1.04531962e-02, 6.27191784e-03, 3.77663877e-03, 8.29511695e-03,
          7.82303698e-03, 4.58591850e-03, 5.73239801e-03, 9.30671673e-03,
          3.97895882e-03, 1.15322359e-02, 8.83463677e-03, 5.53007796e-03,
          7.55327754e-03, 7.95791764e-03, 1.30833555e-02, 1.13299163e-02,
          1.72646344e-02, 5.26031852e-03, 6.94631785e-03, 5.59751829e-03,
          1.07903965e-02, 7.75559759e-03, 6.74399780e-03, 9.98111628e-03,
          5.32775838e-03, 7.75559759e-03, 7.08119757e-03, 8.56487732e-03,
          1.03857564e-02, 4.51847864e-03, 6.13703812e-03, 9.64391697e-03,
          5.53007796e-03, 1.02508767e-02, 7.08119757e-03, 1.24763958e-02,
          6.20447798e-03, 7.62071740e-03, 9.10439715e-03, 8.42999760e-03,
          9.77879670e-03, 8.83463677e-03, 5.46263810e-03, 1.17345564e-02,
          7.68815726e-03, 6.40679803e-03, 7.89047778e-03, 1.29484758e-02,
          4.65335837e-03, 6.13703812e-03, 5.66495815e-03, 8.56487732e-03,
          6.94631785e-03, 7.89047778e-03, 1.26112755e-02, 5.59751829e-03 ]
      - [ 1.44927539e-02, 8.75603873e-03, 9.66183562e-03, 3.62318847e-03,
          6.64251205e-03, 1.32850241e-02, 9.05797072e-03, 3.92512092e-03,
          1.20772945e-03, 1.11714974e-02, 8.75603873e-03, 5.73671469e-03,
          7.24637695e-03, 3.62318847e-03, 7.54830893e-03, 1.44927539e-02,
          7.24637695e-03, 4.52898536e-03, 1.05676325e-02, 5.43478271e-03,
          1.60024147e-02, 5.73671469e-03, 5.13285026e-03, 1.23792272e-02,
          1.35869561e-02, 1.05676325e-02, 5.73671469e-03, 1.08695654e-02,
          5.73671469e-03, 6.34057960e-03, 1.72101445e-02, 8.45410582e-03,
          4.83091781e-03, 3.32125602e-03, 1.02657005e-02, 3.62318847e-03,
          1.05676325e-02, 1.84178744e-02, 8.45410582e-03, 7.54830893e-03,
          9.05797072e-03, 3.92512092e-03, 6.34057960e-03, 5.13285026e-03,
          3.92512092e-03, 6.64251205e-03, 1.05676325e-02, 9.05797072e-03,
          7.85024185e-03, 1.26811592e-02, 1.50966179e-02, 1.81159424e-03,
          1.17753623e-02, 6.34057960e-03, 9.35990363e-03, 6.94444450e-03,
          1.20772945e-03, 1.02657005e-02, 9.35990363e-03, 4.52898536e-03,
          7.24637695e-03, 8.75603873e-03, 9.66183562e-03, 1.11714974e-02,
          6.64251205e-03, 1.20772943e-02, 9.66183562e-03, 1.81159424e-03,
          7.54830893e-03, 9.05797072e-03, 8.75603873e-03, 1.14734294e-02,
          9.35990363e-03, 7.85024185e-03, 9.05797072e-03, 8.15217383e-03,
          9.05797072e-03, 1.26811592e-02, 2.71739135e-03, 1.41908210e-02,
          5.73671469e-03, 9.96376760e-03, 4.83091781e-03, 5.43478271e-03,
          1.17753623e-02, 7.54830893e-03, 7.85024185e-03, 9.66183562e-03,
          5.73671469e-03, 5.13285026e-03, 7.54830893e-03, 6.64251205e-03,
          1.29830912e-02, 7.54830893e-03, 4.22705291e-03, 1.63043477e-02,
          6.64251205e-03, 5.43478271e-03, 6.94444450e-03, 7.24637695e-03,
          1.11714974e-02, 8.45410582e-03, 1.81159424e-03, 1.02657005e-02,
          5.73671469e-03, 1.57004837e-02, 1.90217383e-02, 3.92512092e-03,
          6.94444450e-03, 8.45410582e-03, 9.96376760e-03, 6.64251205e-03,
          5.73671469e-03, 8.45410582e-03, 9.35990363e-03, 6.34057960e-03,
          1.08695654e-02, 4.83091781e-03, 1.35869561e-02, 6.94444450e-03 ]
      - [ 1.20226899e-02, 6.68868003e-03, 1.10913552e-02, 1.66793671e-02,
          8.04334879e-03, 1.29540255e-02, 8.55134986e-03, 1.33773601e-02,
          7.78934872e-03, 6.18067896e-03, 5.24934381e-03, 5.33401035e-03,
          8.29734933e-03, 7.95868225e-03, 5.58801088e-03, 4.23334166e-03,
          1.03293536e-02, 5.33401035e-03, 1.10913552e-02, 6.85801357e-03,
          1.04140202e-02, 2.96333921e-03, 1.73567012e-02, 1.17686903e-02,
          7.87401572e-03, 1.10913552e-02, 2.96333921e-03, 8.97468440e-03,
          5.84201142e-03, 1.32926926e-02, 4.14867466e-03, 5.41867735e-03,
          1.27000250e-02, 1.36313606e-02, 4.82600974e-03, 1.09220212e-02,
          9.39801894e-03, 6.51934603e-03, 9.22868494e-03, 9.14401840e-03,
          4.31800866e-03, 1.29540255e-02, 4.74134274e-03, 2.20133760e-03,
          3.97934113e-03, 6.35001250e-03, 7.19668064e-03, 7.11201411e-03,
          3.38667328e-03, 4.57200920e-03, 9.65201948e-03, 1.16840228e-02,
          8.46668333e-03, 8.72068387e-03, 8.21268279e-03, 2.54000491e-03,
          6.09601196e-03, 4.91067627e-03, 6.26534550e-03, 1.31233595e-02,
          6.01134496e-03, 1.02446871e-02, 2.79400544e-03, 4.48734220e-03,
          9.48268548e-03, 8.72068387e-03, 8.38201679e-03, 7.36601464e-03,
          1.65946987e-02, 6.51934603e-03, 1.07526882e-02, 7.70468172e-03,
          1.15146898e-02, 1.53246969e-02, 1.04986876e-02, 1.12606892e-02,
          4.99534328e-03, 1.15993563e-02, 1.32926926e-02, 5.92667842e-03,
          1.14300223e-02, 7.19668064e-03, 5.84201142e-03, 2.10820418e-02,
          1.21073574e-02, 5.08000981e-03, 9.48268548e-03, 1.69333664e-03,
          2.28600460e-03, 8.29734933e-03, 9.14401840e-03, 1.24460245e-02,
          9.99068655e-03, 4.57200920e-03, 5.67267789e-03, 7.02734711e-03,
          7.87401572e-03, 1.29540255e-02, 2.70933867e-03, 6.01134496e-03,
          1.32926926e-02, 1.05833542e-02, 4.57200920e-03, 7.19668064e-03,
          1.21073574e-02, 8.46668333e-03, 1.70180332e-02, 7.45068118e-03,
          6.77334657e-03, 1.10913552e-02, 2.96333921e-03, 3.64067382e-03,
          5.24934381e-03, 1.10913552e-02, 1.46473618e-02, 4.14867466e-03,
          7.62001518e-03, 6.01134496e-03, 6.09601196e-03, 4.99534328e-03 ]
      - [ 1.40781626e-02, 8.33427161e-03, 7.32064433e-03, 1.23887826e-02,
          8.89739860e-03, 7.32064433e-03, 5.74389007e-03, 1.65559184e-02,
          1.04741529e-02, 1.02489023e-02, 6.19439129e-03, 9.34789982e-03,
          8.22164677e-03, 1.04741529e-02, 9.79840104e-03, 5.18076355e-03,
          9.57315043e-03, 6.75751769e-04, 8.44689738e-03, 1.12625295e-02,
          7.43326964e-03, 3.71663482e-03, 1.84705481e-02, 8.67214799e-03,
          5.63126476e-03, 1.11499047e-02, 7.32064433e-03, 1.25014083e-02,
          9.34789982e-03, 9.57315043e-03, 6.19439129e-03, 4.50501172e-03,
          1.06994035e-02, 1.02489023e-02, 6.19439129e-03, 1.06994035e-02,
          5.51863946e-03, 7.43326964e-03, 9.79840104e-03, 7.43326964e-03,
          8.22164677e-03, 1.52044147e-02, 3.94188520e-03, 2.59038177e-03,
          6.08176598e-03, 6.64489251e-03, 6.08176598e-03, 6.75751781e-03,
          8.22164677e-03, 8.22164677e-03, 8.44689738e-03, 1.12625295e-02,
          8.10902100e-03, 8.89739860e-03, 8.33427161e-03, 3.37875891e-03,
          5.06813824e-03, 8.10902100e-03, 7.09539372e-03, 6.53226720e-03,
          4.95551294e-03, 1.17130307e-02, 5.74389007e-03, 8.44689738e-03,
          1.04741529e-02, 6.08176598e-03, 1.05867777e-02, 1.09246541e-02,
          7.77114555e-03, 9.12264921e-03, 1.00236516e-02, 5.96914068e-03,
          1.35150356e-02, 1.12625295e-02, 1.19382814e-02, 6.41964190e-03,
          4.39238641e-03, 1.05867777e-02, 1.14877801e-02, 5.51863946e-03,
          8.67214799e-03, 4.16713580e-03, 3.15350830e-03, 2.45523155e-02,
          1.36276614e-02, 5.96914068e-03, 6.98276842e-03, 1.35150354e-03,
          2.92825769e-03, 1.09246541e-02, 5.63126476e-03, 1.21635320e-02,
          9.12264921e-03, 6.75751781e-03, 8.10902100e-03, 7.20801903e-03,
          1.30645344e-02, 8.22164677e-03, 4.16713580e-03, 6.87014312e-03,
          1.37402862e-02, 1.20509071e-02, 3.15350830e-03, 4.73026233e-03,
          1.44160381e-02, 7.65852025e-03, 1.23887826e-02, 9.68577527e-03,
          1.12625295e-02, 1.46412884e-03, 3.26613360e-03, 3.82926012e-03,
          6.19439129e-03, 1.11499047e-02, 1.16004059e-02, 3.94188520e-03,
          8.89739860e-03, 6.30701659e-03, 4.05451050e-03, 9.34789982e-03 ]
